{"learner":{"attributes":{},"feature_names":[],"feature_types":[],"gradient_booster":{"model":{"cats":{"enc":[],"feature_segments":[],"sorted_idx":[]},"gbtree_model_param":{"num_parallel_tree":"1","num_trees":"150"},"iteration_indptr":[0,1,2,3,4,5,6,7,8,9,10,11,12,13,14,15,16,17,18,19,20,21,22,23,24,25,26,27,28,29,30,31,32,33,34,35,36,37,38,39,40,41,42,43,44,45,46,47,48,49,50,51,52,53,54,55,56,57,58,59,60,61,62,63,64,65,66,67,68,69,70,71,72,73,74,75,76,77,78,79,80,81,82,83,84,85,86,87,88,89,90,91,92,93,94,95,96,97,98,99,100,101,102,103,104,105,106,107,108,109,110,111,112,113,114,115,116,117,118,119,120,121,122,123,124,125,126,127,128,129,130,131,132,133,134,135,136,137,138,139,140,141,142,143,144,145,146,147,148,149,150],"tree_info":[0,0,0,0,0,0,0,0,0,0,0,0,0,0,0,0,0,0,0,0,0,0,0,0,0,0,0,0,0,0,0,0,0,0,0,0,0,0,0,0,0,0,0,0,0,0,0,0,0,0,0,0,0,0,0,0,0,0,0,0,0,0,0,0,0,0,0,0,0,0,0,0,0,0,0,0,0,0,0,0,0,0,0,0,0,0,0,0,0,0,0,0,0,0,0,0,0,0,0,0,0,0,0,0,0,0,0,0,0,0,0,0,0,0,0,0,0,0,0,0,0,0,0,0,0,0,0,0,0,0,0,0,0,0,0,0,0,0,0,0,0,0,0,0,0,0,0,0,0,0],"trees":[{"base_weights":[-1.5033344E1,-2.5716623E1,-3.4038997E0,-3.0466667E1,-1.4032787E1,-1.1796573E1,1.0389937E1,-3.3514126E1,-1.9601362E1,-4.3782697E0,-2.1776937E1,-4.6385055E0,-2.4888535E1,1.513743E1,-7.402985E0,-5.8243245E-1,-3.455786E1,-2.4206741E1,-3.8229167E0,2.5263157E0,-1.3357142E1,-2.6168798E1,-6.8510637E0,4.0180588E-1,-1.5356962E1,-2.8643253E1,-4.890511E-2,1.7340528E1,-4.117117E-1,5.373913E-1,-1.5862069E1,-1.7666903E0,-6.234375E-1,-2.3513512E-1,-1.3346355E0,-5.369231E-1,2.955357E-1,8.524445E0,-3.722973E-1,-9.435484E-2,-9.193334E-1,-3.9430895E-1,-1.4562893E0,-6.546154E-1,1.9166666E-1,4.5438337E0,-1.0273765E1,7.2580646E-3,-1.8953272E1,-4.937063E-1,-1.571875E0,2.1666111E1,5.2070174E0,-1.0503311E0,-2.3529412E-2,-7.5630257E-3,6.2051284E-1,-7.610526E0,8.450281E0,2.682927E-2,-1.4568421E1,-2.1353159E1,-1.6666667E-1,2.80137E-1,2.417495E1,-3.084112E-1,9.403509E0,4.9541283E-2,-5.931298E-1,1.1684444E1,-2.8345865E-1,-8.6884063E-1,-1.8137255E-1,-1.1651376E0,-3.2871288E-1,4.3021584E-1,1.3241546E0,-7.692308E-3,6.2068963E-1,2.6965175E0,1.5772575E1,-1.9772728E-1,4.4705883E-1,9.3061227E-1,7.5E-2],"categories":[],"categories_nodes":[],"categories_segments":[],"categories_sizes":[],"default_left":[0,0,0,0,0,0,0,0,0,0,0,0,0,0,0,0,0,0,0,0,0,0,0,0,0,0,0,0,0,0,0,0,0,0,0,0,0,0,0,0,0,0,0,0,0,0,0,0,0,0,0,0,0,0,0,0,0,0,0,0,0,0,0,0,0,0,0,0,0,0,0,0,0,0,0,0,0,0,0,0,0,0,0,0,0],"id":0,"left_children":[1,3,5,7,9,11,13,15,17,19,21,23,25,27,29,-1,31,33,35,37,39,41,43,45,47,49,-1,51,-1,-1,53,-1,-1,-1,-1,-1,-1,55,-1,-1,-1,-1,-1,-1,-1,57,59,-1,61,-1,-1,63,65,-1,-1,-1,-1,67,69,-1,71,73,-1,-1,75,-1,77,-1,-1,79,-1,-1,-1,-1,-1,-1,-1,-1,-1,81,83,-1,-1,-1,-1],"loss_changes":[1.4518193E4,2.964543E3,6.7722314E3,7.536328E2,1.3640879E3,3.2750962E3,1.992404E3,3.2454688E2,7.605552E2,6.499786E2,5.1425977E2,1.3362502E3,1.099581E3,1.0644575E3,9.9345306E2,0E0,7.191406E1,3.0600146E2,3.2195526E2,4.4987686E2,2.2374872E2,1.9306982E2,3.0091873E2,8.3023425E2,4.4317944E2,2.5704395E2,0E0,7.6262646E2,0E0,0E0,3.115946E2,0E0,0E0,0E0,0E0,0E0,0E0,1.5358188E2,0E0,0E0,0E0,0E0,0E0,0E0,0E0,7.0339685E2,2.5202185E2,0E0,1.6948364E2,0E0,0E0,3.4735303E2,3.3009872E2,0E0,0E0,0E0,0E0,1.5073328E2,5.530258E2,0E0,5.3727173E1,1.8149414E0,0E0,0E0,1.336792E2,0E0,1.3310263E2,0E0,0E0,2.8816333E2,0E0,0E0,0E0,0E0,0E0,0E0,0E0,0E0,0E0,2.0232346E2,2.1444751E2,0E0,0E0,0E0,0E0],"parents":[2147483647,0,0,1,1,2,2,3,3,4,4,5,5,6,6,7,7,8,8,9,9,10,10,11,11,12,12,13,13,14,14,16,16,17,17,18,18,19,19,20,20,21,21,22,22,23,23,24,24,25,25,27,27,30,30,37,37,45,45,46,46,48,48,51,51,52,52,57,57,58,58,60,60,61,61,64,64,66,66,69,69,79,79,80,80],"right_children":[2,4,6,8,10,12,14,16,18,20,22,24,26,28,30,-1,32,34,36,38,40,42,44,46,48,50,-1,52,-1,-1,54,-1,-1,-1,-1,-1,-1,56,-1,-1,-1,-1,-1,-1,-1,58,60,-1,62,-1,-1,64,66,-1,-1,-1,-1,68,70,-1,72,74,-1,-1,76,-1,78,-1,-1,80,-1,-1,-1,-1,-1,-1,-1,-1,-1,82,84,-1,-1,-1,-1],"split_conditions":[1.0448796E-1,3.9685875E-1,7.990825E-2,-6.250891E-2,8.308135E-2,1.2587622E-2,5.9736498E-2,-3.129772E-1,4.9978092E-2,5.109055E-2,5.06E-1,2.5110804E-2,1.13289475E-1,-1.0544035E-1,-4.2489326E-1,-5.8243245E-1,1.0020475E-1,8.751512E-3,-1.3579886E-1,2.6295617E-1,-1.22560516E-1,-1.655893E-1,4.762342E-1,2.1760594E-2,1.5271717E-1,-1.716134E-1,-4.890511E-2,1.6750861E-2,-4.117117E-1,5.373913E-1,3.4044772E-2,-1.7666903E0,-6.234375E-1,-2.3513512E-1,-1.3346355E0,-5.369231E-1,2.955357E-1,9.752117E-2,-3.722973E-1,-9.435484E-2,-9.193334E-1,-3.9430895E-1,-1.4562893E0,-6.546154E-1,1.9166666E-1,-5.560231E-2,-2.8351848E0,7.2580646E-3,-7.0068434E-2,-4.937063E-1,-1.571875E0,-7.795043E-2,-1.8937512E-1,-1.0503311E0,-2.3529412E-2,-7.5630257E-3,6.2051284E-1,-1.1502107E-1,2.785346E-1,2.682927E-2,6.2858176E-1,1.0916816E-1,-1.6666667E-1,2.80137E-1,1.7994311E-1,-3.084112E-1,4.557003E-1,4.9541283E-2,-5.931298E-1,3.3317128E-1,-2.8345865E-1,-8.6884063E-1,-1.8137255E-1,-1.1651376E0,-3.2871288E-1,4.3021584E-1,1.3241546E0,-7.692308E-3,6.2068963E-1,5.2109137E-2,3.1634638E-1,-1.9772728E-1,4.4705883E-1,9.3061227E-1,7.5E-2],"split_indices":[707,545,328,716,326,424,424,195,328,160,586,255,716,666,147,0,388,167,56,678,424,424,67,325,472,359,0,160,0,0,733,0,0,0,0,0,0,567,0,0,0,0,0,0,0,73,109,0,5,0,0,152,521,0,0,0,0,155,254,0,67,122,0,0,692,0,6,0,0,72,0,0,0,0,0,0,0,0,0,612,36,0,0,0,0],"split_type":[0,0,0,0,0,0,0,0,0,0,0,0,0,0,0,0,0,0,0,0,0,0,0,0,0,0,0,0,0,0,0,0,0,0,0,0,0,0,0,0,0,0,0,0,0,0,0,0,0,0,0,0,0,0,0,0,0,0,0,0,0,0,0,0,0,0,0,0,0,0,0,0,0,0,0,0,0,0,0,0,0,0,0,0,0],"sum_hessian":[1.1656E2,6.012E1,5.644E1,4.16E1,1.852E1,3.518E1,2.126E1,3.0859999E1,1.074E1,8.94E0,9.58E0,2.3619999E1,1.1559999E1,1.69E1,4.36E0,1.9599999E0,2.89E1,7.8999996E0,2.84E0,5.46E0,3.48E0,6.8199997E0,2.76E0,1.672E1,6.8999996E0,9.82E0,1.74E0,1.5679999E1,1.22E0,1.3E0,3.06E0,2.734E1,1.56E0,1.22E0,6.68E0,1.5999999E0,1.24E0,3.5E0,1.9599999E0,1.48E0,2E0,1.4599999E0,5.3599997E0,1.5999999E0,1.16E0,1.246E1,4.2599998E0,1.48E0,5.42E0,1.86E0,7.96E0,1.098E1,4.7E0,2.02E0,1.04E0,1.38E0,2.12E0,2.8E0,9.66E0,1.4599999E0,2.8E0,4.38E0,1.04E0,1.92E0,9.059999E0,1.14E0,3.56E0,1.18E0,1.62E0,8E0,1.66E0,1.76E0,1.04E0,3.36E0,1.02E0,1.78E0,7.2799997E0,1.0799999E0,2.48E0,3.02E0,4.98E0,1.64E0,1.38E0,3.8999999E0,1.0799999E0],"tree_param":{"num_deleted":"0","num_feature":"768","num_nodes":"85","size_leaf_vector":"1"}},{"base_weights":[-1.913886E1,-3.6236637E1,-3.9389038E0,-4.7715157E1,-1.5947918E1,3.5259852E0,-2.4577251E1,-5.7526733E1,-2.3787388E1,-4.5336123E0,-2.685359E1,-9.0357895E0,1.4297159E1,-3.1833601E1,6.0006243E-1,-5.953032E-1,-6.1909157E1,-3.1365488E1,-3.835693E0,2.5438755E0,-1.4116853E1,-3.4684322E1,-6.9563594E0,-3.054249E0,-1.9940544E1,2.1401012E1,2.432767E0,-3.718048E1,-1.141174E-1,-3.2895277E0,-6.406395E-1,-2.3043823E-1,-1.8233407E0,2.556819E-1,-5.88159E-1,8.610209E0,-3.683724E-1,-9.166308E-2,-1.0157821E0,-3.9156112E-1,-2.0828352E0,-6.767772E-1,1.8745469E-1,4.9424863E0,-1.0564139E1,-1.3294526E0,-7.276533E0,2.6164354E1,2.6886044E0,7.795074E0,-1.0017812E1,-1.1586679E1,-4.3285828E1,-7.34383E-3,6.393567E-1,-4.7838445E0,1.0426973E1,-1.6803318E1,1.8841709E-1,1.02683656E-1,-6.4103067E-1,2.8985813E1,1.09990075E-1,-2.3716222E-1,5.2392095E-1,-1.7197319E0,1.3378943E1,-6.6662496E-1,-8.507249E-2,-1.0056843E-1,-7.618424E-1,-2.3951712E0,-3.7862143E-1,-5.3578347E-1,1.6312699E-1,1.4035025E1,-5.566897E-2,-1.4986862E-1,-1.0130241E0,-3.232636E-1,3.061199E-1,3.4302887E-1,1.6017598E0,2.216183E-1,-3.9484197E-1,5.8627225E-2,8.431638E-1,8.278368E-1,2.2669224E-1],"categories":[],"categories_nodes":[],"categories_segments":[],"categories_sizes":[],"default_left":[0,0,0,0,0,0,0,0,0,0,0,0,0,0,0,0,0,0,0,0,0,0,0,0,0,0,0,0,0,0,0,0,0,0,0,0,0,0,0,0,0,0,0,0,0,0,0,0,0,0,0,0,0,0,0,0,0,0,0,0,0,0,0,0,0,0,0,0,0,0,0,0,0,0,0,0,0,0,0,0,0,0,0,0,0,0,0,0,0],"id":1,"left_children":[1,3,5,7,9,11,13,15,17,19,21,23,25,27,-1,-1,29,31,33,35,37,39,41,43,45,47,49,51,-1,-1,-1,-1,-1,-1,-1,53,-1,-1,-1,-1,-1,-1,-1,55,57,-1,59,61,63,65,67,69,71,-1,-1,73,75,77,79,-1,-1,81,-1,-1,-1,83,85,-1,-1,-1,-1,-1,-1,-1,-1,87,-1,-1,-1,-1,-1,-1,-1,-1,-1,-1,-1,-1,-1],"loss_changes":[2.298367E4,8.963613E3,7.5170938E3,4.7747617E3,1.9434131E3,5.0398647E3,3.8157212E3,2.832121E3,1.2880059E3,6.673094E2,1.0489863E3,1.0718872E3,1.6274038E3,1.664082E3,0E0,0E0,2.2154883E3,7.3432275E2,3.2288742E2,4.363299E2,2.754948E2,7.3939014E2,3.035687E2,7.966469E2,3.0925342E2,1.029166E3,6.5165796E2,9.528379E2,0E0,0E0,0E0,0E0,0E0,0E0,0E0,1.5946674E2,0E0,0E0,0E0,0E0,0E0,0E0,0E0,4.064665E2,4.534079E2,0E0,2.0387383E2,5.933247E2,2.5912674E2,3.7191986E2,6.0670044E1,7.973578E1,8.1624805E2,0E0,0E0,1.8271948E2,2.0669992E2,1.4250708E2,1.7592624E2,0E0,0E0,3.6127783E2,0E0,0E0,0E0,1.609719E2,1.6108582E2,0E0,0E0,0E0,0E0,0E0,0E0,0E0,0E0,1.0454773E1,0E0,0E0,0E0,0E0,0E0,0E0,0E0,0E0,0E0,0E0,0E0,0E0,0E0],"parents":[2147483647,0,0,1,1,2,2,3,3,4,4,5,5,6,6,7,7,8,8,9,9,10,10,11,11,12,12,13,13,16,16,17,17,18,18,19,19,20,20,21,21,22,22,23,23,24,24,25,25,26,26,27,27,35,35,43,43,44,44,46,46,47,47,48,48,49,49,50,50,51,51,52,52,55,55,56,56,57,57,58,58,61,61,65,65,66,66,75,75],"right_children":[2,4,6,8,10,12,14,16,18,20,22,24,26,28,-1,-1,30,32,34,36,38,40,42,44,46,48,50,52,-1,-1,-1,-1,-1,-1,-1,54,-1,-1,-1,-1,-1,-1,-1,56,58,-1,60,62,64,66,68,70,72,-1,-1,74,76,78,80,-1,-1,82,-1,-1,-1,84,86,-1,-1,-1,-1,-1,-1,-1,-1,88,-1,-1,-1,-1,-1,-1,-1,-1,-1,-1,-1,-1,-1],"split_conditions":[1.0448796E-1,3.9685875E-1,2.8141148E-2,-6.250891E-2,8.308135E-2,-3.661342E-3,3.8370785E-1,-3.129772E-1,4.9978092E-2,5.109055E-2,5.06E-1,-1.9321764E-1,-1.2202529E-2,1.1060481E-1,6.0006243E-1,-5.953032E-1,1.0020475E-1,8.751512E-3,-3.017538E0,2.6295617E-1,-1.22560516E-1,-1.655893E-1,4.762342E-1,-1.6620335E-1,-1.8683384E-1,3.2546437E-1,7.5968057E-3,-1.716134E-1,-1.141174E-1,-3.2895277E0,-6.406395E-1,-2.3043823E-1,-1.8233407E0,2.556819E-1,-5.88159E-1,9.752117E-2,-3.683724E-1,-9.166308E-2,-1.0157821E0,-3.9156112E-1,-2.0828352E0,-6.767772E-1,1.8745469E-1,-7.199955E-2,2.256847E-1,-1.3294526E0,2.2532996E-2,-9.79222E-2,7.814382E-2,-1.762977E-1,5.8276713E-2,2.7867388E-2,1.622868E-1,-7.34383E-3,6.393567E-1,8.779759E-2,-7.207391E-2,-2.0613262E-1,2.694938E-1,1.02683656E-1,-6.4103067E-1,3.326911E-1,1.09990075E-1,-2.3716222E-1,5.2392095E-1,-2.8855032E-1,5.350401E-1,-6.6662496E-1,-8.507249E-2,-1.0056843E-1,-7.618424E-1,-2.3951712E0,-3.7862143E-1,-5.3578347E-1,1.6312699E-1,3.3088654E-2,-5.566897E-2,-1.4986862E-1,-1.0130241E0,-3.232636E-1,3.061199E-1,3.4302887E-1,1.6017598E0,2.216183E-1,-3.9484197E-1,5.8627225E-2,8.431638E-1,8.278368E-1,2.2669224E-1],"split_indices":[707,545,424,716,326,328,376,195,328,160,586,618,160,716,0,0,388,167,142,678,424,424,67,165,635,17,700,359,0,0,0,0,0,0,0,567,0,0,0,0,0,0,0,736,337,0,261,755,507,537,235,746,328,0,0,463,638,424,603,0,0,474,0,0,0,759,453,0,0,0,0,0,0,0,0,256,0,0,0,0,0,0,0,0,0,0,0,0,0],"split_type":[0,0,0,0,0,0,0,0,0,0,0,0,0,0,0,0,0,0,0,0,0,0,0,0,0,0,0,0,0,0,0,0,0,0,0,0,0,0,0,0,0,0,0,0,0,0,0,0,0,0,0,0,0,0,0,0,0,0,0,0,0,0,0,0,0,0,0,0,0,0,0,0,0,0,0,0,0,0,0,0,0,0,0,0,0,0,0,0,0],"sum_hessian":[8.798691E1,4.075706E1,4.7229847E1,2.5166874E1,1.5590187E1,3.529339E1,1.1936461E1,1.6852377E1,8.314496E0,8.309182E0,7.2810054E0,1.6366838E1,1.892655E1,1.0068764E1,1.8676974E0,1.8027439E0,1.5049634E1,5.611175E0,2.7033215E0,5.2019486E0,3.1072333E0,4.691464E0,2.5895412E0,1.1395949E1,4.970889E0,1.1335545E1,7.591005E0,8.307475E0,1.7612886E0,1.3631912E1,1.417722E0,1.2032912E0,4.407884E0,1.4365503E0,1.2667711E0,3.308327E0,1.8936219E0,1.4767109E0,1.6305223E0,1.4046888E0,3.2867754E0,1.4401298E0,1.1494114E0,5.6846495E0,5.7113E0,2.538579E0,2.4323099E0,8.718077E0,2.6174676E0,5.5672007E0,2.0238044E0,2.1581666E0,6.1493087E0,1.3799803E0,1.9283465E0,2.095747E0,3.5889022E0,3.258073E0,2.4532268E0,1.1412532E0,1.2910566E0,7.612314E0,1.105762E0,1.5396582E0,1.0778096E0,2.3148162E0,3.2523842E0,1.0157771E0,1.0080272E0,1.0237218E0,1.134445E0,5.143009E0,1.0062995E0,1.0154307E0,1.0803163E0,2.5694141E0,1.0194881E0,1.0263638E0,2.2317092E0,1.1142738E0,1.3389531E0,1.3157226E0,6.2965918E0,1.3012688E0,1.0135474E0,1.0190259E0,2.2333584E0,1.4436553E0,1.1257589E0],"tree_param":{"num_deleted":"0","num_feature":"768","num_nodes":"89","size_leaf_vector":"1"}},{"base_weights":[-3.0605139E1,-8.520344E1,-9.406119E0,-1.5181429E2,-2.629896E1,9.74419E-1,-4.7136032E1,-2.4658908E2,-4.0996166E1,-9.173413E0,-4.6640038E1,-1.5170283E1,1.5977189E1,-7.3633194E1,9.3626596E-2,-6.1283004E-1,-1.7354622E1,-3.1991007E0,-2.8586492E-1,-1.4039933E1,2.5511992E-1,-3.446283E0,-4.7776827E-1,-2.843874E1,-4.2968407E0,2.9740507E1,1.086071E0,-8.5905355E-1,-9.666668E1,-6.733879E-1,6.6893375E-1,2.6636252E-2,-1.799069E1,-1.026245E1,-2.1406271E0,-1.7368216E1,2.443815E0,3.9536465E1,3.1442223E0,-1.0652212E1,8.314231E0,-5.9591827E0,-8.661931E-1,-1.3966815E-1,-1.1281074E0,-8.837846E-1,1.3152304E-1,-1.1744823E0,-1.4511226E-1,-8.47353E0,9.109026E0,2.7836102E-1,5.047413E1,5.0355065E-1,-3.131982E-1,-9.580619E-1,1.212518E-1,-3.1077993E-1,1.2361947E1,-6.521377E-1,4.6864733E-2,1.4665468E1,-1.2166893E-1,2.892745E0,5.685107E-1,-5.724008E-2,1.5910852E1,1.5723549E-1,8.975235E-1,9.456114E-1,1.6525863E-1],"categories":[],"categories_nodes":[],"categories_segments":[],"categories_sizes":[],"default_left":[0,0,0,0,0,0,0,0,0,0,0,0,0,0,0,0,0,0,0,0,0,0,0,0,0,0,0,0,0,0,0,0,0,0,0,0,0,0,0,0,0,0,0,0,0,0,0,0,0,0,0,0,0,0,0,0,0,0,0,0,0,0,0,0,0,0,0,0,0,0,0],"id":2,"left_children":[1,3,5,7,9,11,13,15,17,19,21,23,25,27,29,-1,-1,-1,-1,31,-1,-1,-1,33,35,37,39,-1,41,-1,-1,-1,43,45,-1,47,49,51,53,55,57,-1,-1,-1,-1,-1,-1,-1,-1,59,61,-1,63,-1,-1,-1,-1,-1,65,-1,-1,67,-1,-1,-1,-1,69,-1,-1,-1,-1],"loss_changes":[6.2482406E4,5.5520797E4,1.5911322E4,6.245139E4,2.7975562E3,8.174411E3,1.0970287E4,7.875228E4,3.1894102E3,5.0735333E2,2.6367568E3,2.2275308E3,3.5464116E3,5.638084E3,9.2736206E2,0E0,0E0,0E0,0E0,2.9421338E2,0E0,0E0,0E0,1.4306108E3,9.349192E2,2.2299868E3,8.882332E2,0E0,4.671535E3,0E0,0E0,0E0,2.0918286E2,4.7429776E2,0E0,2.4792322E2,6.272666E2,2.1405693E3,2.9239825E2,4.9492868E2,4.5292563E2,0E0,0E0,0E0,0E0,0E0,0E0,0E0,0E0,1.5772678E2,3.676347E2,0E0,7.293213E2,0E0,0E0,0E0,0E0,0E0,2.7399048E2,0E0,0E0,8.1164795E1,0E0,0E0,0E0,0E0,9.990723E1,0E0,0E0,0E0,0E0],"parents":[2147483647,0,0,1,1,2,2,3,3,4,4,5,5,6,6,7,7,8,8,9,9,10,10,11,11,12,12,13,13,14,14,19,19,23,23,24,24,25,25,26,26,28,28,32,32,33,33,35,35,36,36,37,37,38,38,39,39,40,40,49,49,50,50,52,52,58,58,61,61,66,66],"right_children":[2,4,6,8,10,12,14,16,18,20,22,24,26,28,30,-1,-1,-1,-1,32,-1,-1,-1,34,36,38,40,-1,42,-1,-1,-1,44,46,-1,48,50,52,54,56,58,-1,-1,-1,-1,-1,-1,-1,-1,60,62,-1,64,-1,-1,-1,-1,-1,66,-1,-1,68,-1,-1,-1,-1,70,-1,-1,-1,-1],"split_conditions":[4.969185E-2,3.9685875E-1,3.4055702E-2,-6.250891E-2,8.998591E-2,-3.661342E-3,2.4120802E-1,-3.129772E-1,4.7567293E-2,2.2249046E-1,4.9984398E-1,-2.0398703E-1,-2.397834E-2,-1.6527724E-1,5.9789285E-2,-6.1283004E-1,-1.7354622E1,-3.1991007E0,-2.8586492E-1,-4.5691556E-1,2.5511992E-1,-3.446283E0,-4.7776827E-1,-3.0815423E-1,4.1182292E-1,3.3020976E-1,-1.779422E-1,-8.5905355E-1,8.24704E-2,-6.733879E-1,6.6893375E-1,2.6636252E-2,-5.4007846E-1,3.4847364E-2,-2.1406271E0,5.8490776E-2,-1.333044E-1,3.326911E-1,-2.1110314E-1,1.4434345E-1,-1.2681514E-1,-5.9591827E0,-8.661931E-1,-1.3966815E-1,-1.1281074E0,-8.837846E-1,1.3152304E-1,-1.1744823E0,-1.4511226E-1,1.0495345E-1,4.0486522E-2,2.7836102E-1,-1.5222384E-1,5.0355065E-1,-3.131982E-1,-9.580619E-1,1.212518E-1,-3.1077993E-1,2.2003368E-1,-6.521377E-1,4.6864733E-2,-1.3142692E-1,-1.2166893E-1,2.892745E0,5.685107E-1,-5.724008E-2,1.1700641E-2,1.5723549E-1,8.975235E-1,9.456114E-1,1.6525863E-1],"split_indices":[707,545,424,716,326,328,376,195,328,419,586,635,160,359,501,0,0,0,0,355,0,0,0,618,453,17,9,0,716,0,0,0,618,631,0,348,521,474,23,235,699,0,0,0,0,0,0,0,0,235,160,0,755,0,0,0,0,0,586,0,0,464,0,0,0,0,456,0,0,0,0],"split_type":[0,0,0,0,0,0,0,0,0,0,0,0,0,0,0,0,0,0,0,0,0,0,0,0,0,0,0,0,0,0,0,0,0,0,0,0,0,0,0,0,0,0,0,0,0,0,0,0,0,0,0,0,0,0,0,0,0,0,0,0,0,0,0,0,0,0,0,0,0,0,0],"sum_hessian":[5.367616E1,1.4167751E1,3.9508408E1,5.908714E0,8.259037E0,3.1747868E1,7.7605395E0,2.524511E0,3.384203E0,5.271684E0,2.987353E0,1.5286584E1,1.6461285E1,4.613302E0,3.1472375E0,1.0945117E0,1.4299994E0,1.5564772E0,1.8277256E0,3.9437957E0,1.3278883E0,1.3296889E0,1.6576641E0,6.1574483E0,9.129136E0,8.0363655E0,8.424918E0,1.8427863E0,2.7705157E0,1.5506154E0,1.5966221E0,1.0256753E0,2.9181204E0,3.4759407E0,2.6815073E0,2.56959E0,6.5595455E0,5.5175853E0,2.5187805E0,3.0302255E0,5.3946924E0,1.7669357E0,1.00358E0,1.0473527E0,1.8707678E0,1.9714328E0,1.5045079E0,1.367241E0,1.2023491E0,2.3837512E0,4.1757946E0,1.7114155E0,3.8061697E0,1.4101233E0,1.1086572E0,1.5539051E0,1.4763205E0,1.0587139E0,4.3359785E0,1.3448546E0,1.0388966E0,2.6361804E0,1.5396141E0,2.798452E0,1.007718E0,1.0431778E0,3.292801E0,1.0191689E0,1.6170117E0,2.255483E0,1.037318E0],"tree_param":{"num_deleted":"0","num_feature":"768","num_nodes":"71","size_leaf_vector":"1"}},{"base_weights":[-4.290604E1,-1.3163019E2,-1.2569464E1,-2.9033417E2,-3.347425E1,1.6667719E0,-6.974422E1,-1.2058096E0,-1.9895735E1,-9.955108E0,-3.6229463E0,-1.1220771E1,3.1771309E1,-6.899759E0,-1.3893178E0,-1.5668508E1,2.4939843E-1,-3.6580196E1,-1.6145743E0,6.223864E1,7.4563093E0,-9.1027683E-1,6.0992974E-1,2.5931433E-2,-2.0898657E1,-4.399085E1,-2.2598782E-1,-1.4144512E1,1.0538445E1,4.550873E0,2.5828564E-1,-4.0616304E-1,1.38361635E1,-1.3760519E-1,-1.3964511E0,-6.335151E-1,-2.6865575E0,-2.2662426E1,5.8725257E0,1.7647636E1,-3.3298035E0,1.9478395E1,-5.3296592E-2,-3.4867973E1,-4.7391906E0,-1.7450826E-1,6.175546E-1,2.2748446E1,1.0203582E-1,-5.37213E-1,3.2251626E-1,1.1725447E0,2.788125E-1,-4.7619492E-1,-2.1818166E0,2.4888034E-1,-5.55724E-1,1.3237079E0,3.43898E-1],"categories":[],"categories_nodes":[],"categories_segments":[],"categories_sizes":[],"default_left":[0,0,0,0,0,0,0,0,0,0,0,0,0,0,0,0,0,0,0,0,0,0,0,0,0,0,0,0,0,0,0,0,0,0,0,0,0,0,0,0,0,0,0,0,0,0,0,0,0,0,0,0,0,0,0,0,0,0,0],"id":3,"left_children":[1,3,5,7,9,11,13,-1,-1,15,-1,17,19,-1,21,23,-1,25,27,29,31,-1,-1,-1,33,35,-1,37,39,-1,-1,-1,41,-1,-1,-1,-1,43,45,47,49,51,-1,53,55,-1,-1,57,-1,-1,-1,-1,-1,-1,-1,-1,-1,-1,-1],"loss_changes":[1.02476375E5,1.4219516E5,2.4482395E4,9.340084E4,5.8396255E3,1.0034255E4,2.7758885E4,0E0,0E0,5.58171E2,0E0,4.376038E3,5.2686836E3,0E0,1.1368672E3,3.756239E2,0E0,9.785635E2,2.3190532E3,4.9477324E3,6.53093E2,0E0,0E0,0E0,3.4168713E2,5.1224365E2,0E0,1.4021962E3,8.284728E2,0E0,0E0,0E0,3.763709E2,0E0,0E0,0E0,0E0,1.0220298E3,2.2605368E2,3.770891E2,3.2216455E2,4.1521362E1,0E0,2.6693237E2,2.632149E2,0E0,0E0,4.9164185E1,0E0,0E0,0E0,0E0,0E0,0E0,0E0,0E0,0E0,0E0,0E0],"parents":[2147483647,0,0,1,1,2,2,3,3,4,4,5,5,6,6,9,9,11,11,12,12,14,14,15,15,17,17,18,18,19,19,20,20,24,24,25,25,27,27,28,28,32,32,37,37,38,38,39,39,40,40,41,41,43,43,44,44,47,47],"right_children":[2,4,6,8,10,12,14,-1,-1,16,-1,18,20,-1,22,24,-1,26,28,30,32,-1,-1,-1,34,36,-1,38,40,-1,-1,-1,42,-1,-1,-1,-1,44,46,48,50,52,-1,54,56,-1,-1,58,-1,-1,-1,-1,-1,-1,-1,-1,-1,-1,-1],"split_conditions":[4.969185E-2,3.9685875E-1,2.8141148E-2,-2.8435165E-1,8.998591E-2,1.16016164E-1,2.2697857E-1,-1.2058096E0,-1.9895735E1,2.2249046E-1,-3.6229463E0,-1.1510198E-2,-3.390792E-2,-6.899759E0,-7.959946E-2,-4.5691556E-1,2.4939843E-1,1.6018885E-1,-2.08768E-2,3.2546437E-1,-2.1579042E-1,-9.1027683E-1,6.0992974E-1,2.5931433E-2,-5.4007846E-1,-5.3153552E-2,-2.2598782E-1,2.3754022E-1,-2.9797852E-4,4.550873E0,2.5828564E-1,-4.0616304E-1,-1.0513284E-1,-1.3760519E-1,-1.3964511E0,-6.335151E-1,-2.6865575E0,-1.8522623E-1,3.9008472E0,-3.802159E-1,-8.4094524E-2,1.2643111E-1,-5.3296592E-2,-2.281182E-1,2.5043994E-1,-1.7450826E-1,6.175546E-1,1.07467726E-1,1.0203582E-1,-5.37213E-1,3.2251626E-1,1.1725447E0,2.788125E-1,-4.7619492E-1,-2.1818166E0,2.4888034E-1,-5.55724E-1,1.3237079E0,3.43898E-1],"split_indices":[707,545,424,195,326,328,376,0,0,419,0,235,160,0,272,355,0,376,736,17,9,0,0,0,618,357,0,337,279,0,0,0,354,0,0,0,0,635,205,534,635,239,0,355,17,0,0,688,0,0,0,0,0,0,0,0,0,0,0],"split_type":[0,0,0,0,0,0,0,0,0,0,0,0,0,0,0,0,0,0,0,0,0,0,0,0,0,0,0,0,0,0,0,0,0,0,0,0,0,0,0,0,0,0,0,0,0,0,0,0,0,0,0,0,0,0,0,0,0,0,0],"sum_hessian":[3.7687546E1,8.751984E0,2.8935562E1,2.5962825E0,6.1557016E0,2.3944376E1,4.9911857E0,1.0995392E0,1.4967432E0,4.6224027E0,1.5332992E0,1.7205915E1,6.73846E0,1.9877017E0,3.003484E0,3.3087676E0,1.3136348E0,3.9555826E0,1.3250334E1,2.2985878E0,4.4398723E0,1.1904125E0,1.8130716E0,1.0279953E0,2.2807722E0,2.9106698E0,1.0449128E0,6.443315E0,6.8070188E0,1.1326808E0,1.1659071E0,1.2105204E0,3.2293518E0,1.0254285E0,1.2553438E0,1.2362483E0,1.6744215E0,4.427226E0,2.0160887E0,4.3199763E0,2.4870424E0,2.1197E0,1.1096518E0,2.0712914E0,2.3559349E0,1.0131623E0,1.0029265E0,2.9109902E0,1.4089862E0,1.3585361E0,1.1285063E0,1.1144071E0,1.0052929E0,1.0686451E0,1.0026463E0,1.0202187E0,1.3357161E0,1.8164315E0,1.0945586E0],"tree_param":{"num_deleted":"0","num_feature":"768","num_nodes":"59","size_leaf_vector":"1"}},{"base_weights":[-6.1308575E1,-2.3606305E2,-1.6565006E1,-2.6781713E1,-4.0792324E1,2.1427507E0,-1.1113368E2,-4.465689E0,-4.0466747E0,-1.355286E1,4.0947914E1,-1.0959888E1,4.4071636E-1,-6.734733E-1,2.892044E-1,-5.1133736E1,-1.8792468E0,4.810907E0,8.258345E0,-3.4252064E0,-2.2383164E-1,-1.5536202E1,1.21043825E1,-3.9964E-1,1.5745511E1,-2.6039654E1,3.0750915E-1,2.0542278E1,-3.3118577E0,1.1765193E0,-5.1848453E-2,-2.2176726E0,-4.895739E0,2.7235199E1,1.3872911E-1,-5.3421474E-1,2.985066E-1,2.1592307E-1,-5.534896E-1,1.6954466E0,3.2906255E-1],"categories":[],"categories_nodes":[],"categories_segments":[],"categories_sizes":[],"default_left":[0,0,0,0,0,0,0,0,0,0,0,0,0,0,0,0,0,0,0,0,0,0,0,0,0,0,0,0,0,0,0,0,0,0,0,0,0,0,0,0,0],"id":4,"left_children":[1,3,5,-1,7,9,11,13,-1,15,17,-1,-1,-1,-1,19,21,-1,23,-1,-1,25,27,-1,29,31,-1,33,35,-1,-1,-1,37,39,-1,-1,-1,-1,-1,-1,-1],"loss_changes":[2.0647214E5,2.9457516E5,4.0038914E4,0E0,5.9920747E3,1.2591774E4,5.033646E4,3.866654E2,0E0,6.4066113E3,9.937687E3,0E0,0E0,0E0,0E0,2.5095488E3,2.546132E3,0E0,7.1310065E2,0E0,0E0,1.682804E3,9.3475165E2,0E0,5.000722E2,1.6007114E3,0E0,4.5301123E2,2.8399954E2,0E0,0E0,0E0,2.3570865E2,2.0624023E2,0E0,0E0,0E0,0E0,0E0,0E0,0E0],"parents":[2147483647,0,0,1,1,2,2,4,4,5,5,6,6,7,7,9,9,10,10,15,15,16,16,18,18,21,21,22,22,24,24,25,25,27,27,28,28,32,32,33,33],"right_children":[2,4,6,-1,8,10,12,14,-1,16,18,-1,-1,-1,-1,20,22,-1,24,-1,-1,26,28,-1,30,32,-1,34,36,-1,-1,-1,38,40,-1,-1,-1,-1,-1,-1,-1],"split_conditions":[4.969185E-2,4.3753582E-1,2.8141148E-2,-2.6781713E1,8.599274E-4,1.16016164E-1,3.499287E-1,-1.19500436E-1,-4.0466747E0,-1.1510198E-2,-3.390792E-2,-1.0959888E1,4.4071636E-1,-6.734733E-1,2.892044E-1,1.6018885E-1,-1.5435375E-2,4.810907E0,-2.1579042E-1,-3.4252064E0,-2.2383164E-1,2.3754022E-1,-2.9797852E-4,-3.9964E-1,-1.0513284E-1,-1.8522623E-1,3.0750915E-1,-3.802159E-1,-8.4094524E-2,1.1765193E0,-5.1848453E-2,-2.2176726E0,2.5043994E-1,1.1672889E-1,1.3872911E-1,-5.3421474E-1,2.985066E-1,2.1592307E-1,-5.534896E-1,1.6954466E0,3.2906255E-1],"split_indices":[707,545,424,0,326,328,376,48,0,235,160,0,0,0,0,376,736,0,9,0,0,337,279,0,354,635,0,534,635,0,0,0,17,688,0,0,0,0,0,0,0],"split_type":[0,0,0,0,0,0,0,0,0,0,0,0,0,0,0,0,0,0,0,0,0,0,0,0,0,0,0,0,0,0,0,0,0,0,0,0,0,0,0,0,0],"sum_hessian":[2.5906101E1,4.4092054E0,2.1496897E1,1.052104E0,3.3571017E0,1.8762587E1,2.734309E0,2.3456256E0,1.0114759E0,1.3822512E1,4.940076E0,1.0031272E0,1.7311816E0,1.0814861E0,1.2641397E0,2.4748714E0,1.134764E1,1.1136951E0,3.8263807E0,1.4622362E0,1.0126352E0,5.6847067E0,5.6629333E0,1.1855567E0,2.640824E0,3.6945658E0,1.9901408E0,3.4448996E0,2.2180338E0,1.5293331E0,1.111491E0,1.3915671E0,2.3029988E0,2.1152544E0,1.329645E0,1.1519737E0,1.0660602E0,1.0445908E0,1.258408E0,1.1136461E0,1.0016083E0],"tree_param":{"num_deleted":"0","num_feature":"768","num_nodes":"41","size_leaf_vector":"1"}},{"base_weights":[-8.826169E1,-3.955344E2,-2.2599318E1,-3.0280462E1,-1.3425634E0,2.8806312E0,-7.9406343E0,-1.7013681E1,5.7685608E1,-3.9706533E0,-2.1888764E0,5.6430044E0,3.828163E0,-1.8815939E1,1.304755E1,-3.6106977E-1,6.4980686E-1,-3.39272E1,2.8670302E-1,2.362977E1,-2.659525E0,-2.6827188E0,-9.764077E-2,1.7292317E0,7.793059E-2,-5.4450166E-1,3.1889936E-1],"categories":[],"categories_nodes":[],"categories_segments":[],"categories_sizes":[],"default_left":[0,0,0,0,0,0,0,0,0,0,0,0,0,0,0,0,0,0,0,0,0,0,0,0,0,0,0],"id":5,"left_children":[1,3,5,-1,-1,7,-1,9,11,-1,13,-1,15,17,19,-1,-1,21,-1,23,25,-1,-1,-1,-1,-1,-1],"loss_changes":[3.668133E5,2.3300878E5,5.739468E4,0E0,0E0,1.7120285E4,0E0,1.0586609E4,1.1959157E4,0E0,2.887166E3,0E0,4.1247195E2,2.1962349E3,1.0654236E3,0E0,0E0,2.0930913E3,0E0,8.4191113E2,3.1691592E2,0E0,0E0,0E0,0E0,0E0,0E0],"parents":[2147483647,0,0,1,1,2,2,5,5,7,7,8,8,10,10,12,12,13,13,14,14,17,17,19,19,20,20],"right_children":[2,4,6,-1,-1,8,-1,10,12,-1,14,-1,16,18,20,-1,-1,22,-1,24,26,-1,-1,-1,-1,-1,-1],"split_conditions":[4.969185E-2,5.517905E-1,2.8141148E-2,-3.0280462E1,-1.3425634E0,1.16016164E-1,-7.9406343E0,-1.1510198E-2,4.221971E-2,-3.9706533E0,-2.08768E-2,5.6430044E0,-1.326094E-1,2.3754022E-1,-2.1634746E-2,-3.6106977E-1,6.4980686E-1,-1.2124348E-1,2.8670302E-1,-3.802159E-1,-8.4094524E-2,-2.6827188E0,-9.764077E-2,1.7292317E0,7.793059E-2,-5.4450166E-1,3.1889936E-1],"split_indices":[707,545,424,0,0,328,0,235,160,0,736,0,48,337,279,0,0,635,0,534,635,0,0,0,0,0,0],"split_type":[0,0,0,0,0,0,0,0,0,0,0,0,0,0,0,0,0,0,0,0,0,0,0,0,0,0,0],"sum_hessian":[1.762348E1,2.2184222E0,1.5405059E1,1.00382E0,1.2146024E0,1.3802102E1,1.6029567E0,1.0632165E1,3.1699371E0,1.204694E0,9.427471E0,1.024673E0,2.1452641E0,4.3956723E0,5.0317984E0,1.0690871E0,1.0761769E0,2.4844534E0,1.911219E0,2.7049847E0,2.326814E0,1.1171592E0,1.3672941E0,1.4288332E0,1.2761514E0,1.1104971E0,1.2163167E0],"tree_param":{"num_deleted":"0","num_feature":"768","num_nodes":"27","size_leaf_vector":"1"}},{"base_weights":[-1.377292E2,-3.1528416E1,-3.356561E1,5.903663E0,-1.0500823E1,-2.0404247E1,3.9032807E0,-3.8090863E0,-9.93664E-1,-1.5181961E0,9.641307E0,1.7242361E1,-5.902504E-1,-1.8617454E-1,2.4756582E1,1.6246351E0,2.680282E-1],"categories":[],"categories_nodes":[],"categories_segments":[],"categories_sizes":[],"default_left":[0,0,0,0,0,0,0,0,0,0,0,0,0,0,0,0,0],"id":6,"left_children":[1,-1,3,5,-1,7,-1,-1,9,-1,11,13,-1,-1,15,-1,-1],"loss_changes":[5.876953E5,0E0,7.6783914E4,2.0267785E4,0E0,8.587514E3,0E0,0E0,2.4633381E3,0E0,1.1589446E3,8.379181E2,0E0,0E0,3.6831152E2,0E0,0E0],"parents":[2147483647,0,0,2,2,3,3,5,5,8,8,10,10,11,11,14,14],"right_children":[2,-1,4,6,-1,8,-1,-1,10,-1,12,14,-1,-1,16,-1,-1],"split_conditions":[4.969185E-2,-3.1528416E1,-9.582482E-3,1.16016164E-1,-1.0500823E1,2.8406037E-2,3.9032807E0,-3.8090863E0,-2.6911944E-1,-1.5181961E0,-2.3285827E-1,1.2628652E-2,-5.902504E-1,-1.8617454E-1,4.0486522E-2,1.6246351E0,2.680282E-1],"split_indices":[707,0,424,328,0,235,0,0,635,0,68,569,0,0,160,0,0],"split_type":[0,0,0,0,0,0,0,0,0,0,0,0,0,0,0,0,0],"sum_hessian":[1.08603325E1,1.013139E0,9.847194E0,8.837031E0,1.0101625E0,7.0016866E0,1.8353447E0,1.0525033E0,5.9491835E0,1.0883688E0,4.8608146E0,3.7335744E0,1.1272401E0,1.1181726E0,2.6154017E0,1.3869786E0,1.2284231E0],"tree_param":{"num_deleted":"0","num_feature":"768","num_nodes":"17","size_leaf_vector":"1"}},{"base_weights":[-2.1206313E2,-3.5370907E1,-2.5252226E1,2.7745663E1,-7.505485E0,-1.591898E1,4.4206734E0,-1.7222337E0,5.887269E-1],"categories":[],"categories_nodes":[],"categories_segments":[],"categories_sizes":[],"default_left":[0,0,0,0,0,0,0,0,0],"id":7,"left_children":[1,-1,3,5,-1,7,-1,-1,-1],"loss_changes":[6.926021E5,0E0,4.791835E4,1.5939553E4,0E0,2.4768909E3,0E0,0E0,0E0],"parents":[2147483647,0,0,2,2,3,3,5,5],"right_children":[2,-1,4,6,-1,8,-1,-1,-1],"split_conditions":[1.0651267E-1,-3.5370907E1,-7.136333E-2,1.3928056E-2,-7.505485E0,-1.128785E-2,4.4206734E0,-1.7222337E0,5.887269E-1],"split_indices":[707,0,424,328,0,736,0,0,0],"split_type":[0,0,0,0,0,0,0,0,0],"sum_hessian":[6.677584E0,1.0654862E0,5.6120977E0,4.485803E0,1.1262947E0,3.0373356E0,1.4484676E0,1.6738355E0,1.3635E0],"tree_param":{"num_deleted":"0","num_feature":"768","num_nodes":"9","size_leaf_vector":"1"}},{"base_weights":[-3.176125E2,-3.937103E1,-2.0492988E0,-5.1755004E0,3.5587213E0],"categories":[],"categories_nodes":[],"categories_segments":[],"categories_sizes":[],"default_left":[0,0,0,0,0],"id":8,"left_children":[1,-1,3,-1,-1],"loss_changes":[7.5136675E5,0E0,3.7388086E4,0E0,0E0],"parents":[2147483647,0,0,2,2],"right_children":[2,-1,4,-1,-1],"split_conditions":[1.8133865E-1,-3.937103E1,-1.9727372E-1,-5.1755004E0,3.5587213E0],"split_indices":[707,0,9,0,0],"split_type":[0,0,0,0,0],"sum_hessian":[4.0789847E0,1.0381334E0,3.0408514E0,1.1012782E0,1.939573E0],"tree_param":{"num_deleted":"0","num_feature":"768","num_nodes":"5","size_leaf_vector":"1"}},{"base_weights":[-4.768436E2,-4.1767315E1,1.7049516E0],"categories":[],"categories_nodes":[],"categories_segments":[],"categories_sizes":[],"default_left":[0,0,0],"id":9,"left_children":[1,-1,-1],"loss_changes":[6.4116625E5,0E0,0E0],"parents":[2147483647,0,0],"right_children":[2,-1,-1],"split_conditions":[2.6306358E-1,-4.1767315E1,1.7049516E0],"split_indices":[707,0,0],"split_type":[0,0,0],"sum_hessian":[2.3448024E0,1.0048428E0,1.3399597E0],"tree_param":{"num_deleted":"0","num_feature":"768","num_nodes":"3","size_leaf_vector":"1"}},{"base_weights":[-7.255146E2],"categories":[],"categories_nodes":[],"categories_segments":[],"categories_sizes":[],"default_left":[0],"id":10,"left_children":[-1],"loss_changes":[0E0],"parents":[2147483647],"right_children":[-1],"split_conditions":[-3.627573E1],"split_indices":[0],"split_type":[0],"sum_hessian":[1.1727525E0],"tree_param":{"num_deleted":"0","num_feature":"768","num_nodes":"1","size_leaf_vector":"1"}},{"base_weights":[0E0],"categories":[],"categories_nodes":[],"categories_segments":[],"categories_sizes":[],"default_left":[0],"id":11,"left_children":[-1],"loss_changes":[0E0],"parents":[2147483647],"right_children":[-1],"split_conditions":[0E0],"split_indices":[0],"split_type":[0],"sum_hessian":[8.446077E-1],"tree_param":{"num_deleted":"0","num_feature":"768","num_nodes":"1","size_leaf_vector":"1"}},{"base_weights":[0E0],"categories":[],"categories_nodes":[],"categories_segments":[],"categories_sizes":[],"default_left":[0],"id":12,"left_children":[-1],"loss_changes":[0E0],"parents":[2147483647],"right_children":[-1],"split_conditions":[0E0],"split_indices":[0],"split_type":[0],"sum_hessian":[8.446077E-1],"tree_param":{"num_deleted":"0","num_feature":"768","num_nodes":"1","size_leaf_vector":"1"}},{"base_weights":[0E0],"categories":[],"categories_nodes":[],"categories_segments":[],"categories_sizes":[],"default_left":[0],"id":13,"left_children":[-1],"loss_changes":[0E0],"parents":[2147483647],"right_children":[-1],"split_conditions":[0E0],"split_indices":[0],"split_type":[0],"sum_hessian":[8.446077E-1],"tree_param":{"num_deleted":"0","num_feature":"768","num_nodes":"1","size_leaf_vector":"1"}},{"base_weights":[0E0],"categories":[],"categories_nodes":[],"categories_segments":[],"categories_sizes":[],"default_left":[0],"id":14,"left_children":[-1],"loss_changes":[0E0],"parents":[2147483647],"right_children":[-1],"split_conditions":[0E0],"split_indices":[0],"split_type":[0],"sum_hessian":[8.446077E-1],"tree_param":{"num_deleted":"0","num_feature":"768","num_nodes":"1","size_leaf_vector":"1"}},{"base_weights":[0E0],"categories":[],"categories_nodes":[],"categories_segments":[],"categories_sizes":[],"default_left":[0],"id":15,"left_children":[-1],"loss_changes":[0E0],"parents":[2147483647],"right_children":[-1],"split_conditions":[0E0],"split_indices":[0],"split_type":[0],"sum_hessian":[8.446077E-1],"tree_param":{"num_deleted":"0","num_feature":"768","num_nodes":"1","size_leaf_vector":"1"}},{"base_weights":[0E0],"categories":[],"categories_nodes":[],"categories_segments":[],"categories_sizes":[],"default_left":[0],"id":16,"left_children":[-1],"loss_changes":[0E0],"parents":[2147483647],"right_children":[-1],"split_conditions":[0E0],"split_indices":[0],"split_type":[0],"sum_hessian":[8.446077E-1],"tree_param":{"num_deleted":"0","num_feature":"768","num_nodes":"1","size_leaf_vector":"1"}},{"base_weights":[0E0],"categories":[],"categories_nodes":[],"categories_segments":[],"categories_sizes":[],"default_left":[0],"id":17,"left_children":[-1],"loss_changes":[0E0],"parents":[2147483647],"right_children":[-1],"split_conditions":[0E0],"split_indices":[0],"split_type":[0],"sum_hessian":[8.446077E-1],"tree_param":{"num_deleted":"0","num_feature":"768","num_nodes":"1","size_leaf_vector":"1"}},{"base_weights":[0E0],"categories":[],"categories_nodes":[],"categories_segments":[],"categories_sizes":[],"default_left":[0],"id":18,"left_children":[-1],"loss_changes":[0E0],"parents":[2147483647],"right_children":[-1],"split_conditions":[0E0],"split_indices":[0],"split_type":[0],"sum_hessian":[8.446077E-1],"tree_param":{"num_deleted":"0","num_feature":"768","num_nodes":"1","size_leaf_vector":"1"}},{"base_weights":[0E0],"categories":[],"categories_nodes":[],"categories_segments":[],"categories_sizes":[],"default_left":[0],"id":19,"left_children":[-1],"loss_changes":[0E0],"parents":[2147483647],"right_children":[-1],"split_conditions":[0E0],"split_indices":[0],"split_type":[0],"sum_hessian":[8.446077E-1],"tree_param":{"num_deleted":"0","num_feature":"768","num_nodes":"1","size_leaf_vector":"1"}},{"base_weights":[0E0],"categories":[],"categories_nodes":[],"categories_segments":[],"categories_sizes":[],"default_left":[0],"id":20,"left_children":[-1],"loss_changes":[0E0],"parents":[2147483647],"right_children":[-1],"split_conditions":[0E0],"split_indices":[0],"split_type":[0],"sum_hessian":[8.446077E-1],"tree_param":{"num_deleted":"0","num_feature":"768","num_nodes":"1","size_leaf_vector":"1"}},{"base_weights":[0E0],"categories":[],"categories_nodes":[],"categories_segments":[],"categories_sizes":[],"default_left":[0],"id":21,"left_children":[-1],"loss_changes":[0E0],"parents":[2147483647],"right_children":[-1],"split_conditions":[0E0],"split_indices":[0],"split_type":[0],"sum_hessian":[8.446077E-1],"tree_param":{"num_deleted":"0","num_feature":"768","num_nodes":"1","size_leaf_vector":"1"}},{"base_weights":[0E0],"categories":[],"categories_nodes":[],"categories_segments":[],"categories_sizes":[],"default_left":[0],"id":22,"left_children":[-1],"loss_changes":[0E0],"parents":[2147483647],"right_children":[-1],"split_conditions":[0E0],"split_indices":[0],"split_type":[0],"sum_hessian":[8.446077E-1],"tree_param":{"num_deleted":"0","num_feature":"768","num_nodes":"1","size_leaf_vector":"1"}},{"base_weights":[0E0],"categories":[],"categories_nodes":[],"categories_segments":[],"categories_sizes":[],"default_left":[0],"id":23,"left_children":[-1],"loss_changes":[0E0],"parents":[2147483647],"right_children":[-1],"split_conditions":[0E0],"split_indices":[0],"split_type":[0],"sum_hessian":[8.446077E-1],"tree_param":{"num_deleted":"0","num_feature":"768","num_nodes":"1","size_leaf_vector":"1"}},{"base_weights":[0E0],"categories":[],"categories_nodes":[],"categories_segments":[],"categories_sizes":[],"default_left":[0],"id":24,"left_children":[-1],"loss_changes":[0E0],"parents":[2147483647],"right_children":[-1],"split_conditions":[0E0],"split_indices":[0],"split_type":[0],"sum_hessian":[8.446077E-1],"tree_param":{"num_deleted":"0","num_feature":"768","num_nodes":"1","size_leaf_vector":"1"}},{"base_weights":[0E0],"categories":[],"categories_nodes":[],"categories_segments":[],"categories_sizes":[],"default_left":[0],"id":25,"left_children":[-1],"loss_changes":[0E0],"parents":[2147483647],"right_children":[-1],"split_conditions":[0E0],"split_indices":[0],"split_type":[0],"sum_hessian":[8.446077E-1],"tree_param":{"num_deleted":"0","num_feature":"768","num_nodes":"1","size_leaf_vector":"1"}},{"base_weights":[0E0],"categories":[],"categories_nodes":[],"categories_segments":[],"categories_sizes":[],"default_left":[0],"id":26,"left_children":[-1],"loss_changes":[0E0],"parents":[2147483647],"right_children":[-1],"split_conditions":[0E0],"split_indices":[0],"split_type":[0],"sum_hessian":[8.446077E-1],"tree_param":{"num_deleted":"0","num_feature":"768","num_nodes":"1","size_leaf_vector":"1"}},{"base_weights":[0E0],"categories":[],"categories_nodes":[],"categories_segments":[],"categories_sizes":[],"default_left":[0],"id":27,"left_children":[-1],"loss_changes":[0E0],"parents":[2147483647],"right_children":[-1],"split_conditions":[0E0],"split_indices":[0],"split_type":[0],"sum_hessian":[8.446077E-1],"tree_param":{"num_deleted":"0","num_feature":"768","num_nodes":"1","size_leaf_vector":"1"}},{"base_weights":[0E0],"categories":[],"categories_nodes":[],"categories_segments":[],"categories_sizes":[],"default_left":[0],"id":28,"left_children":[-1],"loss_changes":[0E0],"parents":[2147483647],"right_children":[-1],"split_conditions":[0E0],"split_indices":[0],"split_type":[0],"sum_hessian":[8.446077E-1],"tree_param":{"num_deleted":"0","num_feature":"768","num_nodes":"1","size_leaf_vector":"1"}},{"base_weights":[0E0],"categories":[],"categories_nodes":[],"categories_segments":[],"categories_sizes":[],"default_left":[0],"id":29,"left_children":[-1],"loss_changes":[0E0],"parents":[2147483647],"right_children":[-1],"split_conditions":[0E0],"split_indices":[0],"split_type":[0],"sum_hessian":[8.446077E-1],"tree_param":{"num_deleted":"0","num_feature":"768","num_nodes":"1","size_leaf_vector":"1"}},{"base_weights":[0E0],"categories":[],"categories_nodes":[],"categories_segments":[],"categories_sizes":[],"default_left":[0],"id":30,"left_children":[-1],"loss_changes":[0E0],"parents":[2147483647],"right_children":[-1],"split_conditions":[0E0],"split_indices":[0],"split_type":[0],"sum_hessian":[8.446077E-1],"tree_param":{"num_deleted":"0","num_feature":"768","num_nodes":"1","size_leaf_vector":"1"}},{"base_weights":[0E0],"categories":[],"categories_nodes":[],"categories_segments":[],"categories_sizes":[],"default_left":[0],"id":31,"left_children":[-1],"loss_changes":[0E0],"parents":[2147483647],"right_children":[-1],"split_conditions":[0E0],"split_indices":[0],"split_type":[0],"sum_hessian":[8.446077E-1],"tree_param":{"num_deleted":"0","num_feature":"768","num_nodes":"1","size_leaf_vector":"1"}},{"base_weights":[0E0],"categories":[],"categories_nodes":[],"categories_segments":[],"categories_sizes":[],"default_left":[0],"id":32,"left_children":[-1],"loss_changes":[0E0],"parents":[2147483647],"right_children":[-1],"split_conditions":[0E0],"split_indices":[0],"split_type":[0],"sum_hessian":[8.446077E-1],"tree_param":{"num_deleted":"0","num_feature":"768","num_nodes":"1","size_leaf_vector":"1"}},{"base_weights":[0E0],"categories":[],"categories_nodes":[],"categories_segments":[],"categories_sizes":[],"default_left":[0],"id":33,"left_children":[-1],"loss_changes":[0E0],"parents":[2147483647],"right_children":[-1],"split_conditions":[0E0],"split_indices":[0],"split_type":[0],"sum_hessian":[8.446077E-1],"tree_param":{"num_deleted":"0","num_feature":"768","num_nodes":"1","size_leaf_vector":"1"}},{"base_weights":[0E0],"categories":[],"categories_nodes":[],"categories_segments":[],"categories_sizes":[],"default_left":[0],"id":34,"left_children":[-1],"loss_changes":[0E0],"parents":[2147483647],"right_children":[-1],"split_conditions":[0E0],"split_indices":[0],"split_type":[0],"sum_hessian":[8.446077E-1],"tree_param":{"num_deleted":"0","num_feature":"768","num_nodes":"1","size_leaf_vector":"1"}},{"base_weights":[0E0],"categories":[],"categories_nodes":[],"categories_segments":[],"categories_sizes":[],"default_left":[0],"id":35,"left_children":[-1],"loss_changes":[0E0],"parents":[2147483647],"right_children":[-1],"split_conditions":[0E0],"split_indices":[0],"split_type":[0],"sum_hessian":[8.446077E-1],"tree_param":{"num_deleted":"0","num_feature":"768","num_nodes":"1","size_leaf_vector":"1"}},{"base_weights":[0E0],"categories":[],"categories_nodes":[],"categories_segments":[],"categories_sizes":[],"default_left":[0],"id":36,"left_children":[-1],"loss_changes":[0E0],"parents":[2147483647],"right_children":[-1],"split_conditions":[0E0],"split_indices":[0],"split_type":[0],"sum_hessian":[8.446077E-1],"tree_param":{"num_deleted":"0","num_feature":"768","num_nodes":"1","size_leaf_vector":"1"}},{"base_weights":[0E0],"categories":[],"categories_nodes":[],"categories_segments":[],"categories_sizes":[],"default_left":[0],"id":37,"left_children":[-1],"loss_changes":[0E0],"parents":[2147483647],"right_children":[-1],"split_conditions":[0E0],"split_indices":[0],"split_type":[0],"sum_hessian":[8.446077E-1],"tree_param":{"num_deleted":"0","num_feature":"768","num_nodes":"1","size_leaf_vector":"1"}},{"base_weights":[0E0],"categories":[],"categories_nodes":[],"categories_segments":[],"categories_sizes":[],"default_left":[0],"id":38,"left_children":[-1],"loss_changes":[0E0],"parents":[2147483647],"right_children":[-1],"split_conditions":[0E0],"split_indices":[0],"split_type":[0],"sum_hessian":[8.446077E-1],"tree_param":{"num_deleted":"0","num_feature":"768","num_nodes":"1","size_leaf_vector":"1"}},{"base_weights":[0E0],"categories":[],"categories_nodes":[],"categories_segments":[],"categories_sizes":[],"default_left":[0],"id":39,"left_children":[-1],"loss_changes":[0E0],"parents":[2147483647],"right_children":[-1],"split_conditions":[0E0],"split_indices":[0],"split_type":[0],"sum_hessian":[8.446077E-1],"tree_param":{"num_deleted":"0","num_feature":"768","num_nodes":"1","size_leaf_vector":"1"}},{"base_weights":[0E0],"categories":[],"categories_nodes":[],"categories_segments":[],"categories_sizes":[],"default_left":[0],"id":40,"left_children":[-1],"loss_changes":[0E0],"parents":[2147483647],"right_children":[-1],"split_conditions":[0E0],"split_indices":[0],"split_type":[0],"sum_hessian":[8.446077E-1],"tree_param":{"num_deleted":"0","num_feature":"768","num_nodes":"1","size_leaf_vector":"1"}},{"base_weights":[0E0],"categories":[],"categories_nodes":[],"categories_segments":[],"categories_sizes":[],"default_left":[0],"id":41,"left_children":[-1],"loss_changes":[0E0],"parents":[2147483647],"right_children":[-1],"split_conditions":[0E0],"split_indices":[0],"split_type":[0],"sum_hessian":[8.446077E-1],"tree_param":{"num_deleted":"0","num_feature":"768","num_nodes":"1","size_leaf_vector":"1"}},{"base_weights":[0E0],"categories":[],"categories_nodes":[],"categories_segments":[],"categories_sizes":[],"default_left":[0],"id":42,"left_children":[-1],"loss_changes":[0E0],"parents":[2147483647],"right_children":[-1],"split_conditions":[0E0],"split_indices":[0],"split_type":[0],"sum_hessian":[8.446077E-1],"tree_param":{"num_deleted":"0","num_feature":"768","num_nodes":"1","size_leaf_vector":"1"}},{"base_weights":[0E0],"categories":[],"categories_nodes":[],"categories_segments":[],"categories_sizes":[],"default_left":[0],"id":43,"left_children":[-1],"loss_changes":[0E0],"parents":[2147483647],"right_children":[-1],"split_conditions":[0E0],"split_indices":[0],"split_type":[0],"sum_hessian":[8.446077E-1],"tree_param":{"num_deleted":"0","num_feature":"768","num_nodes":"1","size_leaf_vector":"1"}},{"base_weights":[0E0],"categories":[],"categories_nodes":[],"categories_segments":[],"categories_sizes":[],"default_left":[0],"id":44,"left_children":[-1],"loss_changes":[0E0],"parents":[2147483647],"right_children":[-1],"split_conditions":[0E0],"split_indices":[0],"split_type":[0],"sum_hessian":[8.446077E-1],"tree_param":{"num_deleted":"0","num_feature":"768","num_nodes":"1","size_leaf_vector":"1"}},{"base_weights":[0E0],"categories":[],"categories_nodes":[],"categories_segments":[],"categories_sizes":[],"default_left":[0],"id":45,"left_children":[-1],"loss_changes":[0E0],"parents":[2147483647],"right_children":[-1],"split_conditions":[0E0],"split_indices":[0],"split_type":[0],"sum_hessian":[8.446077E-1],"tree_param":{"num_deleted":"0","num_feature":"768","num_nodes":"1","size_leaf_vector":"1"}},{"base_weights":[0E0],"categories":[],"categories_nodes":[],"categories_segments":[],"categories_sizes":[],"default_left":[0],"id":46,"left_children":[-1],"loss_changes":[0E0],"parents":[2147483647],"right_children":[-1],"split_conditions":[0E0],"split_indices":[0],"split_type":[0],"sum_hessian":[8.446077E-1],"tree_param":{"num_deleted":"0","num_feature":"768","num_nodes":"1","size_leaf_vector":"1"}},{"base_weights":[0E0],"categories":[],"categories_nodes":[],"categories_segments":[],"categories_sizes":[],"default_left":[0],"id":47,"left_children":[-1],"loss_changes":[0E0],"parents":[2147483647],"right_children":[-1],"split_conditions":[0E0],"split_indices":[0],"split_type":[0],"sum_hessian":[8.446077E-1],"tree_param":{"num_deleted":"0","num_feature":"768","num_nodes":"1","size_leaf_vector":"1"}},{"base_weights":[0E0],"categories":[],"categories_nodes":[],"categories_segments":[],"categories_sizes":[],"default_left":[0],"id":48,"left_children":[-1],"loss_changes":[0E0],"parents":[2147483647],"right_children":[-1],"split_conditions":[0E0],"split_indices":[0],"split_type":[0],"sum_hessian":[8.446077E-1],"tree_param":{"num_deleted":"0","num_feature":"768","num_nodes":"1","size_leaf_vector":"1"}},{"base_weights":[0E0],"categories":[],"categories_nodes":[],"categories_segments":[],"categories_sizes":[],"default_left":[0],"id":49,"left_children":[-1],"loss_changes":[0E0],"parents":[2147483647],"right_children":[-1],"split_conditions":[0E0],"split_indices":[0],"split_type":[0],"sum_hessian":[8.446077E-1],"tree_param":{"num_deleted":"0","num_feature":"768","num_nodes":"1","size_leaf_vector":"1"}},{"base_weights":[0E0],"categories":[],"categories_nodes":[],"categories_segments":[],"categories_sizes":[],"default_left":[0],"id":50,"left_children":[-1],"loss_changes":[0E0],"parents":[2147483647],"right_children":[-1],"split_conditions":[0E0],"split_indices":[0],"split_type":[0],"sum_hessian":[8.446077E-1],"tree_param":{"num_deleted":"0","num_feature":"768","num_nodes":"1","size_leaf_vector":"1"}},{"base_weights":[0E0],"categories":[],"categories_nodes":[],"categories_segments":[],"categories_sizes":[],"default_left":[0],"id":51,"left_children":[-1],"loss_changes":[0E0],"parents":[2147483647],"right_children":[-1],"split_conditions":[0E0],"split_indices":[0],"split_type":[0],"sum_hessian":[8.446077E-1],"tree_param":{"num_deleted":"0","num_feature":"768","num_nodes":"1","size_leaf_vector":"1"}},{"base_weights":[0E0],"categories":[],"categories_nodes":[],"categories_segments":[],"categories_sizes":[],"default_left":[0],"id":52,"left_children":[-1],"loss_changes":[0E0],"parents":[2147483647],"right_children":[-1],"split_conditions":[0E0],"split_indices":[0],"split_type":[0],"sum_hessian":[8.446077E-1],"tree_param":{"num_deleted":"0","num_feature":"768","num_nodes":"1","size_leaf_vector":"1"}},{"base_weights":[0E0],"categories":[],"categories_nodes":[],"categories_segments":[],"categories_sizes":[],"default_left":[0],"id":53,"left_children":[-1],"loss_changes":[0E0],"parents":[2147483647],"right_children":[-1],"split_conditions":[0E0],"split_indices":[0],"split_type":[0],"sum_hessian":[8.446077E-1],"tree_param":{"num_deleted":"0","num_feature":"768","num_nodes":"1","size_leaf_vector":"1"}},{"base_weights":[0E0],"categories":[],"categories_nodes":[],"categories_segments":[],"categories_sizes":[],"default_left":[0],"id":54,"left_children":[-1],"loss_changes":[0E0],"parents":[2147483647],"right_children":[-1],"split_conditions":[0E0],"split_indices":[0],"split_type":[0],"sum_hessian":[8.446077E-1],"tree_param":{"num_deleted":"0","num_feature":"768","num_nodes":"1","size_leaf_vector":"1"}},{"base_weights":[0E0],"categories":[],"categories_nodes":[],"categories_segments":[],"categories_sizes":[],"default_left":[0],"id":55,"left_children":[-1],"loss_changes":[0E0],"parents":[2147483647],"right_children":[-1],"split_conditions":[0E0],"split_indices":[0],"split_type":[0],"sum_hessian":[8.446077E-1],"tree_param":{"num_deleted":"0","num_feature":"768","num_nodes":"1","size_leaf_vector":"1"}},{"base_weights":[0E0],"categories":[],"categories_nodes":[],"categories_segments":[],"categories_sizes":[],"default_left":[0],"id":56,"left_children":[-1],"loss_changes":[0E0],"parents":[2147483647],"right_children":[-1],"split_conditions":[0E0],"split_indices":[0],"split_type":[0],"sum_hessian":[8.446077E-1],"tree_param":{"num_deleted":"0","num_feature":"768","num_nodes":"1","size_leaf_vector":"1"}},{"base_weights":[0E0],"categories":[],"categories_nodes":[],"categories_segments":[],"categories_sizes":[],"default_left":[0],"id":57,"left_children":[-1],"loss_changes":[0E0],"parents":[2147483647],"right_children":[-1],"split_conditions":[0E0],"split_indices":[0],"split_type":[0],"sum_hessian":[8.446077E-1],"tree_param":{"num_deleted":"0","num_feature":"768","num_nodes":"1","size_leaf_vector":"1"}},{"base_weights":[0E0],"categories":[],"categories_nodes":[],"categories_segments":[],"categories_sizes":[],"default_left":[0],"id":58,"left_children":[-1],"loss_changes":[0E0],"parents":[2147483647],"right_children":[-1],"split_conditions":[0E0],"split_indices":[0],"split_type":[0],"sum_hessian":[8.446077E-1],"tree_param":{"num_deleted":"0","num_feature":"768","num_nodes":"1","size_leaf_vector":"1"}},{"base_weights":[0E0],"categories":[],"categories_nodes":[],"categories_segments":[],"categories_sizes":[],"default_left":[0],"id":59,"left_children":[-1],"loss_changes":[0E0],"parents":[2147483647],"right_children":[-1],"split_conditions":[0E0],"split_indices":[0],"split_type":[0],"sum_hessian":[8.446077E-1],"tree_param":{"num_deleted":"0","num_feature":"768","num_nodes":"1","size_leaf_vector":"1"}},{"base_weights":[0E0],"categories":[],"categories_nodes":[],"categories_segments":[],"categories_sizes":[],"default_left":[0],"id":60,"left_children":[-1],"loss_changes":[0E0],"parents":[2147483647],"right_children":[-1],"split_conditions":[0E0],"split_indices":[0],"split_type":[0],"sum_hessian":[8.446077E-1],"tree_param":{"num_deleted":"0","num_feature":"768","num_nodes":"1","size_leaf_vector":"1"}},{"base_weights":[0E0],"categories":[],"categories_nodes":[],"categories_segments":[],"categories_sizes":[],"default_left":[0],"id":61,"left_children":[-1],"loss_changes":[0E0],"parents":[2147483647],"right_children":[-1],"split_conditions":[0E0],"split_indices":[0],"split_type":[0],"sum_hessian":[8.446077E-1],"tree_param":{"num_deleted":"0","num_feature":"768","num_nodes":"1","size_leaf_vector":"1"}},{"base_weights":[0E0],"categories":[],"categories_nodes":[],"categories_segments":[],"categories_sizes":[],"default_left":[0],"id":62,"left_children":[-1],"loss_changes":[0E0],"parents":[2147483647],"right_children":[-1],"split_conditions":[0E0],"split_indices":[0],"split_type":[0],"sum_hessian":[8.446077E-1],"tree_param":{"num_deleted":"0","num_feature":"768","num_nodes":"1","size_leaf_vector":"1"}},{"base_weights":[0E0],"categories":[],"categories_nodes":[],"categories_segments":[],"categories_sizes":[],"default_left":[0],"id":63,"left_children":[-1],"loss_changes":[0E0],"parents":[2147483647],"right_children":[-1],"split_conditions":[0E0],"split_indices":[0],"split_type":[0],"sum_hessian":[8.446077E-1],"tree_param":{"num_deleted":"0","num_feature":"768","num_nodes":"1","size_leaf_vector":"1"}},{"base_weights":[0E0],"categories":[],"categories_nodes":[],"categories_segments":[],"categories_sizes":[],"default_left":[0],"id":64,"left_children":[-1],"loss_changes":[0E0],"parents":[2147483647],"right_children":[-1],"split_conditions":[0E0],"split_indices":[0],"split_type":[0],"sum_hessian":[8.446077E-1],"tree_param":{"num_deleted":"0","num_feature":"768","num_nodes":"1","size_leaf_vector":"1"}},{"base_weights":[0E0],"categories":[],"categories_nodes":[],"categories_segments":[],"categories_sizes":[],"default_left":[0],"id":65,"left_children":[-1],"loss_changes":[0E0],"parents":[2147483647],"right_children":[-1],"split_conditions":[0E0],"split_indices":[0],"split_type":[0],"sum_hessian":[8.446077E-1],"tree_param":{"num_deleted":"0","num_feature":"768","num_nodes":"1","size_leaf_vector":"1"}},{"base_weights":[0E0],"categories":[],"categories_nodes":[],"categories_segments":[],"categories_sizes":[],"default_left":[0],"id":66,"left_children":[-1],"loss_changes":[0E0],"parents":[2147483647],"right_children":[-1],"split_conditions":[0E0],"split_indices":[0],"split_type":[0],"sum_hessian":[8.446077E-1],"tree_param":{"num_deleted":"0","num_feature":"768","num_nodes":"1","size_leaf_vector":"1"}},{"base_weights":[0E0],"categories":[],"categories_nodes":[],"categories_segments":[],"categories_sizes":[],"default_left":[0],"id":67,"left_children":[-1],"loss_changes":[0E0],"parents":[2147483647],"right_children":[-1],"split_conditions":[0E0],"split_indices":[0],"split_type":[0],"sum_hessian":[8.446077E-1],"tree_param":{"num_deleted":"0","num_feature":"768","num_nodes":"1","size_leaf_vector":"1"}},{"base_weights":[0E0],"categories":[],"categories_nodes":[],"categories_segments":[],"categories_sizes":[],"default_left":[0],"id":68,"left_children":[-1],"loss_changes":[0E0],"parents":[2147483647],"right_children":[-1],"split_conditions":[0E0],"split_indices":[0],"split_type":[0],"sum_hessian":[8.446077E-1],"tree_param":{"num_deleted":"0","num_feature":"768","num_nodes":"1","size_leaf_vector":"1"}},{"base_weights":[0E0],"categories":[],"categories_nodes":[],"categories_segments":[],"categories_sizes":[],"default_left":[0],"id":69,"left_children":[-1],"loss_changes":[0E0],"parents":[2147483647],"right_children":[-1],"split_conditions":[0E0],"split_indices":[0],"split_type":[0],"sum_hessian":[8.446077E-1],"tree_param":{"num_deleted":"0","num_feature":"768","num_nodes":"1","size_leaf_vector":"1"}},{"base_weights":[0E0],"categories":[],"categories_nodes":[],"categories_segments":[],"categories_sizes":[],"default_left":[0],"id":70,"left_children":[-1],"loss_changes":[0E0],"parents":[2147483647],"right_children":[-1],"split_conditions":[0E0],"split_indices":[0],"split_type":[0],"sum_hessian":[8.446077E-1],"tree_param":{"num_deleted":"0","num_feature":"768","num_nodes":"1","size_leaf_vector":"1"}},{"base_weights":[0E0],"categories":[],"categories_nodes":[],"categories_segments":[],"categories_sizes":[],"default_left":[0],"id":71,"left_children":[-1],"loss_changes":[0E0],"parents":[2147483647],"right_children":[-1],"split_conditions":[0E0],"split_indices":[0],"split_type":[0],"sum_hessian":[8.446077E-1],"tree_param":{"num_deleted":"0","num_feature":"768","num_nodes":"1","size_leaf_vector":"1"}},{"base_weights":[0E0],"categories":[],"categories_nodes":[],"categories_segments":[],"categories_sizes":[],"default_left":[0],"id":72,"left_children":[-1],"loss_changes":[0E0],"parents":[2147483647],"right_children":[-1],"split_conditions":[0E0],"split_indices":[0],"split_type":[0],"sum_hessian":[8.446077E-1],"tree_param":{"num_deleted":"0","num_feature":"768","num_nodes":"1","size_leaf_vector":"1"}},{"base_weights":[0E0],"categories":[],"categories_nodes":[],"categories_segments":[],"categories_sizes":[],"default_left":[0],"id":73,"left_children":[-1],"loss_changes":[0E0],"parents":[2147483647],"right_children":[-1],"split_conditions":[0E0],"split_indices":[0],"split_type":[0],"sum_hessian":[8.446077E-1],"tree_param":{"num_deleted":"0","num_feature":"768","num_nodes":"1","size_leaf_vector":"1"}},{"base_weights":[0E0],"categories":[],"categories_nodes":[],"categories_segments":[],"categories_sizes":[],"default_left":[0],"id":74,"left_children":[-1],"loss_changes":[0E0],"parents":[2147483647],"right_children":[-1],"split_conditions":[0E0],"split_indices":[0],"split_type":[0],"sum_hessian":[8.446077E-1],"tree_param":{"num_deleted":"0","num_feature":"768","num_nodes":"1","size_leaf_vector":"1"}},{"base_weights":[0E0],"categories":[],"categories_nodes":[],"categories_segments":[],"categories_sizes":[],"default_left":[0],"id":75,"left_children":[-1],"loss_changes":[0E0],"parents":[2147483647],"right_children":[-1],"split_conditions":[0E0],"split_indices":[0],"split_type":[0],"sum_hessian":[8.446077E-1],"tree_param":{"num_deleted":"0","num_feature":"768","num_nodes":"1","size_leaf_vector":"1"}},{"base_weights":[0E0],"categories":[],"categories_nodes":[],"categories_segments":[],"categories_sizes":[],"default_left":[0],"id":76,"left_children":[-1],"loss_changes":[0E0],"parents":[2147483647],"right_children":[-1],"split_conditions":[0E0],"split_indices":[0],"split_type":[0],"sum_hessian":[8.446077E-1],"tree_param":{"num_deleted":"0","num_feature":"768","num_nodes":"1","size_leaf_vector":"1"}},{"base_weights":[0E0],"categories":[],"categories_nodes":[],"categories_segments":[],"categories_sizes":[],"default_left":[0],"id":77,"left_children":[-1],"loss_changes":[0E0],"parents":[2147483647],"right_children":[-1],"split_conditions":[0E0],"split_indices":[0],"split_type":[0],"sum_hessian":[8.446077E-1],"tree_param":{"num_deleted":"0","num_feature":"768","num_nodes":"1","size_leaf_vector":"1"}},{"base_weights":[0E0],"categories":[],"categories_nodes":[],"categories_segments":[],"categories_sizes":[],"default_left":[0],"id":78,"left_children":[-1],"loss_changes":[0E0],"parents":[2147483647],"right_children":[-1],"split_conditions":[0E0],"split_indices":[0],"split_type":[0],"sum_hessian":[8.446077E-1],"tree_param":{"num_deleted":"0","num_feature":"768","num_nodes":"1","size_leaf_vector":"1"}},{"base_weights":[0E0],"categories":[],"categories_nodes":[],"categories_segments":[],"categories_sizes":[],"default_left":[0],"id":79,"left_children":[-1],"loss_changes":[0E0],"parents":[2147483647],"right_children":[-1],"split_conditions":[0E0],"split_indices":[0],"split_type":[0],"sum_hessian":[8.446077E-1],"tree_param":{"num_deleted":"0","num_feature":"768","num_nodes":"1","size_leaf_vector":"1"}},{"base_weights":[0E0],"categories":[],"categories_nodes":[],"categories_segments":[],"categories_sizes":[],"default_left":[0],"id":80,"left_children":[-1],"loss_changes":[0E0],"parents":[2147483647],"right_children":[-1],"split_conditions":[0E0],"split_indices":[0],"split_type":[0],"sum_hessian":[8.446077E-1],"tree_param":{"num_deleted":"0","num_feature":"768","num_nodes":"1","size_leaf_vector":"1"}},{"base_weights":[0E0],"categories":[],"categories_nodes":[],"categories_segments":[],"categories_sizes":[],"default_left":[0],"id":81,"left_children":[-1],"loss_changes":[0E0],"parents":[2147483647],"right_children":[-1],"split_conditions":[0E0],"split_indices":[0],"split_type":[0],"sum_hessian":[8.446077E-1],"tree_param":{"num_deleted":"0","num_feature":"768","num_nodes":"1","size_leaf_vector":"1"}},{"base_weights":[0E0],"categories":[],"categories_nodes":[],"categories_segments":[],"categories_sizes":[],"default_left":[0],"id":82,"left_children":[-1],"loss_changes":[0E0],"parents":[2147483647],"right_children":[-1],"split_conditions":[0E0],"split_indices":[0],"split_type":[0],"sum_hessian":[8.446077E-1],"tree_param":{"num_deleted":"0","num_feature":"768","num_nodes":"1","size_leaf_vector":"1"}},{"base_weights":[0E0],"categories":[],"categories_nodes":[],"categories_segments":[],"categories_sizes":[],"default_left":[0],"id":83,"left_children":[-1],"loss_changes":[0E0],"parents":[2147483647],"right_children":[-1],"split_conditions":[0E0],"split_indices":[0],"split_type":[0],"sum_hessian":[8.446077E-1],"tree_param":{"num_deleted":"0","num_feature":"768","num_nodes":"1","size_leaf_vector":"1"}},{"base_weights":[0E0],"categories":[],"categories_nodes":[],"categories_segments":[],"categories_sizes":[],"default_left":[0],"id":84,"left_children":[-1],"loss_changes":[0E0],"parents":[2147483647],"right_children":[-1],"split_conditions":[0E0],"split_indices":[0],"split_type":[0],"sum_hessian":[8.446077E-1],"tree_param":{"num_deleted":"0","num_feature":"768","num_nodes":"1","size_leaf_vector":"1"}},{"base_weights":[0E0],"categories":[],"categories_nodes":[],"categories_segments":[],"categories_sizes":[],"default_left":[0],"id":85,"left_children":[-1],"loss_changes":[0E0],"parents":[2147483647],"right_children":[-1],"split_conditions":[0E0],"split_indices":[0],"split_type":[0],"sum_hessian":[8.446077E-1],"tree_param":{"num_deleted":"0","num_feature":"768","num_nodes":"1","size_leaf_vector":"1"}},{"base_weights":[0E0],"categories":[],"categories_nodes":[],"categories_segments":[],"categories_sizes":[],"default_left":[0],"id":86,"left_children":[-1],"loss_changes":[0E0],"parents":[2147483647],"right_children":[-1],"split_conditions":[0E0],"split_indices":[0],"split_type":[0],"sum_hessian":[8.446077E-1],"tree_param":{"num_deleted":"0","num_feature":"768","num_nodes":"1","size_leaf_vector":"1"}},{"base_weights":[0E0],"categories":[],"categories_nodes":[],"categories_segments":[],"categories_sizes":[],"default_left":[0],"id":87,"left_children":[-1],"loss_changes":[0E0],"parents":[2147483647],"right_children":[-1],"split_conditions":[0E0],"split_indices":[0],"split_type":[0],"sum_hessian":[8.446077E-1],"tree_param":{"num_deleted":"0","num_feature":"768","num_nodes":"1","size_leaf_vector":"1"}},{"base_weights":[0E0],"categories":[],"categories_nodes":[],"categories_segments":[],"categories_sizes":[],"default_left":[0],"id":88,"left_children":[-1],"loss_changes":[0E0],"parents":[2147483647],"right_children":[-1],"split_conditions":[0E0],"split_indices":[0],"split_type":[0],"sum_hessian":[8.446077E-1],"tree_param":{"num_deleted":"0","num_feature":"768","num_nodes":"1","size_leaf_vector":"1"}},{"base_weights":[0E0],"categories":[],"categories_nodes":[],"categories_segments":[],"categories_sizes":[],"default_left":[0],"id":89,"left_children":[-1],"loss_changes":[0E0],"parents":[2147483647],"right_children":[-1],"split_conditions":[0E0],"split_indices":[0],"split_type":[0],"sum_hessian":[8.446077E-1],"tree_param":{"num_deleted":"0","num_feature":"768","num_nodes":"1","size_leaf_vector":"1"}},{"base_weights":[0E0],"categories":[],"categories_nodes":[],"categories_segments":[],"categories_sizes":[],"default_left":[0],"id":90,"left_children":[-1],"loss_changes":[0E0],"parents":[2147483647],"right_children":[-1],"split_conditions":[0E0],"split_indices":[0],"split_type":[0],"sum_hessian":[8.446077E-1],"tree_param":{"num_deleted":"0","num_feature":"768","num_nodes":"1","size_leaf_vector":"1"}},{"base_weights":[0E0],"categories":[],"categories_nodes":[],"categories_segments":[],"categories_sizes":[],"default_left":[0],"id":91,"left_children":[-1],"loss_changes":[0E0],"parents":[2147483647],"right_children":[-1],"split_conditions":[0E0],"split_indices":[0],"split_type":[0],"sum_hessian":[8.446077E-1],"tree_param":{"num_deleted":"0","num_feature":"768","num_nodes":"1","size_leaf_vector":"1"}},{"base_weights":[0E0],"categories":[],"categories_nodes":[],"categories_segments":[],"categories_sizes":[],"default_left":[0],"id":92,"left_children":[-1],"loss_changes":[0E0],"parents":[2147483647],"right_children":[-1],"split_conditions":[0E0],"split_indices":[0],"split_type":[0],"sum_hessian":[8.446077E-1],"tree_param":{"num_deleted":"0","num_feature":"768","num_nodes":"1","size_leaf_vector":"1"}},{"base_weights":[0E0],"categories":[],"categories_nodes":[],"categories_segments":[],"categories_sizes":[],"default_left":[0],"id":93,"left_children":[-1],"loss_changes":[0E0],"parents":[2147483647],"right_children":[-1],"split_conditions":[0E0],"split_indices":[0],"split_type":[0],"sum_hessian":[8.446077E-1],"tree_param":{"num_deleted":"0","num_feature":"768","num_nodes":"1","size_leaf_vector":"1"}},{"base_weights":[0E0],"categories":[],"categories_nodes":[],"categories_segments":[],"categories_sizes":[],"default_left":[0],"id":94,"left_children":[-1],"loss_changes":[0E0],"parents":[2147483647],"right_children":[-1],"split_conditions":[0E0],"split_indices":[0],"split_type":[0],"sum_hessian":[8.446077E-1],"tree_param":{"num_deleted":"0","num_feature":"768","num_nodes":"1","size_leaf_vector":"1"}},{"base_weights":[0E0],"categories":[],"categories_nodes":[],"categories_segments":[],"categories_sizes":[],"default_left":[0],"id":95,"left_children":[-1],"loss_changes":[0E0],"parents":[2147483647],"right_children":[-1],"split_conditions":[0E0],"split_indices":[0],"split_type":[0],"sum_hessian":[8.446077E-1],"tree_param":{"num_deleted":"0","num_feature":"768","num_nodes":"1","size_leaf_vector":"1"}},{"base_weights":[0E0],"categories":[],"categories_nodes":[],"categories_segments":[],"categories_sizes":[],"default_left":[0],"id":96,"left_children":[-1],"loss_changes":[0E0],"parents":[2147483647],"right_children":[-1],"split_conditions":[0E0],"split_indices":[0],"split_type":[0],"sum_hessian":[8.446077E-1],"tree_param":{"num_deleted":"0","num_feature":"768","num_nodes":"1","size_leaf_vector":"1"}},{"base_weights":[0E0],"categories":[],"categories_nodes":[],"categories_segments":[],"categories_sizes":[],"default_left":[0],"id":97,"left_children":[-1],"loss_changes":[0E0],"parents":[2147483647],"right_children":[-1],"split_conditions":[0E0],"split_indices":[0],"split_type":[0],"sum_hessian":[8.446077E-1],"tree_param":{"num_deleted":"0","num_feature":"768","num_nodes":"1","size_leaf_vector":"1"}},{"base_weights":[0E0],"categories":[],"categories_nodes":[],"categories_segments":[],"categories_sizes":[],"default_left":[0],"id":98,"left_children":[-1],"loss_changes":[0E0],"parents":[2147483647],"right_children":[-1],"split_conditions":[0E0],"split_indices":[0],"split_type":[0],"sum_hessian":[8.446077E-1],"tree_param":{"num_deleted":"0","num_feature":"768","num_nodes":"1","size_leaf_vector":"1"}},{"base_weights":[0E0],"categories":[],"categories_nodes":[],"categories_segments":[],"categories_sizes":[],"default_left":[0],"id":99,"left_children":[-1],"loss_changes":[0E0],"parents":[2147483647],"right_children":[-1],"split_conditions":[0E0],"split_indices":[0],"split_type":[0],"sum_hessian":[8.446077E-1],"tree_param":{"num_deleted":"0","num_feature":"768","num_nodes":"1","size_leaf_vector":"1"}},{"base_weights":[0E0],"categories":[],"categories_nodes":[],"categories_segments":[],"categories_sizes":[],"default_left":[0],"id":100,"left_children":[-1],"loss_changes":[0E0],"parents":[2147483647],"right_children":[-1],"split_conditions":[0E0],"split_indices":[0],"split_type":[0],"sum_hessian":[8.446077E-1],"tree_param":{"num_deleted":"0","num_feature":"768","num_nodes":"1","size_leaf_vector":"1"}},{"base_weights":[0E0],"categories":[],"categories_nodes":[],"categories_segments":[],"categories_sizes":[],"default_left":[0],"id":101,"left_children":[-1],"loss_changes":[0E0],"parents":[2147483647],"right_children":[-1],"split_conditions":[0E0],"split_indices":[0],"split_type":[0],"sum_hessian":[8.446077E-1],"tree_param":{"num_deleted":"0","num_feature":"768","num_nodes":"1","size_leaf_vector":"1"}},{"base_weights":[0E0],"categories":[],"categories_nodes":[],"categories_segments":[],"categories_sizes":[],"default_left":[0],"id":102,"left_children":[-1],"loss_changes":[0E0],"parents":[2147483647],"right_children":[-1],"split_conditions":[0E0],"split_indices":[0],"split_type":[0],"sum_hessian":[8.446077E-1],"tree_param":{"num_deleted":"0","num_feature":"768","num_nodes":"1","size_leaf_vector":"1"}},{"base_weights":[0E0],"categories":[],"categories_nodes":[],"categories_segments":[],"categories_sizes":[],"default_left":[0],"id":103,"left_children":[-1],"loss_changes":[0E0],"parents":[2147483647],"right_children":[-1],"split_conditions":[0E0],"split_indices":[0],"split_type":[0],"sum_hessian":[8.446077E-1],"tree_param":{"num_deleted":"0","num_feature":"768","num_nodes":"1","size_leaf_vector":"1"}},{"base_weights":[0E0],"categories":[],"categories_nodes":[],"categories_segments":[],"categories_sizes":[],"default_left":[0],"id":104,"left_children":[-1],"loss_changes":[0E0],"parents":[2147483647],"right_children":[-1],"split_conditions":[0E0],"split_indices":[0],"split_type":[0],"sum_hessian":[8.446077E-1],"tree_param":{"num_deleted":"0","num_feature":"768","num_nodes":"1","size_leaf_vector":"1"}},{"base_weights":[0E0],"categories":[],"categories_nodes":[],"categories_segments":[],"categories_sizes":[],"default_left":[0],"id":105,"left_children":[-1],"loss_changes":[0E0],"parents":[2147483647],"right_children":[-1],"split_conditions":[0E0],"split_indices":[0],"split_type":[0],"sum_hessian":[8.446077E-1],"tree_param":{"num_deleted":"0","num_feature":"768","num_nodes":"1","size_leaf_vector":"1"}},{"base_weights":[0E0],"categories":[],"categories_nodes":[],"categories_segments":[],"categories_sizes":[],"default_left":[0],"id":106,"left_children":[-1],"loss_changes":[0E0],"parents":[2147483647],"right_children":[-1],"split_conditions":[0E0],"split_indices":[0],"split_type":[0],"sum_hessian":[8.446077E-1],"tree_param":{"num_deleted":"0","num_feature":"768","num_nodes":"1","size_leaf_vector":"1"}},{"base_weights":[0E0],"categories":[],"categories_nodes":[],"categories_segments":[],"categories_sizes":[],"default_left":[0],"id":107,"left_children":[-1],"loss_changes":[0E0],"parents":[2147483647],"right_children":[-1],"split_conditions":[0E0],"split_indices":[0],"split_type":[0],"sum_hessian":[8.446077E-1],"tree_param":{"num_deleted":"0","num_feature":"768","num_nodes":"1","size_leaf_vector":"1"}},{"base_weights":[0E0],"categories":[],"categories_nodes":[],"categories_segments":[],"categories_sizes":[],"default_left":[0],"id":108,"left_children":[-1],"loss_changes":[0E0],"parents":[2147483647],"right_children":[-1],"split_conditions":[0E0],"split_indices":[0],"split_type":[0],"sum_hessian":[8.446077E-1],"tree_param":{"num_deleted":"0","num_feature":"768","num_nodes":"1","size_leaf_vector":"1"}},{"base_weights":[0E0],"categories":[],"categories_nodes":[],"categories_segments":[],"categories_sizes":[],"default_left":[0],"id":109,"left_children":[-1],"loss_changes":[0E0],"parents":[2147483647],"right_children":[-1],"split_conditions":[0E0],"split_indices":[0],"split_type":[0],"sum_hessian":[8.446077E-1],"tree_param":{"num_deleted":"0","num_feature":"768","num_nodes":"1","size_leaf_vector":"1"}},{"base_weights":[0E0],"categories":[],"categories_nodes":[],"categories_segments":[],"categories_sizes":[],"default_left":[0],"id":110,"left_children":[-1],"loss_changes":[0E0],"parents":[2147483647],"right_children":[-1],"split_conditions":[0E0],"split_indices":[0],"split_type":[0],"sum_hessian":[8.446077E-1],"tree_param":{"num_deleted":"0","num_feature":"768","num_nodes":"1","size_leaf_vector":"1"}},{"base_weights":[0E0],"categories":[],"categories_nodes":[],"categories_segments":[],"categories_sizes":[],"default_left":[0],"id":111,"left_children":[-1],"loss_changes":[0E0],"parents":[2147483647],"right_children":[-1],"split_conditions":[0E0],"split_indices":[0],"split_type":[0],"sum_hessian":[8.446077E-1],"tree_param":{"num_deleted":"0","num_feature":"768","num_nodes":"1","size_leaf_vector":"1"}},{"base_weights":[0E0],"categories":[],"categories_nodes":[],"categories_segments":[],"categories_sizes":[],"default_left":[0],"id":112,"left_children":[-1],"loss_changes":[0E0],"parents":[2147483647],"right_children":[-1],"split_conditions":[0E0],"split_indices":[0],"split_type":[0],"sum_hessian":[8.446077E-1],"tree_param":{"num_deleted":"0","num_feature":"768","num_nodes":"1","size_leaf_vector":"1"}},{"base_weights":[0E0],"categories":[],"categories_nodes":[],"categories_segments":[],"categories_sizes":[],"default_left":[0],"id":113,"left_children":[-1],"loss_changes":[0E0],"parents":[2147483647],"right_children":[-1],"split_conditions":[0E0],"split_indices":[0],"split_type":[0],"sum_hessian":[8.446077E-1],"tree_param":{"num_deleted":"0","num_feature":"768","num_nodes":"1","size_leaf_vector":"1"}},{"base_weights":[0E0],"categories":[],"categories_nodes":[],"categories_segments":[],"categories_sizes":[],"default_left":[0],"id":114,"left_children":[-1],"loss_changes":[0E0],"parents":[2147483647],"right_children":[-1],"split_conditions":[0E0],"split_indices":[0],"split_type":[0],"sum_hessian":[8.446077E-1],"tree_param":{"num_deleted":"0","num_feature":"768","num_nodes":"1","size_leaf_vector":"1"}},{"base_weights":[0E0],"categories":[],"categories_nodes":[],"categories_segments":[],"categories_sizes":[],"default_left":[0],"id":115,"left_children":[-1],"loss_changes":[0E0],"parents":[2147483647],"right_children":[-1],"split_conditions":[0E0],"split_indices":[0],"split_type":[0],"sum_hessian":[8.446077E-1],"tree_param":{"num_deleted":"0","num_feature":"768","num_nodes":"1","size_leaf_vector":"1"}},{"base_weights":[0E0],"categories":[],"categories_nodes":[],"categories_segments":[],"categories_sizes":[],"default_left":[0],"id":116,"left_children":[-1],"loss_changes":[0E0],"parents":[2147483647],"right_children":[-1],"split_conditions":[0E0],"split_indices":[0],"split_type":[0],"sum_hessian":[8.446077E-1],"tree_param":{"num_deleted":"0","num_feature":"768","num_nodes":"1","size_leaf_vector":"1"}},{"base_weights":[0E0],"categories":[],"categories_nodes":[],"categories_segments":[],"categories_sizes":[],"default_left":[0],"id":117,"left_children":[-1],"loss_changes":[0E0],"parents":[2147483647],"right_children":[-1],"split_conditions":[0E0],"split_indices":[0],"split_type":[0],"sum_hessian":[8.446077E-1],"tree_param":{"num_deleted":"0","num_feature":"768","num_nodes":"1","size_leaf_vector":"1"}},{"base_weights":[0E0],"categories":[],"categories_nodes":[],"categories_segments":[],"categories_sizes":[],"default_left":[0],"id":118,"left_children":[-1],"loss_changes":[0E0],"parents":[2147483647],"right_children":[-1],"split_conditions":[0E0],"split_indices":[0],"split_type":[0],"sum_hessian":[8.446077E-1],"tree_param":{"num_deleted":"0","num_feature":"768","num_nodes":"1","size_leaf_vector":"1"}},{"base_weights":[0E0],"categories":[],"categories_nodes":[],"categories_segments":[],"categories_sizes":[],"default_left":[0],"id":119,"left_children":[-1],"loss_changes":[0E0],"parents":[2147483647],"right_children":[-1],"split_conditions":[0E0],"split_indices":[0],"split_type":[0],"sum_hessian":[8.446077E-1],"tree_param":{"num_deleted":"0","num_feature":"768","num_nodes":"1","size_leaf_vector":"1"}},{"base_weights":[0E0],"categories":[],"categories_nodes":[],"categories_segments":[],"categories_sizes":[],"default_left":[0],"id":120,"left_children":[-1],"loss_changes":[0E0],"parents":[2147483647],"right_children":[-1],"split_conditions":[0E0],"split_indices":[0],"split_type":[0],"sum_hessian":[8.446077E-1],"tree_param":{"num_deleted":"0","num_feature":"768","num_nodes":"1","size_leaf_vector":"1"}},{"base_weights":[0E0],"categories":[],"categories_nodes":[],"categories_segments":[],"categories_sizes":[],"default_left":[0],"id":121,"left_children":[-1],"loss_changes":[0E0],"parents":[2147483647],"right_children":[-1],"split_conditions":[0E0],"split_indices":[0],"split_type":[0],"sum_hessian":[8.446077E-1],"tree_param":{"num_deleted":"0","num_feature":"768","num_nodes":"1","size_leaf_vector":"1"}},{"base_weights":[0E0],"categories":[],"categories_nodes":[],"categories_segments":[],"categories_sizes":[],"default_left":[0],"id":122,"left_children":[-1],"loss_changes":[0E0],"parents":[2147483647],"right_children":[-1],"split_conditions":[0E0],"split_indices":[0],"split_type":[0],"sum_hessian":[8.446077E-1],"tree_param":{"num_deleted":"0","num_feature":"768","num_nodes":"1","size_leaf_vector":"1"}},{"base_weights":[0E0],"categories":[],"categories_nodes":[],"categories_segments":[],"categories_sizes":[],"default_left":[0],"id":123,"left_children":[-1],"loss_changes":[0E0],"parents":[2147483647],"right_children":[-1],"split_conditions":[0E0],"split_indices":[0],"split_type":[0],"sum_hessian":[8.446077E-1],"tree_param":{"num_deleted":"0","num_feature":"768","num_nodes":"1","size_leaf_vector":"1"}},{"base_weights":[0E0],"categories":[],"categories_nodes":[],"categories_segments":[],"categories_sizes":[],"default_left":[0],"id":124,"left_children":[-1],"loss_changes":[0E0],"parents":[2147483647],"right_children":[-1],"split_conditions":[0E0],"split_indices":[0],"split_type":[0],"sum_hessian":[8.446077E-1],"tree_param":{"num_deleted":"0","num_feature":"768","num_nodes":"1","size_leaf_vector":"1"}},{"base_weights":[0E0],"categories":[],"categories_nodes":[],"categories_segments":[],"categories_sizes":[],"default_left":[0],"id":125,"left_children":[-1],"loss_changes":[0E0],"parents":[2147483647],"right_children":[-1],"split_conditions":[0E0],"split_indices":[0],"split_type":[0],"sum_hessian":[8.446077E-1],"tree_param":{"num_deleted":"0","num_feature":"768","num_nodes":"1","size_leaf_vector":"1"}},{"base_weights":[0E0],"categories":[],"categories_nodes":[],"categories_segments":[],"categories_sizes":[],"default_left":[0],"id":126,"left_children":[-1],"loss_changes":[0E0],"parents":[2147483647],"right_children":[-1],"split_conditions":[0E0],"split_indices":[0],"split_type":[0],"sum_hessian":[8.446077E-1],"tree_param":{"num_deleted":"0","num_feature":"768","num_nodes":"1","size_leaf_vector":"1"}},{"base_weights":[0E0],"categories":[],"categories_nodes":[],"categories_segments":[],"categories_sizes":[],"default_left":[0],"id":127,"left_children":[-1],"loss_changes":[0E0],"parents":[2147483647],"right_children":[-1],"split_conditions":[0E0],"split_indices":[0],"split_type":[0],"sum_hessian":[8.446077E-1],"tree_param":{"num_deleted":"0","num_feature":"768","num_nodes":"1","size_leaf_vector":"1"}},{"base_weights":[0E0],"categories":[],"categories_nodes":[],"categories_segments":[],"categories_sizes":[],"default_left":[0],"id":128,"left_children":[-1],"loss_changes":[0E0],"parents":[2147483647],"right_children":[-1],"split_conditions":[0E0],"split_indices":[0],"split_type":[0],"sum_hessian":[8.446077E-1],"tree_param":{"num_deleted":"0","num_feature":"768","num_nodes":"1","size_leaf_vector":"1"}},{"base_weights":[0E0],"categories":[],"categories_nodes":[],"categories_segments":[],"categories_sizes":[],"default_left":[0],"id":129,"left_children":[-1],"loss_changes":[0E0],"parents":[2147483647],"right_children":[-1],"split_conditions":[0E0],"split_indices":[0],"split_type":[0],"sum_hessian":[8.446077E-1],"tree_param":{"num_deleted":"0","num_feature":"768","num_nodes":"1","size_leaf_vector":"1"}},{"base_weights":[0E0],"categories":[],"categories_nodes":[],"categories_segments":[],"categories_sizes":[],"default_left":[0],"id":130,"left_children":[-1],"loss_changes":[0E0],"parents":[2147483647],"right_children":[-1],"split_conditions":[0E0],"split_indices":[0],"split_type":[0],"sum_hessian":[8.446077E-1],"tree_param":{"num_deleted":"0","num_feature":"768","num_nodes":"1","size_leaf_vector":"1"}},{"base_weights":[0E0],"categories":[],"categories_nodes":[],"categories_segments":[],"categories_sizes":[],"default_left":[0],"id":131,"left_children":[-1],"loss_changes":[0E0],"parents":[2147483647],"right_children":[-1],"split_conditions":[0E0],"split_indices":[0],"split_type":[0],"sum_hessian":[8.446077E-1],"tree_param":{"num_deleted":"0","num_feature":"768","num_nodes":"1","size_leaf_vector":"1"}},{"base_weights":[0E0],"categories":[],"categories_nodes":[],"categories_segments":[],"categories_sizes":[],"default_left":[0],"id":132,"left_children":[-1],"loss_changes":[0E0],"parents":[2147483647],"right_children":[-1],"split_conditions":[0E0],"split_indices":[0],"split_type":[0],"sum_hessian":[8.446077E-1],"tree_param":{"num_deleted":"0","num_feature":"768","num_nodes":"1","size_leaf_vector":"1"}},{"base_weights":[0E0],"categories":[],"categories_nodes":[],"categories_segments":[],"categories_sizes":[],"default_left":[0],"id":133,"left_children":[-1],"loss_changes":[0E0],"parents":[2147483647],"right_children":[-1],"split_conditions":[0E0],"split_indices":[0],"split_type":[0],"sum_hessian":[8.446077E-1],"tree_param":{"num_deleted":"0","num_feature":"768","num_nodes":"1","size_leaf_vector":"1"}},{"base_weights":[0E0],"categories":[],"categories_nodes":[],"categories_segments":[],"categories_sizes":[],"default_left":[0],"id":134,"left_children":[-1],"loss_changes":[0E0],"parents":[2147483647],"right_children":[-1],"split_conditions":[0E0],"split_indices":[0],"split_type":[0],"sum_hessian":[8.446077E-1],"tree_param":{"num_deleted":"0","num_feature":"768","num_nodes":"1","size_leaf_vector":"1"}},{"base_weights":[0E0],"categories":[],"categories_nodes":[],"categories_segments":[],"categories_sizes":[],"default_left":[0],"id":135,"left_children":[-1],"loss_changes":[0E0],"parents":[2147483647],"right_children":[-1],"split_conditions":[0E0],"split_indices":[0],"split_type":[0],"sum_hessian":[8.446077E-1],"tree_param":{"num_deleted":"0","num_feature":"768","num_nodes":"1","size_leaf_vector":"1"}},{"base_weights":[0E0],"categories":[],"categories_nodes":[],"categories_segments":[],"categories_sizes":[],"default_left":[0],"id":136,"left_children":[-1],"loss_changes":[0E0],"parents":[2147483647],"right_children":[-1],"split_conditions":[0E0],"split_indices":[0],"split_type":[0],"sum_hessian":[8.446077E-1],"tree_param":{"num_deleted":"0","num_feature":"768","num_nodes":"1","size_leaf_vector":"1"}},{"base_weights":[0E0],"categories":[],"categories_nodes":[],"categories_segments":[],"categories_sizes":[],"default_left":[0],"id":137,"left_children":[-1],"loss_changes":[0E0],"parents":[2147483647],"right_children":[-1],"split_conditions":[0E0],"split_indices":[0],"split_type":[0],"sum_hessian":[8.446077E-1],"tree_param":{"num_deleted":"0","num_feature":"768","num_nodes":"1","size_leaf_vector":"1"}},{"base_weights":[0E0],"categories":[],"categories_nodes":[],"categories_segments":[],"categories_sizes":[],"default_left":[0],"id":138,"left_children":[-1],"loss_changes":[0E0],"parents":[2147483647],"right_children":[-1],"split_conditions":[0E0],"split_indices":[0],"split_type":[0],"sum_hessian":[8.446077E-1],"tree_param":{"num_deleted":"0","num_feature":"768","num_nodes":"1","size_leaf_vector":"1"}},{"base_weights":[0E0],"categories":[],"categories_nodes":[],"categories_segments":[],"categories_sizes":[],"default_left":[0],"id":139,"left_children":[-1],"loss_changes":[0E0],"parents":[2147483647],"right_children":[-1],"split_conditions":[0E0],"split_indices":[0],"split_type":[0],"sum_hessian":[8.446077E-1],"tree_param":{"num_deleted":"0","num_feature":"768","num_nodes":"1","size_leaf_vector":"1"}},{"base_weights":[0E0],"categories":[],"categories_nodes":[],"categories_segments":[],"categories_sizes":[],"default_left":[0],"id":140,"left_children":[-1],"loss_changes":[0E0],"parents":[2147483647],"right_children":[-1],"split_conditions":[0E0],"split_indices":[0],"split_type":[0],"sum_hessian":[8.446077E-1],"tree_param":{"num_deleted":"0","num_feature":"768","num_nodes":"1","size_leaf_vector":"1"}},{"base_weights":[0E0],"categories":[],"categories_nodes":[],"categories_segments":[],"categories_sizes":[],"default_left":[0],"id":141,"left_children":[-1],"loss_changes":[0E0],"parents":[2147483647],"right_children":[-1],"split_conditions":[0E0],"split_indices":[0],"split_type":[0],"sum_hessian":[8.446077E-1],"tree_param":{"num_deleted":"0","num_feature":"768","num_nodes":"1","size_leaf_vector":"1"}},{"base_weights":[0E0],"categories":[],"categories_nodes":[],"categories_segments":[],"categories_sizes":[],"default_left":[0],"id":142,"left_children":[-1],"loss_changes":[0E0],"parents":[2147483647],"right_children":[-1],"split_conditions":[0E0],"split_indices":[0],"split_type":[0],"sum_hessian":[8.446077E-1],"tree_param":{"num_deleted":"0","num_feature":"768","num_nodes":"1","size_leaf_vector":"1"}},{"base_weights":[0E0],"categories":[],"categories_nodes":[],"categories_segments":[],"categories_sizes":[],"default_left":[0],"id":143,"left_children":[-1],"loss_changes":[0E0],"parents":[2147483647],"right_children":[-1],"split_conditions":[0E0],"split_indices":[0],"split_type":[0],"sum_hessian":[8.446077E-1],"tree_param":{"num_deleted":"0","num_feature":"768","num_nodes":"1","size_leaf_vector":"1"}},{"base_weights":[0E0],"categories":[],"categories_nodes":[],"categories_segments":[],"categories_sizes":[],"default_left":[0],"id":144,"left_children":[-1],"loss_changes":[0E0],"parents":[2147483647],"right_children":[-1],"split_conditions":[0E0],"split_indices":[0],"split_type":[0],"sum_hessian":[8.446077E-1],"tree_param":{"num_deleted":"0","num_feature":"768","num_nodes":"1","size_leaf_vector":"1"}},{"base_weights":[0E0],"categories":[],"categories_nodes":[],"categories_segments":[],"categories_sizes":[],"default_left":[0],"id":145,"left_children":[-1],"loss_changes":[0E0],"parents":[2147483647],"right_children":[-1],"split_conditions":[0E0],"split_indices":[0],"split_type":[0],"sum_hessian":[8.446077E-1],"tree_param":{"num_deleted":"0","num_feature":"768","num_nodes":"1","size_leaf_vector":"1"}},{"base_weights":[0E0],"categories":[],"categories_nodes":[],"categories_segments":[],"categories_sizes":[],"default_left":[0],"id":146,"left_children":[-1],"loss_changes":[0E0],"parents":[2147483647],"right_children":[-1],"split_conditions":[0E0],"split_indices":[0],"split_type":[0],"sum_hessian":[8.446077E-1],"tree_param":{"num_deleted":"0","num_feature":"768","num_nodes":"1","size_leaf_vector":"1"}},{"base_weights":[0E0],"categories":[],"categories_nodes":[],"categories_segments":[],"categories_sizes":[],"default_left":[0],"id":147,"left_children":[-1],"loss_changes":[0E0],"parents":[2147483647],"right_children":[-1],"split_conditions":[0E0],"split_indices":[0],"split_type":[0],"sum_hessian":[8.446077E-1],"tree_param":{"num_deleted":"0","num_feature":"768","num_nodes":"1","size_leaf_vector":"1"}},{"base_weights":[0E0],"categories":[],"categories_nodes":[],"categories_segments":[],"categories_sizes":[],"default_left":[0],"id":148,"left_children":[-1],"loss_changes":[0E0],"parents":[2147483647],"right_children":[-1],"split_conditions":[0E0],"split_indices":[0],"split_type":[0],"sum_hessian":[8.446077E-1],"tree_param":{"num_deleted":"0","num_feature":"768","num_nodes":"1","size_leaf_vector":"1"}},{"base_weights":[0E0],"categories":[],"categories_nodes":[],"categories_segments":[],"categories_sizes":[],"default_left":[0],"id":149,"left_children":[-1],"loss_changes":[0E0],"parents":[2147483647],"right_children":[-1],"split_conditions":[0E0],"split_indices":[0],"split_type":[0],"sum_hessian":[8.446077E-1],"tree_param":{"num_deleted":"0","num_feature":"768","num_nodes":"1","size_leaf_vector":"1"}}]},"name":"gbtree"},"learner_model_param":{"base_score":"[5E-1]","boost_from_average":"1","num_class":"0","num_feature":"768","num_target":"1"},"objective":{"name":"binary:logistic","reg_loss_param":{"scale_pos_weight":"1"}}},"version":[3,2,0]}