{"learner":{"attributes":{},"feature_names":[],"feature_types":[],"gradient_booster":{"model":{"cats":{"enc":[],"feature_segments":[],"sorted_idx":[]},"gbtree_model_param":{"num_parallel_tree":"1","num_trees":"150"},"iteration_indptr":[0,1,2,3,4,5,6,7,8,9,10,11,12,13,14,15,16,17,18,19,20,21,22,23,24,25,26,27,28,29,30,31,32,33,34,35,36,37,38,39,40,41,42,43,44,45,46,47,48,49,50,51,52,53,54,55,56,57,58,59,60,61,62,63,64,65,66,67,68,69,70,71,72,73,74,75,76,77,78,79,80,81,82,83,84,85,86,87,88,89,90,91,92,93,94,95,96,97,98,99,100,101,102,103,104,105,106,107,108,109,110,111,112,113,114,115,116,117,118,119,120,121,122,123,124,125,126,127,128,129,130,131,132,133,134,135,136,137,138,139,140,141,142,143,144,145,146,147,148,149,150],"tree_info":[0,0,0,0,0,0,0,0,0,0,0,0,0,0,0,0,0,0,0,0,0,0,0,0,0,0,0,0,0,0,0,0,0,0,0,0,0,0,0,0,0,0,0,0,0,0,0,0,0,0,0,0,0,0,0,0,0,0,0,0,0,0,0,0,0,0,0,0,0,0,0,0,0,0,0,0,0,0,0,0,0,0,0,0,0,0,0,0,0,0,0,0,0,0,0,0,0,0,0,0,0,0,0,0,0,0,0,0,0,0,0,0,0,0,0,0,0,0,0,0,0,0,0,0,0,0,0,0,0,0,0,0,0,0,0,0,0,0,0,0,0,0,0,0,0,0,0,0,0,0],"trees":[{"base_weights":[-1.1785275E1,-2.0315166E1,-2.542278E0,-2.415283E1,-1.105176E1,-9.232907E0,8.462375E0,-2.6631712E1,-1.5677643E1,-1.8170576E1,-4.0111732E0,-3.5135133E0,-1.9935274E1,1.2291525E1,-5.984496E0,-9.73913E0,-2.7484175E1,-1.9613052E1,-3.361702E0,-2.0469135E1,-1.1153846E-1,-9.769231E0,3.3735847E0,5.20548E-1,-1.2327272E1,-2.2055458E1,2.506173E-1,1.4067961E1,-3.5346535E-1,4.6952382E-1,-1.3108808E1,-6.468085E-1,-7.619047E-2,-1.4464229E0,-1.6561798E1,-2.050505E-1,-2.1643242E1,-9.512195E0,2.5619048E-1,-2.7083334E-1,-2.2263609E1,-1.4057971E1,-9.517241E-1,-3.2537313E0,7.7777777E0,3.85822E0,-8.3083E0,1.2280703E-2,-1.5350482E1,-2.3972815E1,-1.8627451E-1,1.7585737E1,4.4872727E0,-8.8723403E-1,-1.5217391E-2,-1.9352112E1,-1.5957446E-1,-1.1393939E0,-3.05E-1,-7.2839506E-2,-6.4146346E-1,-1.209091E0,-3.195652E-1,-1.5365854E-1,-8.0545455E-1,-3.626506E-1,2.2745097E-1,-3.7777779E-1,1.4523809E-1,1.1096774E1,-2.643678E-2,-6.2E0,7.0248566E0,1.0888889E-1,-1.1320197E1,-1.7310862E1,-9.0476185E-2,-9.808E0,-1.2930232E0,4.9117646E0,1.9655172E1,-2.628866E-1,8E0,-1.08773E0,-3.2000002E-1,6.738095E-1,1.525E-1,-9.787879E0,1E-1,9.654545E0,-4.6666665E0,-7.111111E-1,3.7037046E-3,-1.9345453E1,-2.1034482E-1,-6.3855425E-2,-6.8292683E-1,4.5157894E-1,-1.17283955E-1,2.090337E1,2.2045456E-1,-2.4999999E-2,1.0517647E1,-5.9555554E-1,-1.3414633E-1,-1.5301205E-1,1.134005E1,-4.1463414E-1,6.54321E-2,-2.5555557E-1,-1.0731844E0,3.8318583E-1,2.267742E1,6.085271E-1,1.345679E-1,1.3165217E1,-2.1739129E-2,1.204644E0,3.6741573E-1,3.253012E-2,1.4860927E1,1.65214E1,1.4235294E-1,9.018779E-1,2.4047618E-1],"categories":[],"categories_nodes":[],"categories_segments":[],"categories_sizes":[],"default_left":[0,0,0,0,0,0,0,0,0,0,0,0,0,0,0,0,0,0,0,0,0,0,0,0,0,0,0,0,0,0,0,0,0,0,0,0,0,0,0,0,0,0,0,0,0,0,0,0,0,0,0,0,0,0,0,0,0,0,0,0,0,0,0,0,0,0,0,0,0,0,0,0,0,0,0,0,0,0,0,0,0,0,0,0,0,0,0,0,0,0,0,0,0,0,0,0,0,0,0,0,0,0,0,0,0,0,0,0,0,0,0,0,0,0,0,0,0,0,0,0,0,0,0,0,0],"id":0,"left_children":[1,3,5,7,9,11,13,15,17,19,21,23,25,27,29,31,33,35,37,39,-1,41,43,45,47,49,-1,51,-1,-1,53,-1,-1,-1,55,-1,57,59,-1,-1,61,63,65,67,69,71,73,-1,75,77,-1,79,81,-1,-1,83,-1,-1,-1,-1,-1,-1,-1,-1,-1,-1,-1,-1,-1,85,-1,87,89,-1,91,93,-1,95,-1,97,99,-1,101,-1,-1,-1,-1,103,-1,105,107,-1,-1,109,-1,-1,-1,-1,-1,111,-1,-1,113,-1,-1,-1,115,-1,-1,-1,-1,-1,117,-1,-1,119,-1,-1,-1,-1,121,123,-1,-1,-1],"loss_changes":[1.15144375E4,2.4401875E3,5.346219E3,6.959531E2,1.1375281E3,2.6829246E3,1.5989867E3,3.022207E2,6.3322144E2,3.8392603E2,6.0381323E2,1.0917407E3,9.277549E2,8.604016E2,8.296058E2,7.0901E1,1.0653711E2,2.4899707E2,2.94032E2,1.5289404E2,0E0,2.815855E2,2.1867715E2,6.774001E2,3.6962097E2,4.1765723E2,0E0,6.153638E2,0E0,0E0,2.8101062E2,0E0,0E0,0E0,1.8726453E2,0E0,2.5563965E1,6.3475586E1,0E0,0E0,1.1109131E2,6.709271E1,1.58643E2,1.10697815E2,1.2372592E2,5.7147986E2,2.2441519E2,0E0,1.7506616E2,9.0615234E1,0E0,2.8966553E2,2.774037E2,0E0,0E0,2.6470459E1,0E0,0E0,0E0,0E0,0E0,0E0,0E0,0E0,0E0,0E0,0E0,0E0,0E0,1.8252197E1,0E0,1.5196846E2,4.4704626E2,0E0,1.6886578E2,9.657971E1,0E0,8.520816E1,0E0,1.2284286E2,1.4238086E2,0E0,1.21888824E2,0E0,0E0,0E0,0E0,1.7825409E1,0E0,2.704425E2,7.747685E1,0E0,0E0,5.6130615E1,0E0,0E0,0E0,0E0,0E0,8.75083E1,0E0,0E0,2.222287E1,0E0,0E0,0E0,2.1902258E2,0E0,0E0,0E0,0E0,0E0,2.4747559E1,0E0,0E0,1.7336389E2,0E0,0E0,0E0,0E0,1.0357532E2,2.7337036E1,0E0,0E0,0E0],"parents":[2147483647,0,0,1,1,2,2,3,3,4,4,5,5,6,6,7,7,8,8,9,9,10,10,11,11,12,12,13,13,14,14,15,15,16,16,17,17,18,18,19,19,21,21,22,22,23,23,24,24,25,25,27,27,30,30,34,34,36,36,37,37,40,40,41,41,42,42,43,43,44,44,45,45,46,46,48,48,49,49,51,51,52,52,55,55,69,69,71,71,72,72,74,74,75,75,77,77,79,79,80,80,82,82,87,87,89,89,90,90,93,93,99,99,102,102,106,106,112,112,115,115,120,120,121,121],"right_children":[2,4,6,8,10,12,14,16,18,20,22,24,26,28,30,32,34,36,38,40,-1,42,44,46,48,50,-1,52,-1,-1,54,-1,-1,-1,56,-1,58,60,-1,-1,62,64,66,68,70,72,74,-1,76,78,-1,80,82,-1,-1,84,-1,-1,-1,-1,-1,-1,-1,-1,-1,-1,-1,-1,-1,86,-1,88,90,-1,92,94,-1,96,-1,98,100,-1,102,-1,-1,-1,-1,104,-1,106,108,-1,-1,110,-1,-1,-1,-1,-1,112,-1,-1,114,-1,-1,-1,116,-1,-1,-1,-1,-1,118,-1,-1,120,-1,-1,-1,-1,122,124,-1,-1,-1],"split_conditions":[1.0448796E-1,3.9685875E-1,7.990825E-2,-6.250891E-2,-6.141901E-2,1.2587622E-2,5.9736498E-2,-3.129772E-1,4.55032E-2,2.4758898E-1,7.577261E-2,2.5110804E-2,3.8370785E-1,-1.0544035E-1,-4.2489326E-1,6.2711805E-2,-1.9468661E-2,8.751512E-3,-1.3579886E-1,-2.14704E-1,-1.1153846E-1,1.5171023E-1,-1.2180641E-1,2.1760594E-2,1.5271717E-1,1.13289475E-1,2.506173E-1,1.6750861E-2,-3.5346535E-1,4.6952382E-1,3.4044772E-2,-6.468085E-1,-7.619047E-2,-1.4464229E0,1.8797463E-1,-2.050505E-1,5.5764556E-1,-7.7546924E-2,2.5619048E-1,-2.7083334E-1,-1.175813E-1,-1.6207641E-1,6.4637996E-2,-9.0022564E-2,2.3157024E-1,-5.560231E-2,-2.9046261E0,1.2280703E-2,-5.0475072E-2,-1.716134E-1,-1.8627451E-1,-7.795043E-2,-1.8937512E-1,-8.8723403E-1,-1.5217391E-2,-3.399931E-2,-1.5957446E-1,-1.1393939E0,-3.05E-1,-7.2839506E-2,-6.4146346E-1,-1.209091E0,-3.195652E-1,-1.5365854E-1,-8.0545455E-1,-3.626506E-1,2.2745097E-1,-3.7777779E-1,1.4523809E-1,1.5093504E-1,-2.643678E-2,5.7556786E-2,2.785346E-1,1.0888889E-1,3.7970525E-1,1.2365595E-1,-9.0476185E-2,-2.769895E-3,-1.2930232E0,-4.1949365E-1,-1.6853197E-2,-2.628866E-1,4.264823E-1,-1.08773E0,-3.2000002E-1,6.738095E-1,1.525E-1,6.0893692E-2,1E-1,3.162881E-1,5.4618657E-1,-7.111111E-1,3.7037046E-3,-1.7207757E-1,-2.1034482E-1,-6.3855425E-2,-6.8292683E-1,4.5157894E-1,-1.17283955E-1,1.8215998E-1,2.2045456E-1,-2.4999999E-2,-6.9673434E-3,-5.9555554E-1,-1.3414633E-1,-1.5301205E-1,2.8015104E-1,-4.1463414E-1,6.54321E-2,-2.5555557E-1,-1.0731844E0,3.8318583E-1,1.8255562E-1,6.085271E-1,1.345679E-1,-3.6279085E-1,-2.1739129E-2,1.204644E0,3.6741573E-1,3.253012E-2,-1.8998941E-2,1.5606785E-1,1.4235294E-1,9.018779E-1,2.4047618E-1],"split_indices":[707,545,328,716,531,424,424,195,328,37,328,255,376,666,147,642,388,167,56,354,0,642,48,325,472,716,0,160,0,0,733,0,0,0,339,0,518,321,0,0,21,424,577,266,678,73,109,0,5,359,0,152,521,0,0,86,0,0,0,0,0,0,0,0,0,0,0,0,0,683,0,531,254,0,324,122,0,372,0,258,354,0,6,0,0,0,0,371,0,715,636,0,0,150,0,0,0,0,0,692,0,0,456,0,0,0,97,0,0,0,0,0,627,0,0,532,0,0,0,0,413,164,0,0,0],"split_type":[0,0,0,0,0,0,0,0,0,0,0,0,0,0,0,0,0,0,0,0,0,0,0,0,0,0,0,0,0,0,0,0,0,0,0,0,0,0,0,0,0,0,0,0,0,0,0,0,0,0,0,0,0,0,0,0,0,0,0,0,0,0,0,0,0,0,0,0,0,0,0,0,0,0,0,0,0,0,0,0,0,0,0,0,0,0,0,0,0,0,0,0,0,0,0,0,0,0,0,0,0,0,0,0,0,0,0,0,0,0,0,0,0,0,0,0,0,0,0,0,0,0,0,0,0],"sum_hessian":[1.457E2,7.515E1,7.055E1,5.2E1,2.315E1,4.3975002E1,2.6575E1,3.8575E1,1.3425E1,1.0725E1,1.2425E1,2.9525E1,1.445E1,2.1125E1,5.4500003E0,2.45E0,3.6125E1,9.725E0,3.7E0,9.125E0,1.6E0,6.8E0,5.625E0,2.09E1,8.625E0,1.3425E1,1.025E0,1.96E1,1.525E0,1.625E0,3.825E0,1.35E0,1.1E0,3.045E1,5.675E0,1.475E0,8.25E0,2.075E0,1.625E0,1.4E0,7.725E0,4.175E0,2.625E0,2.3500001E0,3.275E0,1.5575E1,5.3250003E0,1.85E0,6.775E0,1.1875E1,1.5500001E0,1.3725E1,5.875E0,2.525E0,1.3000001E0,4.3250003E0,1.35E0,7.25E0,1E0,1.025E0,1.0500001E0,6.425E0,1.3000001E0,1.0500001E0,3.125E0,1.075E0,1.5500001E0,1.25E0,1.1E0,2.1000001E0,1.1750001E0,3.5E0,1.2075E1,1.25E0,4.0750003E0,5.675E0,1.1E0,2.125E0,9.75E0,2.4E0,1.1325E1,1.4250001E0,4.4500003E0,3.075E0,1.25E0,1.1E0,1E0,2.3E0,1.2E0,1E1,2.075E0,3.05E0,1.025E0,4.5E0,1.1750001E0,1.075E0,1.0500001E0,1.375E0,1.025E0,1.0125E1,1.2E0,1.2E0,3.25E0,1.25E0,1.0500001E0,1.075E0,8.925E0,1.0500001E0,1.025E0,1.025E0,3.4750001E0,1.825E0,8.3E0,2.2250001E0,1.025E0,7.625E0,1.3000001E0,7.0750003E0,1.225E0,1.075E0,6.55E0,5.425E0,1.125E0,4.3250003E0,1.1E0],"tree_param":{"num_deleted":"0","num_feature":"768","num_nodes":"125","size_leaf_vector":"1"}},{"base_weights":[-1.3750573E1,-2.5261623E1,-2.785401E0,-3.208669E1,-1.1937661E1,-1.0136118E1,9.157903E0,-3.749429E1,-1.7655552E1,-2.1035011E1,-4.108129E0,-3.674312E0,-2.437913E1,1.51083E1,-2.479884E0,-4.182733E1,-1.7252611E1,-2.3083538E1,-3.388145E0,-2.4394218E1,-1.1039422E-1,-1.0066542E1,3.2196875E0,5.1141673E-1,-1.30925665E1,-2.9406546E1,-7.0367527E-1,3.4749246E-1,1.8405066E1,4.848223E0,-1.3741481E1,-5.138846E-1,-2.2037747E0,-2.0546877E1,-7.9303555E-2,-2.0020716E-1,-2.6348438E1,-4.7977796E-1,2.5082403E-1,-2.6977393E-1,-2.7376095E1,-1.4897615E1,-9.3523973E-1,-3.5096393E0,7.739184E0,-6.5435753E0,5.0596957E0,1.18824085E-2,-1.6696962E1,-8.368674E0,-1.7147702E0,-4.2800346E-1,3.5160732E-1,3.9162955E-1,-5.254201E-1,3.749993E0,2.079966E1,9.993877E0,-3.396505E-1,-1.0008464E-1,-9.052543E-1,-1.2073317E0,-3.0581507E-1,-1.4252733E0,-3.3633727E-1,-1.5551473E0,-2.9750374E-1,-1.5018338E-1,-8.7316227E-1,-3.5934755E-1,2.2116517E-1,-3.973093E-1,1.4210035E-1,5.590865E-1,-2.4093712E-2,-1.2614533E1,1.8271252E0,8.65145E0,-3.2659218E0,-1.9214867E1,-8.820262E-2,-1.3163432E-2,-6.52955E-1,3.7488502E-1,-8.9556836E-2,2.2384901E1,1.4209175E-1,1.4139273E1,-8.318744E-3,-6.355297E-2,-8.630516E-1,-2.398031E-1,3.6415103E-1,-2.5321526E-2,1.1041492E1,-7.791174E0,2.9544374E-1,-2.2103554E1,-2.0590535E-1,1.883395E-1,2.4024862E1,2.2208512E-1,8.2325774E-1,1.3278052E1,6.908368E-2,5.9247017E-2,-5.977299E-1,-2.511762E-1,-1.2728038E0,2.8023133E-1,1.2869288E0,1.3624763E-1,7.685533E-1],"categories":[],"categories_nodes":[],"categories_segments":[],"categories_sizes":[],"default_left":[0,0,0,0,0,0,0,0,0,0,0,0,0,0,0,0,0,0,0,0,0,0,0,0,0,0,0,0,0,0,0,0,0,0,0,0,0,0,0,0,0,0,0,0,0,0,0,0,0,0,0,0,0,0,0,0,0,0,0,0,0,0,0,0,0,0,0,0,0,0,0,0,0,0,0,0,0,0,0,0,0,0,0,0,0,0,0,0,0,0,0,0,0,0,0,0,0,0,0,0,0,0,0,0,0,0,0,0,0,0,0,0,0],"id":1,"left_children":[1,3,5,7,9,11,13,15,17,19,21,23,25,27,29,31,33,35,37,39,-1,41,43,45,47,49,51,53,55,57,59,-1,-1,61,-1,-1,63,-1,-1,-1,65,67,69,71,73,75,77,-1,79,81,-1,-1,-1,-1,-1,83,85,87,-1,-1,-1,-1,-1,-1,-1,-1,-1,-1,-1,-1,-1,-1,-1,-1,-1,89,91,93,95,97,-1,-1,-1,-1,-1,99,-1,101,-1,-1,-1,-1,-1,-1,103,105,-1,107,-1,-1,109,-1,-1,111,-1,-1,-1,-1,-1,-1,-1,-1,-1],"loss_changes":[1.5184816E4,4.9675938E3,5.62566E3,2.328121E3,1.4466228E3,3.544575E3,1.7365581E3,1.6449062E3,8.76979E2,5.604155E2,5.9173254E2,1.1239409E3,1.4249907E3,7.9050366E2,8.2255383E2,1.0735625E3,3.0078613E2,4.4035205E2,2.8662268E2,3.1358936E2,0E0,3.0843494E2,2.2492647E2,6.9357605E2,4.247428E2,7.408877E2,2.5175566E2,4.0806815E2,3.9108594E2,4.445655E2,1.620957E2,0E0,0E0,1.25218506E2,0E0,0E0,1.1735498E2,0E0,0E0,0E0,3.5733057E2,9.133948E1,1.522383E2,1.1559146E2,1.2431111E2,4.5521713E2,4.193562E2,0E0,2.2582654E2,1.1849623E2,0E0,0E0,0E0,0E0,0E0,7.774965E1,2.5720312E2,2.030621E2,0E0,0E0,0E0,0E0,0E0,0E0,0E0,0E0,0E0,0E0,0E0,0E0,0E0,0E0,0E0,0E0,0E0,2.4453583E2,1.9567712E2,2.1157733E2,2.3983319E2,1.6234033E2,0E0,0E0,0E0,0E0,0E0,2.2124707E2,0E0,3.4678955E0,0E0,0E0,0E0,0E0,0E0,0E0,1.4384314E2,1.471044E2,0E0,1.3825488E2,0E0,0E0,1.4608496E2,0E0,0E0,9.019055E1,0E0,0E0,0E0,0E0,0E0,0E0,0E0,0E0,0E0],"parents":[2147483647,0,0,1,1,2,2,3,3,4,4,5,5,6,6,7,7,8,8,9,9,10,10,11,11,12,12,13,13,14,14,15,15,16,16,17,17,18,18,19,19,21,21,22,22,23,23,24,24,25,25,26,26,27,27,28,28,29,29,30,30,33,33,36,36,40,40,41,41,42,42,43,43,44,44,45,45,46,46,48,48,49,49,55,55,56,56,57,57,75,75,76,76,77,77,78,78,79,79,85,85,87,87,94,94,95,95,97,97,100,100,103,103],"right_children":[2,4,6,8,10,12,14,16,18,20,22,24,26,28,30,32,34,36,38,40,-1,42,44,46,48,50,52,54,56,58,60,-1,-1,62,-1,-1,64,-1,-1,-1,66,68,70,72,74,76,78,-1,80,82,-1,-1,-1,-1,-1,84,86,88,-1,-1,-1,-1,-1,-1,-1,-1,-1,-1,-1,-1,-1,-1,-1,-1,-1,90,92,94,96,98,-1,-1,-1,-1,-1,100,-1,102,-1,-1,-1,-1,-1,-1,104,106,-1,108,-1,-1,110,-1,-1,112,-1,-1,-1,-1,-1,-1,-1,-1,-1],"split_conditions":[1.0448796E-1,3.9685875E-1,7.990825E-2,-6.250891E-2,-6.303593E-2,1.2587622E-2,-3.416953E-1,-1.9468661E-2,4.55032E-2,2.4758898E-1,7.577261E-2,2.5110804E-2,1.13289475E-1,-1.8937512E-1,1.623635E-1,-3.1697428E-1,2.1427184E-1,8.751512E-3,-1.3579886E-1,-2.14704E-1,-1.1039422E-1,1.5171023E-1,-1.24708176E-1,-7.2481796E-2,1.5271717E-1,-1.716134E-1,3.2859094E-2,-1.7722704E-2,-2.2728175E-1,9.146091E-2,-1.6339713E0,-5.138846E-1,-2.2037747E0,-3.399931E-2,-7.9303555E-2,-2.0020716E-1,5.5342096E-1,-4.7977796E-1,2.5082403E-1,-2.6977393E-1,-1.175813E-1,-1.6207641E-1,6.4637996E-2,-8.4148474E-2,2.3157024E-1,4.754322E-1,6.4055085E-2,1.18824085E-2,-5.0475072E-2,-1.1740498E-2,-1.7147702E0,-4.2800346E-1,3.5160732E-1,3.9162955E-1,-5.254201E-1,8.115936E-2,2.785346E-1,4.1192412E-2,-3.396505E-1,-1.0008464E-1,-9.052543E-1,-1.2073317E0,-3.0581507E-1,-1.4252733E0,-3.3633727E-1,-1.5551473E0,-2.9750374E-1,-1.5018338E-1,-8.7316227E-1,-3.5934755E-1,2.2116517E-1,-3.973093E-1,1.4210035E-1,5.590865E-1,-2.4093712E-2,-1.0014782E-1,1.8082793E-1,-1.8490407E-1,9.380106E-2,1.2365595E-1,-8.820262E-2,-1.3163432E-2,-6.52955E-1,3.7488502E-1,-8.9556836E-2,-1.7305676E-2,1.4209175E-1,6.441003E-2,-8.318744E-3,-6.355297E-2,-8.630516E-1,-2.398031E-1,3.6415103E-1,-2.5321526E-2,1.471482E-1,-1.3244522E-1,2.9544374E-1,-1.7207757E-1,-2.0590535E-1,1.883395E-1,-2.4986818E-1,2.2208512E-1,8.2325774E-1,3.4286216E-2,6.908368E-2,5.9247017E-2,-5.977299E-1,-2.511762E-1,-1.2728038E0,2.8023133E-1,1.2869288E0,1.3624763E-1,7.685533E-1],"split_indices":[707,545,328,716,531,424,618,388,328,37,328,255,716,521,167,195,339,167,56,354,0,642,48,531,472,359,631,255,272,340,470,0,0,86,0,0,518,0,0,0,21,424,577,266,678,743,416,0,5,372,0,0,0,0,0,695,254,255,0,0,0,0,0,0,0,0,0,0,0,0,0,0,0,0,0,155,489,598,531,122,0,0,0,0,0,675,0,556,0,0,0,0,0,0,744,424,0,150,0,0,188,0,0,181,0,0,0,0,0,0,0,0,0],"split_type":[0,0,0,0,0,0,0,0,0,0,0,0,0,0,0,0,0,0,0,0,0,0,0,0,0,0,0,0,0,0,0,0,0,0,0,0,0,0,0,0,0,0,0,0,0,0,0,0,0,0,0,0,0,0,0,0,0,0,0,0,0,0,0,0,0,0,0,0,0,0,0,0,0,0,0,0,0,0,0,0,0,0,0,0,0,0,0,0,0,0,0,0,0,0,0,0,0,0,0,0,0,0,0,0,0,0,0,0,0,0,0,0,0],"sum_hessian":[1.1986118E2,5.7838993E1,6.202219E1,3.7316032E1,2.052296E1,3.848638E1,2.3535807E1,2.598198E1,1.1334054E1,8.71275E0,1.181021E1,2.7340464E1,1.1145919E1,1.5375902E1,8.1599045E0,2.052244E1,5.4595394E0,7.7628016E0,3.5712523E0,7.1426387E0,1.5701115E0,6.307608E0,5.502602E0,1.9582962E1,7.7575016E0,8.9939995E0,2.1519196E0,3.008988E0,1.2366915E1,5.288246E0,2.8716586E0,1.7357223E0,1.8786718E1,4.253604E0,1.2059358E0,1.4596037E0,6.303198E0,1.972627E0,1.5986253E0,1.3500907E0,5.792548E0,3.712145E0,2.5954628E0,2.3005826E0,3.2020197E0,7.5042176E0,1.2078744E1,1.8499302E0,5.907572E0,2.2072937E0,6.7867055E0,1.0147767E0,1.1371429E0,1.9458357E0,1.0631522E0,2.097303E0,1.0269611E1,3.7653832E0,1.522863E0,1.1734221E0,1.6982365E0,2.865499E0,1.3881049E0,5.271001E0,1.0321972E0,4.5495534E0,1.2429948E0,1.0438265E0,2.6683185E0,1.0404158E0,1.555047E0,1.2066847E0,1.0938979E0,2.0030959E0,1.1989236E0,4.055748E0,3.4484699E0,8.411013E0,3.6677313E0,4.8098197E0,1.0977519E0,1.1962365E0,1.0110573E0,1.0404809E0,1.0568221E0,9.210059E0,1.0595521E0,2.3961322E0,1.3692509E0,1.5486323E0,2.5071156E0,1.6122353E0,1.8362345E0,1.903917E0,6.5070953E0,2.55724E0,1.1104913E0,3.6477213E0,1.1620984E0,1.0124795E0,8.19758E0,1.0263863E0,1.3697461E0,4.9795938E0,1.5275017E0,1.036974E0,1.520266E0,1.0084453E0,2.639276E0,1.0612243E0,7.136356E0,1.205139E0,3.7744548E0],"tree_param":{"num_deleted":"0","num_feature":"768","num_nodes":"113","size_leaf_vector":"1"}},{"base_weights":[-1.9999863E1,-5.0650913E1,-6.294919E0,-8.505171E1,-2.328956E1,1.2095491E0,-3.0701542E1,-1.1746639E2,-2.7526012E1,-3.932146E1,-9.756139E0,-1.0732529E1,1.1623944E1,7.14043E-1,-4.4855972E1,-1.6773555E2,-2.4823582E1,-3.7212223E1,-3.3246997E-1,-4.8301247E1,-2.3825338E-1,-1.7872654E1,6.596635E-1,-1.9864405E1,-2.951382E0,1.9667078E1,1.5694159E0,-6.3191503E-1,1.0492917E1,-5.9684925E1,-1.6382933E1,-1.8072611E0,-9.955873E0,-1.6228884E0,-1.9130129E-1,-5.543483E-1,-2.2020855E0,-5.7538452E1,-4.988149E-1,-1.2424821E0,-4.038923E0,-4.2810097E-1,5.3274956E0,-2.4163515E1,-3.9799367E-3,-1.4191079E1,2.4509046E0,2.5716904E1,5.018421E0,-1.0205929E1,6.0543284E0,7.436454E-1,1.0800208E-5,-7.1083206E-1,-7.709314E1,-2.1424347E1,2.4856811E-2,-5.163098E-1,-3.6756883E0,-3.440062E-1,4.1801214E-2,9.752143E0,-1.9435863E-1,-2.8016298E1,1.3578251E-2,-9.8297024E-1,-1.5932018E-1,-6.5371604E0,7.799775E0,3.0232883E1,2.608046E-1,-2.4235187E-1,1.0965014E1,-8.227E-1,4.1319262E-2,1.0059874E1,-2.2388475E0,-4.5138736E0,-9.783098E-1,-1.3245051E0,-2.547378E-1,6.041781E-1,1.2815128E-1,-3.2464935E1,-3.5234666E-1,-1.0203567E1,1.16529524E-1,1.2622874E1,-1.4548458E0,3.4248463E1,4.0669152E-1,4.5293342E-2,7.4115354E-1,-7.6224536E-2,1.2742436E1,-3.8643637E-1,1.3504489E-1,-1.788893E0,-4.9833605E-1,-6.378059E-1,-1.346995E-1,8.5386686E-2,7.785861E-1,-2.596874E-1,1.5531719E-1,5.0004846E-1,1.9234457E0,1.6511029E-1,7.5851977E-1],"categories":[],"categories_nodes":[],"categories_segments":[],"categories_sizes":[],"default_left":[0,0,0,0,0,0,0,0,0,0,0,0,0,0,0,0,0,0,0,0,0,0,0,0,0,0,0,0,0,0,0,0,0,0,0,0,0,0,0,0,0,0,0,0,0,0,0,0,0,0,0,0,0,0,0,0,0,0,0,0,0,0,0,0,0,0,0,0,0,0,0,0,0,0,0,0,0,0,0,0,0,0,0,0,0,0,0,0,0,0,0,0,0,0,0,0,0,0,0,0,0,0,0,0,0,0,0,0,0],"id":2,"left_children":[1,3,5,7,9,11,13,15,17,19,21,23,25,27,29,31,33,35,-1,37,-1,39,41,43,45,47,49,-1,51,53,55,-1,-1,-1,-1,-1,-1,57,-1,-1,59,-1,61,63,-1,65,67,69,71,73,75,-1,-1,-1,77,79,-1,-1,-1,-1,-1,81,-1,83,-1,-1,-1,85,87,89,-1,-1,91,-1,-1,93,95,-1,-1,-1,-1,-1,-1,97,-1,99,-1,101,103,105,-1,-1,-1,-1,107,-1,-1,-1,-1,-1,-1,-1,-1,-1,-1,-1,-1,-1,-1],"loss_changes":[3.376809E4,2.148475E4,1.0516654E4,1.6657617E4,2.9279102E3,5.686851E3,6.0320312E3,2.6185055E4,7.940813E2,1.8354277E3,8.2391034E2,1.4586489E3,1.939873E3,8.0837195E2,2.956371E3,9.530711E3,4.3140454E2,1.006167E2,0E0,1.2576973E3,0E0,4.241786E2,2.682292E2,8.188252E2,8.0615173E2,1.0630923E3,6.9115015E2,0E0,1.6240533E2,3.4540547E3,3.9949084E2,0E0,0E0,0E0,0E0,0E0,0E0,2.2272432E3,0E0,0E0,4.7527195E1,0E0,2.0303589E2,7.5356104E2,0E0,1.9438165E2,5.0446967E2,7.012554E2,3.567017E2,2.6583737E2,3.3005457E2,0E0,0E0,0E0,1.2149785E3,1.5796545E2,0E0,0E0,0E0,0E0,0E0,1.9667358E1,0E0,4.106001E2,0E0,0E0,0E0,1.5588547E2,3.0266934E2,3.776211E2,0E0,0E0,1.2375662E2,0E0,0E0,2.1907776E2,1.2482324E2,0E0,0E0,0E0,0E0,0E0,0E0,4.420117E1,0E0,2.4302185E1,0E0,1.1150842E2,6.863979E1,2.2376123E2,0E0,0E0,0E0,0E0,7.192212E1,0E0,0E0,0E0,0E0,0E0,0E0,0E0,0E0,0E0,0E0,0E0,0E0,0E0,0E0],"parents":[2147483647,0,0,1,1,2,2,3,3,4,4,5,5,6,6,7,7,8,8,9,9,10,10,11,11,12,12,13,13,14,14,15,15,16,16,17,17,19,19,21,21,22,22,23,23,24,24,25,25,26,26,28,28,29,29,30,30,37,37,40,40,42,42,43,43,45,45,46,46,47,47,48,48,49,49,50,50,54,54,55,55,61,61,63,63,67,67,68,68,69,69,72,72,75,75,76,76,83,83,85,85,87,87,88,88,89,89,94,94],"right_children":[2,4,6,8,10,12,14,16,18,20,22,24,26,28,30,32,34,36,-1,38,-1,40,42,44,46,48,50,-1,52,54,56,-1,-1,-1,-1,-1,-1,58,-1,-1,60,-1,62,64,-1,66,68,70,72,74,76,-1,-1,-1,78,80,-1,-1,-1,-1,-1,82,-1,84,-1,-1,-1,86,88,90,-1,-1,92,-1,-1,94,96,-1,-1,-1,-1,-1,-1,98,-1,100,-1,102,104,106,-1,-1,-1,-1,108,-1,-1,-1,-1,-1,-1,-1,-1,-1,-1,-1,-1,-1,-1],"split_conditions":[4.969185E-2,3.4217396E-1,2.8141148E-2,-6.250891E-2,-6.303593E-2,-3.661342E-3,-3.418304E-1,-2.4563374E-2,4.55032E-2,2.1738134E-1,6.79498E-2,-2.0398703E-1,-2.7966449E-2,2.7791137E-1,7.990825E-2,-1.7718767E-1,-3.399931E-2,1.050461E-1,-3.3246997E-1,-1.175813E-1,-2.3825338E-1,1.5402746E-1,-1.9492598E-1,6.4914167E-1,4.1182292E-1,-1.7664185E-1,3.9968163E-2,-6.3191503E-1,2.028558E-1,-1.7968944E-1,1.486291E-1,-1.8072611E0,-9.955873E0,-1.6228884E0,-1.9130129E-1,-5.543483E-1,-2.2020855E0,-2.14704E-1,-4.988149E-1,-1.2424821E0,2.0790324E-1,-4.2810097E-1,2.6461026E-1,1.8422295E-1,-3.9799367E-3,3.6378063E-2,-1.333044E-1,-8.237751E-3,2.917394E-1,-1.4175515E-1,-1.16876245E-1,7.436454E-1,1.0800208E-5,-7.1083206E-1,2.5599465E-2,3.4044772E-2,2.4856811E-2,-5.163098E-1,-3.6756883E0,-3.440062E-1,4.1801214E-2,-1.1779256E-3,-1.9435863E-1,2.3582277E-1,1.3578251E-2,-9.8297024E-1,-1.5932018E-1,1.6424865E-2,4.0486522E-2,1.6070895E-1,2.608046E-1,-2.4235187E-1,-2.392453E-1,-8.227E-1,4.1319262E-2,-2.4411625E-1,-1.841098E-1,-4.5138736E0,-9.783098E-1,-1.3245051E0,-2.547378E-1,6.041781E-1,1.2815128E-1,1.9146796E-1,-3.5234666E-1,4.014747E-1,1.16529524E-1,-1.639044E-1,2.4400972E-1,2.1152626E-1,4.0669152E-1,4.5293342E-2,7.4115354E-1,-7.6224536E-2,5.3522058E-2,-3.8643637E-1,1.3504489E-1,-1.788893E0,-4.9833605E-1,-6.378059E-1,-1.346995E-1,8.5386686E-2,7.785861E-1,-2.596874E-1,1.5531719E-1,5.0004846E-1,1.9234457E0,1.6511029E-1,7.5851977E-1],"split_indices":[707,545,424,716,531,328,147,388,328,37,328,635,160,376,328,195,86,167,0,21,0,642,48,743,453,363,235,0,167,359,152,0,0,0,0,0,0,354,0,0,337,0,678,631,0,348,521,12,518,388,354,0,0,0,716,733,0,0,0,0,0,160,0,337,0,0,0,611,160,627,0,0,615,0,0,9,298,0,0,0,0,0,0,114,0,586,0,464,675,620,0,0,0,0,230,0,0,0,0,0,0,0,0,0,0,0,0,0,0],"split_type":[0,0,0,0,0,0,0,0,0,0,0,0,0,0,0,0,0,0,0,0,0,0,0,0,0,0,0,0,0,0,0,0,0,0,0,0,0,0,0,0,0,0,0,0,0,0,0,0,0,0,0,0,0,0,0,0,0,0,0,0,0,0,0,0,0,0,0,0,0,0,0,0,0,0,0,0,0,0,0,0,0,0,0,0,0,0,0,0,0,0,0,0,0,0,0,0,0,0,0,0,0,0,0,0,0,0,0,0,0],"sum_hessian":[8.014567E1,2.3930155E1,5.6215508E1,9.667265E0,1.4262891E1,4.3722347E1,1.2493161E1,5.5167155E0,4.15055E0,5.6565485E0,8.606342E0,2.0353107E1,2.3369242E1,4.1754208E0,8.31774E0,3.050768E0,2.4659474E0,2.300632E0,1.8499178E0,4.174116E0,1.4824324E0,4.4346914E0,4.171651E0,8.649385E0,1.1703721E1,1.2452113E1,1.0917128E1,1.6415687E0,2.5338519E0,4.7484994E0,3.5692413E0,1.0018026E0,2.0489655E0,1.4081804E0,1.0577669E0,1.0204475E0,1.2801845E0,2.9594805E0,1.2146355E0,2.4185815E0,2.0161097E0,1.1215926E0,3.0500581E0,6.923612E0,1.725773E0,3.2711284E0,8.432593E0,8.277829E0,4.174284E0,2.6593273E0,8.2578E0,1.4931219E0,1.0407301E0,1.8176543E0,2.930845E0,2.5411036E0,1.0281377E0,1.1644717E0,1.7950089E0,1.0138803E0,1.0022295E0,2.021201E0,1.0288571E0,5.854023E0,1.0695893E0,1.6598661E0,1.6112623E0,3.063176E0,5.369417E0,6.3945107E0,1.8833184E0,1.639403E0,2.534881E0,1.3840458E0,1.2752814E0,5.424685E0,2.833115E0,1.9212217E0,1.0096232E0,1.4645557E0,1.0765479E0,1.0121498E0,1.0090512E0,4.3771963E0,1.4768267E0,2.0605826E0,1.0025933E0,3.2905657E0,2.0788512E0,4.9460096E0,1.4485009E0,1.0450114E0,1.4898697E0,1.1011571E0,4.3235283E0,1.0744283E0,1.7586868E0,3.3008792E0,1.0763172E0,1.0164412E0,1.0441414E0,1.0357739E0,2.254792E0,1.0661902E0,1.012661E0,1.2328191E0,3.7131908E0,1.3673116E0,2.9562166E0],"tree_param":{"num_deleted":"0","num_feature":"768","num_nodes":"109","size_leaf_vector":"1"}},{"base_weights":[-2.6756662E1,-7.914687E1,-7.8774447E0,-1.6485748E2,-3.0858438E1,1.421272E0,-4.2926365E1,-1.4077313E1,-3.7080948E1,-5.83565E1,-1.1555909E1,-7.2802577E0,2.163401E1,-2.3410413E0,-7.435524E1,-3.0117564E0,-3.3375046E-1,-8.196256E1,-2.3776214E-1,-2.3476576E1,6.923398E-1,-2.4928074E1,-7.750665E-1,3.6714775E1,5.7183867E0,-8.32756E-1,9.466888E0,-5.752321E0,-1.9783787E1,-1.2844523E0,-4.8715973E0,-1.9883112E0,-2.0134015E-1,-4.3953353E-1,5.466716E0,-2.9685472E1,8.2241945E-2,-9.268044E0,8.081617E0,5.131816E1,2.8087375E-1,-3.1645826E-1,1.1214551E1,7.577435E-1,-5.3012278E-2,-8.924552E-2,-1.3837215E0,5.050604E-1,-1.9145854E-1,-2.024381E-1,-3.5020706E1,-1.5710387E1,4.676786E0,1.3407432E1,-2.2303324E0,3.1715124E0,4.9469787E-1,1.5669372E1,-1.4245494E-1,-2.0288925E0,-5.5031645E-1,-2.599996E0,-2.3796566E1,4.9351415E-1,-2.1797721E-1,1.5933437E1,-4.289144E-2,-3.8620573E-1,2.6609442E-1,1.2633601E-1,9.8057854E-1,2.226874E-1,-5.436112E-1,-3.084702E1,-2.165503E-1,1.8947937E1,9.559069E-2,-1.8519071E0,-4.6882495E-1,2.5058547E-1,1.0726868E0],"categories":[],"categories_nodes":[],"categories_segments":[],"categories_sizes":[],"default_left":[0,0,0,0,0,0,0,0,0,0,0,0,0,0,0,0,0,0,0,0,0,0,0,0,0,0,0,0,0,0,0,0,0,0,0,0,0,0,0,0,0,0,0,0,0,0,0,0,0,0,0,0,0,0,0,0,0,0,0,0,0,0,0,0,0,0,0,0,0,0,0,0,0,0,0,0,0,0,0,0,0],"id":3,"left_children":[1,3,5,7,9,11,13,-1,15,17,19,21,23,25,27,-1,-1,29,-1,31,33,35,37,39,41,-1,43,-1,45,-1,-1,-1,-1,-1,47,49,-1,51,53,55,-1,-1,57,-1,-1,-1,-1,-1,-1,-1,59,61,63,65,67,-1,-1,69,-1,-1,-1,71,73,-1,-1,75,-1,-1,-1,-1,-1,-1,-1,77,-1,79,-1,-1,-1,-1,-1],"loss_changes":[5.8744785E4,6.0263297E4,1.4803136E4,7.0964875E4,5.339342E3,6.615382E3,1.1964793E4,0E0,2.2434624E3,5.210538E3,1.1702788E3,3.0132578E3,2.5026445E3,1.0341714E3,9.561342E3,0E0,0E0,1.1833984E2,0E0,1.1180095E3,2.6853546E2,9.441831E2,1.6043514E3,2.2632212E3,5.1349963E2,0E0,2.2439844E2,0E0,4.4551038E2,0E0,0E0,0E0,0E0,0E0,2.0478395E2,6.87021E2,0E0,1.0478053E3,6.0587897E2,1.2289434E3,0E0,0E0,3.5477435E2,0E0,0E0,0E0,0E0,0E0,0E0,0E0,2.0529736E2,7.4888696E2,2.4003226E2,2.6801294E2,2.248751E2,0E0,0E0,1.5319226E2,0E0,0E0,0E0,2.841659E2,4.987483E2,0E0,0E0,2.193999E2,0E0,0E0,0E0,0E0,0E0,0E0,0E0,8.061719E1,0E0,6.2384766E1,0E0,0E0,0E0,0E0,0E0],"parents":[2147483647,0,0,1,1,2,2,3,3,4,4,5,5,6,6,8,8,9,9,10,10,11,11,12,12,13,13,14,14,17,17,19,19,20,20,21,21,22,22,23,23,24,24,26,26,28,28,34,34,35,35,37,37,38,38,39,39,42,42,50,50,51,51,52,52,53,53,54,54,57,57,61,61,62,62,65,65,73,73,75,75],"right_children":[2,4,6,8,10,12,14,-1,16,18,20,22,24,26,28,-1,-1,30,-1,32,34,36,38,40,42,-1,44,-1,46,-1,-1,-1,-1,-1,48,50,-1,52,54,56,-1,-1,58,-1,-1,-1,-1,-1,-1,-1,60,62,64,66,68,-1,-1,70,-1,-1,-1,72,74,-1,-1,76,-1,-1,-1,-1,-1,-1,-1,78,-1,80,-1,-1,-1,-1,-1],"split_conditions":[4.969185E-2,3.4217396E-1,2.8141148E-2,-6.250891E-2,-6.303593E-2,1.16016164E-1,-2.9831338E-1,-1.4077313E1,4.55032E-2,2.1738134E-1,6.79498E-2,-1.1510198E-2,-2.7966449E-2,2.7791137E-1,8.2408726E-2,-3.0117564E0,-3.3375046E-1,4.9397636E-2,-2.3776214E-1,1.5402746E-1,-1.9492598E-1,5.4976887E-1,-1.5435375E-2,-1.9531944E-1,-2.1579042E-1,-8.32756E-1,2.028558E-1,-5.752321E0,4.3966886E-2,-1.2844523E0,-4.8715973E0,-1.9883112E0,-2.0134015E-1,-4.3953353E-1,2.6461026E-1,-2.4087569E-1,8.2241945E-2,2.3754022E-1,-2.9797852E-4,1.6070895E-1,2.8087375E-1,-3.1645826E-1,-4.458175E-2,7.577435E-1,-5.3012278E-2,-8.924552E-2,-1.3837215E0,5.050604E-1,-1.9145854E-1,-2.024381E-1,-4.798712E-2,-2.5096214E-1,-3.3745405E-1,-2.1379057E-1,-8.4094524E-2,3.1715124E0,4.9469787E-1,7.8099005E-2,-1.4245494E-1,-2.0288925E0,-5.5031645E-1,-1.831787E-1,-1.44158E-1,4.9351415E-1,-2.1797721E-1,3.3637038E-1,-4.289144E-2,-3.8620573E-1,2.6609442E-1,1.2633601E-1,9.8057854E-1,2.226874E-1,-5.436112E-1,1.4676577E-1,-2.165503E-1,-1.6025673E-1,9.559069E-2,-1.8519071E0,-4.6882495E-1,2.5058547E-1,1.0726868E0],"split_indices":[707,545,424,716,531,328,147,0,328,37,328,235,160,376,328,0,0,326,0,642,48,124,736,363,9,0,167,0,340,0,0,0,0,0,678,354,0,337,279,627,0,0,354,0,0,0,0,0,0,0,266,355,476,68,635,0,0,230,0,0,0,165,635,0,0,81,0,0,0,0,0,0,0,577,0,464,0,0,0,0,0],"split_type":[0,0,0,0,0,0,0,0,0,0,0,0,0,0,0,0,0,0,0,0,0,0,0,0,0,0,0,0,0,0,0,0,0,0,0,0,0,0,0,0,0,0,0,0,0,0,0,0,0,0,0,0,0,0,0,0,0,0,0,0,0,0,0,0,0,0,0,0,0,0,0,0,0,0,0,0,0,0,0,0,0],"sum_hessian":[5.902335E1,1.478961E1,4.4233738E1,4.459718E0,1.0329891E1,3.571718E1,8.5165615E0,1.7019906E0,2.7577279E0,3.4260054E0,6.903886E0,2.5415634E1,1.0301544E1,4.185784E0,4.330777E0,1.0086257E0,1.7491021E0,2.0111678E0,1.4148375E0,3.0341527E0,3.8697329E0,6.0825E0,1.9333134E1,4.618485E0,5.683059E0,1.7065402E0,2.4792438E0,1.8460741E0,2.4847033E0,1.0073465E0,1.0038214E0,1.0827578E0,1.951395E0,1.0141597E0,2.8555732E0,5.059547E0,1.0229529E0,9.8455E0,9.487634E0,2.700212E0,1.9182727E0,1.7329297E0,3.9501293E0,1.3241718E0,1.1550719E0,1.1310158E0,1.3536874E0,1.8477433E0,1.00783E0,1.1745428E0,3.8850043E0,6.6477227E0,3.1977773E0,6.0584445E0,3.4291894E0,1.678265E0,1.0219471E0,2.9131734E0,1.036956E0,2.5948107E0,1.2901937E0,3.0401547E0,3.607568E0,1.9720702E0,1.2257069E0,5.0476904E0,1.0107545E0,1.9719528E0,1.4572366E0,1.0508273E0,1.862346E0,1.8900813E0,1.1500733E0,2.2191072E0,1.3884609E0,3.8653457E0,1.1823447E0,1.1596476E0,1.0594594E0,1.0462999E0,2.8190455E0],"tree_param":{"num_deleted":"0","num_feature":"768","num_nodes":"81","size_leaf_vector":"1"}},{"base_weights":[-3.6295395E1,-1.3027922E2,-1.1197751E1,-1.7510498E1,-4.8604885E1,1.1118933E0,-6.8167854E1,-5.010021E0,-1.6747559E1,-9.470594E0,2.7311197E1,-2.5884788E0,-7.244397E0,-1.680129E0,-8.7835133E-1,-3.6716057E1,-1.4127942E0,5.216306E1,6.521341E0,-8.2127994E-1,6.370423E-1,-4.2614147E-1,3.2274687E-1,-4.674545E1,8.03302E-2,-1.1469959E1,8.409915E0,4.4732065E0,2.69816E-1,1.2436936E1,-3.6168894E-1,-3.0248764E-1,-3.050362E0,-2.622505E1,-1.3981744E0,1.4956567E1,-1.5809729E0,1.800829E1,-3.796737E-2,-1.6798323E0,-1.6792314E-1,-9.780184E0,8.797462E0,1.9904041E1,9.049199E-2,-6.509193E0,3.3311182E-1,1.0987976E0,2.9694265E-1,8.436827E-2,-7.531232E-1,1.3004225E-3,6.7475575E-1,1.2047548E0,2.5117463E-1,1.3824502E-1,-6.196076E-1],"categories":[],"categories_nodes":[],"categories_segments":[],"categories_sizes":[],"default_left":[0,0,0,0,0,0,0,0,0,0,0,0,0,0,0,0,0,0,0,0,0,0,0,0,0,0,0,0,0,0,0,0,0,0,0,0,0,0,0,0,0,0,0,0,0,0,0,0,0,0,0,0,0,0,0,0,0],"id":4,"left_children":[1,3,5,-1,7,9,11,-1,13,15,17,19,-1,-1,21,23,25,27,29,-1,-1,-1,-1,31,-1,33,35,-1,-1,37,-1,-1,-1,39,41,43,45,47,-1,-1,-1,49,51,53,-1,55,-1,-1,-1,-1,-1,-1,-1,-1,-1,-1,-1],"loss_changes":[1.02186766E5,1.4763983E5,2.5163172E4,0E0,1.1217748E4,8.687527E3,3.1685695E4,0E0,1.5890697E3,4.865144E3,4.312015E3,1.1539865E3,0E0,0E0,2.8730408E2,2.0245405E3,1.906768E3,6.4227246E3,5.8190106E2,0E0,0E0,0E0,0E0,1.9833574E3,0E0,1.3717856E3,6.677434E2,0E0,0E0,3.5152612E2,0E0,0E0,0E0,5.2577295E2,6.576806E2,3.5715198E2,2.3847282E2,2.6156494E1,0E0,0E0,0E0,2.764709E2,1.456984E2,1.4662854E2,0E0,2.2584958E2,0E0,0E0,0E0,0E0,0E0,0E0,0E0,0E0,0E0,0E0,0E0],"parents":[2147483647,0,0,1,1,2,2,4,4,5,5,6,6,8,8,9,9,10,10,11,11,14,14,15,15,16,16,17,17,18,18,23,23,25,25,26,26,29,29,33,33,34,34,35,35,36,36,37,37,41,41,42,42,43,43,45,45],"right_children":[2,4,6,-1,8,10,12,-1,14,16,18,20,-1,-1,22,24,26,28,30,-1,-1,-1,-1,32,-1,34,36,-1,-1,38,-1,-1,-1,40,42,44,46,48,-1,-1,-1,50,52,54,-1,56,-1,-1,-1,-1,-1,-1,-1,-1,-1,-1,-1],"split_conditions":[3.7822302E-2,3.2513818E-1,2.8141148E-2,-1.7510498E1,-6.303593E-2,1.16016164E-1,-2.9831338E-1,-5.010021E0,6.676689E-2,-1.1510198E-2,-2.7966449E-2,-1.29807E-2,-7.244397E0,-1.680129E0,-2.4784021E-1,5.4976887E-1,-2.08768E-2,-1.9531944E-1,-7.927472E-2,-8.2127994E-1,6.370423E-1,-4.2614147E-1,3.2274687E-1,-2.4087569E-1,8.03302E-2,9.041006E-2,-2.1634746E-2,4.4732065E0,2.69816E-1,1.6618028E-1,-3.6168894E-1,-3.0248764E-1,-3.050362E0,-7.351991E-3,1.1902209E-2,-3.8843864E-1,-2.9640622E-2,-1.5573387E-1,-3.796737E-2,-1.6798323E0,-1.6792314E-1,-1.1985118E-1,9.554459E-2,2.2342652E-1,9.049199E-2,-1.3081044E-1,3.3311182E-1,1.0987976E0,2.9694265E-1,8.436827E-2,-7.531232E-1,1.3004225E-3,6.7475575E-1,1.2047548E0,2.5117463E-1,1.3824502E-1,-6.196076E-1],"split_indices":[707,545,424,0,531,328,147,0,328,235,160,549,0,0,635,124,736,363,579,0,0,0,0,354,0,337,279,0,0,130,0,0,0,716,631,534,635,354,0,0,0,12,419,167,0,654,0,0,0,0,0,0,0,0,0,0,0],"split_type":[0,0,0,0,0,0,0,0,0,0,0,0,0,0,0,0,0,0,0,0,0,0,0,0,0,0,0,0,0,0,0,0,0,0,0,0,0,0,0,0,0,0,0,0,0,0,0,0,0,0,0,0,0,0,0,0,0],"sum_hessian":[4.294048E1,8.166872E0,3.4773605E1,1.3212253E0,6.8456473E0,2.9401293E1,5.3723135E0,1.7943174E0,5.05133E0,2.1397057E1,8.004235E0,3.4537933E0,1.9185203E0,1.9076761E0,3.1436539E0,4.0720024E0,1.7325054E1,2.9585583E0,5.0456767E0,1.777661E0,1.6761324E0,1.4597491E0,1.6839048E0,3.0531726E0,1.0188297E0,8.477505E0,8.84755E0,1.1379474E0,1.820611E0,3.5952973E0,1.4503794E0,1.1619027E0,1.8912698E0,2.788524E0,5.688981E0,5.0448375E0,3.8027127E0,2.2715998E0,1.3236977E0,1.7538741E0,1.0346497E0,3.1445446E0,2.5444365E0,3.2919824E0,1.7528551E0,2.5115402E0,1.2911726E0,1.0918694E0,1.1797304E0,1.2062975E0,1.938247E0,1.2381325E0,1.3063039E0,2.0854018E0,1.2065806E0,1.1805295E0,1.3310106E0],"tree_param":{"num_deleted":"0","num_feature":"768","num_nodes":"57","size_leaf_vector":"1"}},{"base_weights":[-5.0722736E1,-2.4309995E2,-1.4492836E1,-2.4673355E1,-4.4349262E1,1.4046268E0,-1.0959725E2,-4.013851E0,-9.236958E-2,-1.1491523E1,3.357094E1,-1.0978122E1,2.7572656E-1,-5.4531303E1,-1.608592E0,3.77253E0,6.9983215E0,-3.9699616E0,7.8527525E-2,-2.2119621E1,4.5251126E0,1.3588041E1,-3.560289E-1,-1.5617427E0,-6.0313255E-2,9.903616E0,-1.0354755E1,1.033227E0,-3.684372E-2,-5.1857443E0,1.5014904E1,1.1511519E-1,-9.205204E-1,2.232476E-1,-6.349678E-1,2.4652212E1,5.5045276E0,1.4529967E0,3.7099203E-1,-1.5883957E-1,9.372636E0,9.679941E-2,5.8198416E-1],"categories":[],"categories_nodes":[],"categories_segments":[],"categories_sizes":[],"default_left":[0,0,0,0,0,0,0,0,0,0,0,0,0,0,0,0,0,0,0,0,0,0,0,0,0,0,0,0,0,0,0,0,0,0,0,0,0,0,0,0,0,0,0],"id":5,"left_children":[1,3,5,-1,7,9,11,-1,-1,13,15,-1,-1,17,19,-1,21,-1,-1,23,25,27,-1,-1,-1,29,31,-1,-1,33,35,-1,-1,-1,-1,37,39,-1,-1,-1,41,-1,-1],"loss_changes":[2.1406072E5,2.2114994E5,4.1480727E4,0E0,5.687034E3,1.0510175E4,5.0924605E4,0E0,0E0,7.6397085E3,7.528794E3,0E0,0E0,4.815328E3,2.088461E3,0E0,6.114127E2,0E0,0E0,6.882656E2,1.142684E3,4.3238898E2,0E0,0E0,0E0,8.5353406E2,4.4405057E2,0E0,0E0,2.9512125E2,5.7637964E2,0E0,0E0,0E0,0E0,5.56438E1,2.0431886E2,0E0,0E0,0E0,4.2354004E1,0E0,0E0],"parents":[2147483647,0,0,1,1,2,2,4,4,5,5,6,6,9,9,10,10,13,13,14,14,16,16,19,19,20,20,21,21,25,25,26,26,29,29,30,30,35,35,36,36,40,40],"right_children":[2,4,6,-1,8,10,12,-1,-1,14,16,-1,-1,18,20,-1,22,-1,-1,24,26,28,-1,-1,-1,30,32,-1,-1,34,36,-1,-1,-1,-1,38,40,-1,-1,-1,42,-1,-1],"split_conditions":[3.7822302E-2,1.3183E-2,2.8141148E-2,-2.4673355E1,1.2547164E-1,1.16016164E-1,2.819265E-1,-4.013851E0,-9.236958E-2,-1.1510198E-2,-2.7966449E-2,-1.0978122E1,2.7572656E-1,5.4976887E-1,-3.0670857E-1,3.77253E0,-7.927472E-2,-3.9699616E0,7.8527525E-2,6.8009573E-1,-2.4942392E-1,1.6618028E-1,-3.560289E-1,-1.5617427E0,-6.0313255E-2,-9.3975E-2,1.064334E-1,1.033227E0,-3.684372E-2,-2.668468E-1,-3.1908475E-2,1.1511519E-1,-9.205204E-1,2.232476E-1,-6.349678E-1,3.8892442E-1,-1.821278E-1,1.4529967E0,3.7099203E-1,-1.5883957E-1,3.27289E-1,9.679941E-2,5.8198416E-1],"split_indices":[707,531,424,0,328,328,376,0,0,235,160,0,0,124,635,0,579,0,0,453,68,130,0,0,0,496,167,0,0,355,160,0,0,0,0,766,537,0,0,0,72,0,0],"split_type":[0,0,0,0,0,0,0,0,0,0,0,0,0,0,0,0,0,0,0,0,0,0,0,0,0,0,0,0,0,0,0,0,0,0,0,0,0,0,0,0,0,0,0],"sum_hessian":[3.0218073E1,3.8840773E0,2.6333996E1,1.0626311E0,2.8214462E0,2.3406622E1,2.9273734E0,1.0473285E0,1.7741176E0,1.7166828E1,6.239795E0,1.0330889E0,1.8942844E0,2.3621275E0,1.48047E1,1.7081928E0,4.5316024E0,1.3489273E0,1.0132004E0,2.8081248E0,1.1996575E1,3.1152294E0,1.416373E0,1.6119912E0,1.1961336E0,9.057179E0,2.939396E0,1.7889367E0,1.3262926E0,2.2880154E0,6.769164E0,1.420968E0,1.5184278E0,1.1791865E0,1.1088289E0,2.5713532E0,4.1978106E0,1.5010543E0,1.070299E0,1.3489782E0,2.8488326E0,1.0987025E0,1.75013E0],"tree_param":{"num_deleted":"0","num_feature":"768","num_nodes":"43","size_leaf_vector":"1"}},{"base_weights":[-6.9558174E1,-2.0511951E1,-1.9009188E1,1.7798767E0,-7.652921E0,-3.5250251E0,1.1773553E1,-3.0915494E0,5.566218E1,-1.625767E1,1.0328997E1,5.645042E0,6.7933664E0,-1.9668725E0,-2.5221403E0,1.9306616E1,-4.260581E0,7.121567E-1,-1.2077316E-1,-1.2527597E1,9.410545E0,2.4622145E1,7.351252E-2,-5.979289E-1,2.2567526E-1,7.204058E-2,-9.482625E-1,9.989979E-3,6.9803464E-1,2.0881037E-1,1.5342387E0],"categories":[],"categories_nodes":[],"categories_segments":[],"categories_sizes":[],"default_left":[0,0,0,0,0,0,0,0,0,0,0,0,0,0,0,0,0,0,0,0,0,0,0,0,0,0,0,0,0,0,0],"id":6,"left_children":[1,-1,3,5,-1,-1,7,9,11,13,15,-1,17,-1,19,21,23,-1,-1,25,27,29,-1,-1,-1,-1,-1,-1,-1,-1,-1],"loss_changes":[3.8285738E5,0E0,5.8243535E4,1.4553086E4,0E0,0E0,1.1619985E4,2.6513884E3,1.17984375E4,2.2730684E3,1.0739998E3,0E0,2.736437E2,0E0,8.055656E2,4.2534827E2,3.0412473E2,0E0,0E0,3.476206E2,1.3123743E2,3.2887524E2,0E0,0E0,0E0,0E0,0E0,0E0,0E0,0E0,0E0],"parents":[2147483647,0,0,2,2,3,3,6,6,7,7,8,8,9,9,10,10,12,12,14,14,15,15,16,16,19,19,20,20,21,21],"right_children":[2,-1,4,6,-1,-1,8,10,12,14,16,-1,18,-1,20,22,24,-1,-1,26,28,30,-1,-1,-1,-1,-1,-1,-1,-1,-1],"split_conditions":[3.7822302E-2,-2.0511951E1,2.8141148E-2,-3.5472706E-2,-7.652921E0,-3.5250251E0,1.16016164E-1,-1.5435375E-2,3.7793115E-2,9.041006E-2,-2.9797852E-4,5.645042E0,-4.573557E-1,-1.9668725E0,1.1902209E-2,3.3637038E-1,3.4217396E-1,7.121567E-1,-1.2077316E-1,-1.1985118E-1,9.554459E-2,3.1106427E-1,7.351252E-2,-5.979289E-1,2.2567526E-1,7.204058E-2,-9.482625E-1,9.989979E-3,6.9803464E-1,2.0881037E-1,1.5342387E0],"split_indices":[707,0,424,235,0,0,328,736,160,337,279,0,618,0,631,81,545,0,0,12,419,474,0,0,0,0,0,0,0,0,0],"split_type":[0,0,0,0,0,0,0,0,0,0,0,0,0,0,0,0,0,0,0,0,0,0,0,0,0,0,0,0,0,0,0],"sum_hessian":[2.1684748E1,1.8824027E0,1.9802345E1,1.7997864E1,1.8044814E0,1.4507366E0,1.6547127E1,1.3054963E1,3.492164E0,6.483236E0,6.5717278E0,1.0048859E0,2.487278E0,1.7234339E0,4.759802E0,3.8681602E0,2.7035673E0,1.0727562E0,1.4145218E0,2.5618536E0,2.1979482E0,2.6869571E0,1.1812032E0,1.2467664E0,1.4568008E0,1.0530775E0,1.5087762E0,1.071946E0,1.1260023E0,1.0007658E0,1.6861912E0],"tree_param":{"num_deleted":"0","num_feature":"768","num_nodes":"31","size_leaf_vector":"1"}},{"base_weights":[-1.0359034E2,-3.0916357E1,-1.8892809E1,6.958977E0,-8.633219E0,-1.018382E1,3.5504825E0,-3.0311372E0,9.666136E-1,-1.0458072E0,8.887934E0,-3.7816947E0,2.1976051E1,-7.070882E-1,4.3755603E0,1.4394242E0,1.1517625E-1,-1.6981672E-1,4.4075045E-1],"categories":[],"categories_nodes":[],"categories_segments":[],"categories_sizes":[],"default_left":[0,0,0,0,0,0,0,0,0,0,0,0,0,0,0,0,0,0,0],"id":7,"left_children":[1,-1,3,5,-1,7,-1,-1,9,-1,11,13,15,-1,17,-1,-1,-1,-1],"loss_changes":[6.44902E5,0E0,5.671176E4,1.4904389E4,0E0,6.280661E3,0E0,0E0,1.9270162E3,0E0,1.4223904E3,4.8080307E2,4.8577576E2,0E0,1.519795E2,0E0,0E0,0E0,0E0],"parents":[2147483647,0,0,2,2,3,3,5,5,8,8,10,10,11,11,12,12,14,14],"right_children":[2,-1,4,6,-1,8,-1,-1,10,-1,12,14,16,-1,18,-1,-1,-1,-1],"split_conditions":[7.049208E-2,-3.0916357E1,7.1284175E-4,1.3643575E-1,-8.633219E0,3.068423E-3,3.5504825E0,-3.0311372E0,-2.935937E-1,-1.0458072E0,3.5271096E-1,3.442222E-1,2.1937904E-1,-7.070882E-1,-8.442721E-2,1.4394242E0,1.1517625E-1,-1.6981672E-1,4.4075045E-1],"split_indices":[707,0,424,328,0,235,0,0,635,0,474,545,254,0,394,0,0,0,0],"split_type":[0,0,0,0,0,0,0,0,0,0,0,0,0,0,0,0,0,0,0],"sum_hessian":[1.4060324E1,1.0964422E0,1.29638815E1,1.1915427E1,1.0484544E0,1.00631E1,1.8523276E0,1.0186113E0,9.044488E0,1.9678333E0,7.076655E0,3.957121E0,3.119534E0,1.4200073E0,2.5371134E0,1.9729371E0,1.1465969E0,1.0077925E0,1.529321E0],"tree_param":{"num_deleted":"0","num_feature":"768","num_nodes":"19","size_leaf_vector":"1"}},{"base_weights":[-1.4701735E2,-3.3841778E1,-1.5385961E1,1.721734E1,-7.019633E0,-4.7218413E0,4.3948526E0,-2.2964687E1,1.4974594E1,-1.9640541E0,8.630073E-3,-4.698827E-1,2.5875456E1,1.7071146E0,2.2927654E-1],"categories":[],"categories_nodes":[],"categories_segments":[],"categories_sizes":[],"default_left":[0,0,0,0,0,0,0,0,0,0,0,0,0,0,0],"id":8,"left_children":[1,-1,3,5,-1,7,-1,9,11,-1,-1,-1,13,-1,-1],"loss_changes":[7.254529E5,0E0,4.1033543E4,1.3449387E4,0E0,2.9897744E3,0E0,1.5989849E3,1.3446838E3,0E0,0E0,0E0,3.9452637E2,0E0,0E0],"parents":[2147483647,0,0,2,2,3,3,5,5,7,7,8,8,12,12],"right_children":[2,-1,4,6,-1,8,-1,10,12,-1,-1,-1,14,-1,-1],"split_conditions":[1.10559285E-1,-3.3841778E1,-4.143452E-2,1.0193984E-1,-7.019633E0,-1.7422171E-1,4.3948526E0,2.0914742E-1,-1.4280221E-1,-1.9640541E0,8.630073E-3,-4.698827E-1,1.4466022E-1,1.7071146E0,2.2927654E-1],"split_indices":[707,0,424,328,0,9,0,337,411,0,0,0,499,0,0],"split_type":[0,0,0,0,0,0,0,0,0,0,0,0,0,0,0],"sum_hessian":[9.551467E0,1.0765277E0,8.474939E0,7.4057074E0,1.069232E0,6.3636165E0,1.0420908E0,3.2175703E0,3.1460462E0,1.4777344E0,1.7398359E0,1.0148758E0,2.1311705E0,1.100259E0,1.0309114E0],"tree_param":{"num_deleted":"0","num_feature":"768","num_nodes":"15","size_leaf_vector":"1"}},{"base_weights":[-1.9265639E2,-3.6225666E1,-6.5849414E0,5.3568413E1,-6.84382E1,-1.2739445E-1,5.4449143E0,3.9496806E-2,-6.539238E0],"categories":[],"categories_nodes":[],"categories_segments":[],"categories_sizes":[],"default_left":[0,0,0,0,0,0,0,0,0],"id":9,"left_children":[1,-1,3,5,7,-1,-1,-1,-1],"loss_changes":[7.848431E5,0E0,2.9413527E4,1.2911906E4,1.6724281E4,0E0,0E0,0E0,0E0],"parents":[2147483647,0,0,2,2,3,3,4,4],"right_children":[2,-1,4,6,8,-1,-1,-1,-1],"split_conditions":[1.5515856E-1,-3.6225666E1,-4.0577206E-1,1.7127007E-2,-1.2843639E-1,-1.2739445E-1,5.4449143E0,3.9496806E-2,-6.539238E0],"split_indices":[707,0,68,328,424,0,0,0,0],"split_type":[0,0,0,0,0,0,0,0,0],"sum_hessian":[6.9788504E0,1.0587727E0,5.9200773E0,3.0691855E0,2.850892E0,1.9973733E0,1.0718122E0,1.8187382E0,1.0321538E0],"tree_param":{"num_deleted":"0","num_feature":"768","num_nodes":"9","size_leaf_vector":"1"}},{"base_weights":[-2.6004984E2,-3.7835632E1,1.1644172E1,-3.813273E1,4.802408E0,-3.9635239E0,4.5926848E-1],"categories":[],"categories_nodes":[],"categories_segments":[],"categories_sizes":[],"default_left":[0,0,0,0,0,0,0],"id":10,"left_children":[1,-1,3,5,-1,-1,-1],"loss_changes":[7.987056E5,0E0,2.3697336E4,7.96043E3,0E0,0E0,0E0],"parents":[2147483647,0,0,2,2,3,3],"right_children":[2,-1,4,6,-1,-1,-1],"split_conditions":[2.1238369E-1,-3.7835632E1,2.7563632E-2,1.1273429E-2,4.802408E0,-3.9635239E0,4.5926848E-1],"split_indices":[707,0,328,35,0,0,0],"split_type":[0,0,0,0,0,0,0],"sum_hessian":[4.8536577E0,1.085031E0,3.7686265E0,2.715427E0,1.0531996E0,1.0913517E0,1.624075E0],"tree_param":{"num_deleted":"0","num_feature":"768","num_nodes":"7","size_leaf_vector":"1"}},{"base_weights":[-3.864507E2,-3.8921734E1,1.4997395E0],"categories":[],"categories_nodes":[],"categories_segments":[],"categories_sizes":[],"default_left":[0,0,0],"id":11,"left_children":[1,-1,-1],"loss_changes":[6.5929406E5,0E0,0E0],"parents":[2147483647,0,0],"right_children":[2,-1,-1],"split_conditions":[2.75254E-1,-3.8921734E1,1.4997395E0],"split_indices":[707,0,0],"split_type":[0,0,0],"sum_hessian":[2.8957698E0,1.0439268E0,1.851843E0],"tree_param":{"num_deleted":"0","num_feature":"768","num_nodes":"3","size_leaf_vector":"1"}},{"base_weights":[-4.330203E2,-3.828144E1,1.5863546E0],"categories":[],"categories_nodes":[],"categories_segments":[],"categories_sizes":[],"default_left":[0,0,0],"id":12,"left_children":[1,-1,-1],"loss_changes":[5.560504E5,0E0,0E0],"parents":[2147483647,0,0],"right_children":[2,-1,-1],"split_conditions":[3.034838E-1,-3.828144E1,1.5863546E0],"split_indices":[707,0,0],"split_type":[0,0,0],"sum_hessian":[2.4400504E0,1.0448606E0,1.3951898E0],"tree_param":{"num_deleted":"0","num_feature":"768","num_nodes":"3","size_leaf_vector":"1"}},{"base_weights":[-5.543133E2],"categories":[],"categories_nodes":[],"categories_segments":[],"categories_sizes":[],"default_left":[0],"id":13,"left_children":[-1],"loss_changes":[0E0],"parents":[2147483647],"right_children":[-1],"split_conditions":[-2.7715666E1],"split_indices":[0],"split_type":[0],"sum_hessian":[1.6741611E0],"tree_param":{"num_deleted":"0","num_feature":"768","num_nodes":"1","size_leaf_vector":"1"}},{"base_weights":[0E0],"categories":[],"categories_nodes":[],"categories_segments":[],"categories_sizes":[],"default_left":[0],"id":14,"left_children":[-1],"loss_changes":[0E0],"parents":[2147483647],"right_children":[-1],"split_conditions":[0E0],"split_indices":[0],"split_type":[0],"sum_hessian":[8.16944E-1],"tree_param":{"num_deleted":"0","num_feature":"768","num_nodes":"1","size_leaf_vector":"1"}},{"base_weights":[0E0],"categories":[],"categories_nodes":[],"categories_segments":[],"categories_sizes":[],"default_left":[0],"id":15,"left_children":[-1],"loss_changes":[0E0],"parents":[2147483647],"right_children":[-1],"split_conditions":[0E0],"split_indices":[0],"split_type":[0],"sum_hessian":[8.16944E-1],"tree_param":{"num_deleted":"0","num_feature":"768","num_nodes":"1","size_leaf_vector":"1"}},{"base_weights":[0E0],"categories":[],"categories_nodes":[],"categories_segments":[],"categories_sizes":[],"default_left":[0],"id":16,"left_children":[-1],"loss_changes":[0E0],"parents":[2147483647],"right_children":[-1],"split_conditions":[0E0],"split_indices":[0],"split_type":[0],"sum_hessian":[8.16944E-1],"tree_param":{"num_deleted":"0","num_feature":"768","num_nodes":"1","size_leaf_vector":"1"}},{"base_weights":[0E0],"categories":[],"categories_nodes":[],"categories_segments":[],"categories_sizes":[],"default_left":[0],"id":17,"left_children":[-1],"loss_changes":[0E0],"parents":[2147483647],"right_children":[-1],"split_conditions":[0E0],"split_indices":[0],"split_type":[0],"sum_hessian":[8.16944E-1],"tree_param":{"num_deleted":"0","num_feature":"768","num_nodes":"1","size_leaf_vector":"1"}},{"base_weights":[0E0],"categories":[],"categories_nodes":[],"categories_segments":[],"categories_sizes":[],"default_left":[0],"id":18,"left_children":[-1],"loss_changes":[0E0],"parents":[2147483647],"right_children":[-1],"split_conditions":[0E0],"split_indices":[0],"split_type":[0],"sum_hessian":[8.16944E-1],"tree_param":{"num_deleted":"0","num_feature":"768","num_nodes":"1","size_leaf_vector":"1"}},{"base_weights":[0E0],"categories":[],"categories_nodes":[],"categories_segments":[],"categories_sizes":[],"default_left":[0],"id":19,"left_children":[-1],"loss_changes":[0E0],"parents":[2147483647],"right_children":[-1],"split_conditions":[0E0],"split_indices":[0],"split_type":[0],"sum_hessian":[8.16944E-1],"tree_param":{"num_deleted":"0","num_feature":"768","num_nodes":"1","size_leaf_vector":"1"}},{"base_weights":[0E0],"categories":[],"categories_nodes":[],"categories_segments":[],"categories_sizes":[],"default_left":[0],"id":20,"left_children":[-1],"loss_changes":[0E0],"parents":[2147483647],"right_children":[-1],"split_conditions":[0E0],"split_indices":[0],"split_type":[0],"sum_hessian":[8.16944E-1],"tree_param":{"num_deleted":"0","num_feature":"768","num_nodes":"1","size_leaf_vector":"1"}},{"base_weights":[0E0],"categories":[],"categories_nodes":[],"categories_segments":[],"categories_sizes":[],"default_left":[0],"id":21,"left_children":[-1],"loss_changes":[0E0],"parents":[2147483647],"right_children":[-1],"split_conditions":[0E0],"split_indices":[0],"split_type":[0],"sum_hessian":[8.16944E-1],"tree_param":{"num_deleted":"0","num_feature":"768","num_nodes":"1","size_leaf_vector":"1"}},{"base_weights":[0E0],"categories":[],"categories_nodes":[],"categories_segments":[],"categories_sizes":[],"default_left":[0],"id":22,"left_children":[-1],"loss_changes":[0E0],"parents":[2147483647],"right_children":[-1],"split_conditions":[0E0],"split_indices":[0],"split_type":[0],"sum_hessian":[8.16944E-1],"tree_param":{"num_deleted":"0","num_feature":"768","num_nodes":"1","size_leaf_vector":"1"}},{"base_weights":[0E0],"categories":[],"categories_nodes":[],"categories_segments":[],"categories_sizes":[],"default_left":[0],"id":23,"left_children":[-1],"loss_changes":[0E0],"parents":[2147483647],"right_children":[-1],"split_conditions":[0E0],"split_indices":[0],"split_type":[0],"sum_hessian":[8.16944E-1],"tree_param":{"num_deleted":"0","num_feature":"768","num_nodes":"1","size_leaf_vector":"1"}},{"base_weights":[0E0],"categories":[],"categories_nodes":[],"categories_segments":[],"categories_sizes":[],"default_left":[0],"id":24,"left_children":[-1],"loss_changes":[0E0],"parents":[2147483647],"right_children":[-1],"split_conditions":[0E0],"split_indices":[0],"split_type":[0],"sum_hessian":[8.16944E-1],"tree_param":{"num_deleted":"0","num_feature":"768","num_nodes":"1","size_leaf_vector":"1"}},{"base_weights":[0E0],"categories":[],"categories_nodes":[],"categories_segments":[],"categories_sizes":[],"default_left":[0],"id":25,"left_children":[-1],"loss_changes":[0E0],"parents":[2147483647],"right_children":[-1],"split_conditions":[0E0],"split_indices":[0],"split_type":[0],"sum_hessian":[8.16944E-1],"tree_param":{"num_deleted":"0","num_feature":"768","num_nodes":"1","size_leaf_vector":"1"}},{"base_weights":[0E0],"categories":[],"categories_nodes":[],"categories_segments":[],"categories_sizes":[],"default_left":[0],"id":26,"left_children":[-1],"loss_changes":[0E0],"parents":[2147483647],"right_children":[-1],"split_conditions":[0E0],"split_indices":[0],"split_type":[0],"sum_hessian":[8.16944E-1],"tree_param":{"num_deleted":"0","num_feature":"768","num_nodes":"1","size_leaf_vector":"1"}},{"base_weights":[0E0],"categories":[],"categories_nodes":[],"categories_segments":[],"categories_sizes":[],"default_left":[0],"id":27,"left_children":[-1],"loss_changes":[0E0],"parents":[2147483647],"right_children":[-1],"split_conditions":[0E0],"split_indices":[0],"split_type":[0],"sum_hessian":[8.16944E-1],"tree_param":{"num_deleted":"0","num_feature":"768","num_nodes":"1","size_leaf_vector":"1"}},{"base_weights":[0E0],"categories":[],"categories_nodes":[],"categories_segments":[],"categories_sizes":[],"default_left":[0],"id":28,"left_children":[-1],"loss_changes":[0E0],"parents":[2147483647],"right_children":[-1],"split_conditions":[0E0],"split_indices":[0],"split_type":[0],"sum_hessian":[8.16944E-1],"tree_param":{"num_deleted":"0","num_feature":"768","num_nodes":"1","size_leaf_vector":"1"}},{"base_weights":[0E0],"categories":[],"categories_nodes":[],"categories_segments":[],"categories_sizes":[],"default_left":[0],"id":29,"left_children":[-1],"loss_changes":[0E0],"parents":[2147483647],"right_children":[-1],"split_conditions":[0E0],"split_indices":[0],"split_type":[0],"sum_hessian":[8.16944E-1],"tree_param":{"num_deleted":"0","num_feature":"768","num_nodes":"1","size_leaf_vector":"1"}},{"base_weights":[0E0],"categories":[],"categories_nodes":[],"categories_segments":[],"categories_sizes":[],"default_left":[0],"id":30,"left_children":[-1],"loss_changes":[0E0],"parents":[2147483647],"right_children":[-1],"split_conditions":[0E0],"split_indices":[0],"split_type":[0],"sum_hessian":[8.16944E-1],"tree_param":{"num_deleted":"0","num_feature":"768","num_nodes":"1","size_leaf_vector":"1"}},{"base_weights":[0E0],"categories":[],"categories_nodes":[],"categories_segments":[],"categories_sizes":[],"default_left":[0],"id":31,"left_children":[-1],"loss_changes":[0E0],"parents":[2147483647],"right_children":[-1],"split_conditions":[0E0],"split_indices":[0],"split_type":[0],"sum_hessian":[8.16944E-1],"tree_param":{"num_deleted":"0","num_feature":"768","num_nodes":"1","size_leaf_vector":"1"}},{"base_weights":[0E0],"categories":[],"categories_nodes":[],"categories_segments":[],"categories_sizes":[],"default_left":[0],"id":32,"left_children":[-1],"loss_changes":[0E0],"parents":[2147483647],"right_children":[-1],"split_conditions":[0E0],"split_indices":[0],"split_type":[0],"sum_hessian":[8.16944E-1],"tree_param":{"num_deleted":"0","num_feature":"768","num_nodes":"1","size_leaf_vector":"1"}},{"base_weights":[0E0],"categories":[],"categories_nodes":[],"categories_segments":[],"categories_sizes":[],"default_left":[0],"id":33,"left_children":[-1],"loss_changes":[0E0],"parents":[2147483647],"right_children":[-1],"split_conditions":[0E0],"split_indices":[0],"split_type":[0],"sum_hessian":[8.16944E-1],"tree_param":{"num_deleted":"0","num_feature":"768","num_nodes":"1","size_leaf_vector":"1"}},{"base_weights":[0E0],"categories":[],"categories_nodes":[],"categories_segments":[],"categories_sizes":[],"default_left":[0],"id":34,"left_children":[-1],"loss_changes":[0E0],"parents":[2147483647],"right_children":[-1],"split_conditions":[0E0],"split_indices":[0],"split_type":[0],"sum_hessian":[8.16944E-1],"tree_param":{"num_deleted":"0","num_feature":"768","num_nodes":"1","size_leaf_vector":"1"}},{"base_weights":[0E0],"categories":[],"categories_nodes":[],"categories_segments":[],"categories_sizes":[],"default_left":[0],"id":35,"left_children":[-1],"loss_changes":[0E0],"parents":[2147483647],"right_children":[-1],"split_conditions":[0E0],"split_indices":[0],"split_type":[0],"sum_hessian":[8.16944E-1],"tree_param":{"num_deleted":"0","num_feature":"768","num_nodes":"1","size_leaf_vector":"1"}},{"base_weights":[0E0],"categories":[],"categories_nodes":[],"categories_segments":[],"categories_sizes":[],"default_left":[0],"id":36,"left_children":[-1],"loss_changes":[0E0],"parents":[2147483647],"right_children":[-1],"split_conditions":[0E0],"split_indices":[0],"split_type":[0],"sum_hessian":[8.16944E-1],"tree_param":{"num_deleted":"0","num_feature":"768","num_nodes":"1","size_leaf_vector":"1"}},{"base_weights":[0E0],"categories":[],"categories_nodes":[],"categories_segments":[],"categories_sizes":[],"default_left":[0],"id":37,"left_children":[-1],"loss_changes":[0E0],"parents":[2147483647],"right_children":[-1],"split_conditions":[0E0],"split_indices":[0],"split_type":[0],"sum_hessian":[8.16944E-1],"tree_param":{"num_deleted":"0","num_feature":"768","num_nodes":"1","size_leaf_vector":"1"}},{"base_weights":[0E0],"categories":[],"categories_nodes":[],"categories_segments":[],"categories_sizes":[],"default_left":[0],"id":38,"left_children":[-1],"loss_changes":[0E0],"parents":[2147483647],"right_children":[-1],"split_conditions":[0E0],"split_indices":[0],"split_type":[0],"sum_hessian":[8.16944E-1],"tree_param":{"num_deleted":"0","num_feature":"768","num_nodes":"1","size_leaf_vector":"1"}},{"base_weights":[0E0],"categories":[],"categories_nodes":[],"categories_segments":[],"categories_sizes":[],"default_left":[0],"id":39,"left_children":[-1],"loss_changes":[0E0],"parents":[2147483647],"right_children":[-1],"split_conditions":[0E0],"split_indices":[0],"split_type":[0],"sum_hessian":[8.16944E-1],"tree_param":{"num_deleted":"0","num_feature":"768","num_nodes":"1","size_leaf_vector":"1"}},{"base_weights":[0E0],"categories":[],"categories_nodes":[],"categories_segments":[],"categories_sizes":[],"default_left":[0],"id":40,"left_children":[-1],"loss_changes":[0E0],"parents":[2147483647],"right_children":[-1],"split_conditions":[0E0],"split_indices":[0],"split_type":[0],"sum_hessian":[8.16944E-1],"tree_param":{"num_deleted":"0","num_feature":"768","num_nodes":"1","size_leaf_vector":"1"}},{"base_weights":[0E0],"categories":[],"categories_nodes":[],"categories_segments":[],"categories_sizes":[],"default_left":[0],"id":41,"left_children":[-1],"loss_changes":[0E0],"parents":[2147483647],"right_children":[-1],"split_conditions":[0E0],"split_indices":[0],"split_type":[0],"sum_hessian":[8.16944E-1],"tree_param":{"num_deleted":"0","num_feature":"768","num_nodes":"1","size_leaf_vector":"1"}},{"base_weights":[0E0],"categories":[],"categories_nodes":[],"categories_segments":[],"categories_sizes":[],"default_left":[0],"id":42,"left_children":[-1],"loss_changes":[0E0],"parents":[2147483647],"right_children":[-1],"split_conditions":[0E0],"split_indices":[0],"split_type":[0],"sum_hessian":[8.16944E-1],"tree_param":{"num_deleted":"0","num_feature":"768","num_nodes":"1","size_leaf_vector":"1"}},{"base_weights":[0E0],"categories":[],"categories_nodes":[],"categories_segments":[],"categories_sizes":[],"default_left":[0],"id":43,"left_children":[-1],"loss_changes":[0E0],"parents":[2147483647],"right_children":[-1],"split_conditions":[0E0],"split_indices":[0],"split_type":[0],"sum_hessian":[8.16944E-1],"tree_param":{"num_deleted":"0","num_feature":"768","num_nodes":"1","size_leaf_vector":"1"}},{"base_weights":[0E0],"categories":[],"categories_nodes":[],"categories_segments":[],"categories_sizes":[],"default_left":[0],"id":44,"left_children":[-1],"loss_changes":[0E0],"parents":[2147483647],"right_children":[-1],"split_conditions":[0E0],"split_indices":[0],"split_type":[0],"sum_hessian":[8.16944E-1],"tree_param":{"num_deleted":"0","num_feature":"768","num_nodes":"1","size_leaf_vector":"1"}},{"base_weights":[0E0],"categories":[],"categories_nodes":[],"categories_segments":[],"categories_sizes":[],"default_left":[0],"id":45,"left_children":[-1],"loss_changes":[0E0],"parents":[2147483647],"right_children":[-1],"split_conditions":[0E0],"split_indices":[0],"split_type":[0],"sum_hessian":[8.16944E-1],"tree_param":{"num_deleted":"0","num_feature":"768","num_nodes":"1","size_leaf_vector":"1"}},{"base_weights":[0E0],"categories":[],"categories_nodes":[],"categories_segments":[],"categories_sizes":[],"default_left":[0],"id":46,"left_children":[-1],"loss_changes":[0E0],"parents":[2147483647],"right_children":[-1],"split_conditions":[0E0],"split_indices":[0],"split_type":[0],"sum_hessian":[8.16944E-1],"tree_param":{"num_deleted":"0","num_feature":"768","num_nodes":"1","size_leaf_vector":"1"}},{"base_weights":[0E0],"categories":[],"categories_nodes":[],"categories_segments":[],"categories_sizes":[],"default_left":[0],"id":47,"left_children":[-1],"loss_changes":[0E0],"parents":[2147483647],"right_children":[-1],"split_conditions":[0E0],"split_indices":[0],"split_type":[0],"sum_hessian":[8.16944E-1],"tree_param":{"num_deleted":"0","num_feature":"768","num_nodes":"1","size_leaf_vector":"1"}},{"base_weights":[0E0],"categories":[],"categories_nodes":[],"categories_segments":[],"categories_sizes":[],"default_left":[0],"id":48,"left_children":[-1],"loss_changes":[0E0],"parents":[2147483647],"right_children":[-1],"split_conditions":[0E0],"split_indices":[0],"split_type":[0],"sum_hessian":[8.16944E-1],"tree_param":{"num_deleted":"0","num_feature":"768","num_nodes":"1","size_leaf_vector":"1"}},{"base_weights":[0E0],"categories":[],"categories_nodes":[],"categories_segments":[],"categories_sizes":[],"default_left":[0],"id":49,"left_children":[-1],"loss_changes":[0E0],"parents":[2147483647],"right_children":[-1],"split_conditions":[0E0],"split_indices":[0],"split_type":[0],"sum_hessian":[8.16944E-1],"tree_param":{"num_deleted":"0","num_feature":"768","num_nodes":"1","size_leaf_vector":"1"}},{"base_weights":[0E0],"categories":[],"categories_nodes":[],"categories_segments":[],"categories_sizes":[],"default_left":[0],"id":50,"left_children":[-1],"loss_changes":[0E0],"parents":[2147483647],"right_children":[-1],"split_conditions":[0E0],"split_indices":[0],"split_type":[0],"sum_hessian":[8.16944E-1],"tree_param":{"num_deleted":"0","num_feature":"768","num_nodes":"1","size_leaf_vector":"1"}},{"base_weights":[0E0],"categories":[],"categories_nodes":[],"categories_segments":[],"categories_sizes":[],"default_left":[0],"id":51,"left_children":[-1],"loss_changes":[0E0],"parents":[2147483647],"right_children":[-1],"split_conditions":[0E0],"split_indices":[0],"split_type":[0],"sum_hessian":[8.16944E-1],"tree_param":{"num_deleted":"0","num_feature":"768","num_nodes":"1","size_leaf_vector":"1"}},{"base_weights":[0E0],"categories":[],"categories_nodes":[],"categories_segments":[],"categories_sizes":[],"default_left":[0],"id":52,"left_children":[-1],"loss_changes":[0E0],"parents":[2147483647],"right_children":[-1],"split_conditions":[0E0],"split_indices":[0],"split_type":[0],"sum_hessian":[8.16944E-1],"tree_param":{"num_deleted":"0","num_feature":"768","num_nodes":"1","size_leaf_vector":"1"}},{"base_weights":[0E0],"categories":[],"categories_nodes":[],"categories_segments":[],"categories_sizes":[],"default_left":[0],"id":53,"left_children":[-1],"loss_changes":[0E0],"parents":[2147483647],"right_children":[-1],"split_conditions":[0E0],"split_indices":[0],"split_type":[0],"sum_hessian":[8.16944E-1],"tree_param":{"num_deleted":"0","num_feature":"768","num_nodes":"1","size_leaf_vector":"1"}},{"base_weights":[0E0],"categories":[],"categories_nodes":[],"categories_segments":[],"categories_sizes":[],"default_left":[0],"id":54,"left_children":[-1],"loss_changes":[0E0],"parents":[2147483647],"right_children":[-1],"split_conditions":[0E0],"split_indices":[0],"split_type":[0],"sum_hessian":[8.16944E-1],"tree_param":{"num_deleted":"0","num_feature":"768","num_nodes":"1","size_leaf_vector":"1"}},{"base_weights":[0E0],"categories":[],"categories_nodes":[],"categories_segments":[],"categories_sizes":[],"default_left":[0],"id":55,"left_children":[-1],"loss_changes":[0E0],"parents":[2147483647],"right_children":[-1],"split_conditions":[0E0],"split_indices":[0],"split_type":[0],"sum_hessian":[8.16944E-1],"tree_param":{"num_deleted":"0","num_feature":"768","num_nodes":"1","size_leaf_vector":"1"}},{"base_weights":[0E0],"categories":[],"categories_nodes":[],"categories_segments":[],"categories_sizes":[],"default_left":[0],"id":56,"left_children":[-1],"loss_changes":[0E0],"parents":[2147483647],"right_children":[-1],"split_conditions":[0E0],"split_indices":[0],"split_type":[0],"sum_hessian":[8.16944E-1],"tree_param":{"num_deleted":"0","num_feature":"768","num_nodes":"1","size_leaf_vector":"1"}},{"base_weights":[0E0],"categories":[],"categories_nodes":[],"categories_segments":[],"categories_sizes":[],"default_left":[0],"id":57,"left_children":[-1],"loss_changes":[0E0],"parents":[2147483647],"right_children":[-1],"split_conditions":[0E0],"split_indices":[0],"split_type":[0],"sum_hessian":[8.16944E-1],"tree_param":{"num_deleted":"0","num_feature":"768","num_nodes":"1","size_leaf_vector":"1"}},{"base_weights":[0E0],"categories":[],"categories_nodes":[],"categories_segments":[],"categories_sizes":[],"default_left":[0],"id":58,"left_children":[-1],"loss_changes":[0E0],"parents":[2147483647],"right_children":[-1],"split_conditions":[0E0],"split_indices":[0],"split_type":[0],"sum_hessian":[8.16944E-1],"tree_param":{"num_deleted":"0","num_feature":"768","num_nodes":"1","size_leaf_vector":"1"}},{"base_weights":[0E0],"categories":[],"categories_nodes":[],"categories_segments":[],"categories_sizes":[],"default_left":[0],"id":59,"left_children":[-1],"loss_changes":[0E0],"parents":[2147483647],"right_children":[-1],"split_conditions":[0E0],"split_indices":[0],"split_type":[0],"sum_hessian":[8.16944E-1],"tree_param":{"num_deleted":"0","num_feature":"768","num_nodes":"1","size_leaf_vector":"1"}},{"base_weights":[0E0],"categories":[],"categories_nodes":[],"categories_segments":[],"categories_sizes":[],"default_left":[0],"id":60,"left_children":[-1],"loss_changes":[0E0],"parents":[2147483647],"right_children":[-1],"split_conditions":[0E0],"split_indices":[0],"split_type":[0],"sum_hessian":[8.16944E-1],"tree_param":{"num_deleted":"0","num_feature":"768","num_nodes":"1","size_leaf_vector":"1"}},{"base_weights":[0E0],"categories":[],"categories_nodes":[],"categories_segments":[],"categories_sizes":[],"default_left":[0],"id":61,"left_children":[-1],"loss_changes":[0E0],"parents":[2147483647],"right_children":[-1],"split_conditions":[0E0],"split_indices":[0],"split_type":[0],"sum_hessian":[8.16944E-1],"tree_param":{"num_deleted":"0","num_feature":"768","num_nodes":"1","size_leaf_vector":"1"}},{"base_weights":[0E0],"categories":[],"categories_nodes":[],"categories_segments":[],"categories_sizes":[],"default_left":[0],"id":62,"left_children":[-1],"loss_changes":[0E0],"parents":[2147483647],"right_children":[-1],"split_conditions":[0E0],"split_indices":[0],"split_type":[0],"sum_hessian":[8.16944E-1],"tree_param":{"num_deleted":"0","num_feature":"768","num_nodes":"1","size_leaf_vector":"1"}},{"base_weights":[0E0],"categories":[],"categories_nodes":[],"categories_segments":[],"categories_sizes":[],"default_left":[0],"id":63,"left_children":[-1],"loss_changes":[0E0],"parents":[2147483647],"right_children":[-1],"split_conditions":[0E0],"split_indices":[0],"split_type":[0],"sum_hessian":[8.16944E-1],"tree_param":{"num_deleted":"0","num_feature":"768","num_nodes":"1","size_leaf_vector":"1"}},{"base_weights":[0E0],"categories":[],"categories_nodes":[],"categories_segments":[],"categories_sizes":[],"default_left":[0],"id":64,"left_children":[-1],"loss_changes":[0E0],"parents":[2147483647],"right_children":[-1],"split_conditions":[0E0],"split_indices":[0],"split_type":[0],"sum_hessian":[8.16944E-1],"tree_param":{"num_deleted":"0","num_feature":"768","num_nodes":"1","size_leaf_vector":"1"}},{"base_weights":[0E0],"categories":[],"categories_nodes":[],"categories_segments":[],"categories_sizes":[],"default_left":[0],"id":65,"left_children":[-1],"loss_changes":[0E0],"parents":[2147483647],"right_children":[-1],"split_conditions":[0E0],"split_indices":[0],"split_type":[0],"sum_hessian":[8.16944E-1],"tree_param":{"num_deleted":"0","num_feature":"768","num_nodes":"1","size_leaf_vector":"1"}},{"base_weights":[0E0],"categories":[],"categories_nodes":[],"categories_segments":[],"categories_sizes":[],"default_left":[0],"id":66,"left_children":[-1],"loss_changes":[0E0],"parents":[2147483647],"right_children":[-1],"split_conditions":[0E0],"split_indices":[0],"split_type":[0],"sum_hessian":[8.16944E-1],"tree_param":{"num_deleted":"0","num_feature":"768","num_nodes":"1","size_leaf_vector":"1"}},{"base_weights":[0E0],"categories":[],"categories_nodes":[],"categories_segments":[],"categories_sizes":[],"default_left":[0],"id":67,"left_children":[-1],"loss_changes":[0E0],"parents":[2147483647],"right_children":[-1],"split_conditions":[0E0],"split_indices":[0],"split_type":[0],"sum_hessian":[8.16944E-1],"tree_param":{"num_deleted":"0","num_feature":"768","num_nodes":"1","size_leaf_vector":"1"}},{"base_weights":[0E0],"categories":[],"categories_nodes":[],"categories_segments":[],"categories_sizes":[],"default_left":[0],"id":68,"left_children":[-1],"loss_changes":[0E0],"parents":[2147483647],"right_children":[-1],"split_conditions":[0E0],"split_indices":[0],"split_type":[0],"sum_hessian":[8.16944E-1],"tree_param":{"num_deleted":"0","num_feature":"768","num_nodes":"1","size_leaf_vector":"1"}},{"base_weights":[0E0],"categories":[],"categories_nodes":[],"categories_segments":[],"categories_sizes":[],"default_left":[0],"id":69,"left_children":[-1],"loss_changes":[0E0],"parents":[2147483647],"right_children":[-1],"split_conditions":[0E0],"split_indices":[0],"split_type":[0],"sum_hessian":[8.16944E-1],"tree_param":{"num_deleted":"0","num_feature":"768","num_nodes":"1","size_leaf_vector":"1"}},{"base_weights":[0E0],"categories":[],"categories_nodes":[],"categories_segments":[],"categories_sizes":[],"default_left":[0],"id":70,"left_children":[-1],"loss_changes":[0E0],"parents":[2147483647],"right_children":[-1],"split_conditions":[0E0],"split_indices":[0],"split_type":[0],"sum_hessian":[8.16944E-1],"tree_param":{"num_deleted":"0","num_feature":"768","num_nodes":"1","size_leaf_vector":"1"}},{"base_weights":[0E0],"categories":[],"categories_nodes":[],"categories_segments":[],"categories_sizes":[],"default_left":[0],"id":71,"left_children":[-1],"loss_changes":[0E0],"parents":[2147483647],"right_children":[-1],"split_conditions":[0E0],"split_indices":[0],"split_type":[0],"sum_hessian":[8.16944E-1],"tree_param":{"num_deleted":"0","num_feature":"768","num_nodes":"1","size_leaf_vector":"1"}},{"base_weights":[0E0],"categories":[],"categories_nodes":[],"categories_segments":[],"categories_sizes":[],"default_left":[0],"id":72,"left_children":[-1],"loss_changes":[0E0],"parents":[2147483647],"right_children":[-1],"split_conditions":[0E0],"split_indices":[0],"split_type":[0],"sum_hessian":[8.16944E-1],"tree_param":{"num_deleted":"0","num_feature":"768","num_nodes":"1","size_leaf_vector":"1"}},{"base_weights":[0E0],"categories":[],"categories_nodes":[],"categories_segments":[],"categories_sizes":[],"default_left":[0],"id":73,"left_children":[-1],"loss_changes":[0E0],"parents":[2147483647],"right_children":[-1],"split_conditions":[0E0],"split_indices":[0],"split_type":[0],"sum_hessian":[8.16944E-1],"tree_param":{"num_deleted":"0","num_feature":"768","num_nodes":"1","size_leaf_vector":"1"}},{"base_weights":[0E0],"categories":[],"categories_nodes":[],"categories_segments":[],"categories_sizes":[],"default_left":[0],"id":74,"left_children":[-1],"loss_changes":[0E0],"parents":[2147483647],"right_children":[-1],"split_conditions":[0E0],"split_indices":[0],"split_type":[0],"sum_hessian":[8.16944E-1],"tree_param":{"num_deleted":"0","num_feature":"768","num_nodes":"1","size_leaf_vector":"1"}},{"base_weights":[0E0],"categories":[],"categories_nodes":[],"categories_segments":[],"categories_sizes":[],"default_left":[0],"id":75,"left_children":[-1],"loss_changes":[0E0],"parents":[2147483647],"right_children":[-1],"split_conditions":[0E0],"split_indices":[0],"split_type":[0],"sum_hessian":[8.16944E-1],"tree_param":{"num_deleted":"0","num_feature":"768","num_nodes":"1","size_leaf_vector":"1"}},{"base_weights":[0E0],"categories":[],"categories_nodes":[],"categories_segments":[],"categories_sizes":[],"default_left":[0],"id":76,"left_children":[-1],"loss_changes":[0E0],"parents":[2147483647],"right_children":[-1],"split_conditions":[0E0],"split_indices":[0],"split_type":[0],"sum_hessian":[8.16944E-1],"tree_param":{"num_deleted":"0","num_feature":"768","num_nodes":"1","size_leaf_vector":"1"}},{"base_weights":[0E0],"categories":[],"categories_nodes":[],"categories_segments":[],"categories_sizes":[],"default_left":[0],"id":77,"left_children":[-1],"loss_changes":[0E0],"parents":[2147483647],"right_children":[-1],"split_conditions":[0E0],"split_indices":[0],"split_type":[0],"sum_hessian":[8.16944E-1],"tree_param":{"num_deleted":"0","num_feature":"768","num_nodes":"1","size_leaf_vector":"1"}},{"base_weights":[0E0],"categories":[],"categories_nodes":[],"categories_segments":[],"categories_sizes":[],"default_left":[0],"id":78,"left_children":[-1],"loss_changes":[0E0],"parents":[2147483647],"right_children":[-1],"split_conditions":[0E0],"split_indices":[0],"split_type":[0],"sum_hessian":[8.16944E-1],"tree_param":{"num_deleted":"0","num_feature":"768","num_nodes":"1","size_leaf_vector":"1"}},{"base_weights":[0E0],"categories":[],"categories_nodes":[],"categories_segments":[],"categories_sizes":[],"default_left":[0],"id":79,"left_children":[-1],"loss_changes":[0E0],"parents":[2147483647],"right_children":[-1],"split_conditions":[0E0],"split_indices":[0],"split_type":[0],"sum_hessian":[8.16944E-1],"tree_param":{"num_deleted":"0","num_feature":"768","num_nodes":"1","size_leaf_vector":"1"}},{"base_weights":[0E0],"categories":[],"categories_nodes":[],"categories_segments":[],"categories_sizes":[],"default_left":[0],"id":80,"left_children":[-1],"loss_changes":[0E0],"parents":[2147483647],"right_children":[-1],"split_conditions":[0E0],"split_indices":[0],"split_type":[0],"sum_hessian":[8.16944E-1],"tree_param":{"num_deleted":"0","num_feature":"768","num_nodes":"1","size_leaf_vector":"1"}},{"base_weights":[0E0],"categories":[],"categories_nodes":[],"categories_segments":[],"categories_sizes":[],"default_left":[0],"id":81,"left_children":[-1],"loss_changes":[0E0],"parents":[2147483647],"right_children":[-1],"split_conditions":[0E0],"split_indices":[0],"split_type":[0],"sum_hessian":[8.16944E-1],"tree_param":{"num_deleted":"0","num_feature":"768","num_nodes":"1","size_leaf_vector":"1"}},{"base_weights":[0E0],"categories":[],"categories_nodes":[],"categories_segments":[],"categories_sizes":[],"default_left":[0],"id":82,"left_children":[-1],"loss_changes":[0E0],"parents":[2147483647],"right_children":[-1],"split_conditions":[0E0],"split_indices":[0],"split_type":[0],"sum_hessian":[8.16944E-1],"tree_param":{"num_deleted":"0","num_feature":"768","num_nodes":"1","size_leaf_vector":"1"}},{"base_weights":[0E0],"categories":[],"categories_nodes":[],"categories_segments":[],"categories_sizes":[],"default_left":[0],"id":83,"left_children":[-1],"loss_changes":[0E0],"parents":[2147483647],"right_children":[-1],"split_conditions":[0E0],"split_indices":[0],"split_type":[0],"sum_hessian":[8.16944E-1],"tree_param":{"num_deleted":"0","num_feature":"768","num_nodes":"1","size_leaf_vector":"1"}},{"base_weights":[0E0],"categories":[],"categories_nodes":[],"categories_segments":[],"categories_sizes":[],"default_left":[0],"id":84,"left_children":[-1],"loss_changes":[0E0],"parents":[2147483647],"right_children":[-1],"split_conditions":[0E0],"split_indices":[0],"split_type":[0],"sum_hessian":[8.16944E-1],"tree_param":{"num_deleted":"0","num_feature":"768","num_nodes":"1","size_leaf_vector":"1"}},{"base_weights":[0E0],"categories":[],"categories_nodes":[],"categories_segments":[],"categories_sizes":[],"default_left":[0],"id":85,"left_children":[-1],"loss_changes":[0E0],"parents":[2147483647],"right_children":[-1],"split_conditions":[0E0],"split_indices":[0],"split_type":[0],"sum_hessian":[8.16944E-1],"tree_param":{"num_deleted":"0","num_feature":"768","num_nodes":"1","size_leaf_vector":"1"}},{"base_weights":[0E0],"categories":[],"categories_nodes":[],"categories_segments":[],"categories_sizes":[],"default_left":[0],"id":86,"left_children":[-1],"loss_changes":[0E0],"parents":[2147483647],"right_children":[-1],"split_conditions":[0E0],"split_indices":[0],"split_type":[0],"sum_hessian":[8.16944E-1],"tree_param":{"num_deleted":"0","num_feature":"768","num_nodes":"1","size_leaf_vector":"1"}},{"base_weights":[0E0],"categories":[],"categories_nodes":[],"categories_segments":[],"categories_sizes":[],"default_left":[0],"id":87,"left_children":[-1],"loss_changes":[0E0],"parents":[2147483647],"right_children":[-1],"split_conditions":[0E0],"split_indices":[0],"split_type":[0],"sum_hessian":[8.16944E-1],"tree_param":{"num_deleted":"0","num_feature":"768","num_nodes":"1","size_leaf_vector":"1"}},{"base_weights":[0E0],"categories":[],"categories_nodes":[],"categories_segments":[],"categories_sizes":[],"default_left":[0],"id":88,"left_children":[-1],"loss_changes":[0E0],"parents":[2147483647],"right_children":[-1],"split_conditions":[0E0],"split_indices":[0],"split_type":[0],"sum_hessian":[8.16944E-1],"tree_param":{"num_deleted":"0","num_feature":"768","num_nodes":"1","size_leaf_vector":"1"}},{"base_weights":[0E0],"categories":[],"categories_nodes":[],"categories_segments":[],"categories_sizes":[],"default_left":[0],"id":89,"left_children":[-1],"loss_changes":[0E0],"parents":[2147483647],"right_children":[-1],"split_conditions":[0E0],"split_indices":[0],"split_type":[0],"sum_hessian":[8.16944E-1],"tree_param":{"num_deleted":"0","num_feature":"768","num_nodes":"1","size_leaf_vector":"1"}},{"base_weights":[0E0],"categories":[],"categories_nodes":[],"categories_segments":[],"categories_sizes":[],"default_left":[0],"id":90,"left_children":[-1],"loss_changes":[0E0],"parents":[2147483647],"right_children":[-1],"split_conditions":[0E0],"split_indices":[0],"split_type":[0],"sum_hessian":[8.16944E-1],"tree_param":{"num_deleted":"0","num_feature":"768","num_nodes":"1","size_leaf_vector":"1"}},{"base_weights":[0E0],"categories":[],"categories_nodes":[],"categories_segments":[],"categories_sizes":[],"default_left":[0],"id":91,"left_children":[-1],"loss_changes":[0E0],"parents":[2147483647],"right_children":[-1],"split_conditions":[0E0],"split_indices":[0],"split_type":[0],"sum_hessian":[8.16944E-1],"tree_param":{"num_deleted":"0","num_feature":"768","num_nodes":"1","size_leaf_vector":"1"}},{"base_weights":[0E0],"categories":[],"categories_nodes":[],"categories_segments":[],"categories_sizes":[],"default_left":[0],"id":92,"left_children":[-1],"loss_changes":[0E0],"parents":[2147483647],"right_children":[-1],"split_conditions":[0E0],"split_indices":[0],"split_type":[0],"sum_hessian":[8.16944E-1],"tree_param":{"num_deleted":"0","num_feature":"768","num_nodes":"1","size_leaf_vector":"1"}},{"base_weights":[0E0],"categories":[],"categories_nodes":[],"categories_segments":[],"categories_sizes":[],"default_left":[0],"id":93,"left_children":[-1],"loss_changes":[0E0],"parents":[2147483647],"right_children":[-1],"split_conditions":[0E0],"split_indices":[0],"split_type":[0],"sum_hessian":[8.16944E-1],"tree_param":{"num_deleted":"0","num_feature":"768","num_nodes":"1","size_leaf_vector":"1"}},{"base_weights":[0E0],"categories":[],"categories_nodes":[],"categories_segments":[],"categories_sizes":[],"default_left":[0],"id":94,"left_children":[-1],"loss_changes":[0E0],"parents":[2147483647],"right_children":[-1],"split_conditions":[0E0],"split_indices":[0],"split_type":[0],"sum_hessian":[8.16944E-1],"tree_param":{"num_deleted":"0","num_feature":"768","num_nodes":"1","size_leaf_vector":"1"}},{"base_weights":[0E0],"categories":[],"categories_nodes":[],"categories_segments":[],"categories_sizes":[],"default_left":[0],"id":95,"left_children":[-1],"loss_changes":[0E0],"parents":[2147483647],"right_children":[-1],"split_conditions":[0E0],"split_indices":[0],"split_type":[0],"sum_hessian":[8.16944E-1],"tree_param":{"num_deleted":"0","num_feature":"768","num_nodes":"1","size_leaf_vector":"1"}},{"base_weights":[0E0],"categories":[],"categories_nodes":[],"categories_segments":[],"categories_sizes":[],"default_left":[0],"id":96,"left_children":[-1],"loss_changes":[0E0],"parents":[2147483647],"right_children":[-1],"split_conditions":[0E0],"split_indices":[0],"split_type":[0],"sum_hessian":[8.16944E-1],"tree_param":{"num_deleted":"0","num_feature":"768","num_nodes":"1","size_leaf_vector":"1"}},{"base_weights":[0E0],"categories":[],"categories_nodes":[],"categories_segments":[],"categories_sizes":[],"default_left":[0],"id":97,"left_children":[-1],"loss_changes":[0E0],"parents":[2147483647],"right_children":[-1],"split_conditions":[0E0],"split_indices":[0],"split_type":[0],"sum_hessian":[8.16944E-1],"tree_param":{"num_deleted":"0","num_feature":"768","num_nodes":"1","size_leaf_vector":"1"}},{"base_weights":[0E0],"categories":[],"categories_nodes":[],"categories_segments":[],"categories_sizes":[],"default_left":[0],"id":98,"left_children":[-1],"loss_changes":[0E0],"parents":[2147483647],"right_children":[-1],"split_conditions":[0E0],"split_indices":[0],"split_type":[0],"sum_hessian":[8.16944E-1],"tree_param":{"num_deleted":"0","num_feature":"768","num_nodes":"1","size_leaf_vector":"1"}},{"base_weights":[0E0],"categories":[],"categories_nodes":[],"categories_segments":[],"categories_sizes":[],"default_left":[0],"id":99,"left_children":[-1],"loss_changes":[0E0],"parents":[2147483647],"right_children":[-1],"split_conditions":[0E0],"split_indices":[0],"split_type":[0],"sum_hessian":[8.16944E-1],"tree_param":{"num_deleted":"0","num_feature":"768","num_nodes":"1","size_leaf_vector":"1"}},{"base_weights":[0E0],"categories":[],"categories_nodes":[],"categories_segments":[],"categories_sizes":[],"default_left":[0],"id":100,"left_children":[-1],"loss_changes":[0E0],"parents":[2147483647],"right_children":[-1],"split_conditions":[0E0],"split_indices":[0],"split_type":[0],"sum_hessian":[8.16944E-1],"tree_param":{"num_deleted":"0","num_feature":"768","num_nodes":"1","size_leaf_vector":"1"}},{"base_weights":[0E0],"categories":[],"categories_nodes":[],"categories_segments":[],"categories_sizes":[],"default_left":[0],"id":101,"left_children":[-1],"loss_changes":[0E0],"parents":[2147483647],"right_children":[-1],"split_conditions":[0E0],"split_indices":[0],"split_type":[0],"sum_hessian":[8.16944E-1],"tree_param":{"num_deleted":"0","num_feature":"768","num_nodes":"1","size_leaf_vector":"1"}},{"base_weights":[0E0],"categories":[],"categories_nodes":[],"categories_segments":[],"categories_sizes":[],"default_left":[0],"id":102,"left_children":[-1],"loss_changes":[0E0],"parents":[2147483647],"right_children":[-1],"split_conditions":[0E0],"split_indices":[0],"split_type":[0],"sum_hessian":[8.16944E-1],"tree_param":{"num_deleted":"0","num_feature":"768","num_nodes":"1","size_leaf_vector":"1"}},{"base_weights":[0E0],"categories":[],"categories_nodes":[],"categories_segments":[],"categories_sizes":[],"default_left":[0],"id":103,"left_children":[-1],"loss_changes":[0E0],"parents":[2147483647],"right_children":[-1],"split_conditions":[0E0],"split_indices":[0],"split_type":[0],"sum_hessian":[8.16944E-1],"tree_param":{"num_deleted":"0","num_feature":"768","num_nodes":"1","size_leaf_vector":"1"}},{"base_weights":[0E0],"categories":[],"categories_nodes":[],"categories_segments":[],"categories_sizes":[],"default_left":[0],"id":104,"left_children":[-1],"loss_changes":[0E0],"parents":[2147483647],"right_children":[-1],"split_conditions":[0E0],"split_indices":[0],"split_type":[0],"sum_hessian":[8.16944E-1],"tree_param":{"num_deleted":"0","num_feature":"768","num_nodes":"1","size_leaf_vector":"1"}},{"base_weights":[0E0],"categories":[],"categories_nodes":[],"categories_segments":[],"categories_sizes":[],"default_left":[0],"id":105,"left_children":[-1],"loss_changes":[0E0],"parents":[2147483647],"right_children":[-1],"split_conditions":[0E0],"split_indices":[0],"split_type":[0],"sum_hessian":[8.16944E-1],"tree_param":{"num_deleted":"0","num_feature":"768","num_nodes":"1","size_leaf_vector":"1"}},{"base_weights":[0E0],"categories":[],"categories_nodes":[],"categories_segments":[],"categories_sizes":[],"default_left":[0],"id":106,"left_children":[-1],"loss_changes":[0E0],"parents":[2147483647],"right_children":[-1],"split_conditions":[0E0],"split_indices":[0],"split_type":[0],"sum_hessian":[8.16944E-1],"tree_param":{"num_deleted":"0","num_feature":"768","num_nodes":"1","size_leaf_vector":"1"}},{"base_weights":[0E0],"categories":[],"categories_nodes":[],"categories_segments":[],"categories_sizes":[],"default_left":[0],"id":107,"left_children":[-1],"loss_changes":[0E0],"parents":[2147483647],"right_children":[-1],"split_conditions":[0E0],"split_indices":[0],"split_type":[0],"sum_hessian":[8.16944E-1],"tree_param":{"num_deleted":"0","num_feature":"768","num_nodes":"1","size_leaf_vector":"1"}},{"base_weights":[0E0],"categories":[],"categories_nodes":[],"categories_segments":[],"categories_sizes":[],"default_left":[0],"id":108,"left_children":[-1],"loss_changes":[0E0],"parents":[2147483647],"right_children":[-1],"split_conditions":[0E0],"split_indices":[0],"split_type":[0],"sum_hessian":[8.16944E-1],"tree_param":{"num_deleted":"0","num_feature":"768","num_nodes":"1","size_leaf_vector":"1"}},{"base_weights":[0E0],"categories":[],"categories_nodes":[],"categories_segments":[],"categories_sizes":[],"default_left":[0],"id":109,"left_children":[-1],"loss_changes":[0E0],"parents":[2147483647],"right_children":[-1],"split_conditions":[0E0],"split_indices":[0],"split_type":[0],"sum_hessian":[8.16944E-1],"tree_param":{"num_deleted":"0","num_feature":"768","num_nodes":"1","size_leaf_vector":"1"}},{"base_weights":[0E0],"categories":[],"categories_nodes":[],"categories_segments":[],"categories_sizes":[],"default_left":[0],"id":110,"left_children":[-1],"loss_changes":[0E0],"parents":[2147483647],"right_children":[-1],"split_conditions":[0E0],"split_indices":[0],"split_type":[0],"sum_hessian":[8.16944E-1],"tree_param":{"num_deleted":"0","num_feature":"768","num_nodes":"1","size_leaf_vector":"1"}},{"base_weights":[0E0],"categories":[],"categories_nodes":[],"categories_segments":[],"categories_sizes":[],"default_left":[0],"id":111,"left_children":[-1],"loss_changes":[0E0],"parents":[2147483647],"right_children":[-1],"split_conditions":[0E0],"split_indices":[0],"split_type":[0],"sum_hessian":[8.16944E-1],"tree_param":{"num_deleted":"0","num_feature":"768","num_nodes":"1","size_leaf_vector":"1"}},{"base_weights":[0E0],"categories":[],"categories_nodes":[],"categories_segments":[],"categories_sizes":[],"default_left":[0],"id":112,"left_children":[-1],"loss_changes":[0E0],"parents":[2147483647],"right_children":[-1],"split_conditions":[0E0],"split_indices":[0],"split_type":[0],"sum_hessian":[8.16944E-1],"tree_param":{"num_deleted":"0","num_feature":"768","num_nodes":"1","size_leaf_vector":"1"}},{"base_weights":[0E0],"categories":[],"categories_nodes":[],"categories_segments":[],"categories_sizes":[],"default_left":[0],"id":113,"left_children":[-1],"loss_changes":[0E0],"parents":[2147483647],"right_children":[-1],"split_conditions":[0E0],"split_indices":[0],"split_type":[0],"sum_hessian":[8.16944E-1],"tree_param":{"num_deleted":"0","num_feature":"768","num_nodes":"1","size_leaf_vector":"1"}},{"base_weights":[0E0],"categories":[],"categories_nodes":[],"categories_segments":[],"categories_sizes":[],"default_left":[0],"id":114,"left_children":[-1],"loss_changes":[0E0],"parents":[2147483647],"right_children":[-1],"split_conditions":[0E0],"split_indices":[0],"split_type":[0],"sum_hessian":[8.16944E-1],"tree_param":{"num_deleted":"0","num_feature":"768","num_nodes":"1","size_leaf_vector":"1"}},{"base_weights":[0E0],"categories":[],"categories_nodes":[],"categories_segments":[],"categories_sizes":[],"default_left":[0],"id":115,"left_children":[-1],"loss_changes":[0E0],"parents":[2147483647],"right_children":[-1],"split_conditions":[0E0],"split_indices":[0],"split_type":[0],"sum_hessian":[8.16944E-1],"tree_param":{"num_deleted":"0","num_feature":"768","num_nodes":"1","size_leaf_vector":"1"}},{"base_weights":[0E0],"categories":[],"categories_nodes":[],"categories_segments":[],"categories_sizes":[],"default_left":[0],"id":116,"left_children":[-1],"loss_changes":[0E0],"parents":[2147483647],"right_children":[-1],"split_conditions":[0E0],"split_indices":[0],"split_type":[0],"sum_hessian":[8.16944E-1],"tree_param":{"num_deleted":"0","num_feature":"768","num_nodes":"1","size_leaf_vector":"1"}},{"base_weights":[0E0],"categories":[],"categories_nodes":[],"categories_segments":[],"categories_sizes":[],"default_left":[0],"id":117,"left_children":[-1],"loss_changes":[0E0],"parents":[2147483647],"right_children":[-1],"split_conditions":[0E0],"split_indices":[0],"split_type":[0],"sum_hessian":[8.16944E-1],"tree_param":{"num_deleted":"0","num_feature":"768","num_nodes":"1","size_leaf_vector":"1"}},{"base_weights":[0E0],"categories":[],"categories_nodes":[],"categories_segments":[],"categories_sizes":[],"default_left":[0],"id":118,"left_children":[-1],"loss_changes":[0E0],"parents":[2147483647],"right_children":[-1],"split_conditions":[0E0],"split_indices":[0],"split_type":[0],"sum_hessian":[8.16944E-1],"tree_param":{"num_deleted":"0","num_feature":"768","num_nodes":"1","size_leaf_vector":"1"}},{"base_weights":[0E0],"categories":[],"categories_nodes":[],"categories_segments":[],"categories_sizes":[],"default_left":[0],"id":119,"left_children":[-1],"loss_changes":[0E0],"parents":[2147483647],"right_children":[-1],"split_conditions":[0E0],"split_indices":[0],"split_type":[0],"sum_hessian":[8.16944E-1],"tree_param":{"num_deleted":"0","num_feature":"768","num_nodes":"1","size_leaf_vector":"1"}},{"base_weights":[0E0],"categories":[],"categories_nodes":[],"categories_segments":[],"categories_sizes":[],"default_left":[0],"id":120,"left_children":[-1],"loss_changes":[0E0],"parents":[2147483647],"right_children":[-1],"split_conditions":[0E0],"split_indices":[0],"split_type":[0],"sum_hessian":[8.16944E-1],"tree_param":{"num_deleted":"0","num_feature":"768","num_nodes":"1","size_leaf_vector":"1"}},{"base_weights":[0E0],"categories":[],"categories_nodes":[],"categories_segments":[],"categories_sizes":[],"default_left":[0],"id":121,"left_children":[-1],"loss_changes":[0E0],"parents":[2147483647],"right_children":[-1],"split_conditions":[0E0],"split_indices":[0],"split_type":[0],"sum_hessian":[8.16944E-1],"tree_param":{"num_deleted":"0","num_feature":"768","num_nodes":"1","size_leaf_vector":"1"}},{"base_weights":[0E0],"categories":[],"categories_nodes":[],"categories_segments":[],"categories_sizes":[],"default_left":[0],"id":122,"left_children":[-1],"loss_changes":[0E0],"parents":[2147483647],"right_children":[-1],"split_conditions":[0E0],"split_indices":[0],"split_type":[0],"sum_hessian":[8.16944E-1],"tree_param":{"num_deleted":"0","num_feature":"768","num_nodes":"1","size_leaf_vector":"1"}},{"base_weights":[0E0],"categories":[],"categories_nodes":[],"categories_segments":[],"categories_sizes":[],"default_left":[0],"id":123,"left_children":[-1],"loss_changes":[0E0],"parents":[2147483647],"right_children":[-1],"split_conditions":[0E0],"split_indices":[0],"split_type":[0],"sum_hessian":[8.16944E-1],"tree_param":{"num_deleted":"0","num_feature":"768","num_nodes":"1","size_leaf_vector":"1"}},{"base_weights":[0E0],"categories":[],"categories_nodes":[],"categories_segments":[],"categories_sizes":[],"default_left":[0],"id":124,"left_children":[-1],"loss_changes":[0E0],"parents":[2147483647],"right_children":[-1],"split_conditions":[0E0],"split_indices":[0],"split_type":[0],"sum_hessian":[8.16944E-1],"tree_param":{"num_deleted":"0","num_feature":"768","num_nodes":"1","size_leaf_vector":"1"}},{"base_weights":[0E0],"categories":[],"categories_nodes":[],"categories_segments":[],"categories_sizes":[],"default_left":[0],"id":125,"left_children":[-1],"loss_changes":[0E0],"parents":[2147483647],"right_children":[-1],"split_conditions":[0E0],"split_indices":[0],"split_type":[0],"sum_hessian":[8.16944E-1],"tree_param":{"num_deleted":"0","num_feature":"768","num_nodes":"1","size_leaf_vector":"1"}},{"base_weights":[0E0],"categories":[],"categories_nodes":[],"categories_segments":[],"categories_sizes":[],"default_left":[0],"id":126,"left_children":[-1],"loss_changes":[0E0],"parents":[2147483647],"right_children":[-1],"split_conditions":[0E0],"split_indices":[0],"split_type":[0],"sum_hessian":[8.16944E-1],"tree_param":{"num_deleted":"0","num_feature":"768","num_nodes":"1","size_leaf_vector":"1"}},{"base_weights":[0E0],"categories":[],"categories_nodes":[],"categories_segments":[],"categories_sizes":[],"default_left":[0],"id":127,"left_children":[-1],"loss_changes":[0E0],"parents":[2147483647],"right_children":[-1],"split_conditions":[0E0],"split_indices":[0],"split_type":[0],"sum_hessian":[8.16944E-1],"tree_param":{"num_deleted":"0","num_feature":"768","num_nodes":"1","size_leaf_vector":"1"}},{"base_weights":[0E0],"categories":[],"categories_nodes":[],"categories_segments":[],"categories_sizes":[],"default_left":[0],"id":128,"left_children":[-1],"loss_changes":[0E0],"parents":[2147483647],"right_children":[-1],"split_conditions":[0E0],"split_indices":[0],"split_type":[0],"sum_hessian":[8.16944E-1],"tree_param":{"num_deleted":"0","num_feature":"768","num_nodes":"1","size_leaf_vector":"1"}},{"base_weights":[0E0],"categories":[],"categories_nodes":[],"categories_segments":[],"categories_sizes":[],"default_left":[0],"id":129,"left_children":[-1],"loss_changes":[0E0],"parents":[2147483647],"right_children":[-1],"split_conditions":[0E0],"split_indices":[0],"split_type":[0],"sum_hessian":[8.16944E-1],"tree_param":{"num_deleted":"0","num_feature":"768","num_nodes":"1","size_leaf_vector":"1"}},{"base_weights":[0E0],"categories":[],"categories_nodes":[],"categories_segments":[],"categories_sizes":[],"default_left":[0],"id":130,"left_children":[-1],"loss_changes":[0E0],"parents":[2147483647],"right_children":[-1],"split_conditions":[0E0],"split_indices":[0],"split_type":[0],"sum_hessian":[8.16944E-1],"tree_param":{"num_deleted":"0","num_feature":"768","num_nodes":"1","size_leaf_vector":"1"}},{"base_weights":[0E0],"categories":[],"categories_nodes":[],"categories_segments":[],"categories_sizes":[],"default_left":[0],"id":131,"left_children":[-1],"loss_changes":[0E0],"parents":[2147483647],"right_children":[-1],"split_conditions":[0E0],"split_indices":[0],"split_type":[0],"sum_hessian":[8.16944E-1],"tree_param":{"num_deleted":"0","num_feature":"768","num_nodes":"1","size_leaf_vector":"1"}},{"base_weights":[0E0],"categories":[],"categories_nodes":[],"categories_segments":[],"categories_sizes":[],"default_left":[0],"id":132,"left_children":[-1],"loss_changes":[0E0],"parents":[2147483647],"right_children":[-1],"split_conditions":[0E0],"split_indices":[0],"split_type":[0],"sum_hessian":[8.16944E-1],"tree_param":{"num_deleted":"0","num_feature":"768","num_nodes":"1","size_leaf_vector":"1"}},{"base_weights":[0E0],"categories":[],"categories_nodes":[],"categories_segments":[],"categories_sizes":[],"default_left":[0],"id":133,"left_children":[-1],"loss_changes":[0E0],"parents":[2147483647],"right_children":[-1],"split_conditions":[0E0],"split_indices":[0],"split_type":[0],"sum_hessian":[8.16944E-1],"tree_param":{"num_deleted":"0","num_feature":"768","num_nodes":"1","size_leaf_vector":"1"}},{"base_weights":[0E0],"categories":[],"categories_nodes":[],"categories_segments":[],"categories_sizes":[],"default_left":[0],"id":134,"left_children":[-1],"loss_changes":[0E0],"parents":[2147483647],"right_children":[-1],"split_conditions":[0E0],"split_indices":[0],"split_type":[0],"sum_hessian":[8.16944E-1],"tree_param":{"num_deleted":"0","num_feature":"768","num_nodes":"1","size_leaf_vector":"1"}},{"base_weights":[0E0],"categories":[],"categories_nodes":[],"categories_segments":[],"categories_sizes":[],"default_left":[0],"id":135,"left_children":[-1],"loss_changes":[0E0],"parents":[2147483647],"right_children":[-1],"split_conditions":[0E0],"split_indices":[0],"split_type":[0],"sum_hessian":[8.16944E-1],"tree_param":{"num_deleted":"0","num_feature":"768","num_nodes":"1","size_leaf_vector":"1"}},{"base_weights":[0E0],"categories":[],"categories_nodes":[],"categories_segments":[],"categories_sizes":[],"default_left":[0],"id":136,"left_children":[-1],"loss_changes":[0E0],"parents":[2147483647],"right_children":[-1],"split_conditions":[0E0],"split_indices":[0],"split_type":[0],"sum_hessian":[8.16944E-1],"tree_param":{"num_deleted":"0","num_feature":"768","num_nodes":"1","size_leaf_vector":"1"}},{"base_weights":[0E0],"categories":[],"categories_nodes":[],"categories_segments":[],"categories_sizes":[],"default_left":[0],"id":137,"left_children":[-1],"loss_changes":[0E0],"parents":[2147483647],"right_children":[-1],"split_conditions":[0E0],"split_indices":[0],"split_type":[0],"sum_hessian":[8.16944E-1],"tree_param":{"num_deleted":"0","num_feature":"768","num_nodes":"1","size_leaf_vector":"1"}},{"base_weights":[0E0],"categories":[],"categories_nodes":[],"categories_segments":[],"categories_sizes":[],"default_left":[0],"id":138,"left_children":[-1],"loss_changes":[0E0],"parents":[2147483647],"right_children":[-1],"split_conditions":[0E0],"split_indices":[0],"split_type":[0],"sum_hessian":[8.16944E-1],"tree_param":{"num_deleted":"0","num_feature":"768","num_nodes":"1","size_leaf_vector":"1"}},{"base_weights":[0E0],"categories":[],"categories_nodes":[],"categories_segments":[],"categories_sizes":[],"default_left":[0],"id":139,"left_children":[-1],"loss_changes":[0E0],"parents":[2147483647],"right_children":[-1],"split_conditions":[0E0],"split_indices":[0],"split_type":[0],"sum_hessian":[8.16944E-1],"tree_param":{"num_deleted":"0","num_feature":"768","num_nodes":"1","size_leaf_vector":"1"}},{"base_weights":[0E0],"categories":[],"categories_nodes":[],"categories_segments":[],"categories_sizes":[],"default_left":[0],"id":140,"left_children":[-1],"loss_changes":[0E0],"parents":[2147483647],"right_children":[-1],"split_conditions":[0E0],"split_indices":[0],"split_type":[0],"sum_hessian":[8.16944E-1],"tree_param":{"num_deleted":"0","num_feature":"768","num_nodes":"1","size_leaf_vector":"1"}},{"base_weights":[0E0],"categories":[],"categories_nodes":[],"categories_segments":[],"categories_sizes":[],"default_left":[0],"id":141,"left_children":[-1],"loss_changes":[0E0],"parents":[2147483647],"right_children":[-1],"split_conditions":[0E0],"split_indices":[0],"split_type":[0],"sum_hessian":[8.16944E-1],"tree_param":{"num_deleted":"0","num_feature":"768","num_nodes":"1","size_leaf_vector":"1"}},{"base_weights":[0E0],"categories":[],"categories_nodes":[],"categories_segments":[],"categories_sizes":[],"default_left":[0],"id":142,"left_children":[-1],"loss_changes":[0E0],"parents":[2147483647],"right_children":[-1],"split_conditions":[0E0],"split_indices":[0],"split_type":[0],"sum_hessian":[8.16944E-1],"tree_param":{"num_deleted":"0","num_feature":"768","num_nodes":"1","size_leaf_vector":"1"}},{"base_weights":[0E0],"categories":[],"categories_nodes":[],"categories_segments":[],"categories_sizes":[],"default_left":[0],"id":143,"left_children":[-1],"loss_changes":[0E0],"parents":[2147483647],"right_children":[-1],"split_conditions":[0E0],"split_indices":[0],"split_type":[0],"sum_hessian":[8.16944E-1],"tree_param":{"num_deleted":"0","num_feature":"768","num_nodes":"1","size_leaf_vector":"1"}},{"base_weights":[0E0],"categories":[],"categories_nodes":[],"categories_segments":[],"categories_sizes":[],"default_left":[0],"id":144,"left_children":[-1],"loss_changes":[0E0],"parents":[2147483647],"right_children":[-1],"split_conditions":[0E0],"split_indices":[0],"split_type":[0],"sum_hessian":[8.16944E-1],"tree_param":{"num_deleted":"0","num_feature":"768","num_nodes":"1","size_leaf_vector":"1"}},{"base_weights":[0E0],"categories":[],"categories_nodes":[],"categories_segments":[],"categories_sizes":[],"default_left":[0],"id":145,"left_children":[-1],"loss_changes":[0E0],"parents":[2147483647],"right_children":[-1],"split_conditions":[0E0],"split_indices":[0],"split_type":[0],"sum_hessian":[8.16944E-1],"tree_param":{"num_deleted":"0","num_feature":"768","num_nodes":"1","size_leaf_vector":"1"}},{"base_weights":[0E0],"categories":[],"categories_nodes":[],"categories_segments":[],"categories_sizes":[],"default_left":[0],"id":146,"left_children":[-1],"loss_changes":[0E0],"parents":[2147483647],"right_children":[-1],"split_conditions":[0E0],"split_indices":[0],"split_type":[0],"sum_hessian":[8.16944E-1],"tree_param":{"num_deleted":"0","num_feature":"768","num_nodes":"1","size_leaf_vector":"1"}},{"base_weights":[0E0],"categories":[],"categories_nodes":[],"categories_segments":[],"categories_sizes":[],"default_left":[0],"id":147,"left_children":[-1],"loss_changes":[0E0],"parents":[2147483647],"right_children":[-1],"split_conditions":[0E0],"split_indices":[0],"split_type":[0],"sum_hessian":[8.16944E-1],"tree_param":{"num_deleted":"0","num_feature":"768","num_nodes":"1","size_leaf_vector":"1"}},{"base_weights":[0E0],"categories":[],"categories_nodes":[],"categories_segments":[],"categories_sizes":[],"default_left":[0],"id":148,"left_children":[-1],"loss_changes":[0E0],"parents":[2147483647],"right_children":[-1],"split_conditions":[0E0],"split_indices":[0],"split_type":[0],"sum_hessian":[8.16944E-1],"tree_param":{"num_deleted":"0","num_feature":"768","num_nodes":"1","size_leaf_vector":"1"}},{"base_weights":[0E0],"categories":[],"categories_nodes":[],"categories_segments":[],"categories_sizes":[],"default_left":[0],"id":149,"left_children":[-1],"loss_changes":[0E0],"parents":[2147483647],"right_children":[-1],"split_conditions":[0E0],"split_indices":[0],"split_type":[0],"sum_hessian":[8.16944E-1],"tree_param":{"num_deleted":"0","num_feature":"768","num_nodes":"1","size_leaf_vector":"1"}}]},"name":"gbtree"},"learner_model_param":{"base_score":"[5E-1]","boost_from_average":"1","num_class":"0","num_feature":"768","num_target":"1"},"objective":{"name":"binary:logistic","reg_loss_param":{"scale_pos_weight":"1"}}},"version":[3,2,0]}