{"learner":{"attributes":{},"feature_names":[],"feature_types":[],"gradient_booster":{"model":{"cats":{"enc":[],"feature_segments":[],"sorted_idx":[]},"gbtree_model_param":{"num_parallel_tree":"1","num_trees":"150"},"iteration_indptr":[0,1,2,3,4,5,6,7,8,9,10,11,12,13,14,15,16,17,18,19,20,21,22,23,24,25,26,27,28,29,30,31,32,33,34,35,36,37,38,39,40,41,42,43,44,45,46,47,48,49,50,51,52,53,54,55,56,57,58,59,60,61,62,63,64,65,66,67,68,69,70,71,72,73,74,75,76,77,78,79,80,81,82,83,84,85,86,87,88,89,90,91,92,93,94,95,96,97,98,99,100,101,102,103,104,105,106,107,108,109,110,111,112,113,114,115,116,117,118,119,120,121,122,123,124,125,126,127,128,129,130,131,132,133,134,135,136,137,138,139,140,141,142,143,144,145,146,147,148,149,150],"tree_info":[0,0,0,0,0,0,0,0,0,0,0,0,0,0,0,0,0,0,0,0,0,0,0,0,0,0,0,0,0,0,0,0,0,0,0,0,0,0,0,0,0,0,0,0,0,0,0,0,0,0,0,0,0,0,0,0,0,0,0,0,0,0,0,0,0,0,0,0,0,0,0,0,0,0,0,0,0,0,0,0,0,0,0,0,0,0,0,0,0,0,0,0,0,0,0,0,0,0,0,0,0,0,0,0,0,0,0,0,0,0,0,0,0,0,0,0,0,0,0,0,0,0,0,0,0,0,0,0,0,0,0,0,0,0,0,0,0,0,0,0,0,0,0,0,0,0,0,0,0,0],"trees":[{"base_weights":[-0E0,-6.629832E-1,6.5306103E-1,-8.810569E-2,-1.1703507E0,-1.7282005E-2,1.162178E0,5.70342E-1,-4.999998E-1,-8.0188656E-1,-1.6138322E0,6.266665E-1,-5.8788747E-1,4.105959E-1,1.4369882E0,1.0059168E0,-2.0833324E-1,-2.1656044E-1,-1.3148141E0,-2.3180585E-1,-1.2349269E0,1.3333334E-1,-1.6427519E0,8.707751E-1,-6.138613E-1,5.277776E-1,-8.8268113E-1,-3.668638E-1,8.6111087E-1,1.5996033E0,6.5437764E-1,-4.4444394E-1,1.2638887E0,-8.21428E-1,6.190475E-1,-8.484845E-1,2.3913036E-1,-1.5392661E0,3.448274E-1,-1.2087907E0,8.450702E-2,-1.3118277E0,8E-1,-5.555556E-2,6.0000002E-2,-1.1764706E-1,-1.6716411E0,-4.3037966E-1,1.1028033E0,6.451611E-2,-1.5348837E0,1.1818178E0,-4.6666655E-1,-3.347637E-1,-1.2857139E0,-1.1807225E0,3.9999986E-1,-5.2631557E-1,1.0551178E0,6.516853E-1,1.6839824E0,1.3103445E0,-9.523805E-2,-1.2432412E0,1.0476191E0,1.4461536E0,-3.75E-1,-1.0588228E0,5.714286E-2,-5.714286E-2,9.189187E-1,-1.0619464E0,3.809524E-1,5.146578E-1,-1.0769231E0,-1.6284144E0,3.3333334E-1,6.4705886E-2,-7.499993E-1,-1.6521732E0,1.5384607E-1,3.859648E-1,-1.0666661E0,-1.6349806E0,-8.737862E-1,-5E-2,7.5E-2,6.0000002E-2,-6.363636E-2,-1.7012188E0,-2.2222203E-1,1E0,-9.830506E-1,6.0465086E-1,1.5760367E0,-8.2352906E-1,1E0,-8.974359E-2,2.5E-2,1.7288135E0,6.0606007E-2,8.8E-1,-1.2820507E0,2.2471895E-2,-1.3898294E0,-1.458646E0,-1.7391305E-1,5.555556E-2,-1.3846148E0,-7.333319E-2,7.3417723E-1,-1.1428572E0,8.571419E-1,1.1799159E0,-7.368421E-1,-2.4390236E-1,1.3076923E0,6.0317403E-1,1.7549131E0,1.4766351E0,-4.6153846E-1,-8.070173E-1,6.923073E-1,-1.5151495E0,2.4999952E-2,7.647059E-2,-2.5E-2,1.5483868E0,-5E-1,8.888889E-1,-7.777778E-2,-0E0,-1.4594586E0,-7.692308E-1,1.1999997E0,2.2222222E-1,-1.211822E0,8.5714287E-1,-6.363636E-2,-3.829783E-1,8.940092E-1,8.695652E-2,-1.5652174E0,2.5E-2,-1.6871499E0,5E-2,-2.5E-2,2.4999952E-2,-6.666667E-2,-0E0,-1.809523E0,-7.14285E-2,7.5E-2,8.5350287E-1,-6.1333334E-1,-1.3454539E0,5.555556E-2,4.0000003E-2,-1.7042798E0,-1.3698624E-1,-1.2408757E0,1.1111111E-2,-1.7173573E0,-6.363627E-2,4.5454547E-2,-2.5E-2,7E-2,-1.4166663E0,6.666667E-1,-0E0,1.2149525E0,1.690821E0,-5.714286E-1,5E-1,-8.1818126E-2,-2.727273E-2,7.6E-2,9.272727E-2,-0E0,9.090903E-1,-5.999994E-2,-5.555556E-2,8.0000006E-2,2.5E-2,-1.5428565E0,7.142853E-1,-5.714281E-1,2.727273E-2,-1.6923062E0,3.999992E-1,-1.5450977E0,7.333334E-2,-8.5714287E-1,5E-2,-1.5675669E0,1.0422535E0,-6.666667E-2,-8.1818186E-2,2.0000001E-2,-0E0,6.0000002E-2,-2.8571412E-1,1.3488368E0,-7.333334E-2,5E-2,6.923077E-2,-8.749996E-1,1.6521739E0,-4.0000003E-2,1.4285715E0,-8.7999785E-1,1.816203E0,3.8095224E-1,4.2857143E-1,1.7590355E0,-5.555556E-2,2.5E-2,8.5714287E-1,-1.2340422E0,-9.3333143E-1,1.2195122E0,-0E0,-8.6206764E-2,1.6566522E0,-1.0526299E-1,5E-2,-6.666667E-2,7.1428575E-2,-2.5E-2,-7.826077E-1,6.923077E-2,6.666667E-1,-1.7575746E0,-0E0,-5.555556E-2,1.6E0,-1.0526308E-1,-6.363636E-2,1E0,-1.4285706E0,-1.538461E-1,1.3333334E0,-5.555556E-2,3.673467E-1,-1.1020391E0,1.1179487E0,-9.230769E-1,-6.363636E-2,1E0,2.5E-2,-9.047619E-2,-1.7471254E0,1.1111111E-2,-2.4999952E-2,-9.3220316E-2,-3.75E-1,1.1317824E0,-1.0508474E0,8E-1,1.999997E-2,-1.5918362E0,-1.758064E0,-1.5384616E-1,-1.1999995E0,5.531913E-1,-1.4015746E0,5.714286E-1,-1.7383173E0,-1.5384562E-1,-1.7209296E0,3.3333335E-2,6.363636E-2,-2.5E-2,-1.3333325E0,3.4782603E-1,1.4059399E0,-5.999982E-2,1.7611938E0,-2.0000001E-2,-6.0000002E-2,2.5E-2,6.666667E-2,-5E-2,7.647059E-2,-3.333328E-2,-0E0,-8.7096736E-2,-6.6666573E-1,1.1044774E0,1E0,-9.268284E-1,-9.166661E-2,-0E0,6.363636E-2,-4.9999814E-2,-1.6348543E0,-0E0,-1.3103448E0,4.0000003E-2,-1.714285E0,2.5E-2,-4E-1,1.4909091E0,6.363636E-2,-1.0476183E0,1.11111015E-1,1.5628413E0,4E-1,-8.0952324E-2,1.1111111E-2,9.02439E-2,8.888889E-2,-2.0000001E-2,4.0000003E-2,-7.894712E-2,1.8345497E0,-3.3333335E-2,1.1249995E0,-7.1428575E-2,-9.3333334E-1,7.647059E-2,9.4736844E-2,9.090885E-3,-0E0,6.0000002E-2,5E-2,-1.5348831E0,-6.363636E-2,-0E0,-3.3333335E-2,1.5555556E0,1.7030568E0,-2.4999952E-2,6.363636E-2,-6.66665E-2,4.0000003E-2,-7.647046E-2,-0E0,5E-2,-9.354832E-2,-0E0,-0E0,9.090909E-2,-5.384609E-2,6.0000002E-2,7.5E-2,-2.5E-2,-1.8148135E0,-6.874998E-1,6.666667E-1,-1.1578938E0,-2.5E-2,8.461539E-2,9.9999917E-1,-1.0588236E0,-1.4285693E0,2.727269E-2,-6.666667E-1,1.3033707E0,5E-2,-7.272728E-2,6.666667E-2,-0E0,-1.8095226E0,-0E0,-1.2E0,7.5E-1,-4.9999905E-1,1.316239E0,3.529412E-1,-1.4782609E0,-5E-2,7.5E-2,-1.7333328E0,-0E0,-1.8421048E0,-6.666667E-1,5E-2,-5.555556E-2,3.3333335E-2,-8.3999954E-2,1.1111112E0,-9.333324E-1,-3.2258064E-1,-1.6799997E0,-2.5E-2,6.0000002E-2,-1.8010287E0,-1.047618E0,-5.555528E-2,5E-2,-8.974359E-2,-2.4999952E-2,-0E0,-8.0000006E-2,1.5555556E0,-3.999999E-1,1.333332E-1,1.8399997E0,1.853403E0,-0E0,-7.333319E-2,4.0000003E-2,-1.8181805E-1,1.5918367E0,-2.5E-2,7.5E-2,-1.4285696E0,1.3333334E-1,-0E0,-1.7056272E0,-6.363636E-2,6.363636E-2,1.1111111E-2,-8.3333336E-2,1.1111111E-2,-9.384611E-2,-6.923077E-2,4.5454547E-2,9.1111116E-2,-0E0,-7.647059E-2,2.4999952E-2,6.842106E-2,-1.0476176E0,-0E0,1.653179E0,6.363636E-2,-5E-2,-0E0,1.8525797E0,-4.9999904E-2,7.857143E-2,-0E0,-6.363636E-2,-8.9743555E-2,2.5E-2,-0E0,8.75E-2,1.7511111E0,-2.5E-2,-0E0,-1.884614E0,-1.0769228E0,7.5E-1,6.666667E-2,-4.0000003E-2,-7.333334E-2,-0E0,7.857143E-2,-6.6666496E-1,-0E0,-6.923077E-2,2.4999952E-2,-1.6842085E0,-6.4705886E-2,5E-2,1.435294E0,-5E-2,-1.8757752E0,-9.09091E-3,-0E0,-7.5E-2,6.666667E-2,-2.5E-2,-6.66665E-2,5E-2,1.428571E0,-3.3333335E-2,-5.555556E-2,6.666667E-2,1.1111111E-2,-1.7073171E0,-2.4999952E-2,-9.02439E-2,-9.09091E-3,-1.8914022E0,-6.666667E-2,4.0000003E-2,-5E-2,1.5E0,-6.363636E-2,-0E0,-6.666667E-2,8.235294E-1,2.5E-2,-1.7916664E0,-1.8194441E0,-9.09091E-3,-1.3571414E0,4.5454547E-2,-0E0,8.75E-2,6.6666627E-1,-1E0,7.333334E-2,-9.473669E-1,2.4999952E-2,9.43662E-2,1.8930479E0,-0E0,5.555556E-2,-5.5555463E-2,6.363636E-2,-5.999994E-2,-1.1111111E-2,9.090909E-2,1.5384616E-1,-1.744678E0,6.4705886E-2,-1.0588236E0,-5.555556E-2,5.555556E-2,-5.4545456E-1,-1.7934268E0,-5.555556E-2,5.555556E-2,-7.647052E-2,2.4999952E-2,5.555556E-2,-5.5555463E-2,1.7333332E0,-0E0,5E-2,-5E-2,-0E0,1.8663365E0,-2.5E-2,1.800905E0,-9.5999956E-2,-2.4999907E-2,-1.44186E0,4.6153846E-1,6.666667E-2,-2.5E-2,-5E-2,-0E0,-8.823525E-2,-2.4999907E-2,-0E0,1.6712328E0,-5.7142794E-1,-9.735094E-2,1.6781603E0,4.827586E-1,-2.5E-2,-8.9189194E-2,-1.9262668E0,-0E0,-0E0,8.571429E-2,6.923077E-2,-2.5E-2,-1.8695649E0,-0E0,-1.8497312E0,-6.666662E-1,1.5384598E-1,-1.6595728E0,-5.5555463E-2,6.842106E-2,4.0000003E-2,-1.4117647E0,-7.333319E-2,2.5E-2,1.9337016E0,1.999997E-2,5.555556E-2,-5E-2,-2.4999907E-2,-9.069758E-2,-6.923077E-2,-0E0,-6.4705886E-2,5.555556E-2,-9.090897E-3,-1.8446598E0,-1.1111111E-2,1.7999998E0,5E-2,-5E-2,1.8799999E0,3.3333334E-1,1.8504673E0,9.09091E-3,9.09091E-3,-8.8888854E-2,5.555556E-2,-2.5E-2,-1.0588226E0,6.0000002E-2,-2.5E-2,1.7464789E0,2.4999952E-2,-6.0000002E-2,1.7590362E0,-0E0,-6.363636E-2,1.2727273E0,-1.9436616E0,-2.4999952E-2,-9.545454E-2,-2.5E-2,-9.411765E-1,-1.8941394E0,5E-2,-6.470583E-2,5.555556E-2,-4.9999904E-2,-9.069761E-2,-0E0,2.5E-2,-8.6666666E-2,9.7740114E-2,2.5E-2,-1.8811877E0,-0E0,1.8451613E0,1.1111093E-2,-0E0,1.8894471E0,-2.5E-2,5E-2,1.8857143E0,-0E0,-0E0,-6.923077E-2,-2.5E-2,1.826087E0,1.8481013E0,-0E0,-0E0,7.777778E-2,-2.5E-2,-9.8086104E-2,-7.692308E-2,6.666667E-1,-1.9155467E0,-3.3333293E-1,-1.9187813E0,-1.1111111E-2,1.8918918E0,2.727273E-2,1.8989898E0,-0E0,1.9223301E0,-0E0,1.880597E0,-0E0,2.5E-2,9.466667E-2,5E-2,-0E0,-1.1111111E-2,-1.9302322E0,-5E-2,2.4999952E-2,-2.5E-2,-1.9378234E0,1.9166666E0,2.5E-2,1.9086293E0,-0E0,1.9405941E0,2.5E-2,9.6850395E-2,2.727273E-2,-1.9374996E0,-2.5E-2,-9.788358E-2,-2.4999952E-2,2.5E-2,9.714286E-2,1.1111093E-2,1.918263E0,2.5E-2,9.79798E-2,-2.5E-2,-1.9448814E0,1.9280205E0,1.1111111E-2,-2.5E-2,-1.9523805E0,1.9379042E0,1.1111111E-2,-2.5E-2,-9.799998E-2,1.9477806E0,2.727273E-2,6.6666585E-1,1.9577836E0,5E-2,-0E0,1.9679573E0,7.692308E-1,1.9784075E0,6.666667E-1,5.555556E-2,-0E0,2.5E-2,1.9837177E0,5E-2,-0E0,9.94543E-2,2.4999952E-2],"categories":[],"categories_nodes":[],"categories_segments":[],"categories_sizes":[],"default_left":[0,0,0,0,0,0,0,0,0,0,0,0,0,0,0,0,0,0,0,0,0,0,0,0,0,0,0,0,0,0,0,0,0,0,0,0,0,0,0,0,0,0,0,0,0,0,0,0,0,0,0,0,0,0,0,0,0,0,0,0,0,0,0,0,0,0,0,0,0,0,0,0,0,0,0,0,0,0,0,0,0,0,0,0,0,0,0,0,0,0,0,0,0,0,0,0,0,0,0,0,0,0,0,0,0,0,0,0,0,0,0,0,0,0,0,0,0,0,0,0,0,0,0,0,0,0,0,0,0,0,0,0,0,0,0,0,0,0,0,0,0,0,0,0,0,0,0,0,0,0,0,0,0,0,0,0,0,0,0,0,0,0,0,0,0,0,0,0,0,0,0,0,0,0,0,0,0,0,0,0,0,0,0,0,0,0,0,0,0,0,0,0,0,0,0,0,0,0,0,0,0,0,0,0,0,0,0,0,0,0,0,0,0,0,0,0,0,0,0,0,0,0,0,0,0,0,0,0,0,0,0,0,0,0,0,0,0,0,0,0,0,0,0,0,0,0,0,0,0,0,0,0,0,0,0,0,0,0,0,0,0,0,0,0,0,0,0,0,0,0,0,0,0,0,0,0,0,0,0,0,0,0,0,0,0,0,0,0,0,0,0,0,0,0,0,0,0,0,0,0,0,0,0,0,0,0,0,0,0,0,0,0,0,0,0,0,0,0,0,0,0,0,0,0,0,0,0,0,0,0,0,0,0,0,0,0,0,0,0,0,0,0,0,0,0,0,0,0,0,0,0,0,0,0,0,0,0,0,0,0,0,0,0,0,0,0,0,0,0,0,0,0,0,0,0,0,0,0,0,0,0,0,0,0,0,0,0,0,0,0,0,0,0,0,0,0,0,0,0,0,0,0,0,0,0,0,0,0,0,0,0,0,0,0,0,0,0,0,0,0,0,0,0,0,0,0,0,0,0,0,0,0,0,0,0,0,0,0,0,0,0,0,0,0,0,0,0,0,0,0,0,0,0,0,0,0,0,0,0,0,0,0,0,0,0,0,0,0,0,0,0,0,0,0,0,0,0,0,0,0,0,0,0,0,0,0,0,0,0,0,0,0,0,0,0,0,0,0,0,0,0,0,0,0,0,0,0,0,0,0,0,0,0,0,0,0,0,0,0,0,0,0,0,0,0,0,0,0,0,0,0,0,0,0,0,0,0,0,0,0,0,0,0,0,0,0,0,0,0,0,0,0,0,0,0,0,0,0,0,0,0,0,0,0,0,0,0,0,0,0,0,0,0,0,0,0,0,0,0,0,0,0,0,0,0,0,0,0,0,0,0,0,0,0,0,0,0,0,0,0,0,0,0,0,0,0,0,0,0,0,0,0,0,0,0,0,0,0,0,0,0,0,0,0,0,0,0,0,0,0,0,0,0,0,0,0,0,0,0,0,0,0,0,0,0,0,0,0,0,0,0,0,0,0,0,0,0,0,0,0,0,0,0,0,0,0,0,0,0,0,0,0,0,0,0,0,0,0,0,0,0,0,0,0,0,0,0,0,0,0,0,0,0,0,0,0,0,0,0,0,0,0,0,0,0],"id":0,"left_children":[1,3,5,7,9,11,13,15,17,19,21,23,25,27,29,31,33,35,37,39,41,43,45,47,49,51,53,55,57,59,61,63,65,67,69,71,73,75,77,79,81,83,85,-1,-1,87,89,91,93,95,97,99,101,103,105,107,109,111,113,115,117,119,121,123,125,127,129,131,-1,-1,133,135,137,139,141,143,145,-1,147,149,151,153,155,157,159,-1,-1,-1,-1,161,163,165,167,169,171,173,175,-1,-1,177,179,181,183,185,187,189,191,-1,193,-1,195,197,199,201,203,205,207,209,211,213,215,217,219,221,-1,-1,-1,223,225,227,-1,229,231,233,235,237,239,241,-1,243,245,247,249,-1,251,-1,-1,-1,-1,-1,253,-1,-1,255,257,259,-1,-1,261,263,265,-1,267,-1,-1,-1,-1,269,271,273,275,277,279,281,-1,-1,-1,-1,-1,283,-1,-1,-1,-1,285,287,289,-1,291,293,295,-1,297,-1,299,301,-1,-1,-1,-1,-1,303,305,-1,-1,-1,307,309,-1,311,313,315,317,319,321,-1,-1,323,325,327,329,-1,-1,331,333,-1,-1,-1,-1,335,-1,337,339,-1,-1,341,343,-1,345,347,349,351,-1,353,355,357,359,-1,361,-1,-1,363,-1,-1,-1,365,367,369,371,-1,373,375,377,379,381,383,385,387,389,391,-1,-1,-1,393,395,397,-1,399,-1,-1,-1,-1,-1,-1,-1,-1,-1,401,403,405,407,-1,-1,-1,-1,409,411,413,-1,415,-1,417,419,-1,421,423,425,427,-1,-1,-1,-1,-1,-1,-1,429,-1,431,-1,433,-1,-1,-1,-1,-1,-1,435,-1,-1,-1,437,439,-1,-1,-1,-1,-1,-1,-1,-1,-1,-1,-1,-1,-1,-1,-1,441,443,445,447,-1,-1,449,451,453,-1,455,457,-1,-1,-1,-1,459,-1,461,463,465,467,469,471,-1,-1,473,-1,475,477,-1,-1,-1,-1,479,481,483,485,-1,-1,487,489,-1,-1,-1,-1,-1,-1,491,493,495,497,499,501,-1,-1,503,505,-1,-1,507,509,511,513,-1,-1,-1,-1,-1,-1,-1,-1,-1,515,-1,-1,-1,517,519,521,-1,-1,523,525,-1,-1,-1,-1,-1,-1,-1,-1,527,-1,-1,529,531,533,-1,-1,-1,-1,-1,535,-1,-1,-1,537,-1,-1,539,-1,541,-1,-1,-1,-1,-1,-1,-1,543,-1,-1,-1,-1,545,-1,-1,-1,547,-1,-1,-1,549,-1,-1,-1,551,-1,553,555,-1,557,-1,-1,-1,559,561,-1,563,-1,-1,565,-1,-1,-1,-1,-1,-1,-1,567,569,-1,571,-1,-1,573,575,-1,-1,-1,-1,-1,-1,577,579,-1,-1,-1,581,-1,583,-1,-1,585,587,-1,-1,-1,-1,-1,-1,589,591,593,-1,595,597,-1,-1,599,-1,-1,-1,-1,-1,601,-1,603,605,607,609,-1,-1,-1,611,-1,-1,613,-1,-1,-1,-1,-1,-1,-1,-1,-1,-1,615,-1,617,-1,-1,619,621,623,-1,-1,-1,-1,-1,625,-1,-1,627,-1,-1,629,-1,-1,631,633,-1,-1,-1,635,637,-1,-1,-1,-1,-1,-1,-1,-1,-1,-1,639,-1,641,-1,-1,643,-1,-1,645,-1,-1,-1,-1,647,649,-1,-1,-1,-1,-1,-1,651,653,655,657,-1,659,-1,661,-1,663,-1,665,-1,-1,-1,-1,-1,-1,667,-1,-1,-1,669,671,-1,673,-1,675,-1,-1,-1,677,-1,-1,-1,-1,-1,-1,679,-1,-1,-1,681,683,-1,-1,685,687,-1,-1,-1,689,-1,691,693,-1,-1,695,697,699,701,-1,-1,-1,703,-1,-1,-1,-1],"loss_changes":[6.317012E2,2.1106909E2,2.5086325E2,9.2632454E1,6.153589E1,1.17306404E2,8.5693054E1,4.4810623E1,4.8214874E1,5.2049774E1,8.985565E0,4.5958065E1,5.6130684E1,3.998255E1,3.783252E1,3.2177605E1,2.4857132E1,4.541295E1,2.0646332E1,2.8764957E1,1.9867065E1,6.311111E0,7.3264465E0,3.8439163E1,1.5875247E1,2.3966152E1,2.921585E1,2.684131E1,1.99356E1,1.9078674E1,2.680078E1,1.7392513E1,2.2049568E1,1.4266796E1,1.2145429E1,1.7725456E1,3.3914265E1,8.514145E0,8.505577E0,1.39990425E1,2.5050842E1,1.5027084E1,7.8E0,0E0,0E0,7.995722E0,6.802765E0,1.6596006E1,2.4271484E1,1.3700188E1,6.5846767E0,1.3387789E1,1.7598969E1,2.1986084E1,1.4550827E1,1.123468E1,1.5112221E1,9.082705E0,1.5070129E1,1.339109E1,1.6650574E1,9.226303E0,1.527337E1,5.1420918E0,4.6792717E0,1.370668E1,1.3319445E1,1.0817167E1,0E0,0E0,9.701452E0,1.1143604E1,9.359307E0,2.6477266E1,9.371239E0,6.5629425E0,2.1666667E0,0E0,3.5833347E0,4.4844666E0,1.5989003E1,2.7154453E1,1.0602016E1,1.2458221E1,1.3759304E1,0E0,0E0,0E0,0E0,5.4723816E0,6.5050445E0,4.3E0,1.1495759E1,1.98348E1,1.4338562E1,9.962559E0,7.2581816E0,0E0,0E0,3.2061615E0,9.915143E0,1.0737778E1,5.302927E0,1.8691801E1,9.557413E0,1.1303452E1,1.4147411E1,0E0,1.0074841E1,0E0,1.3969455E1,5.984415E0,1.0285742E0,1.5178024E1,7.4877195E0,1.1746011E1,1.0760532E1,2.0538406E1,1.7518494E1,7.1634216E0,2.58547E0,1.11843405E1,1.2279798E1,2.6123238E0,0E0,0E0,0E0,1.1274445E1,6.3333335E0,4.0873013E0,0E0,9.752503E0,1.2897614E1,8.547008E-1,8.6526375E0,9.121213E0,1.14179535E1,9.682539E0,0E0,1.3083784E1,2.3107216E1,8.411068E0,6.707037E0,0E0,5.512825E0,0E0,0E0,0E0,0E0,0E0,1.9976807E-1,0E0,0E0,1.3842712E1,1.2434803E1,6.5499096E0,0E0,0E0,5.087265E0,1.4053272E1,1.0775707E1,0E0,5.066101E0,0E0,0E0,0E0,0E0,8.75387E0,3.287879E0,1.3449268E1,1.4024902E1,8.318802E0,2.9571428E0,6.3333335E0,0E0,0E0,0E0,0E0,0E0,6.3957233E0,0E0,0E0,0E0,0E0,2.6875553E0,1.2051881E1,1.4609745E1,0E0,3.1025734E0,5.854539E0,8.841034E0,0E0,7.6197047E0,0E0,6.4691086E0,1.2081945E1,0E0,0E0,0E0,0E0,0E0,9.645018E0,1.4063591E1,0E0,0E0,0E0,8.236898E0,2.1100502E0,0E0,7.4158726E0,8.602079E0,1.0640991E1,1.5744043E1,1.1922129E1,4.0966415E0,0E0,0E0,1.0285714E0,9.431961E0,1.1878855E0,7.5338764E0,0E0,0E0,6.6810913E0,9.735233E0,0E0,0E0,0E0,0E0,8.019424E0,0E0,6.666666E-1,3.2883644E0,0E0,0E0,4.363636E0,7.316595E0,0E0,4.5E0,1.0774124E1,8.804314E0,5.782052E0,0E0,1.2111638E1,7.369193E0,1.7000633E1,8.097902E0,0E0,1.3333335E0,0E0,0E0,4.7422028E0,0E0,0E0,0E0,8.325E0,1.0365143E1,9.37171E0,7.8E0,0E0,2.759182E0,4.4586945E0,4.700855E0,7.8399954E0,1.0782031E1,8.996368E0,2.9571428E0,5.0652466E0,4.7008405E0,7.3057175E-2,0E0,0E0,0E0,2.13334E0,2.139517E1,1.370245E1,0E0,8.160522E0,0E0,0E0,0E0,0E0,0E0,0E0,0E0,0E0,0E0,7.3333206E0,1.0789804E1,4.5E0,1.1094984E1,0E0,0E0,0E0,0E0,6.9711304E0,8.909091E0,4.329501E0,0E0,5.928688E0,0E0,7.703496E0,6.7919197E0,0E0,4.679275E0,1.4545523E1,6.459152E0,5.8545456E0,0E0,0E0,0E0,0E0,0E0,0E0,0E0,6.7973022E0,0E0,9.160716E0,0E0,1.1878788E0,0E0,0E0,0E0,0E0,0E0,0E0,6.584671E0,0E0,0E0,0E0,2.7222214E0,6.9364166E0,0E0,0E0,0E0,0E0,0E0,0E0,0E0,0E0,0E0,0E0,0E0,0E0,0E0,0E0,0E0,3.4202194E0,9.764421E0,6.9333334E0,1.6982508E0,0E0,0E0,9.619053E0,1.4660635E0,6.018793E0,0E0,6.784314E0,1.4957436E1,0E0,0E0,0E0,0E0,4.188202E0,0E0,1.8000002E0,3.5833335E0,6.3333216E0,7.46764E0,7.581699E0,4.8587246E0,0E0,0E0,9.025574E-2,0E0,4.3214417E0,6.9333334E0,0E0,0E0,0E0,0E0,8.888889E0,1.1878822E0,1.0075901E1,6.9816666E0,0E0,0E0,4.0151978E0,1.07727165E1,0E0,0E0,0E0,0E0,0E0,0E0,2.7222214E0,1.0266665E1,1.2196485E1,2.4536514E-1,3.5085754E0,5.5555506E0,0E0,0E0,9.672722E0,5.4339294E0,0E0,0E0,7.271433E0,1.174902E1,5.5555553E0,4.9043274E0,0E0,0E0,0E0,0E0,0E0,0E0,0E0,0E0,0E0,5.5555553E0,0E0,0E0,0E0,4.6792703E0,5.5555506E0,5.731018E0,0E0,0E0,4E0,5.1863403E0,0E0,0E0,0E0,0E0,0E0,0E0,0E0,0E0,7.205597E0,0E0,0E0,3.138733E-1,7.964219E0,3.5833335E0,0E0,0E0,0E0,0E0,0E0,6.666701E-1,0E0,0E0,0E0,2.3239136E-2,0E0,0E0,1.4392273E1,0E0,2.627716E0,0E0,0E0,0E0,0E0,0E0,0E0,0E0,5.7996674E0,0E0,0E0,0E0,0E0,5.438423E-2,0E0,0E0,0E0,3.643341E0,0E0,0E0,0E0,2.5714283E0,0E0,0E0,0E0,3.8484163E0,0E0,3.3496323E0,3.7945251E0,0E0,6.6529083E0,0E0,0E0,0E0,9.005845E0,8.541178E0,0E0,4.303499E0,0E0,0E0,2.064148E0,0E0,0E0,0E0,0E0,0E0,0E0,0E0,4.700855E0,1.06155396E-1,0E0,1.4660635E0,0E0,0E0,8.259061E0,4.0613403E0,0E0,0E0,0E0,0E0,0E0,0E0,5.7777863E0,4E0,0E0,0E0,0E0,3.60437E0,0E0,4.097122E0,0E0,0E0,6.186514E0,2.58547E0,0E0,0E0,0E0,0E0,0E0,0E0,1.0164701E1,6.836487E0,2.957143E0,0E0,2.9519653E0,1.1673981E1,0E0,0E0,3.7409973E-1,0E0,0E0,0E0,0E0,0E0,2.9051208E-1,0E0,3.855835E0,6.784309E0,4.700851E0,3.010395E0,0E0,0E0,0E0,6.0921555E0,0E0,0E0,3.9149475E-1,0E0,0E0,0E0,0E0,0E0,0E0,0E0,0E0,0E0,0E0,3.4701538E0,0E0,2.440155E0,0E0,0E0,3.552185E0,2.1666667E0,3.4894562E0,0E0,0E0,0E0,0E0,0E0,1.4660673E0,0E0,0E0,7.2617874E0,0E0,0E0,3.2508774E0,0E0,0E0,1.9797983E0,4.0753174E-1,0E0,0E0,0E0,9.188538E0,3.7802734E0,0E0,0E0,0E0,0E0,0E0,0E0,0E0,0E0,0E0,0E0,2.723114E0,0E0,1.321579E0,0E0,0E0,3.5880127E0,0E0,0E0,3.6249695E0,0E0,0E0,0E0,0E0,3.4341354E0,2.5763702E-1,0E0,0E0,0E0,0E0,0E0,0E0,6.666666E-1,2.8100586E0,2.166666E0,3.6166382E-1,0E0,3.1756592E-1,0E0,3.6244507E0,0E0,3.6753845E-1,0E0,1.4665527E0,0E0,0E0,0E0,0E0,0E0,0E0,3.720703E-1,0E0,0E0,0E0,3.9813232E-1,3.6428833E-1,0E0,2.774292E0,0E0,4.025879E-1,0E0,0E0,0E0,3.8586426E-1,0E0,0E0,0E0,0E0,0E0,0E0,2.8109741E0,0E0,0E0,0E0,3.9987183E-1,2.8485718E0,0E0,0E0,4.1430664E-1,1.5952148E0,0E0,0E0,0E0,1.1488037E0,0E0,6.666684E-1,7.776489E-1,0E0,0E0,1.227417E0,8.547008E-1,4.6246338E-1,6.666666E-1,0E0,0E0,0E0,4.7302246E-1,0E0,0E0,0E0,0E0],"parents":[2147483647,0,0,1,1,2,2,3,3,4,4,5,5,6,6,7,7,8,8,9,9,10,10,11,11,12,12,13,13,14,14,15,15,16,16,17,17,18,18,19,19,20,20,21,21,22,22,23,23,24,24,25,25,26,26,27,27,28,28,29,29,30,30,31,31,32,32,33,33,34,34,35,35,36,36,37,37,38,38,39,39,40,40,41,41,42,42,45,45,46,46,47,47,48,48,49,49,50,50,51,51,52,52,53,53,54,54,55,55,56,56,57,57,58,58,59,59,60,60,61,61,62,62,63,63,64,64,65,65,66,66,67,67,70,70,71,71,72,72,73,73,74,74,75,75,76,76,78,78,79,79,80,80,81,81,82,82,83,83,84,84,89,89,90,90,91,91,92,92,93,93,94,94,95,95,96,96,99,99,100,100,101,101,102,102,103,103,104,104,105,105,106,106,108,108,110,110,111,111,112,112,113,113,114,114,115,115,116,116,117,117,118,118,119,119,120,120,121,121,122,122,123,123,127,127,128,128,129,129,131,131,132,132,133,133,134,134,135,135,136,136,137,137,139,139,140,140,141,141,142,142,144,144,150,150,153,153,154,154,155,155,158,158,159,159,160,160,162,162,167,167,168,168,169,169,170,170,171,171,172,172,173,173,179,179,184,184,185,185,186,186,188,188,189,189,190,190,192,192,194,194,195,195,201,201,202,202,206,206,207,207,209,209,210,210,211,211,212,212,213,213,214,214,217,217,218,218,219,219,220,220,223,223,224,224,229,229,231,231,232,232,235,235,236,236,238,238,239,239,240,240,241,241,243,243,244,244,245,245,246,246,248,248,251,251,255,255,256,256,257,257,258,258,260,260,261,261,262,262,263,263,264,264,265,265,266,266,267,267,268,268,269,269,273,273,274,274,275,275,277,277,287,287,288,288,289,289,290,290,295,295,296,296,297,297,299,299,301,301,302,302,304,304,305,305,306,306,307,307,315,315,317,317,319,319,326,326,330,330,331,331,347,347,348,348,349,349,350,350,353,353,354,354,355,355,357,357,358,358,363,363,365,365,366,366,367,367,368,368,369,369,370,370,373,373,375,375,376,376,381,381,382,382,383,383,384,384,387,387,388,388,395,395,396,396,397,397,398,398,399,399,400,400,403,403,404,404,407,407,408,408,409,409,410,410,420,420,424,424,425,425,426,426,429,429,430,430,439,439,442,442,443,443,444,444,450,450,454,454,457,457,459,459,467,467,472,472,476,476,480,480,484,484,486,486,487,487,489,489,493,493,494,494,496,496,499,499,507,507,508,508,510,510,513,513,514,514,521,521,522,522,526,526,528,528,531,531,532,532,539,539,540,540,541,541,543,543,544,544,547,547,553,553,555,555,556,556,557,557,558,558,562,562,565,565,576,576,578,578,581,581,582,582,583,583,589,589,592,592,595,595,598,598,599,599,603,603,604,604,615,615,617,617,620,620,623,623,628,628,629,629,636,636,637,637,638,638,639,639,641,641,643,643,645,645,647,647,654,654,658,658,659,659,661,661,663,663,667,667,674,674,678,678,679,679,682,682,683,683,687,687,689,689,690,690,693,693,694,694,695,695,696,696,700,700],"right_children":[2,4,6,8,10,12,14,16,18,20,22,24,26,28,30,32,34,36,38,40,42,44,46,48,50,52,54,56,58,60,62,64,66,68,70,72,74,76,78,80,82,84,86,-1,-1,88,90,92,94,96,98,100,102,104,106,108,110,112,114,116,118,120,122,124,126,128,130,132,-1,-1,134,136,138,140,142,144,146,-1,148,150,152,154,156,158,160,-1,-1,-1,-1,162,164,166,168,170,172,174,176,-1,-1,178,180,182,184,186,188,190,192,-1,194,-1,196,198,200,202,204,206,208,210,212,214,216,218,220,222,-1,-1,-1,224,226,228,-1,230,232,234,236,238,240,242,-1,244,246,248,250,-1,252,-1,-1,-1,-1,-1,254,-1,-1,256,258,260,-1,-1,262,264,266,-1,268,-1,-1,-1,-1,270,272,274,276,278,280,282,-1,-1,-1,-1,-1,284,-1,-1,-1,-1,286,288,290,-1,292,294,296,-1,298,-1,300,302,-1,-1,-1,-1,-1,304,306,-1,-1,-1,308,310,-1,312,314,316,318,320,322,-1,-1,324,326,328,330,-1,-1,332,334,-1,-1,-1,-1,336,-1,338,340,-1,-1,342,344,-1,346,348,350,352,-1,354,356,358,360,-1,362,-1,-1,364,-1,-1,-1,366,368,370,372,-1,374,376,378,380,382,384,386,388,390,392,-1,-1,-1,394,396,398,-1,400,-1,-1,-1,-1,-1,-1,-1,-1,-1,402,404,406,408,-1,-1,-1,-1,410,412,414,-1,416,-1,418,420,-1,422,424,426,428,-1,-1,-1,-1,-1,-1,-1,430,-1,432,-1,434,-1,-1,-1,-1,-1,-1,436,-1,-1,-1,438,440,-1,-1,-1,-1,-1,-1,-1,-1,-1,-1,-1,-1,-1,-1,-1,442,444,446,448,-1,-1,450,452,454,-1,456,458,-1,-1,-1,-1,460,-1,462,464,466,468,470,472,-1,-1,474,-1,476,478,-1,-1,-1,-1,480,482,484,486,-1,-1,488,490,-1,-1,-1,-1,-1,-1,492,494,496,498,500,502,-1,-1,504,506,-1,-1,508,510,512,514,-1,-1,-1,-1,-1,-1,-1,-1,-1,516,-1,-1,-1,518,520,522,-1,-1,524,526,-1,-1,-1,-1,-1,-1,-1,-1,528,-1,-1,530,532,534,-1,-1,-1,-1,-1,536,-1,-1,-1,538,-1,-1,540,-1,542,-1,-1,-1,-1,-1,-1,-1,544,-1,-1,-1,-1,546,-1,-1,-1,548,-1,-1,-1,550,-1,-1,-1,552,-1,554,556,-1,558,-1,-1,-1,560,562,-1,564,-1,-1,566,-1,-1,-1,-1,-1,-1,-1,568,570,-1,572,-1,-1,574,576,-1,-1,-1,-1,-1,-1,578,580,-1,-1,-1,582,-1,584,-1,-1,586,588,-1,-1,-1,-1,-1,-1,590,592,594,-1,596,598,-1,-1,600,-1,-1,-1,-1,-1,602,-1,604,606,608,610,-1,-1,-1,612,-1,-1,614,-1,-1,-1,-1,-1,-1,-1,-1,-1,-1,616,-1,618,-1,-1,620,622,624,-1,-1,-1,-1,-1,626,-1,-1,628,-1,-1,630,-1,-1,632,634,-1,-1,-1,636,638,-1,-1,-1,-1,-1,-1,-1,-1,-1,-1,640,-1,642,-1,-1,644,-1,-1,646,-1,-1,-1,-1,648,650,-1,-1,-1,-1,-1,-1,652,654,656,658,-1,660,-1,662,-1,664,-1,666,-1,-1,-1,-1,-1,-1,668,-1,-1,-1,670,672,-1,674,-1,676,-1,-1,-1,678,-1,-1,-1,-1,-1,-1,680,-1,-1,-1,682,684,-1,-1,686,688,-1,-1,-1,690,-1,692,694,-1,-1,696,698,700,702,-1,-1,-1,704,-1,-1,-1,-1],"split_conditions":[-5.3101175E-2,-1.0423768E-1,8.962738E-2,-1.8210821E-1,2.6706696E-2,-7.8741595E-2,3.2141498E-1,5.2195735E-2,9.400178E-2,-2.0212242E-1,-3.646658E-1,9.7371414E-2,-2.638468E-1,-3.0286527E-1,5.9736498E-2,-1.02137506E-1,7.815303E-2,-1.265941E-1,1.1518265E-1,2.1421541E-1,8.834964E-2,-5.1701404E-2,-2.8814304E-1,-1.2050365E-1,8.426965E-2,-2.0242989E-1,1.3200307E-1,4.3541172E-1,-1.7056113E-1,2.631611E-1,-1.4112014E-1,2.3870945E-2,4.2131773E-1,2.2987732E-1,3.5268597E-2,3.2272545E-1,8.740052E-2,6.451272E-2,2.5035155E-1,-5.878907E-2,-2.923783E-3,1.3164303E-1,5.906519E-2,-5.555556E-2,6.0000002E-2,-1.9324453E-1,2.8463382E-1,-1.9201452E-1,-1.7909898E-1,-8.265029E-2,5.3839296E-2,1.405622E-1,-1.7425752E-1,1.3603458E-1,4.0414467E0,-3.474999E0,-2.9362413E-1,3.1608054E-1,5.136573E-1,2.2698576E-2,-6.983003E-2,1.3565646E-1,-1.503354E-1,1.16849676E-1,3.2228574E-1,-6.151375E-2,1.701253E-2,-8.2303956E-2,5.714286E-2,-5.714286E-2,-5.10434E-1,-1.5344915E-1,-2.0504372E0,-2.2375006E-2,1.02099255E-1,-1.070034E0,2.0346895E-1,6.4705886E-2,-8.4392466E-2,-2.8866434E-1,6.9698565E-2,2.3865753E-1,1.9996737E-1,-4.0462297E-1,-2.783923E0,-5E-2,7.5E-2,6.0000002E-2,-6.363636E-2,-5.293663E-1,8.99396E-2,4.118438E-2,1.7382783E-1,8.274212E-2,1.9989818E-1,1.3096173E-1,8.49109E-2,-8.974359E-2,2.5E-2,3.7473106E-1,5.179678E-2,-1.2749767E-1,-2.0832129E-1,3.8495824E-2,-2.138738E-1,8.6084984E-2,-6.868149E-2,5.555556E-2,-2.4219628E-1,-7.333319E-2,-1.7443037E-1,1.1805576E-1,1.5009795E-1,-5.448752E-2,-5.8936853E-2,-4.257043E-1,-2.248098E-2,2.254695E-1,1.06442876E-1,2.9394466E-1,2.9584154E-2,-2.7859023E-1,1.1032704E-2,-8.779517E-2,2.4999952E-2,7.647059E-2,-2.5E-2,1.362863E-1,-3.6526707E-1,8.51438E-2,-7.777778E-2,-1.9064355E-1,-4.4374794E-1,-2.0764528E-1,2.210728E-1,-1.2293785E-1,3.1573948E-1,2.3254463E-1,-6.363636E-2,-8.573234E-3,2.7214633E-2,-2.5214154E-1,-5.689075E-1,2.5E-2,3.8597673E-2,5E-2,-2.5E-2,2.4999952E-2,-6.666667E-2,-0E0,-1.5151516E-1,-7.14285E-2,7.5E-2,2.5879124E-1,3.039843E-1,-4.1311386E-1,5.555556E-2,4.0000003E-2,2.8342232E-1,-2.3593527E-1,5.9063596E-1,1.1111111E-2,1.6817573E-1,-6.363627E-2,4.5454547E-2,-2.5E-2,7E-2,-2.7848512E-1,1.6893849E-1,-2.1548939E-1,-1.4200641E-1,3.2877648E-1,3.079745E-1,-1.652245E-2,-8.1818126E-2,-2.727273E-2,7.6E-2,9.272727E-2,-0E0,1.6747065E-1,-5.999994E-2,-5.555556E-2,8.0000006E-2,2.5E-2,1.6504398E-1,-4.102275E-3,-1.344961E-2,2.727273E-2,2.2112772E-1,3.446892E-1,3.3165365E-1,7.333334E-2,2.72261E-1,5E-2,1.819108E-1,1.6326497E-1,-6.666667E-2,-8.1818186E-2,2.0000001E-2,-0E0,6.0000002E-2,-1.0931156E-1,-2.5171125E-1,-7.333334E-2,5E-2,6.923077E-2,-1.5085687E-1,6.9458574E-2,-4.0000003E-2,1.0682529E-1,-1.7730626E-1,2.6473814E-1,2.6311454E-1,-1.5669331E-1,3.6289516E-1,-5.555556E-2,2.5E-2,3.4749433E-3,-2.5236705E-1,4.2590946E-1,-1.330069E-1,-0E0,-8.6206764E-2,3.9825264E-1,8.967247E-3,5E-2,-6.666667E-2,7.1428575E-2,-2.5E-2,-5.027578E-1,6.923077E-2,-4.0220607E-2,1.9797997E-1,-0E0,-5.555556E-2,1.2094649E-1,1.4150897E-1,-6.363636E-2,-3.1034559E-2,2.0358083E-1,1.3027199E-1,-4.8303345E-1,-5.555556E-2,4.6346057E-2,2.9138142E-1,-1.7107807E-1,-1.5345341E-1,-6.363636E-2,3.277523E-1,2.5E-2,-9.047619E-2,3.5285476E-1,1.1111111E-2,-2.4999952E-2,-9.3220316E-2,1.6821475E-1,-2.6693624E-1,2.888932E-1,-4.5371157E-1,1.999997E-2,1.9305542E-1,-4.793856E-2,-5.2711874E-2,-2.3839597E-1,-2.3894425E-1,-2.6980084E-1,-2.1110873E-1,5.147567E-3,4.298213E-2,1.4377797E-1,3.3333335E-2,6.363636E-2,-2.5E-2,-5.4238147E-1,-3.850815E-1,-3.156867E-1,-5.999982E-2,2.7768412E-1,-2.0000001E-2,-6.0000002E-2,2.5E-2,6.666667E-2,-5E-2,7.647059E-2,-3.333328E-2,-0E0,-8.7096736E-2,3.8265005E-1,-1.2301136E-1,-4.37762E-2,1.9484074E-1,-9.166661E-2,-0E0,6.363636E-2,-4.9999814E-2,-3.3899936E-1,1.4616811E-1,-3.5351597E-2,4.0000003E-2,3.866015E-1,2.5E-2,1.4143415E-1,-3.144032E-1,6.363636E-2,1.0126443E-1,2.9071242E-1,-2.2537431E-1,1.423339E-1,-8.0952324E-2,1.1111111E-2,9.02439E-2,8.888889E-2,-2.0000001E-2,4.0000003E-2,-7.894712E-2,-3.0649614E-1,-3.3333335E-2,-2.5341398E-1,-7.1428575E-2,2.3967415E-2,7.647059E-2,9.4736844E-2,9.090885E-3,-0E0,6.0000002E-2,5E-2,1.0520555E-1,-6.363636E-2,-0E0,-3.3333335E-2,-3.3396524E-1,3.8859108E-1,-2.4999952E-2,6.363636E-2,-6.66665E-2,4.0000003E-2,-7.647046E-2,-0E0,5E-2,-9.354832E-2,-0E0,-0E0,9.090909E-2,-5.384609E-2,6.0000002E-2,7.5E-2,-2.5E-2,-3.121003E-1,1.3753648E-1,5.227829E-1,1.3388622E-1,-2.5E-2,8.461539E-2,1.5686443E-1,1.2892799E-1,1.0048747E-2,2.727269E-2,5.1569387E-2,-1.9306816E-2,5E-2,-7.272728E-2,6.666667E-2,-0E0,3.3715224E-1,-0E0,2.6195842E-1,6.852349E-2,-6.7085996E-3,1.314718E-2,-1.7528512E-1,-3.729205E-1,-5E-2,7.5E-2,-2.2228403E-1,-0E0,-1.8267208E-1,-1.3427483E-1,5E-2,-5.555556E-2,3.3333335E-2,-8.3999954E-2,-3.2121214E-1,2.3143706E-1,4.2961144E-1,-2.7076578E-1,-2.5E-2,6.0000002E-2,3.2730237E-1,2.3467535E-1,-5.555528E-2,5E-2,-8.974359E-2,-2.4999952E-2,-0E0,-8.0000006E-2,6.914619E-2,4.2104382E-2,-9.277791E-3,-2.3746836E-1,5.5962324E-1,-6.289148E-2,-7.333319E-2,4.0000003E-2,3.938027E-1,2.937956E-1,-2.5E-2,7.5E-2,-3.4360204E0,4.8316622E-1,1.3694616E-1,-1.2875788E-1,-6.363636E-2,6.363636E-2,1.1111111E-2,-8.3333336E-2,1.1111111E-2,-9.384611E-2,-6.923077E-2,4.5454547E-2,9.1111116E-2,-1.8782148E-1,-7.647059E-2,2.4999952E-2,6.842106E-2,5.992463E-1,-3.0201858E-2,-1.9306816E-2,6.363636E-2,-5E-2,-3.403904E-1,-2.4215738E-1,-4.9999904E-2,7.857143E-2,-0E0,-6.363636E-2,-8.9743555E-2,2.5E-2,-0E0,8.75E-2,-3.0848378E-1,-2.5E-2,-0E0,6.559385E-1,6.605044E-2,1.1110531E-2,6.666667E-2,-4.0000003E-2,-7.333334E-2,-0E0,7.857143E-2,1.3020085E-1,-0E0,-6.923077E-2,2.4999952E-2,1.7397872E-1,-6.4705886E-2,5E-2,1.1871011E-1,-5E-2,-1.8189366E-1,-9.09091E-3,-0E0,-7.5E-2,6.666667E-2,-2.5E-2,-6.66665E-2,5E-2,5.5737164E-2,-3.3333335E-2,-5.555556E-2,6.666667E-2,1.1111111E-2,-4.4697618E-1,-2.4999952E-2,-9.02439E-2,-9.09091E-3,4.6112174E-1,-6.666667E-2,4.0000003E-2,-5E-2,1.3058503E-1,-6.363636E-2,-0E0,-6.666667E-2,5.5503917E-1,2.5E-2,3.3790815E-1,1.552703E-1,-9.09091E-3,-5.323216E-1,4.5454547E-2,-0E0,8.75E-2,1.155964E-2,-6.699862E-1,7.333334E-2,-2.4282108E-1,2.4999952E-2,9.43662E-2,1.0206665E-1,-0E0,5.555556E-2,-5.5555463E-2,6.363636E-2,-5.999994E-2,-1.1111111E-2,9.090909E-2,1.9425422E-2,-8.2356974E-2,6.4705886E-2,-2.4698762E-2,-5.555556E-2,5.555556E-2,1.582268E-2,-3.8449958E-1,-5.555556E-2,5.555556E-2,-7.647052E-2,2.4999952E-2,5.555556E-2,-5.5555463E-2,-5.6103736E-1,-1.7485003E-1,5E-2,-5E-2,-0E0,4.9304643E-1,-2.5E-2,2.4650753E-2,-9.5999956E-2,-2.4999907E-2,-8.0937E-2,-7.801801E-3,6.666667E-2,-2.5E-2,-5E-2,-0E0,-8.823525E-2,-2.4999907E-2,-1.750123E-1,-9.373286E-2,-1.7236668E-1,-9.735094E-2,9.1506785E-1,1.2246002E-1,-2.5E-2,-8.9189194E-2,5.866369E-1,-0E0,-0E0,8.571429E-2,6.923077E-2,-2.5E-2,8.30448E-2,-0E0,-1.6338521E0,-6.517617E-2,3.4165984E-1,3.985426E-2,-5.5555463E-2,6.842106E-2,4.0000003E-2,7.665198E-2,-7.333319E-2,2.5E-2,7.975509E-2,1.999997E-2,5.555556E-2,-5E-2,-2.4999907E-2,-9.069758E-2,-6.923077E-2,-0E0,-6.4705886E-2,5.555556E-2,-9.090897E-3,2.2531901E-1,-1.1111111E-2,4.4864264E-1,5E-2,-5E-2,-4.0278053E-1,5.3992294E-2,7.290191E-1,9.09091E-3,9.09091E-3,-8.8888854E-2,5.555556E-2,-2.5E-2,2.6206166E-1,6.0000002E-2,-2.5E-2,-4.9015787E-1,2.4999952E-2,-6.0000002E-2,2.4977195E-1,-0E0,-6.363636E-2,-2.7256656E-1,4.16712E-2,-2.4999952E-2,-9.545454E-2,-2.5E-2,5.90655E-2,6.893103E-1,5E-2,-6.470583E-2,5.555556E-2,-4.9999904E-2,-9.069761E-2,-0E0,2.5E-2,-8.6666666E-2,9.7740114E-2,2.5E-2,1.5664287E-1,-0E0,1.4409408E-1,1.1111093E-2,-0E0,1.1926212E-1,-2.5E-2,5E-2,4.8202527E-1,-0E0,-0E0,-6.923077E-2,-2.5E-2,1.9989818E-1,-1.5402411E-1,-0E0,-0E0,7.777778E-2,-2.5E-2,-9.8086104E-2,-7.692308E-2,1.619303E-1,-2.0207465E-1,-2.8233957E-1,-4.7962952E-1,-1.1111111E-2,3.5879427E-1,2.727273E-2,4.4943333E-1,-0E0,3.83982E-1,-0E0,-2.0384556E-1,-0E0,2.5E-2,9.466667E-2,5E-2,-0E0,-1.1111111E-2,6.143972E-1,-5E-2,2.4999952E-2,-2.5E-2,3.210272E-1,-3.5727438E-1,2.5E-2,-2.1497665E-1,-0E0,1.4823359E-1,2.5E-2,9.6850395E-2,2.727273E-2,-3.104792E0,-2.5E-2,-9.788358E-2,-2.4999952E-2,2.5E-2,9.714286E-2,1.1111093E-2,4.9796492E-1,2.5E-2,9.79798E-2,-2.5E-2,-5.509852E-1,8.7184656E-1,1.1111111E-2,-2.5E-2,-3.2291502E-1,4.3926588E-1,1.1111111E-2,-2.5E-2,-9.799998E-2,-4.3884924E-1,2.727273E-2,7.0216894E-2,7.858658E-2,5E-2,-0E0,2.737062E-1,3.237128E-2,-1.09586746E-1,-2.4775244E-1,5.555556E-2,-0E0,2.5E-2,1.605006E-1,5E-2,-0E0,9.94543E-2,2.4999952E-2],"split_indices":[531,147,235,325,424,424,545,424,424,666,351,325,147,635,424,235,37,521,25,192,716,206,102,235,196,161,167,425,249,425,195,266,125,152,275,348,527,532,391,267,234,1,717,0,0,152,231,310,635,95,390,167,685,761,205,142,447,1,499,79,707,409,764,152,8,311,430,571,0,0,608,160,109,230,572,396,17,0,14,76,377,158,73,118,109,0,0,0,0,611,47,248,642,230,416,550,176,0,0,18,526,486,170,530,750,352,255,0,673,0,476,80,22,337,92,375,684,82,354,184,20,359,130,18,0,0,0,369,380,135,0,0,212,0,2,11,294,533,0,656,291,9,40,0,676,0,0,0,0,0,110,0,0,72,632,409,0,0,465,299,281,0,21,0,0,0,0,523,8,105,578,469,6,201,0,0,0,0,0,125,0,0,0,0,472,323,555,0,137,57,513,0,38,0,122,649,0,0,0,0,0,687,48,0,0,0,62,57,0,41,147,161,721,635,58,0,0,1,236,323,261,0,0,347,185,0,0,0,0,4,0,2,168,0,0,303,290,0,48,699,468,188,0,321,489,318,693,0,1,0,0,642,0,0,0,429,498,250,0,0,126,373,261,19,608,8,3,450,11,90,0,0,0,342,618,266,0,236,0,0,0,0,0,0,0,0,0,89,25,36,620,0,0,0,0,530,136,406,0,422,0,723,197,0,680,57,95,130,0,0,0,0,0,0,0,249,0,465,0,20,0,0,0,0,0,0,409,0,0,0,12,299,0,0,0,0,0,0,0,0,0,0,0,0,0,0,0,19,707,283,230,0,0,292,14,174,0,19,582,0,0,0,0,168,0,13,28,35,554,43,260,0,0,604,0,322,180,0,0,0,0,748,1,85,655,0,0,593,91,0,0,0,0,0,0,1,42,210,24,571,163,0,0,610,85,0,0,142,415,95,357,0,0,0,0,0,0,0,0,0,66,0,0,0,630,86,582,0,0,21,642,0,0,0,0,0,0,0,0,507,0,0,124,626,24,0,0,0,0,0,79,0,0,0,279,0,0,586,0,34,0,0,0,0,0,0,0,335,0,0,0,0,0,0,0,0,101,0,0,0,6,0,0,0,55,0,362,388,0,523,0,0,0,289,535,0,70,0,0,684,0,0,0,0,0,0,0,27,34,0,12,0,0,319,354,0,0,0,0,0,0,455,3,0,0,0,170,0,454,0,0,73,2,0,0,0,0,0,0,409,524,139,0,131,119,0,0,93,0,0,0,0,0,62,0,229,196,59,35,0,0,0,99,0,0,51,0,0,0,0,0,0,0,0,0,0,78,0,58,0,0,28,19,13,0,0,0,0,0,17,0,0,537,0,0,91,0,0,5,116,0,0,0,11,509,0,0,0,0,0,0,0,0,0,0,45,0,587,0,0,307,0,0,460,0,0,0,0,416,20,0,0,0,0,0,0,2,609,5,23,0,42,0,395,0,2,0,197,0,0,0,0,0,0,2,0,0,0,567,104,0,323,0,7,0,0,0,109,0,0,0,0,0,0,35,0,0,0,188,766,0,0,357,671,0,0,0,521,0,2,629,0,0,657,0,324,0,0,0,0,591,0,0,0,0],"split_type":[0,0,0,0,0,0,0,0,0,0,0,0,0,0,0,0,0,0,0,0,0,0,0,0,0,0,0,0,0,0,0,0,0,0,0,0,0,0,0,0,0,0,0,0,0,0,0,0,0,0,0,0,0,0,0,0,0,0,0,0,0,0,0,0,0,0,0,0,0,0,0,0,0,0,0,0,0,0,0,0,0,0,0,0,0,0,0,0,0,0,0,0,0,0,0,0,0,0,0,0,0,0,0,0,0,0,0,0,0,0,0,0,0,0,0,0,0,0,0,0,0,0,0,0,0,0,0,0,0,0,0,0,0,0,0,0,0,0,0,0,0,0,0,0,0,0,0,0,0,0,0,0,0,0,0,0,0,0,0,0,0,0,0,0,0,0,0,0,0,0,0,0,0,0,0,0,0,0,0,0,0,0,0,0,0,0,0,0,0,0,0,0,0,0,0,0,0,0,0,0,0,0,0,0,0,0,0,0,0,0,0,0,0,0,0,0,0,0,0,0,0,0,0,0,0,0,0,0,0,0,0,0,0,0,0,0,0,0,0,0,0,0,0,0,0,0,0,0,0,0,0,0,0,0,0,0,0,0,0,0,0,0,0,0,0,0,0,0,0,0,0,0,0,0,0,0,0,0,0,0,0,0,0,0,0,0,0,0,0,0,0,0,0,0,0,0,0,0,0,0,0,0,0,0,0,0,0,0,0,0,0,0,0,0,0,0,0,0,0,0,0,0,0,0,0,0,0,0,0,0,0,0,0,0,0,0,0,0,0,0,0,0,0,0,0,0,0,0,0,0,0,0,0,0,0,0,0,0,0,0,0,0,0,0,0,0,0,0,0,0,0,0,0,0,0,0,0,0,0,0,0,0,0,0,0,0,0,0,0,0,0,0,0,0,0,0,0,0,0,0,0,0,0,0,0,0,0,0,0,0,0,0,0,0,0,0,0,0,0,0,0,0,0,0,0,0,0,0,0,0,0,0,0,0,0,0,0,0,0,0,0,0,0,0,0,0,0,0,0,0,0,0,0,0,0,0,0,0,0,0,0,0,0,0,0,0,0,0,0,0,0,0,0,0,0,0,0,0,0,0,0,0,0,0,0,0,0,0,0,0,0,0,0,0,0,0,0,0,0,0,0,0,0,0,0,0,0,0,0,0,0,0,0,0,0,0,0,0,0,0,0,0,0,0,0,0,0,0,0,0,0,0,0,0,0,0,0,0,0,0,0,0,0,0,0,0,0,0,0,0,0,0,0,0,0,0,0,0,0,0,0,0,0,0,0,0,0,0,0,0,0,0,0,0,0,0,0,0,0,0,0,0,0,0,0,0,0,0,0,0,0,0,0,0,0,0,0,0,0,0,0,0,0,0,0,0,0,0,0,0,0,0,0,0,0,0,0,0,0,0,0,0,0,0,0,0,0,0,0,0,0,0,0,0,0,0,0,0,0,0,0,0,0,0,0,0,0,0,0,0,0,0,0,0,0,0,0,0,0,0,0,0,0,0,0,0,0,0,0,0,0,0,0,0,0,0,0,0,0,0,0,0,0,0,0,0,0,0,0,0,0,0,0,0,0,0,0,0,0,0,0,0,0,0,0],"sum_hessian":[1.4570005E3,7.2300024E2,7.3400024E2,3.3950012E2,3.8350012E2,3.1725012E2,4.167501E2,1.3050005E2,2.0900009E2,2.1100006E2,1.7250006E2,1.4900005E2,1.6825008E2,1.1225004E2,3.0450006E2,8.350002E1,4.7000023E1,1.5600006E2,5.300003E1,9.175003E1,1.1925002E2,2.75E0,1.6975006E2,1.2475004E2,2.4250004E1,3.500001E1,1.3325006E2,4.1250015E1,7.100002E1,2.5125005E2,5.325002E1,1.2500015E1,7.100001E1,2.700002E1,2.0000004E1,6.500002E1,9.100003E1,4.6750027E1,6.250004E0,2.1750011E1,7.000002E1,1.1525002E2,4E0,1.25E0,1.5E0,3.25E0,1.6650006E2,1.8750004E1,1.0600003E2,1.4500004E1,9.75E0,2.1000008E1,1.4000004E1,5.7250042E1,7.600002E1,1.9750008E1,2.1500008E1,8.500004E0,6.250002E1,2.1250004E1,2.3000003E2,2.8000008E1,2.5250011E1,8.250015E0,4.25E0,6.400001E1,7E0,2.450002E1,2.5E0,2.5E0,1.7500004E1,5.5500027E1,9.5E0,7.575003E1,1.525E1,4.4750027E1,2E0,3.25E0,3.0000038E0,1.6250008E1,5.500004E0,5.6000015E1,1.4000008E1,6.4750015E1,5.050001E1,1E0,3E0,1.5E0,1.75E0,1.6300006E2,3.5000038E0,5E0,1.3750004E1,5.2750027E1,5.3250008E1,7.500004E0,7E0,8.75E0,1E0,1.375E1,7.2500076E0,5.25E0,8.750004E0,4.350003E1,1.3750011E1,6.550002E1,1.05E1,1.25E0,1.8500008E1,2.7500076E0,1.875E1,6E0,2.5000038E0,5.875002E1,3.75E0,9.250004E0,1.2E1,1.4750015E1,2.1525002E2,2.5750008E1,2.25E0,1.3250004E1,1.2000008E1,7.2500114E0,1.0000038E0,3.25E0,1E0,6.100001E1,3E0,3.5E0,3.5E0,7.0000076E0,1.7500011E1,2.25E0,1.5250004E1,5.75E0,4.9750027E1,7.75E0,1.75E0,2.2500027E1,5.3250004E1,4.75E0,1.05E1,1E0,4.3750027E1,1E0,1E0,1.0000038E0,2E0,1.5E0,1.4750008E1,2.5000038E0,3E0,3.8250015E1,1.775E1,1.2750008E1,1.25E0,1.5E0,6.3250015E1,1.7250008E1,3.3250004E1,1.25E0,1.6175006E2,1.7500038E0,1.75E0,1E0,4E0,1.1000004E1,2.75E0,2.7000008E1,2.575002E1,5.0750008E1,2.5E0,3E0,4.500004E0,1.75E0,5.25E0,1.275E1,1E0,4.500004E0,2.7500038E0,1.25E0,4E0,1E0,7.750004E0,2.0000011E1,2.350002E1,1.75E0,1.2000011E1,2.7500076E0,6.2750015E1,2.75E0,7.75E0,1E0,1.7500008E1,1.675E1,2E0,4.5E0,1.5E0,1.0000038E0,1.5E0,6.000004E0,5.2750015E1,2.75E0,1E0,2.25E0,7.000004E0,1.05E1,1.5E0,9.5E0,5.2500153E0,2.0575002E2,9.500004E0,6E0,1.9750008E1,1.25E0,1E0,2.5E0,1.0750004E1,2.7500076E0,9.25E0,1E0,6.2500114E0,5.7250004E1,3.7500076E0,1E0,2E0,2.5E0,1E0,4.7500076E0,2.25E0,2E0,1.5500011E1,1E0,1.25E0,1.15E1,3.7500038E0,1.75E0,4E0,4.1000023E1,8.750004E0,6.5E0,1.25E0,1.1250008E1,1.1250019E1,4.7750004E1,5.5E0,1.75E0,3E0,1E0,9.5E0,4.2500027E1,1.25E0,1.0000038E0,1.3750004E1,7E0,3.1250015E1,1.375E1,4E0,1.5000038E0,1.1250004E1,6.1000015E1,2.25E0,6.500004E0,1.0750004E1,3.0750004E1,2.5E0,1.5950005E2,2.2500114E0,9.750004E0,1.25E0,1.75E0,1E0,5.000004E0,2.2000004E1,2.4250011E1,1.5000076E0,4.9250008E1,1.5E0,1.5E0,1E0,2E0,1E0,3.25E0,1.2500038E0,1E0,6.750004E0,4.2500076E0,1.5750004E1,4E0,1.950002E1,1.1000008E1,1.0000038E0,1.75E0,1.0000076E0,5.9250015E1,3.5E0,6.25E0,1.5E0,1.6500008E1,1E0,4E0,1.275E1,1.75E0,4.250004E0,8.000008E0,4.4750008E1,2.75E0,4.250004E0,1.25E0,9.25E0,8E0,1.5E0,1.5E0,3.7500153E0,2.0450002E2,1.25E0,7.000004E0,2.5E0,2.75E0,3.25E0,1.8E1,1.7500076E0,1E0,1.5E0,1E0,9.750004E0,1.75E0,1.0000076E0,1.25E0,8E0,5.625E1,1.0000038E0,1.75E0,2.0000076E0,1.5E0,3.2500076E0,1E0,1E0,1.4500011E1,1E0,1.5E0,1E1,2.2500038E0,1.5E0,3E0,1E0,2.600002E1,1.5000004E1,5E0,3.7500038E0,1E0,5.5E0,8.000008E0,3.25E0,9.500015E0,1.7500038E0,4.25E0,4.3500004E1,1E0,4.5E0,2E0,1E0,4.1000027E1,1.5E0,4E0,3E0,3.0000076E0,2.8250008E1,3.25E0,1.05E1,1E0,3E0,1.0250004E1,1E0,5.6000015E1,5E0,1E0,1.25E0,1.25E0,5.250004E0,8E0,2.7500038E0,6.75E0,2.4000004E1,1E0,1.5E0,1.4475003E2,1.4750015E1,1.2500113E0,1E0,8.75E0,1.0000038E0,1.0000038E0,4E0,8E0,1.4000004E1,6.5000076E0,1.7750004E1,4.6750004E1,2.5000038E0,2.7500076E0,1.5E0,4.500004E0,1.125E1,1E0,3E0,1.3000019E1,6.5E0,2.5E0,5.6750015E1,1.75E0,1.75E0,1.25E0,5E0,1.25E0,1.5250008E1,2.25E0,1.75E0,1.025E1,2.5E0,3.25E0,1.0000038E0,3.75E0,4.2500076E0,2.5000038E0,4.2250004E1,1.75E0,1E0,2E0,2.0250002E2,1.0000038E0,6E0,1E0,1.75E0,8.750004E0,1E0,1E0,7E0,5.525E1,1E0,1E0,2.500002E1,1.2000004E1,3E0,3.5E0,1.5E0,2.75E0,1.0000038E0,6E0,2.0000076E0,1E0,2.25E0,1.0000038E0,8.500011E0,3.25E0,1E0,4.1500004E1,2E0,3.9250027E1,1.75E0,1E0,3E0,2E0,1E0,2.0000076E0,1E0,2.7000008E1,1.25E0,1.25E0,2E0,1.25E0,9.25E0,1.0000038E0,9.25E0,1.75E0,5.4250015E1,3.5E0,1.5E0,1E0,7E0,1.75E0,1.0000038E0,3.5E0,3.25E0,1E0,2.3000004E1,1.4300003E2,1.75E0,1.3000015E1,1.75E0,1E0,7E0,5.000004E0,9E0,2.75E0,3.7500076E0,1.0000038E0,1.675E1,4.5750004E1,1E0,1.25E0,1.2500038E0,1.75E0,2.7500038E0,1.25E0,1E1,2.25E0,1.0750019E1,3.25E0,3.25E0,1.25E0,1.25E0,4.5E0,5.2250015E1,1.25E0,1.25E0,3.2500038E0,1.0000038E0,1.25E0,1.2500038E0,4.0250004E1,2E0,1E0,1E0,1.5E0,2.0100002E2,1E0,5.425E1,2.4000011E1,1.0000076E0,9.750004E0,2.25E0,2E0,1E0,1E0,1.0000076E0,7.500004E0,1.0000076E0,6.000004E0,3.55E1,2.5000038E0,3.6750023E1,2.0750008E1,6.25E0,1E0,8.25E0,5.3250015E1,1E0,1E0,6E0,2.25E0,1E0,2.2000004E1,1E0,1.3875003E2,4.250004E0,2.2500038E0,1.0750011E1,1.2500038E0,3.75E0,1.5E0,7.5E0,2.7500076E0,1E0,4.425E1,1.5000038E0,1.25E0,1E0,1.0000076E0,9.750011E0,2.25E0,1E0,3.25E0,1.25E0,1.7500038E0,5.050001E1,1.25E0,3.9000004E1,1E0,1E0,1.9900002E2,2E0,5.25E1,1.75E0,1.75E0,8.000004E0,1.25E0,1E0,3.2500038E0,2.75E0,1E0,3.45E1,1.0000038E0,1.5E0,1.975E1,1.0000076E0,1.75E0,4.5E0,5.225001E1,1.0000038E0,2.1000004E1,1E0,7.5E0,1.3125003E2,1E0,3.2500038E0,1.25E0,1.0000038E0,9.750008E0,1.0000038E0,1E0,6.5E0,4.325E1,1E0,4.950001E1,1E0,3.775E1,1.2500038E0,1E0,1.9800002E2,1E0,1E0,5.15E1,1E0,1.0000038E0,2.25E0,1E0,3.35E1,1.875E1,1E0,1E0,3.5E0,1E0,5.125001E1,5.5E0,2E0,1.2925003E2,2.0000038E0,4.825001E1,1.25E0,3.6E1,1.75E0,1.9700002E2,1.0000038E0,5.05E1,1E0,3.25E1,1E0,1E0,1.775E1,1E0,1E0,1.25E0,1.2800003E2,1E0,1.0000038E0,1E0,4.725001E1,3.5E1,1E0,1.9600002E2,1.0000038E0,4.95E1,1E0,3.075E1,1.75E0,1.2700002E2,1E0,4.6250008E1,1.0000038E0,1E0,3.4E1,1.2500038E0,1.9475E2,1E0,4.85E1,1E0,1.2600002E2,1.935E2,1.25E0,1E0,1.2500002E2,1.9225E2,1.25E0,1E0,1.2400002E2,1.905E2,1.75E0,2.0000038E0,1.885E2,1E0,1.0000038E0,1.8625E2,2.25E0,1.8425E2,2E0,1.25E0,1E0,1E0,1.8325E2,1E0,1E0,1.8225E2,1.0000038E0],"tree_param":{"num_deleted":"0","num_feature":"768","num_nodes":"705","size_leaf_vector":"1"}},{"base_weights":[-4.2615514E-4,-6.326558E-1,6.223791E-1,-8.51341E-2,-1.1159607E0,-1.6670644E-2,1.107835E0,-4.9963647E-1,5.1571596E-1,-7.652489E-1,-1.5381871E0,5.969739E-1,-5.603947E-1,3.9206383E-1,1.369642E0,5.279768E-1,-6.872257E-1,8.400167E-1,-4.9533957E-1,-2.2239621E-1,-1.1777011E0,-1.5662739E0,1.5005828E-1,8.30073E-1,-5.872394E-1,5.032413E-1,-8.414664E-1,-3.4968472E-1,8.2185644E-1,1.5244577E0,6.248859E-1,9.7060007E-1,-1.0323057E0,-9.61804E-1,-1.0881994E-1,1.1172731E0,-2.087877E-1,4.477084E-1,-1.0184941E0,-1.1553288E0,7.960881E-2,-1.2512115E0,7.6576054E-1,9.3337465E-3,-1.5855446E0,5.8814492E-2,-5.2905906E-2,-4.0928596E-1,1.0511805E0,6.0303364E-2,-1.4666307E0,1.1280072E0,-4.4646162E-1,-4.87448E-1,-1.4190705E0,-1.1213387E0,3.7733832E-1,-5.0068545E-1,1.0068903E0,6.2284684E-1,1.6047494E0,1.2499111E0,-8.9238286E-2,-4.830664E-2,1.1788447E0,2.6172668E-2,-7.982533E-2,-1.5316797E0,-6.298392E-1,-4.3461943E-1,7.9556775E-1,-1.5457583E-2,1.3344252E0,-1.2186482E0,4.6747932E-1,-8.7843657E-1,1.0287201E0,-1.4206247E0,3.2356855E-1,-1.5792164E0,1.468737E-1,-1.8958242E-1,1.2672971E0,-1.5586488E0,-8.3454627E-1,7.065742E-2,-3.265304E-2,8.762447E-3,-1.6050398E0,9.583261E-1,-9.3810385E-1,5.768887E-1,1.5018761E0,-7.910019E-1,9.570599E-1,1.169681E-2,-8.576243E-2,-6.61904E-1,1.4183451E0,8.409258E-1,-1.2259818E0,-1.0519097E0,-1.3809206E-1,3.2618325E-2,-1.484952E0,5.40359E-2,-1.3181553E0,-7.071544E-2,6.985558E-1,-1.095774E0,8.317525E-1,1.1262515E0,-7.055693E-1,-2.3180261E-1,1.2489387E0,5.7575166E-1,1.6723129E0,-2.3281565E-2,1.411775E0,-7.645825E-1,6.5777314E-1,1.5758328E0,1.8153071E-1,-3.3532435E-1,-1.666304E0,-3.1634787E-1,-1.420906E0,4.400948E-1,-9.497675E-1,-6.9924724E-1,1.343687E0,9.1758907E-1,-9.4602454E-1,-3.6694196E-1,1.4423275E0,2.0404814E-2,-7.87405E-2,-5.7753384E-2,9.4556856E-1,1.115271E-2,-6.851777E-2,1.4808326E0,-5.431391E-2,-1.6203513E0,3.256173E-2,-5.797882E-2,1.0757258E0,3.3974647E-8,-8.649524E-2,-6.894143E-2,7.226496E-2,-9.283289E-1,2.8626576E-1,1.5798622E0,-1.634525E-2,3.8809482E-2,-1.625352E0,-8.540012E-2,-1.1622618E0,-1.6329983E0,-3.0593774E-1,7.413927E-2,-1.0027073E-2,-1.354703E0,6.4397746E-1,-4.7853075E-5,1.1594055E0,1.612003E0,-5.531011E-1,4.7951812E-1,-7.8580394E-2,7.9264335E-2,-3.0327985E-1,1.0332077E-2,-5.8915664E-2,1.6914077E0,-2.929337E-1,-5.403583E-2,7.690003E-2,-1.0359719E-1,-8.2612626E-2,-4.9096593E-1,-1.6644845E0,4.801062E-1,-6.385092E-1,1.8868146E-2,-1.6004713E0,3.3325534E-2,-1.4908476E0,9.954696E-1,-6.4492926E-2,-7.903225E-2,2.0425405E-2,-3.062183E-7,5.823196E-2,-2.6996034E-1,1.2872362E0,-6.8876706E-2,3.2643627E-2,6.6890724E-2,-8.40667E-1,1.5810189E0,-3.8809415E-2,1.3658206E0,-8.4312844E-1,1.7310048E0,3.5828304E-1,1.5355176E0,-2.0093111E-2,8.317572E-1,-1.1754762E0,1.0660173E0,-6.250281E-2,8.68188E-2,-1.0656281E-2,6.387927E-2,-1.0214416E0,5.8314253E-2,-5.9531063E-2,-9.166936E-2,-6.335692E-1,8.5654646E-1,-5.3424513E-1,-1.5845194E0,3.231609E-2,9.4134945E-1,-7.1065223E-1,6.592199E-1,-1.220512E0,-6.855809E-2,3.2818124E-2,-1.1502443E-2,1.5580506E0,-2.683109E-2,7.157364E-2,-7.3744945E-2,3.7749145E-2,5.9309125E-2,-6.8598814E-2,1.5398822E0,-3.4828183E-1,1.339715E0,-3.251649E-2,1.0630645E-2,8.3835095E-2,-8.9559264E-2,1.1890775E-2,1.0364736E-2,6.727839E-2,-1.1280288E0,5.8959674E-2,9.347837E-1,-6.0295594E-1,1.0098905E-2,8.659274E-2,-6.8768985E-3,-1.677184E0,-1.2839953E0,5.3381044E-1,-1.3080379E0,5.531029E-1,1.117102E-2,-1.6486919E0,-6.45898E-2,4.4022992E-2,-8.241635E-2,3.2412503E-2,5.8565166E-2,-1.1404415E-2,-1.2813934E0,3.3432278E-1,1.343797E0,-5.8232266E-2,1.6795628E0,-1.9401146E-2,-5.438412E-2,1.1363824E-2,-3.2605715E-2,6.155944E-2,-5.538494E-2,3.1817835E-2,1.0421194E-2,8.9879066E-2,3.1640794E-2,-5.4388817E-2,5.5141784E-2,-5.7453968E-2,-9.9287105E-1,7.7225584E-1,-1.0448635E-2,-8.907691E-2,1.1428498E0,-4.3737692E-1,4.845717E-1,-1.001386E0,-4.7790013E-2,5.8991987E-2,-1.6574962E0,1.1905305E-2,2.2006173E-2,-8.662725E-2,-3.8504085E-1,1.425439E0,6.1651953E-2,-1.0060047E0,1.0754559E-1,1.4913054E0,3.838894E-1,-7.778055E-2,9.4911335E-3,8.66102E-2,8.509008E-2,-1.9401146E-2,3.8809482E-2,-7.5926185E-2,1.7486668E0,-3.2412443E-2,1.234473E0,-1.083989E0,1.6342707E0,-8.248764E-4,2.8312206E-8,5.823196E-2,-1.4572045E0,3.301149E-2,8.0306835E-2,-3.781052E-2,-1.0295528E-2,-6.460827E-2,-1.2213541E0,5.4187622E-2,-5.3923238E-2,1.3079807E0,-2.3666028E-2,-1.1011811E0,-1.7182477E0,1.0968168E-2,1.2729735E0,-3.971851E-2,-7.140455E-2,2.6346086E-2,-3.236111E-2,6.801699E-2,-1.46723E0,3.739398E-2,8.6112596E-2,1.0401047E-2,1.618549E0,-1.394964E-1,3.8316645E-2,-6.1718512E-2,-8.216228E-3,8.446402E-2,-1.3469378E0,4.367543E-2,1.2820959E0,-6.6170657E-1,7.7441114E-1,-1.1266123E0,-1.7458344E0,-4.128531E-1,-7.608398E-2,-1.05483765E-2,-6.530098E-1,1.116533E0,2.7210383E-2,-1.4282658E0,-1.1363755E-2,5.438419E-2,-1.6734022E0,-3.3758152E-1,-3.062183E-7,-7.689994E-2,1.4897585E0,-3.810684E-1,1.3012815E-1,8.789667E-2,1.7676213E0,-3.109666E-6,-1.38677E0,4.0063703E-1,-2.5863558E-2,7.328182E-2,1.5941546E0,-2.1458714E-1,-1.2409321E0,7.7477205E-1,-8.2632166E-1,1.2306069E0,2.524618E-1,-1.3414999E0,-7.007979E-3,-1.7350287E0,-5.301532E-2,5.46703E-2,-6.689065E-2,4.4022992E-2,8.712788E-2,8.0936604E-7,1.1548101E-2,-7.252427E-2,6.578201E-2,-1.0060065E0,-3.109666E-6,1.5776056E0,5.8126837E-2,-3.2588534E-2,3.379004E-8,1.7658803E0,-1.1038703E-2,7.946624E-2,-6.755479E-2,-1.0801961E-2,8.91549E-2,2.637742E-1,-8.035476E-3,-8.491018E-2,-7.377186E-2,-9.915117E-3,8.173247E-2,-1.0875568E-2,3.825337E-1,-9.726307E-1,-1.5132698E0,6.9208495E-2,-9.071811E-2,-1.0888349E-2,8.4485054E-2,-7.233376E-3,-1.6338431E0,3.235438E-2,-1.5716434E-2,1.690034E0,-5.4061413E-2,3.823277E-2,3.3653047E-2,-1.5176537E0,8.815399E-2,3.257883E-1,3.186218E-2,-6.783805E-2,-3.2069985E-2,7.087105E-2,7.394404E-3,-7.972371E-2,-1.8224596E0,-4.225134E-1,5.5248886E-2,-6.687118E-2,-6.753928E-2,3.227927E-2,-1.9066932E-2,7.529905E-2,-1.7951643E-1,-1.6033918E0,-1.6897674E0,1.326965E-3,-6.2056433E-2,3.9549213E-2,2.8312206E-8,8.381451E-2,-9.639828E-1,6.537372E-1,7.07153E-2,-9.109354E-1,1.8055152E0,2.8312206E-8,5.40359E-2,-5.4036047E-2,-8.118381E-2,1.1468225E-2,5.8941722E-2,-3.214119E-2,8.743985E-2,1.0743524E-2,5.3801525E-2,-5.2122463E-2,1.0404329E-2,-7.960641E-2,-3.247277E-2,7.1129754E-2,-5.3907216E-2,-1.0339872E-2,1.0696795E-2,7.394487E-2,6.0073204E-2,-6.0983535E-2,3.244655E-2,-1.526229E0,-8.081507E-3,-1.799031E0,-5.403583E-2,5.40359E-2,-7.252437E-2,1.1548101E-2,5.40359E-2,-5.4036047E-2,1.6541978E0,3.379004E-8,3.3974647E-8,1.7790228E0,5.3088713E-2,-3.255625E-2,7.854625E-1,-1.0678663E0,2.6288936E-2,-7.381086E-2,-1.6672798E0,7.9534034E-4,1.0714817E0,-6.697091E-2,-8.846356E-2,1.0284349E-2,1.7940934E0,4.809619E-1,-1.6558287E0,1.1547338E-2,6.438651E-2,-9.14989E-1,6.2018394E-2,-6.1436027E-2,-9.530238E-3,-9.2844814E-2,3.9881773E-2,-6.493373E-2,4.86226E-2,-6.3628726E-2,-1.6962842E0,1.796648E-4,-8.350587E-3,-1.7058213E0,2.3009086E-2,-1.437024E0,-3.8368188E-2,6.488504E-2,-6.922247E-2,1.1512975E-2,9.220062E-2,1.9400906E-2,-1.6799291E0,1.13759935E-2,-9.222179E-2,-1.0398086E-2,-1.0802624E-2,1.7181717E0,1.7919602E0,1.6254414E-2,-6.1393052E-2,1.1374664E0,-6.6694014E-2,-1.0425139E-2,-8.924653E-2,-1.0341358E-2,1.0036709E-2,6.721377E-2,1.8280723E0,1.0375232E-2,6.04614E-2,-3.250612E-2,-9.0488724E-2,-4.17846E-4,-1.0931264E-2,-5.876025E-2,-9.0096205E-2,-7.414607E-3,-8.534889E-3,-1.7221704E0,-8.205014E-2,-1.0436705E-2,-1.0771393E-2,-8.956511E-2,1.7611401E0,1.0802374E-2,1.8009858E0,-3.062183E-7,1.4329606E0,-2.691043E-2,9.317671E-2,1.0583918E-2,-1.7389084E0,-1.501347E-2,1.805267E0,2.6408156E-2,1.8101026E0,-3.062183E-7,-1.1906966E-2,8.2734175E-2,-1.7557137E0,-1.6026756E-2,9.272959E-2,8.730125E-1,2.8312206E-8,1.8193121E0,-2.0956984E-2,-1.7732362E0,5.7168793E-2,9.2231585E-3,1.8284671E0,1.0802683E-2,-1.782434E-2,-1.7853247E0,1.0802374E-2,1.8377403E0,-1.8083818E0,-8.222358E-1,1.8471335E0,1.0802683E-2,-9.104855E-2,-2.5432521E-2,3.323318E-2,-7.265871E-2,1.8616252E0,7.6458997E-1,1.8709737E0,7.497659E-1,-1.2373759E-2,6.3458696E-2,3.1008229E-2,1.876027E0,5.4155786E-2,2.8312206E-8,1.8811455E0,3.1020764E-2,1.8863001E0,3.115891E-2,3.1159258E-2,9.4576254E-2],"categories":[],"categories_nodes":[],"categories_segments":[],"categories_sizes":[],"default_left":[0,0,0,0,0,0,0,0,0,0,0,0,0,0,0,0,0,0,0,0,0,0,0,0,0,0,0,0,0,0,0,0,0,0,0,0,0,0,0,0,0,0,0,0,0,0,0,0,0,0,0,0,0,0,0,0,0,0,0,0,0,0,0,0,0,0,0,0,0,0,0,0,0,0,0,0,0,0,0,0,0,0,0,0,0,0,0,0,0,0,0,0,0,0,0,0,0,0,0,0,0,0,0,0,0,0,0,0,0,0,0,0,0,0,0,0,0,0,0,0,0,0,0,0,0,0,0,0,0,0,0,0,0,0,0,0,0,0,0,0,0,0,0,0,0,0,0,0,0,0,0,0,0,0,0,0,0,0,0,0,0,0,0,0,0,0,0,0,0,0,0,0,0,0,0,0,0,0,0,0,0,0,0,0,0,0,0,0,0,0,0,0,0,0,0,0,0,0,0,0,0,0,0,0,0,0,0,0,0,0,0,0,0,0,0,0,0,0,0,0,0,0,0,0,0,0,0,0,0,0,0,0,0,0,0,0,0,0,0,0,0,0,0,0,0,0,0,0,0,0,0,0,0,0,0,0,0,0,0,0,0,0,0,0,0,0,0,0,0,0,0,0,0,0,0,0,0,0,0,0,0,0,0,0,0,0,0,0,0,0,0,0,0,0,0,0,0,0,0,0,0,0,0,0,0,0,0,0,0,0,0,0,0,0,0,0,0,0,0,0,0,0,0,0,0,0,0,0,0,0,0,0,0,0,0,0,0,0,0,0,0,0,0,0,0,0,0,0,0,0,0,0,0,0,0,0,0,0,0,0,0,0,0,0,0,0,0,0,0,0,0,0,0,0,0,0,0,0,0,0,0,0,0,0,0,0,0,0,0,0,0,0,0,0,0,0,0,0,0,0,0,0,0,0,0,0,0,0,0,0,0,0,0,0,0,0,0,0,0,0,0,0,0,0,0,0,0,0,0,0,0,0,0,0,0,0,0,0,0,0,0,0,0,0,0,0,0,0,0,0,0,0,0,0,0,0,0,0,0,0,0,0,0,0,0,0,0,0,0,0,0,0,0,0,0,0,0,0,0,0,0,0,0,0,0,0,0,0,0,0,0,0,0,0,0,0,0,0,0,0,0,0,0,0,0,0,0,0,0,0,0,0,0,0,0,0,0,0,0,0,0,0,0,0,0,0,0,0,0,0,0,0,0,0,0,0,0,0,0,0,0,0,0,0,0,0,0,0,0,0,0,0,0,0,0,0,0,0,0,0,0,0,0,0,0,0,0,0,0,0,0,0,0,0,0,0,0,0,0,0,0,0,0,0,0,0,0,0,0,0,0,0,0,0,0,0,0,0,0,0,0,0,0,0,0,0,0,0,0,0,0,0,0,0,0,0,0,0,0,0,0,0,0,0,0,0,0],"id":1,"left_children":[1,3,5,7,9,11,13,15,17,19,21,23,25,27,29,31,33,35,37,39,41,43,45,47,49,51,53,55,57,59,61,63,65,67,69,71,73,75,77,79,81,83,85,-1,87,-1,-1,89,91,93,95,97,99,101,103,105,107,109,111,113,115,117,119,-1,121,-1,-1,123,125,127,129,131,133,135,137,139,141,143,145,147,149,151,153,155,157,-1,-1,-1,159,161,163,165,167,169,171,-1,-1,173,175,177,179,181,183,-1,185,-1,187,-1,189,191,193,195,197,199,201,203,205,-1,207,209,211,213,215,217,219,221,223,225,227,229,231,233,235,237,239,-1,-1,-1,241,-1,-1,243,-1,245,-1,-1,247,-1,-1,-1,-1,249,251,253,-1,-1,255,257,259,261,263,-1,-1,265,267,269,271,273,275,277,-1,-1,279,-1,-1,281,283,-1,-1,285,-1,287,289,291,293,295,297,-1,299,301,-1,-1,-1,-1,-1,303,305,-1,-1,-1,307,309,-1,311,313,315,317,319,-1,321,323,325,-1,-1,-1,-1,327,-1,-1,-1,329,331,333,335,-1,337,339,341,343,-1,-1,-1,345,-1,-1,-1,-1,-1,-1,347,349,351,-1,-1,-1,-1,-1,-1,-1,353,-1,355,357,-1,-1,-1,359,361,363,365,367,-1,369,-1,-1,-1,-1,-1,-1,371,373,375,-1,377,-1,-1,-1,-1,-1,-1,-1,-1,-1,-1,-1,-1,-1,379,381,-1,-1,383,385,387,389,-1,-1,391,-1,393,-1,395,397,-1,399,401,403,405,-1,-1,-1,-1,-1,-1,-1,407,-1,409,411,413,-1,-1,-1,415,-1,-1,-1,-1,-1,417,-1,-1,419,421,423,425,-1,427,-1,-1,-1,-1,-1,429,-1,-1,-1,431,433,-1,-1,-1,-1,435,-1,437,439,441,443,445,447,-1,-1,449,451,-1,453,-1,-1,455,457,-1,-1,459,461,463,-1,465,467,469,471,-1,-1,473,475,477,479,481,483,485,487,-1,489,-1,-1,-1,-1,-1,491,-1,-1,-1,493,495,497,-1,-1,-1,499,-1,-1,-1,-1,-1,501,-1,-1,-1,-1,-1,-1,503,505,507,509,-1,-1,-1,-1,511,-1,-1,513,-1,-1,-1,515,-1,517,-1,-1,-1,-1,519,-1,521,523,-1,-1,-1,-1,-1,-1,525,527,529,-1,-1,-1,-1,-1,531,533,-1,535,537,-1,-1,-1,-1,-1,-1,-1,-1,-1,-1,-1,-1,-1,-1,-1,-1,-1,-1,-1,-1,-1,-1,539,-1,541,-1,-1,-1,-1,-1,-1,543,-1,-1,545,-1,-1,547,549,-1,-1,551,-1,553,-1,-1,-1,555,557,559,-1,-1,561,-1,-1,-1,-1,-1,-1,-1,-1,563,-1,-1,565,-1,567,-1,-1,-1,-1,-1,-1,569,-1,-1,-1,-1,571,573,-1,-1,575,-1,-1,-1,-1,-1,-1,577,-1,-1,-1,-1,-1,-1,-1,-1,-1,-1,579,-1,-1,-1,-1,581,-1,583,-1,585,-1,-1,-1,587,-1,589,-1,591,-1,-1,-1,593,-1,-1,595,-1,597,-1,599,-1,-1,601,-1,-1,603,-1,605,607,609,611,-1,-1,-1,-1,-1,613,615,617,619,-1,-1,-1,621,-1,-1,623,-1,625,-1,-1,-1],"loss_changes":[5.734788E2,1.9115836E2,2.2762988E2,8.492202E1,5.5656494E1,1.0634332E2,7.7599396E1,3.923955E1,4.60805E1,4.7126022E1,8.445618E0,4.1823627E1,5.0939526E1,3.6333492E1,3.420166E1,2.289302E1,2.7049515E1,3.1003723E1,1.7453001E1,2.6185223E1,1.8107025E1,6.0525513E0,5.889406E0,3.48304E1,1.4446384E1,2.1831158E1,2.6714867E1,2.408767E1,1.809591E1,1.7223572E1,2.4288649E1,1.1305784E1,7.409696E0,2.0944344E1,1.6894922E1,2.0645714E1,1.625479E1,1.0910439E1,1.258329E1,1.2769032E1,2.2907637E1,1.3563858E1,5.5110645E0,0E0,6.070984E0,0E0,0E0,1.5164428E1,2.1965126E1,1.2576004E1,4.9387627E0,1.2353598E1,1.6063765E1,1.6541824E1,7.8479004E0,1.040233E1,1.3918109E1,8.43699E0,1.3752808E1,1.2178389E1,1.5062805E1,8.696888E0,1.3728016E1,0E0,8.903828E0,0E0,0E0,6.1946564E0,1.8120188E1,1.9315374E1,1.3416478E1,1.3438193E1,1.3448433E1,6.1403675E0,1.2323351E1,2.741767E0,1.0684369E1,8.284637E0,7.9337225E0,4.097847E0,1.4854735E1,2.0889517E1,7.108988E0,1.1481293E1,1.2524879E1,0E0,0E0,0E0,5.562866E0,3.9409614E0,1.0580836E1,1.8035757E1,1.3144638E1,9.173426E0,6.8087635E0,0E0,0E0,1.9243151E0,9.475597E0,1.002434E1,4.4874268E0,1.0247284E1,1.683276E1,0E0,8.570198E0,0E0,7.6652565E0,0E0,1.2927057E1,5.7457876E0,9.687197E-1,1.3754982E1,5.23133E0,1.090891E1,9.956652E0,1.8782461E1,1.6021545E1,0E0,6.6100616E0,1.0311722E1,1.1445698E1,5.1010246E0,1.1509004E1,8.443598E0,5.2985E0,1.4492069E1,8.1152725E0,1.0029209E1,1.2440205E1,5.2205343E0,4.23279E0,6.5497355E0,8.077181E0,9.422982E0,1.2131546E1,0E0,0E0,0E0,8.25154E0,0E0,0E0,1.6910896E0,0E0,5.575184E0,0E0,0E0,7.745757E-1,0E0,0E0,0E0,0E0,1.1103031E1,2.1582256E1,2.002697E0,0E0,0E0,4.714081E0,1.3100563E1,9.648785E0,5.12204E0,6.68965E0,0E0,0E0,8.115265E0,1.99076E0,1.2408532E1,1.3008545E1,7.6299744E0,1.7066897E0,4.202915E0,0E0,0E0,3.3488674E0,0E0,0E0,2.2580795E0,3.2614613E0,0E0,0E0,5.993405E0,0E0,1.2322738E1,2.1787338E0,1.5378361E1,1.2691954E1,6.214351E0,5.1823273E0,0E0,6.6990166E0,1.1068958E1,0E0,0E0,0E0,0E0,0E0,8.976982E0,1.2756859E1,0E0,0E0,0E0,7.5929136E0,2.0859966E0,0E0,6.8381557E0,8.007137E0,9.80249E0,1.4590549E1,3.8901443E0,0E0,9.686949E-1,7.029337E0,1.2272803E1,0E0,0E0,0E0,0E0,6.712098E-1,0E0,0E0,0E0,8.128724E0,9.261572E0,1.3557588E1,5.1334534E0,0E0,7.7652674E0,5.6301513E0,4.999082E0,1.2370773E1,0E0,0E0,0E0,1.9109249E0,0E0,0E0,0E0,0E0,0E0,0E0,8.566467E0,5.138606E0,5.396385E0,0E0,0E0,0E0,0E0,0E0,0E0,0E0,1.0694054E1,0E0,1.2752319E1,1.2397751E1,0E0,0E0,0E0,4.6495667E0,1.2071295E0,8.845646E0,8.169373E0,1.7066882E0,0E0,4.6808777E0,0E0,0E0,0E0,0E0,0E0,0E0,1.9707546E0,1.9553057E1,1.243993E1,0E0,7.416397E0,0E0,0E0,0E0,0E0,0E0,0E0,0E0,0E0,0E0,0E0,0E0,0E0,0E0,7.955592E0,5.8950496E0,0E0,0E0,9.214949E0,1.1661582E1,8.829255E0,1.0131628E1,0E0,0E0,4.9820633E0,0E0,5.2142606E0,0E0,7.2022214E0,6.204979E0,0E0,3.2188044E0,1.3418544E1,5.877243E0,3.7798285E0,0E0,0E0,0E0,0E0,0E0,0E0,0E0,6.171997E0,0E0,3.9611568E0,7.5036335E-1,4.365284E0,0E0,0E0,0E0,3.00239E0,0E0,0E0,0E0,0E0,0E0,1.135189E0,0E0,0E0,4.212325E0,1.028343E1,1.0818716E1,2.2686157E0,0E0,6.2914677E0,0E0,0E0,0E0,0E0,0E0,8.442932E0,0E0,0E0,0E0,8.875153E0,4.0160975E0,0E0,0E0,0E0,0E0,7.9093094E0,0E0,7.6926804E0,4.923335E0,5.455823E0,6.3705063E0,5.149338E0,7.787592E0,0E0,0E0,4.945777E0,5.381242E0,0E0,6.589241E0,0E0,0E0,4.4590454E0,5.313364E0,0E0,0E0,2.497263E0,9.667204E0,1.1305098E1,0E0,3.1914673E0,5.253547E0,4.4824085E0,3.8002768E0,0E0,0E0,1.9680004E0,5.9246078E0,3.8886929E0,5.5324926E0,3.223908E-1,1.0701427E0,9.486671E0,7.6905785E0,0E0,3.9556732E0,0E0,0E0,0E0,0E0,0E0,5.253522E0,0E0,0E0,0E0,3.218813E0,5.253547E0,5.2160645E0,0E0,0E0,0E0,4.7123413E0,0E0,0E0,0E0,0E0,0E0,3.2436993E0,0E0,0E0,0E0,0E0,0E0,0E0,1.178069E1,6.8047853E0,3.9060898E0,1.0952286E1,0E0,0E0,0E0,0E0,5.2761497E0,0E0,0E0,6.483612E0,0E0,0E0,0E0,4.9064674E0,0E0,9.821156E0,0E0,0E0,0E0,0E0,8.376188E0,0E0,2.7300568E0,5.843375E0,0E0,0E0,0E0,0E0,0E0,0E0,7.5255656E0,4.10421E0,3.557373E0,0E0,0E0,0E0,0E0,0E0,7.389719E0,6.481379E0,0E0,2.883472E0,1.8299866E0,0E0,0E0,0E0,0E0,0E0,0E0,0E0,0E0,0E0,0E0,0E0,0E0,0E0,0E0,0E0,0E0,0E0,0E0,0E0,0E0,0E0,0E0,4.9573326E0,0E0,2.5365906E0,0E0,0E0,0E0,0E0,0E0,0E0,5.2970123E0,0E0,0E0,3.2085571E0,0E0,0E0,1.2189214E1,7.4930525E-1,0E0,0E0,2.2039375E0,0E0,7.976742E-1,0E0,0E0,0E0,2.4993896E0,5.7231703E0,4.417042E0,0E0,0E0,4.2203355E-1,0E0,0E0,0E0,0E0,0E0,0E0,0E0,0E0,3.977211E0,0E0,0E0,3.6069336E0,0E0,1.5966301E0,0E0,0E0,0E0,0E0,0E0,0E0,2.1788902E0,0E0,0E0,0E0,0E0,2.196045E0,3.227417E0,0E0,0E0,7.4466343E0,0E0,0E0,0E0,0E0,0E0,0E0,2.5947723E0,0E0,0E0,0E0,0E0,0E0,0E0,0E0,0E0,0E0,0E0,3.135315E0,0E0,0E0,0E0,0E0,1.1504211E0,0E0,3.2600098E0,0E0,4.741583E0,0E0,0E0,0E0,3.0526733E0,0E0,7.859802E-2,0E0,3.2930908E0,0E0,0E0,0E0,2.7623596E0,0E0,0E0,4.861827E-1,0E0,2.4899292E0,0E0,1.8885193E0,0E0,0E0,2.5230713E0,0E0,0E0,1.7538147E0,0E0,2.5568237E0,1.3922119E0,5.887315E0,1.6011963E0,0E0,0E0,0E0,0E0,0E0,5.6744385E-1,2.4812686E0,2.0446777E-2,8.120811E-1,0E0,0E0,0E0,2.8747559E-2,0E0,0E0,2.2827148E-2,0E0,3.2714844E-2,0E0,0E0,0E0],"parents":[2147483647,0,0,1,1,2,2,3,3,4,4,5,5,6,6,7,7,8,8,9,9,10,10,11,11,12,12,13,13,14,14,15,15,16,16,17,17,18,18,19,19,20,20,21,21,22,22,23,23,24,24,25,25,26,26,27,27,28,28,29,29,30,30,31,31,32,32,33,33,34,34,35,35,36,36,37,37,38,38,39,39,40,40,41,41,42,42,44,44,47,47,48,48,49,49,50,50,51,51,52,52,53,53,54,54,55,55,56,56,57,57,58,58,59,59,60,60,61,61,62,62,64,64,67,67,68,68,69,69,70,70,71,71,72,72,73,73,74,74,75,75,76,76,77,77,78,78,79,79,80,80,81,81,82,82,83,83,84,84,88,88,89,89,90,90,91,91,92,92,93,93,94,94,97,97,98,98,99,99,100,100,101,101,102,102,104,104,106,106,108,108,109,109,110,110,111,111,112,112,113,113,114,114,115,115,116,116,118,118,119,119,120,120,121,121,122,122,123,123,124,124,125,125,126,126,127,127,128,128,129,129,130,130,131,131,132,132,133,133,134,134,138,138,141,141,143,143,146,146,151,151,152,152,153,153,156,156,157,157,158,158,159,159,160,160,163,163,164,164,165,165,166,166,167,167,168,168,169,169,172,172,175,175,176,176,179,179,181,181,182,182,183,183,184,184,185,185,186,186,188,188,189,189,195,195,196,196,200,200,201,201,203,203,204,204,205,205,206,206,207,207,209,209,210,210,211,211,216,216,220,220,221,221,222,222,223,223,225,225,226,226,227,227,228,228,232,232,239,239,240,240,241,241,249,249,251,251,252,252,256,256,257,257,258,258,259,259,260,260,262,262,269,269,270,270,271,271,273,273,287,287,288,288,291,291,292,292,293,293,294,294,297,297,299,299,301,301,302,302,304,304,305,305,306,306,307,307,315,315,317,317,318,318,319,319,323,323,329,329,332,332,333,333,334,334,335,335,337,337,343,343,347,347,348,348,353,353,355,355,356,356,357,357,358,358,359,359,360,360,363,363,364,364,366,366,369,369,370,370,373,373,374,374,375,375,377,377,378,378,379,379,380,380,383,383,384,384,385,385,386,386,387,387,388,388,389,389,390,390,392,392,398,398,402,402,403,403,404,404,408,408,414,414,421,421,422,422,423,423,424,424,429,429,432,432,436,436,438,438,443,443,445,445,446,446,453,453,454,454,455,455,461,461,462,462,464,464,465,465,488,488,490,490,497,497,500,500,503,503,504,504,507,507,509,509,513,513,514,514,515,515,518,518,527,527,530,530,532,532,539,539,544,544,545,545,548,548,555,555,566,566,571,571,573,573,575,575,579,579,581,581,583,583,587,587,590,590,592,592,594,594,597,597,600,600,602,602,603,603,604,604,605,605,611,611,612,612,613,613,614,614,618,618,621,621,623,623],"right_children":[2,4,6,8,10,12,14,16,18,20,22,24,26,28,30,32,34,36,38,40,42,44,46,48,50,52,54,56,58,60,62,64,66,68,70,72,74,76,78,80,82,84,86,-1,88,-1,-1,90,92,94,96,98,100,102,104,106,108,110,112,114,116,118,120,-1,122,-1,-1,124,126,128,130,132,134,136,138,140,142,144,146,148,150,152,154,156,158,-1,-1,-1,160,162,164,166,168,170,172,-1,-1,174,176,178,180,182,184,-1,186,-1,188,-1,190,192,194,196,198,200,202,204,206,-1,208,210,212,214,216,218,220,222,224,226,228,230,232,234,236,238,240,-1,-1,-1,242,-1,-1,244,-1,246,-1,-1,248,-1,-1,-1,-1,250,252,254,-1,-1,256,258,260,262,264,-1,-1,266,268,270,272,274,276,278,-1,-1,280,-1,-1,282,284,-1,-1,286,-1,288,290,292,294,296,298,-1,300,302,-1,-1,-1,-1,-1,304,306,-1,-1,-1,308,310,-1,312,314,316,318,320,-1,322,324,326,-1,-1,-1,-1,328,-1,-1,-1,330,332,334,336,-1,338,340,342,344,-1,-1,-1,346,-1,-1,-1,-1,-1,-1,348,350,352,-1,-1,-1,-1,-1,-1,-1,354,-1,356,358,-1,-1,-1,360,362,364,366,368,-1,370,-1,-1,-1,-1,-1,-1,372,374,376,-1,378,-1,-1,-1,-1,-1,-1,-1,-1,-1,-1,-1,-1,-1,380,382,-1,-1,384,386,388,390,-1,-1,392,-1,394,-1,396,398,-1,400,402,404,406,-1,-1,-1,-1,-1,-1,-1,408,-1,410,412,414,-1,-1,-1,416,-1,-1,-1,-1,-1,418,-1,-1,420,422,424,426,-1,428,-1,-1,-1,-1,-1,430,-1,-1,-1,432,434,-1,-1,-1,-1,436,-1,438,440,442,444,446,448,-1,-1,450,452,-1,454,-1,-1,456,458,-1,-1,460,462,464,-1,466,468,470,472,-1,-1,474,476,478,480,482,484,486,488,-1,490,-1,-1,-1,-1,-1,492,-1,-1,-1,494,496,498,-1,-1,-1,500,-1,-1,-1,-1,-1,502,-1,-1,-1,-1,-1,-1,504,506,508,510,-1,-1,-1,-1,512,-1,-1,514,-1,-1,-1,516,-1,518,-1,-1,-1,-1,520,-1,522,524,-1,-1,-1,-1,-1,-1,526,528,530,-1,-1,-1,-1,-1,532,534,-1,536,538,-1,-1,-1,-1,-1,-1,-1,-1,-1,-1,-1,-1,-1,-1,-1,-1,-1,-1,-1,-1,-1,-1,540,-1,542,-1,-1,-1,-1,-1,-1,544,-1,-1,546,-1,-1,548,550,-1,-1,552,-1,554,-1,-1,-1,556,558,560,-1,-1,562,-1,-1,-1,-1,-1,-1,-1,-1,564,-1,-1,566,-1,568,-1,-1,-1,-1,-1,-1,570,-1,-1,-1,-1,572,574,-1,-1,576,-1,-1,-1,-1,-1,-1,578,-1,-1,-1,-1,-1,-1,-1,-1,-1,-1,580,-1,-1,-1,-1,582,-1,584,-1,586,-1,-1,-1,588,-1,590,-1,592,-1,-1,-1,594,-1,-1,596,-1,598,-1,600,-1,-1,602,-1,-1,604,-1,606,608,610,612,-1,-1,-1,-1,-1,614,616,618,620,-1,-1,-1,622,-1,-1,624,-1,626,-1,-1,-1],"split_conditions":[-5.3101175E-2,-1.0423768E-1,8.962738E-2,7.9916745E-2,2.6706696E-2,-7.8741595E-2,3.2141498E-1,-8.244734E-2,1.10221006E-1,-2.0212242E-1,1.2462969E-1,9.7371414E-2,-2.638468E-1,-3.0286527E-1,5.9736498E-2,2.630024E-1,6.2805824E-2,2.1978801E-2,-1.0775425E-2,2.1421541E-1,8.834964E-2,-3.479317E-1,-3.5227427E-1,-1.2050365E-1,8.426965E-2,-2.0242989E-1,2.5034416E-1,4.3541172E-1,-1.7056113E-1,2.631611E-1,-1.4112014E-1,1.7128825E-1,5.5225343E-3,-9.374238E-2,-7.2289936E-2,-4.6671194E-1,3.8923407E-1,-7.7720106E-2,3.4021422E-1,-5.878907E-2,1.108415E-1,1.3164303E-1,-2.3823154E-1,9.3337465E-3,-4.0730435E-1,5.8814492E-2,-5.2905906E-2,-1.9201452E-1,-1.7909898E-1,-8.265029E-2,5.4645956E-2,-3.1997564E-1,-1.7425752E-1,3.577286E-1,-7.619329E-1,-3.474999E0,-2.9362413E-1,3.1608054E-1,5.136573E-1,2.2698576E-2,-6.983003E-2,-5.0719064E-1,-1.503354E-1,-4.830664E-2,2.1529412E-1,2.6172668E-2,-7.982533E-2,-2.3584661E-1,1.4475681E-2,-5.2201617E-1,3.4896964E-1,-2.194118E-2,-4.4027564E-1,-1.454985E-1,2.4629039E-1,-1.3523242E-1,2.936174E-1,1.0078876E-1,-5.4170465E-1,-2.8866434E-1,6.9698565E-2,3.25713E-1,8.989952E-2,-4.0462297E-1,-8.1132765E0,7.065742E-2,-3.265304E-2,8.762447E-3,2.8463382E-1,1.1456727E-1,1.7382783E-1,8.274212E-2,1.9989818E-1,1.3096173E-1,-1.1315472E-1,1.169681E-2,-8.576243E-2,-4.272051E-1,2.4377635E-1,-1.2749767E-1,-2.030544E-1,6.358454E-2,1.16004445E-1,3.2618325E-2,-1.1045809E-1,5.40359E-2,-5.4755457E-2,-7.071544E-2,-1.7443037E-1,-2.9428154E-1,1.5009795E-1,-5.448752E-2,-6.3278824E-2,-4.257043E-1,-2.248098E-2,2.254695E-1,1.06442876E-1,-2.3281565E-2,6.3141957E-3,-2.7859023E-1,-1.8575032E-1,6.1426595E-2,-2.360549E-1,-1.4171034E-1,2.3253508E0,-2.1935993E-1,6.03158E-1,8.788769E-2,-4.7674868E-1,2.6681492E-1,-1.2402013E-1,1.3162125E-2,1.8935898E-1,-6.878516E-1,6.905069E-2,2.0404814E-2,-7.87405E-2,-5.7753384E-2,-7.054743E-2,1.115271E-2,-6.851777E-2,-2.0874049E-1,-5.431391E-2,1.857796E-1,3.256173E-2,-5.797882E-2,6.971887E-2,3.3974647E-8,-8.649524E-2,-6.894143E-2,7.226496E-2,8.426776E-2,1.7176446E-1,-5.691387E-1,-1.634525E-2,3.8809482E-2,-4.5712912E-1,-4.3381255E-2,5.9063596E-1,-1.3890302E-1,8.99396E-2,7.413927E-2,-1.0027073E-2,-2.7848512E-1,-1.9166512E-2,-2.1548939E-1,-1.4200641E-1,3.2877648E-1,-3.641756E-1,-2.1044394E-1,-7.8580394E-2,7.9264335E-2,2.891276E-2,1.0332077E-2,-5.8915664E-2,-2.0427147E-1,2.6055224E-2,-5.403583E-2,7.690003E-2,-2.2127585E-1,-8.2612626E-2,-1.2177154E-2,-2.1643123E-1,-9.023422E-2,5.068125E-2,7.765312E-2,3.4587163E-1,3.3325534E-2,1.3765518E-1,1.6326497E-1,-6.4492926E-2,-7.903225E-2,2.0425405E-2,-3.062183E-7,5.823196E-2,-1.0931156E-1,-2.5171125E-1,-6.8876706E-2,3.2643627E-2,6.6890724E-2,-1.5085687E-1,-4.092095E-1,-3.8809415E-2,1.0682529E-1,-1.7730626E-1,2.6473814E-1,-2.93127E-1,2.078237E-1,-2.0093111E-2,3.4749433E-3,2.6203638E-1,3.978138E-1,-6.250281E-2,8.68188E-2,-1.0656281E-2,6.387927E-2,2.7615893E-1,5.8314253E-2,-5.9531063E-2,-9.166936E-2,1.8758762E-1,-3.725163E-2,-9.0308934E-2,1.852425E-1,3.231609E-2,8.444695E-2,4.6046484E-1,-1.3922838E0,-1.2177713E-1,-6.855809E-2,3.2818124E-2,-1.1502443E-2,6.8656504E-2,-2.683109E-2,7.157364E-2,-7.3744945E-2,3.7749145E-2,5.9309125E-2,-6.8598814E-2,3.245737E-1,-5.1847532E-2,-3.2896227E-1,-3.251649E-2,1.0630645E-2,8.3835095E-2,-8.9559264E-2,1.1890775E-2,1.0364736E-2,6.727839E-2,-1.6632792E-2,5.8959674E-2,4.816427E-1,2.3442632E-1,1.0098905E-2,8.659274E-2,-6.8768985E-3,5.4630107E-1,3.3067092E-1,-1.7085072E-1,-2.051734E-1,-1.7031145E-1,1.117102E-2,6.893103E-1,-6.45898E-2,4.4022992E-2,-8.241635E-2,3.2412503E-2,5.8565166E-2,-1.1404415E-2,-5.4238147E-1,-3.850815E-1,-3.156867E-1,-5.8232266E-2,2.7768412E-1,-1.9401146E-2,-5.438412E-2,1.1363824E-2,-3.2605715E-2,6.155944E-2,-5.538494E-2,3.1817835E-2,1.0421194E-2,8.9879066E-2,3.1640794E-2,-5.4388817E-2,5.5141784E-2,-5.7453968E-2,2.3678845E-1,9.872347E-2,-1.0448635E-2,-8.907691E-2,2.857433E-1,2.9561192E-1,3.90906E-2,-3.9000112E-1,-4.7790013E-2,5.8991987E-2,-3.7743306E-1,1.1905305E-2,-3.2698604E-1,-8.662725E-2,1.4143415E-1,-3.144032E-1,6.1651953E-2,-2.0591384E-1,2.9071242E-1,-2.2537431E-1,1.239293E-1,-7.778055E-2,9.4911335E-3,8.66102E-2,8.509008E-2,-1.9401146E-2,3.8809482E-2,-7.5926185E-2,-3.0649614E-1,-3.2412443E-2,-1.2955819E-1,-9.288231E-2,2.785346E-1,-8.248764E-4,2.8312206E-8,5.823196E-2,-2.6144588E-1,3.301149E-2,8.0306835E-2,-3.781052E-2,-1.0295528E-2,-6.460827E-2,2.1262568E-1,5.4187622E-2,-5.3923238E-2,5.6306105E-2,3.3012128E-1,1.281284E-1,8.539666E-2,1.0968168E-2,4.535978E-1,-3.971851E-2,-7.140455E-2,2.6346086E-2,-3.236111E-2,6.801699E-2,4.9176297E-1,3.739398E-2,8.6112596E-2,1.0401047E-2,-2.4670863E-1,1.6727364E-1,3.8316645E-2,-6.1718512E-2,-8.216228E-3,8.446402E-2,-2.4247137E-1,4.367543E-2,-2.139326E-1,-4.20736E-2,2.4689826E-1,1.1189637E-1,-2.9514134E-2,-5.160176E-1,-7.608398E-2,-1.05483765E-2,3.4766182E-1,1.29406E-1,2.7210383E-2,-4.978274E-1,-1.1363755E-2,5.438419E-2,4.277403E0,8.5879005E-2,-3.062183E-7,-7.689994E-2,6.914619E-2,-3.949728E-2,-9.277791E-3,8.789667E-2,5.5962324E-1,-6.289148E-2,-2.5214517E-2,1.4969376E-1,-2.5863558E-2,7.328182E-2,-6.1916232E-2,2.640512E-1,-8.2356974E-2,-5.681449E-1,1.6132398E-2,3.5158315E-1,1.6682638E-1,-2.2864306E-1,-7.007979E-3,-8.4339494E-1,-5.301532E-2,5.46703E-2,-6.689065E-2,4.4022992E-2,8.712788E-2,-1.8782148E-1,1.1548101E-2,-7.252427E-2,6.578201E-2,3.529103E-1,-3.0201858E-2,-1.9306816E-2,5.8126837E-2,-3.2588534E-2,3.379004E-8,-2.4215738E-1,-1.1038703E-2,7.946624E-2,-6.755479E-2,-1.0801961E-2,8.91549E-2,-1.6655865E-1,-8.035476E-3,-8.491018E-2,-7.377186E-2,-9.915117E-3,8.173247E-2,-1.0875568E-2,1.1860669E-2,-3.7280107E-1,1.9370723E-1,1.9530599E-1,-9.071811E-2,-1.0888349E-2,8.4485054E-2,-7.233376E-3,3.2744473E-1,3.235438E-2,-1.5716434E-2,1.6768721E-1,-5.4061413E-2,3.823277E-2,3.3653047E-2,2.0940652E-1,8.815399E-2,-1.977759E-1,3.186218E-2,-6.783805E-2,-3.2069985E-2,7.087105E-2,1.02808595E-1,-7.972371E-2,-1.2840442E-1,2.1225672E-2,5.5248886E-2,-6.687118E-2,-6.753928E-2,3.227927E-2,-1.9066932E-2,7.529905E-2,4.868087E-1,-7.604855E-2,-5.660233E-1,1.326965E-3,-6.2056433E-2,3.9549213E-2,2.8312206E-8,8.381451E-2,3.1165206E-1,-3.5766283E-1,7.07153E-2,3.4309238E-1,1.0206665E-1,2.8312206E-8,5.40359E-2,-5.4036047E-2,-8.118381E-2,1.1468225E-2,5.8941722E-2,-3.214119E-2,8.743985E-2,1.0743524E-2,5.3801525E-2,-5.2122463E-2,1.0404329E-2,-7.960641E-2,-3.247277E-2,7.1129754E-2,-5.3907216E-2,-1.0339872E-2,1.0696795E-2,7.394487E-2,6.0073204E-2,-6.0983535E-2,3.244655E-2,4.0408987E-1,-8.081507E-3,8.064439E-1,-5.403583E-2,5.40359E-2,-7.252437E-2,1.1548101E-2,5.40359E-2,-5.4036047E-2,-5.6103736E-1,3.379004E-8,3.3974647E-8,4.9304643E-1,5.3088713E-2,-3.255625E-2,-2.6035038E-1,-2.412904E-1,2.6288936E-2,-7.381086E-2,3.0466852E-1,7.9534034E-4,1.2823129E-2,-6.697091E-2,-8.846356E-2,1.0284349E-2,1.9326818E-1,1.2470532E-1,6.1266196E-1,1.1547338E-2,6.438651E-2,-3.8683392E-2,6.2018394E-2,-6.1436027E-2,-9.530238E-3,-9.2844814E-2,3.9881773E-2,-6.493373E-2,4.86226E-2,-6.3628726E-2,3.821983E-1,1.796648E-4,-8.350587E-3,-2.9128873E-1,2.3009086E-2,6.5764135E-1,-3.8368188E-2,6.488504E-2,-6.922247E-2,1.1512975E-2,9.220062E-2,1.9400906E-2,-1.4399048E-2,1.13759935E-2,-9.222179E-2,-1.0398086E-2,-1.0802624E-2,4.4864264E-1,1.1926212E-1,1.6254414E-2,-6.1393052E-2,1.1616839E0,-6.6694014E-2,-1.0425139E-2,-8.924653E-2,-1.0341358E-2,1.0036709E-2,6.721377E-2,4.7730902E-1,1.0375232E-2,6.04614E-2,-3.250612E-2,-9.0488724E-2,-4.17846E-4,-1.0931264E-2,-5.876025E-2,-9.0096205E-2,-7.414607E-3,-8.534889E-3,7.8737617E-1,-8.205014E-2,-1.0436705E-2,-1.0771393E-2,-8.956511E-2,1.4409408E-1,1.0802374E-2,4.4943333E-1,-3.062183E-7,-4.1272715E-1,-2.691043E-2,9.317671E-2,1.0583918E-2,3.2730237E-1,-1.501347E-2,3.9367405E-1,2.6408156E-2,-4.0278053E-1,-3.062183E-7,-1.1906966E-2,8.2734175E-2,-3.0534542E-1,-1.6026756E-2,9.272959E-2,-1.0102295E-1,2.8312206E-8,4.9796492E-1,-2.0956984E-2,-5.159841E-1,5.7168793E-2,9.2231585E-3,-2.1497665E-1,1.0802683E-2,-1.782434E-2,1.6123627E-1,1.0802374E-2,8.7184656E-1,4.3395463E-1,-1.6114937E-2,3.5495648E-1,1.0802683E-2,-9.104855E-2,-2.5432521E-2,3.323318E-2,-7.265871E-2,2.737062E-1,-2.6511258E-1,-1.4500384E-1,-5.718497E-1,-1.2373759E-2,6.3458696E-2,3.1008229E-2,5.167311E-1,5.4155786E-2,2.8312206E-8,5.688036E-1,3.1020764E-2,-6.312193E-1,3.115891E-2,3.1159258E-2,9.4576254E-2],"split_indices":[531,147,235,235,424,424,545,386,424,666,501,325,147,635,424,499,249,161,296,192,716,669,49,235,196,161,167,425,249,425,195,509,590,11,585,253,6,577,376,267,328,1,440,0,351,0,0,310,635,95,153,9,685,85,450,142,447,1,499,79,707,455,764,0,557,0,0,430,255,618,85,500,265,63,678,105,727,175,264,76,377,72,12,118,752,0,0,0,231,397,642,230,416,550,412,0,0,204,239,486,554,761,158,0,649,0,500,0,476,605,22,337,92,375,684,82,354,0,591,359,146,195,494,741,588,424,586,292,291,166,710,320,727,461,120,0,0,0,689,0,0,34,0,598,0,0,290,0,0,0,0,265,158,0,0,0,759,507,281,621,47,0,0,523,12,105,578,469,9,9,0,0,135,0,0,607,97,0,0,455,0,37,568,313,575,38,76,0,89,649,0,0,0,0,0,687,48,0,0,0,62,139,0,41,147,161,375,150,0,1,348,374,0,0,0,0,340,0,0,0,742,366,414,217,0,335,136,381,264,0,0,0,587,0,0,0,0,0,0,290,127,625,0,0,0,0,0,0,0,316,0,511,391,0,0,0,93,111,207,339,9,0,509,0,0,0,0,0,0,342,618,266,0,236,0,0,0,0,0,0,0,0,0,0,0,0,0,731,491,0,0,254,13,257,618,0,0,150,0,51,0,723,197,0,22,57,95,29,0,0,0,0,0,0,0,249,0,171,9,254,0,0,0,643,0,0,0,0,0,42,0,0,215,417,96,520,0,346,0,0,0,0,0,124,0,0,0,269,242,0,0,0,0,737,0,398,153,603,663,373,549,0,0,186,678,0,342,0,0,205,189,0,0,1,331,210,0,571,163,56,31,0,0,380,545,34,605,22,69,10,372,0,726,0,0,0,0,0,66,0,0,0,94,86,582,0,0,0,642,0,0,0,0,0,44,0,0,0,0,0,0,139,530,464,340,0,0,0,0,357,0,0,416,0,0,0,91,0,311,0,0,0,0,97,0,543,387,0,0,0,0,0,0,17,645,112,0,0,0,0,0,283,311,0,59,684,0,0,0,0,0,0,0,0,0,0,0,0,0,0,0,0,0,0,0,0,0,0,486,0,766,0,0,0,0,0,0,455,0,0,170,0,0,703,476,0,0,641,0,130,0,0,0,105,671,474,0,0,26,0,0,0,0,0,0,0,0,500,0,0,167,0,67,0,0,0,0,0,0,36,0,0,0,0,58,307,0,0,360,0,0,0,0,0,0,558,0,0,0,0,0,0,0,0,0,0,767,0,0,0,0,587,0,395,0,336,0,0,0,593,0,200,0,28,0,0,0,469,0,0,5,0,35,0,706,0,0,323,0,0,388,0,766,718,318,228,0,0,0,0,0,657,9,128,311,0,0,0,550,0,0,79,0,300,0,0,0],"split_type":[0,0,0,0,0,0,0,0,0,0,0,0,0,0,0,0,0,0,0,0,0,0,0,0,0,0,0,0,0,0,0,0,0,0,0,0,0,0,0,0,0,0,0,0,0,0,0,0,0,0,0,0,0,0,0,0,0,0,0,0,0,0,0,0,0,0,0,0,0,0,0,0,0,0,0,0,0,0,0,0,0,0,0,0,0,0,0,0,0,0,0,0,0,0,0,0,0,0,0,0,0,0,0,0,0,0,0,0,0,0,0,0,0,0,0,0,0,0,0,0,0,0,0,0,0,0,0,0,0,0,0,0,0,0,0,0,0,0,0,0,0,0,0,0,0,0,0,0,0,0,0,0,0,0,0,0,0,0,0,0,0,0,0,0,0,0,0,0,0,0,0,0,0,0,0,0,0,0,0,0,0,0,0,0,0,0,0,0,0,0,0,0,0,0,0,0,0,0,0,0,0,0,0,0,0,0,0,0,0,0,0,0,0,0,0,0,0,0,0,0,0,0,0,0,0,0,0,0,0,0,0,0,0,0,0,0,0,0,0,0,0,0,0,0,0,0,0,0,0,0,0,0,0,0,0,0,0,0,0,0,0,0,0,0,0,0,0,0,0,0,0,0,0,0,0,0,0,0,0,0,0,0,0,0,0,0,0,0,0,0,0,0,0,0,0,0,0,0,0,0,0,0,0,0,0,0,0,0,0,0,0,0,0,0,0,0,0,0,0,0,0,0,0,0,0,0,0,0,0,0,0,0,0,0,0,0,0,0,0,0,0,0,0,0,0,0,0,0,0,0,0,0,0,0,0,0,0,0,0,0,0,0,0,0,0,0,0,0,0,0,0,0,0,0,0,0,0,0,0,0,0,0,0,0,0,0,0,0,0,0,0,0,0,0,0,0,0,0,0,0,0,0,0,0,0,0,0,0,0,0,0,0,0,0,0,0,0,0,0,0,0,0,0,0,0,0,0,0,0,0,0,0,0,0,0,0,0,0,0,0,0,0,0,0,0,0,0,0,0,0,0,0,0,0,0,0,0,0,0,0,0,0,0,0,0,0,0,0,0,0,0,0,0,0,0,0,0,0,0,0,0,0,0,0,0,0,0,0,0,0,0,0,0,0,0,0,0,0,0,0,0,0,0,0,0,0,0,0,0,0,0,0,0,0,0,0,0,0,0,0,0,0,0,0,0,0,0,0,0,0,0,0,0,0,0,0,0,0,0,0,0,0,0,0,0,0,0,0,0,0,0,0,0,0,0,0,0,0,0,0,0,0,0,0,0,0,0,0,0,0,0,0,0,0,0,0,0,0,0,0,0,0,0,0,0,0,0,0,0,0,0,0,0,0,0,0,0,0,0,0,0,0,0,0,0,0,0,0,0,0,0,0,0,0,0,0,0,0,0,0,0,0,0,0,0,0,0],"sum_hessian":[1.4544321E3,7.2174744E2,7.3268475E2,3.3894406E2,3.8280338E2,3.1672137E2,4.159634E2,2.0067493E2,1.3826912E2,2.1064705E2,1.7215631E2,1.4874757E2,1.6797379E2,1.1206876E2,3.0389465E2,3.069782E1,1.699771E2,1.0481757E2,3.345155E1,9.161127E1,1.1903578E2,1.6941016E2,2.746165E0,1.2453359E2,2.4213987E1,3.494478E1,1.33029E2,4.1182022E1,7.088674E1,2.5072786E2,5.3166794E1,2.4208305E1,6.489515E0,1.14811455E2,5.5165646E1,8.2850395E1,2.1967176E1,1.1987279E1,2.1464272E1,2.1712627E1,6.9898636E1,1.1504062E2,3.9951606E0,1.7476654E0,1.6766249E2,1.4991615E0,1.2470036E0,1.8724928E1,1.0580866E2,1.4481737E1,9.73225E0,2.0965073E1,1.3979707E1,8.362093E1,4.9408073E1,1.9714697E1,2.1467325E1,8.490982E0,6.239576E1,2.1218513E1,2.2950934E2,2.7952007E1,2.5214788E1,1.9969261E0,2.221138E1,1.7463238E0,4.743191E0,4.093145E1,7.3880005E1,4.093759E1,1.4228056E1,1.3477342E1,6.9373055E1,8.488857E0,1.347832E1,3.4959505E0,8.491329E0,1.6470558E1,4.993714E0,1.6220024E1,5.4926033E0,5.7668392E1,1.2230246E1,6.461993E1,5.0420696E1,2.7461364E0,1.2490242E0,1.7485222E0,1.6591396E2,4.994948E0,1.372998E1,5.2665672E1,5.314299E1,7.4896364E0,6.992101E0,1.2488775E0,8.483373E0,2.747454E0,1.8217619E1,5.242643E0,8.737063E0,3.119979E1,5.2421146E1,1.2485708E0,4.81595E1,1.249036E0,1.8465662E1,2.7463138E0,1.8721012E1,5.9923277E0,2.4986546E0,5.8650078E1,3.7456813E0,9.23796E0,1.1980555E1,1.4727646E1,2.147817E2,2.2481318E0,2.5703875E1,1.3230281E1,1.19845085E1,1.54724E1,6.7389803E0,4.4931674E0,3.6438286E1,5.3914257E1,1.9965746E1,1.5227388E1,2.5710201E1,3.7434115E0,1.0484644E1,6.736668E0,6.7406735E0,3.994139E0,6.5378914E1,1.4985437E0,6.9903135E0,2.745293E0,1.0733027E1,1.2480083E0,2.2479422E0,7.242894E0,1.2484345E0,1.5221167E1,1.2493912E0,1.4980699E0,3.495644E0,1.5E0,1.4720023E1,2.496818E0,2.9957852E0,2.2220516E1,3.5447876E1,1.0232934E1,1.9973112E0,1.4994001E0,6.3120525E1,1.5727892E1,3.4692802E1,1.6216689E2,3.7470767E0,3.246289E0,1.7486589E0,1.0981907E1,2.7480733E0,2.6961939E1,2.5703735E1,5.0644493E1,2.4984946E0,2.9971547E0,4.4924817E0,4.494137E0,2.4979644E0,1.248112E0,1.4993421E0,1.5720731E1,2.4968884E0,1.2490361E0,3.9936068E0,2.747042E0,5.9900217E0,1.722661E1,1.3973179E1,2.346897E1,2.8952177E1,3.4952543E0,4.4664246E1,1.2492397E0,1.7216421E1,1.6723232E1,1.9977795E0,4.4932637E0,1.4990642E0,1.0000038E0,1.4986508E0,5.9933305E0,5.265675E1,2.4966419E0,1.2490394E0,2.247306E0,6.9906535E0,1.0481154E1,1.4994003E0,9.484068E0,5.2435784E0,2.0529475E2,9.486942E0,2.4205694E1,1.4981798E0,2.4986508E0,1.0731629E1,1.0235517E1,1.7489921E0,1.4225207E1,1.2471921E0,3.4937365E0,3.2452438E0,1.4985764E0,2.9945912E0,3.0696682E1,5.741601E0,7.987624E0,4.5926632E1,1.8717808E1,1.24794E0,1.07338085E1,4.4935803E0,3.4964676E0,2.2213734E1,2.4951873E0,1.2482243E0,1.2481637E0,9.236481E0,1.7474394E0,4.9892287E0,5.243347E0,1.4973263E0,1.4983819E0,2.495757E0,6.213381E1,3.2451067E0,8.735986E0,1.9970411E0,1.2479725E0,5.9949217E0,1.3972616E1,1.2485507E0,1.2478626E0,2.2477815E0,2.072177E1,1.4987464E0,2.0468653E1,1.4979223E1,1.2480099E0,8.984924E0,2.2479377E0,6.087259E1,4.991783E0,1.0736109E1,3.219431E1,2.4984946E0,1.2484524E0,1.6091843E2,1.9979804E0,1.7490964E0,9.732254E0,1.2496529E0,1.4986963E0,1.249377E0,4.993611E0,2.1968327E1,2.4205076E1,1.4986585E0,4.9144646E1,1.4998499E0,1.2490616E0,1.2494332E0,1.2490978E0,1.748057E0,1.2494535E0,1.248511E0,1.2482872E0,1.4472444E1,1.2476287E0,1.2492597E0,1.2498828E0,1.4971591E0,1.248147E1,4.745139E0,1.2474129E0,1.2725766E1,1.348352E1,9.985451E0,6.9883404E0,2.1963837E1,1.996152E0,1.4991021E0,4.341615E1,1.2480971E0,2.4968538E0,1.4719568E1,3.9964025E0,1.272683E1,1.7482295E0,4.245101E0,7.9907193E0,4.466603E1,2.7476048E0,4.2430487E0,1.2484597E0,9.232695E0,7.984218E0,1.4998499E0,1.4994001E0,3.744178E0,2.040451E2,1.249653E0,5.9912786E0,3.4956641E0,2.270782E1,1.497874E0,1E0,1.4986508E0,9.482523E0,1.2491069E0,7.986774E0,2.2487423E0,1.2475884E0,1.9976553E0,4.4926963E0,1.2489051E0,1.2482398E0,6.7393847E0,2.4712473E1,2.1214159E1,1.7470154E1,1.2476528E0,9.2358265E0,1.4979817E0,2.7471027E0,1.7464774E0,1.2479517E0,2.2485158E0,1.9965824E1,2.2479095E0,7.989072E0,1.2474085E0,5.9388126E1,2.7456827E0,1.4970772E0,1.7480296E0,1.747427E0,6.9885592E0,1.897366E1,1.7481085E0,1.6973124E1,3.4955287E0,3.9942756E0,1.0984948E1,5.7376343E1,3.4962456E0,3.744278E0,1.2475051E0,3.495754E0,7.2403555E0,1.7473879E0,3.044692E1,1.2494332E0,1.2490615E0,1.5767052E2,3.247914E0,1.0000038E0,3.993607E0,7.9866185E0,1.3981709E1,6.4924636E0,1.7712612E1,4.664657E1,2.4980757E0,9.734642E0,2.7468288E0,1.7480876E0,2.9970512E0,9.98833E0,3.4951892E0,5.9904976E0,3.9949532E0,2.4955952E0,4.492745E0,4.741556E0,1.722228E1,2.2471168E0,4.1169033E1,1.247252E0,1.2496018E0,2.247306E0,1.7490964E0,1.0228757E1,2.498072E0,1.2491525E0,2.9959483E0,3.7456145E0,4.245105E0,2.4980757E0,4.2167953E1,1.4984825E0,1.2491224E0,1.9987507E0,2.0204636E2,1.2486019E0,4.7426763E0,2.2473907E0,1.2482734E0,2.0211878E1,2.4959428E0,1.7476417E0,7.734881E0,3.2446654E0,1.2480307E0,5.4918127E0,1.2475716E0,1.7723085E1,6.9893875E0,1.5473168E1,5.7409906E0,1.6221863E1,1.2482921E0,6.9893403E0,2.2464862E0,1.8718048E1,1.2477773E0,1.9969032E0,5.7391224E1,1.2489614E0,1.4967213E0,1.2492551E0,1.7724405E1,1.0731821E1,6.2413025E0,1.2474362E0,2.2480927E0,1.248272E0,2.7460036E0,3.4958582E0,7.4890895E0,5.387934E1,3.4970021E0,1.2496382E0,2.2466075E0,2.247768E0,1.2479861E0,1.498342E0,5.742013E0,3.99381E0,2.6453112E1,1.5617303E2,1.4974837E0,1.7483879E0,1.4995261E0,1E0,6.9866185E0,8.987448E0,4.9942613E0,2.746306E0,3.7461576E0,4.564657E1,1E0,1.249036E0,1.2490398E0,8.486025E0,1.2486167E0,1.4990927E0,1.2477361E0,8.740466E0,1.2478635E0,1.2487097E0,2.2464795E0,1.2481557E0,4.742342E0,1.2482274E0,2.7467258E0,1.248024E0,1.2475712E0,1.2472569E0,3.2454882E0,2.9948218E0,1.7467344E0,1.2492197E0,1.5973061E1,1.7470028E0,3.942203E1,1.2490361E0,1.249036E0,2.9959521E0,1.2491525E0,1.249036E0,1.2490398E0,4.0169205E1,1.9987507E0,1.5E0,2.0054636E2,1.2473944E0,1.2485485E0,1.4228723E1,3.494363E0,1.7470407E0,5.242347E0,1.3975339E1,1.4978292E0,3.4941545E0,2.2468362E0,1.7470078E1,1.2479708E0,5.2397728E1,4.993496E0,1.6475555E1,1.2488497E0,3.494369E0,2.7469337E0,1.7484306E0,1.7474277E0,1.2485623E0,5.263078E1,1.499045E0,1.9979571E0,1.9982269E0,1.995583E0,2.4955006E1,1.4981048E0,1.7482632E0,1.5442477E2,2.2476697E0,6.7397776E0,1.4976395E0,3.4966218E0,2.4969463E0,1.2492113E0,4.4146713E1,1.4998537E0,1.4724669E1,1.248391E0,3.8173428E1,1.2486036E0,1.2499614E0,3.8919243E1,1.9854713E2,1.9992191E0,1.7472041E0,1.2481519E1,2.2467232E0,1.2476399E0,1.2727838E1,1.2475014E0,1.2476252E0,2.2465293E0,5.1150078E1,1.2476512E0,2.9956276E0,1.9978682E0,1.4977489E1,1.4980663E0,1.2478181E0,1.4991157E0,2.320723E1,1.7477756E0,1.7478638E0,1.5267691E2,5.491769E0,1.2480087E0,1.2480264E0,1.3476643E1,3.7669277E1,1.2499652E0,1.9754712E2,1.0000038E0,1.073357E1,1.7479484E0,4.990238E1,1.2476964E0,1.5068022E2,1.9966835E0,3.59196E1,1.7496747E0,1.9654712E2,1.0000038E0,1.2486436E0,9.484926E0,1.4868077E2,1.9994504E0,3.317498E1,2.7446222E0,1E0,1.9554712E2,2.246462E0,1.4643431E2,1.4964669E0,1.2481554E0,1.9429716E2,1.2499614E0,1.4968474E0,1.4493747E2,1.2499652E0,1.930472E2,1.4069151E2,4.245947E0,1.9179724E2,1.2499614E0,1.3894466E2,1.7468569E0,1.2490122E0,2.996935E0,1.8855345E2,3.2437818E0,1.8630428E2,2.2491825E0,1.2487192E0,1.9950626E0,1.2474848E0,1.850568E2,1.2491825E0,1E0,1.838093E2,1.2474923E0,1.8256175E2,1.2475351E0,1.2475313E0,1.8131422E2],"tree_param":{"num_deleted":"0","num_feature":"768","num_nodes":"627","size_leaf_vector":"1"}},{"base_weights":[-6.1139883E-4,-6.241411E-1,5.766424E-1,-1.6535456E-1,-1.1394044E0,-2.2984742E-1,9.2943335E-1,4.8664322E-1,-5.3128546E-1,-1.431537E0,-7.756967E-1,2.6493225E-1,-7.4995375E-1,1.9755185E-1,1.213373E0,4.9015176E-2,1.272146E0,-2.5542308E-2,-9.708879E-1,-1.0360596E0,-1.6386627E0,-4.5969966E-1,-1.2547919E0,1.2980818E0,-1.2191444E-2,9.9874385E-2,-1.0618258E0,6.6359043E-1,-4.2360133E-1,1.3903619E0,5.308155E-1,-3.9371547E-1,6.471531E-1,-8.1674755E-2,1.4583838E0,4.5883745E-1,-6.5186375E-1,-1.3620914E0,-4.3335193E-1,4.703413E-2,-1.193754E0,1.044957E-2,-1.660342E0,-8.007384E-1,1.473827E-1,-1.3780657E0,1.1881137E-1,1.5601263E0,-4.8108533E-1,-2.642302E-1,1.0803773E0,-1.1549183E0,4.9347335E-1,-1.311986E0,-2.8861743E-1,2.3099268E-2,9.849322E-1,6.162585E-2,-1.1169647E0,4.1416427E-1,1.5080632E0,9.3070775E-1,-4.5013452E-1,-1.0423797E0,1.2875809E-1,-6.680372E-2,8.272595E-1,-6.450685E-2,8.099605E-1,1.631443E0,2.5708336E-1,-2.2194664E-1,9.981321E-1,-8.4769475E-1,8.309203E-1,2.3160113E-1,-1.445186E0,3.5710007E-1,-8.1735724E-1,8.196183E-1,-5.8609582E-2,-1.4280478E0,-5.0461006E-1,-1.682356E0,1.0275851E-2,-1.2670164E0,-9.772297E-2,-1.1201667E0,5.053806E-1,-1.5696371E0,-4.616653E-1,5.5703837E-2,-4.9579788E-2,-1.0394334E-2,1.6751891E0,3.0718897E-2,-6.003226E-2,-9.078829E-3,-1.2337246E0,-5.7178278E-2,1.3522664E0,1.5309206E-5,-7.783373E-2,9.584623E-1,-8.0494004E-1,1.6161919E-1,-1.4162394E0,-6.6419625E-1,9.9895287E-1,7.318451E-1,-6.6353226E-1,-9.765683E-1,1.1226144E0,1.3755083E0,-2.4602695E-1,-1.2798076E0,2.2102958E-2,9.1007614E-1,-7.3072743E-1,1.5577593E0,4.1455403E-1,4.3311343E-1,1.4223402E0,-9.9485624E-1,3.9800638E-1,-1.243144E0,4.332766E-2,6.6815305E-1,-1.0037589E0,4.002046E-2,1.3660347E0,-1.2358136E-2,6.460728E-2,-1.0734777E-2,1.7024745E0,-8.373276E-1,5.761786E-2,-1.2285247E0,7.6589787E-1,1.2180536E0,-6.919866E-1,9.461238E-2,-1.1276231E0,6.597714E-2,-3.1223802E-2,6.321761E-2,-5.5143513E-2,2.6137898E-2,-1.5034024E0,8.4891343E-1,-9.836513E-1,-1.009263E0,7.1406275E-1,-3.7675176E-2,7.375976E-2,-8.687152E-2,-1.5574E0,1.5973216E-1,-7.198696E-2,-6.6509214E-4,-1.7043115E0,4.4106203E-1,-1.469683E0,1.2543066E0,-5.0938666E-1,3.241244E-2,-7.805707E-2,9.7038096E-1,-5.7611084E-1,1.1932737E-2,-1.6280059E0,9.568253E-1,-1.1351086E0,8.789129E-2,1.0204021E-2,-5.8190155E-1,6.4616644E-1,4.1569088E-2,-1.540131E0,-3.1288072E-2,1.5556366E0,1.2806544E0,-7.85946E-1,-6.793331E-2,3.6829807E-2,-6.1770897E-2,6.48194E-2,-1.4978855E0,2.8510037E-1,2.2585787E-1,-1.1293589E0,7.137242E-2,-1.0470121E-2,1.1040317E0,-8.031468E-1,-1.3407838E0,6.328033E-1,-6.260516E-2,-8.68865E-3,-2.76092E-1,1.3051511E0,7.902212E-2,9.62136E-3,3.301221E-1,-9.306466E-1,-1.4459572E0,2.7064472E-2,1.2113333E0,-7.724558E-1,-1.2239158E0,4.74545E-2,8.219899E-1,1.6251168E0,1.1339715E0,-9.61399E-1,1.032079E0,-3.3865482E-1,1.65379E0,2.2865923E-1,4.2167343E-2,-1.30694E0,-7.378601E-1,1.2768481E0,3.1120244E-2,-1.3928281E0,-6.1982214E-1,1.2218454E0,-1.4170431E0,3.794265E-2,-8.7113744E-1,8.1656367E-1,-3.21729E-2,1.5283532E0,1.7781702E0,-4.191857E-4,-1.0934376E-2,-5.4115396E-2,3.0467236E-2,-1.4444051E0,-8.1017685E-1,1.138584E0,1.4436135E0,1.7602061E-3,3.1558737E-2,-6.721314E-2,6.583425E-2,-7.9242873E-1,-1.20859995E-1,-1.3612316E0,-1.0459031E-1,-1.5605791E0,-5.229311E-1,1.3017265E0,-7.056252E-2,1.2999457E-2,-1.1454087E0,5.7237614E-2,-3.1242585E-2,6.848741E-2,-6.1850734E-2,5.988976E-2,1.105174E-2,-1.6236055E0,7.302052E-1,-6.469431E-2,-8.927721E-3,-1.7196846E0,6.588082E-2,-5.118964E-2,1.5921224E-2,-1.600795E0,9.695697E-3,7.456945E-2,-1.2318331E0,2.9932162E-1,-5.472964E-2,1.2061399E0,4.7920644E-2,-1.1733195E0,-6.6697747E-3,-1.707533E0,1.0221843E-2,6.110254E-2,1.9129632E-2,-7.808235E-2,6.7907315E-1,-8.7659377E-1,-6.533493E-1,1.0560174E0,-3.0421437E-4,-8.584949E-2,1.4948574E-2,8.615049E-2,1.0480001E-2,8.1758924E-2,-5.1849753E-2,-9.221283E-3,-1.06028646E-1,-1.5682441E0,-3.1436544E-2,5.3506196E-2,-6.2805824E-2,1.1145965E0,3.199431E-2,-1.4079909E0,1.4791105E0,-2.826354E-1,-5.262896E-2,-9.765121E-3,1.9144874E-2,-8.355901E-2,-3.0792607E-2,7.048612E-2,-9.8967814E-1,5.932198E-2,-3.862467E-1,1.4178916E0,7.24426E-2,-2.6696694E-1,-1.3001938E0,5.932823E-2,-1.6669515E0,-2.701153E-1,-5.924263E-1,1.4918932E0,1.0694857E-2,-6.267013E-2,3.0769838E-2,-8.0614805E-2,-5.1288884E-2,1.0667405E0,-1.3961685E-1,1.6467427E0,-2.643393E-2,8.043955E-2,-7.0063725E-2,1.0070284E-2,-4.3613933E-2,1.309093E0,6.4056225E-2,-7.6668966E-1,8.635478E-2,9.63575E-3,6.561765E-2,-5.0371554E-2,7.1499185E-3,-8.1173E-2,-6.845822E-2,3.2082073E-2,7.5749844E-2,1.0184012E-2,-1.5927991E0,-1.1445346E-1,-7.4881345E-2,6.005427E-2,-3.0767575E-2,1.4417437E0,-9.469668E-3,-8.042473E-2,-1.2706894E0,3.1227259E-2,1.3467511E0,-4.1596886E-2,-8.208675E-3,8.521914E-2,9.026022E-2,2.9596234E-2,-8.162717E-2,1.1028125E-2,-9.986906E-3,-5.2917298E-2,1.3745719E0,-1.894075E-2,1.5653177E0,-1.869264E-2,5.390839E-2,-5.378086E-2,-6.880765E-2,5.2414954E-2,8.939407E-1,-6.8703495E-2,-1.4969196E0,-6.9380976E-4,5.2521106E-2,-5.520723E-2,-5.528569E-1,-1.6436832E0,3.3228066E-2,-6.2033147E-2,-1.5582851E-2,8.467039E-2,5.5807036E-1,-1.307888E0,1.0769681E-2,-1.6939942E0,-3.494664E-2,7.0477955E-2,-1.7349466E0,-1.002575E-2,-1.6882678E0,1.0922435E-2,1.0985939E-2,-8.10753E-2,-8.628202E-1,8.590902E-1,1.45755E0,-2.3478039E-1,-7.642961E-2,1.0860313E-2,-1.9967034E-2,-1.7735546E0,-5.5903524E-2,6.862064E-2,-3.3914474E-1,-1.5641959E0,5.2264493E-2,-1.1418312E0,1.4428688E0,-1.4924099E-1,-5.8405884E-2,5.9202548E-2,-5.5784006E-2,5.303643E-2,-2.3077793E-1,-1.6299863E0,1.0419602E-2,6.8829834E-2,-8.239239E-2,-2.4845733E-4,8.201017E-2,9.677003E-3,3.03414E-2,-5.2208424E-2,-7.055734E-2,1.0125952E-2,-5.6931794E-2,3.1147784E-2,-1.298129E-2,1.5396576E0,-7.8175265E-1,6.58844E-2,2.8108314E-1,-8.471706E-2,-1.796443E-2,-8.798359E-2,4.4285297E-2,-6.2084395E-2,-5.5692207E-2,9.746726E-3,8.38619E-2,-3.9421147E-4,1.3163995E0,-3.5997476E-2,5.090477E-2,-5.621918E-2,1.6756071E0,3.92659E-1,1.5286644E0,-3.1791773E-2,4.1736346E-2,-1.1394979E0,-8.714093E-2,-1.5484487E-2,5.2229594E-2,-5.5646002E-2,8.159651E-2,-1.0589637E-2,-7.480783E-2,-1.0105512E-2,1.0243996E-2,7.7908896E-2,8.380951E-2,-8.403858E-3,-1.2101721E-2,1.6687963E0,6.7462586E-2,-1.0634953E-2,-1.5916988E0,-7.4980534E-3,5.1036622E-2,-5.1092476E-2,3.2419033E-2,-6.155011E-2,-1.7012424E0,-2.2921816E-1,5.3703703E-2,-1.0378128E-2,-3.9770243E-1,-1.497962E0,-8.8412225E-2,-2.0403266E-2,-1.7472034E-2,-1.7507229E0,-9.5704375E-3,-8.74926E-2,5.18921E-2,-5.110377E-2,-8.994111E-3,-5.6540646E-2,-2.1061791E-2,7.588182E-2,8.410508E-2,-1.8234821E-2,-5.1141538E-2,3.2820027E-2,-2.9063225E-2,-8.989219E-2,-1.1077484E0,3.8500667E-1,-8.5150264E-2,-1.0274512E-2,-7.524409E-2,1.0672279E-2,-1.9021882E-2,1.6374319E0,8.617188E-1,-5.5978056E-2,-5.130529E-2,3.3279132E-2,-1.6798594E0,-7.7033523E-3,5.8880653E-2,-5.9870906E-2,1.6210598E0,-1.8250542E-2,6.89937E-1,-7.429355E-2,-3.096543E-2,5.2711934E-2,-3.8059574E-2,1.5384643E0,1.6871072E0,-1.0460483E-2,-8.430396E-1,6.8944424E-2,4.4912005E-5,8.5599974E-2,-1.4461881E0,8.489839E-3,-1.0620095E-2,8.902129E-2,-8.694553E-2,-3.6271662E-1,-1.732484E0,-8.242334E-3,-5.079041E-2,3.2857757E-2,3.7946697E-2,-5.9477743E-2,-1.6692172E0,-3.0111128E-1,-1.7669924E0,-2.3801107E-2,3.1523645E-2,-7.4731015E-2,1.2085532E0,-6.9288045E-1,1.8606145E-2,8.713113E-2,5.571431E-2,9.807113E-3,-1.7155533E0,-9.0152575E-3,-1.813286E-2,1.708462E0,5.9596207E-2,-1.157806E-2,8.433814E-2,-1.0801621E-2,1.6990782E0,-1.2323776E-2,-1.042335E-2,-5.5029105E-2,-8.205541E-2,-1.0768182E-2,-5.6519218E-2,3.2595914E-2,-1.7801058E0,-6.654363E-1,-8.762798E-2,-1.7518433E-2,-6.19994E-2,5.4022145E-2,-1.7826972E0,-3.5597365E-2,9.414847E-3,7.24661E-2,-6.698801E-2,3.1102916E-2,-1.7748117E-2,-1.7521532E0,1.7551959E0,9.088828E-3,-1.6904358E-3,1.7109814E0,-3.512138E-2,-9.069469E-2,1.3704116E-2,-5.956564E-2,-7.6439637E-1,-1.7999156E0,-8.953092E-2,-2.4802906E-2,9.0086676E-2,2.6083315E-2,4.572387E-1,1.7305157E0,-8.416682E-3,-5.0997823E-2,-9.088931E-2,-8.406663E-1,6.633017E-2,-5.4643016E-2,1.7579265E0,9.645321E-1,-5.6430764E-2,-7.252786E-3,1.7704252E0,1.5751954E-2,-4.250507E-1,7.8637175E-2,9.248775E-3,1.7791681E0,-5.885547E-2,3.0187607E-2,1.788171E0,1.6664015E-2,1.7971444E0,2.3953523E-2,1.8064097E0,7.5314885E-1,2.905573E-2,1.8111693E0,7.297682E-3,5.12253E-2,2.9155746E-2,9.079829E-2],"categories":[],"categories_nodes":[],"categories_segments":[],"categories_sizes":[],"default_left":[0,0,0,0,0,0,0,0,0,0,0,0,0,0,0,0,0,0,0,0,0,0,0,0,0,0,0,0,0,0,0,0,0,0,0,0,0,0,0,0,0,0,0,0,0,0,0,0,0,0,0,0,0,0,0,0,0,0,0,0,0,0,0,0,0,0,0,0,0,0,0,0,0,0,0,0,0,0,0,0,0,0,0,0,0,0,0,0,0,0,0,0,0,0,0,0,0,0,0,0,0,0,0,0,0,0,0,0,0,0,0,0,0,0,0,0,0,0,0,0,0,0,0,0,0,0,0,0,0,0,0,0,0,0,0,0,0,0,0,0,0,0,0,0,0,0,0,0,0,0,0,0,0,0,0,0,0,0,0,0,0,0,0,0,0,0,0,0,0,0,0,0,0,0,0,0,0,0,0,0,0,0,0,0,0,0,0,0,0,0,0,0,0,0,0,0,0,0,0,0,0,0,0,0,0,0,0,0,0,0,0,0,0,0,0,0,0,0,0,0,0,0,0,0,0,0,0,0,0,0,0,0,0,0,0,0,0,0,0,0,0,0,0,0,0,0,0,0,0,0,0,0,0,0,0,0,0,0,0,0,0,0,0,0,0,0,0,0,0,0,0,0,0,0,0,0,0,0,0,0,0,0,0,0,0,0,0,0,0,0,0,0,0,0,0,0,0,0,0,0,0,0,0,0,0,0,0,0,0,0,0,0,0,0,0,0,0,0,0,0,0,0,0,0,0,0,0,0,0,0,0,0,0,0,0,0,0,0,0,0,0,0,0,0,0,0,0,0,0,0,0,0,0,0,0,0,0,0,0,0,0,0,0,0,0,0,0,0,0,0,0,0,0,0,0,0,0,0,0,0,0,0,0,0,0,0,0,0,0,0,0,0,0,0,0,0,0,0,0,0,0,0,0,0,0,0,0,0,0,0,0,0,0,0,0,0,0,0,0,0,0,0,0,0,0,0,0,0,0,0,0,0,0,0,0,0,0,0,0,0,0,0,0,0,0,0,0,0,0,0,0,0,0,0,0,0,0,0,0,0,0,0,0,0,0,0,0,0,0,0,0,0,0,0,0,0,0,0,0,0,0,0,0,0,0,0,0,0,0,0,0,0,0,0,0,0,0,0,0,0,0,0,0,0,0,0,0,0,0,0,0,0,0,0,0,0,0,0,0,0,0,0,0,0,0,0,0,0,0,0,0,0,0,0,0,0,0,0,0,0,0,0,0,0,0,0,0,0,0,0,0,0,0,0,0,0,0,0,0,0,0,0,0,0,0,0,0,0,0,0,0,0,0,0,0,0,0,0,0,0,0,0,0,0,0,0,0,0,0,0,0,0,0,0,0,0,0,0,0,0,0,0,0,0,0,0,0,0,0,0,0,0,0,0,0,0,0,0,0,0,0,0,0,0,0,0,0,0,0,0,0,0,0,0,0,0,0],"id":2,"left_children":[1,3,5,7,9,11,13,15,17,19,21,23,25,27,29,31,33,35,37,39,41,43,45,47,49,51,53,55,57,59,61,63,65,67,69,71,73,75,77,79,81,-1,83,85,87,89,91,93,95,97,99,101,103,105,107,109,111,113,115,117,119,121,123,125,127,-1,129,-1,131,133,135,137,139,141,143,145,147,149,151,153,-1,155,157,159,-1,161,163,165,167,169,171,-1,-1,-1,173,-1,-1,175,177,-1,179,-1,-1,181,183,185,187,189,191,193,195,197,199,201,203,205,-1,207,209,211,213,215,217,219,221,223,-1,225,227,229,231,-1,-1,-1,233,235,-1,237,239,241,243,245,247,-1,-1,-1,-1,-1,249,251,253,255,257,-1,-1,259,261,263,-1,-1,265,267,269,271,273,-1,-1,275,277,-1,279,281,283,-1,-1,285,287,-1,289,-1,291,293,295,-1,-1,-1,-1,297,299,301,303,-1,-1,305,307,309,311,-1,-1,313,315,-1,-1,317,319,321,-1,323,325,327,-1,329,331,333,335,337,339,341,343,-1,345,347,349,-1,351,353,355,357,-1,359,361,-1,363,365,-1,-1,-1,-1,367,369,371,373,375,-1,-1,-1,377,379,381,383,385,387,389,-1,-1,391,-1,-1,-1,-1,-1,-1,393,395,-1,-1,397,-1,-1,-1,399,-1,-1,401,403,-1,405,-1,407,-1,409,-1,-1,-1,-1,411,413,415,417,-1,-1,-1,-1,419,-1,-1,-1,421,423,-1,-1,-1,425,-1,427,429,431,-1,-1,-1,-1,-1,-1,433,-1,435,437,-1,439,441,-1,443,445,447,449,-1,-1,-1,-1,-1,451,453,455,-1,-1,-1,-1,-1,457,-1,459,-1,-1,-1,-1,-1,-1,-1,-1,-1,-1,461,463,-1,-1,-1,465,-1,-1,467,-1,469,-1,-1,-1,-1,-1,-1,-1,-1,-1,471,-1,473,-1,-1,-1,-1,-1,475,-1,477,479,-1,-1,481,483,-1,-1,-1,-1,485,487,-1,489,-1,-1,491,-1,493,-1,495,-1,497,499,501,503,-1,-1,-1,505,-1,-1,507,509,-1,511,513,515,-1,-1,-1,-1,517,519,-1,-1,-1,-1,-1,-1,-1,-1,-1,-1,-1,-1,521,523,525,-1,527,-1,-1,-1,-1,-1,-1,-1,-1,-1,529,-1,-1,-1,531,533,535,-1,-1,537,-1,-1,-1,-1,-1,-1,-1,-1,-1,-1,-1,-1,-1,539,-1,-1,541,-1,-1,-1,-1,-1,543,545,-1,-1,547,549,-1,-1,-1,551,-1,-1,-1,-1,-1,-1,-1,-1,-1,-1,-1,-1,-1,-1,553,555,-1,-1,-1,-1,-1,557,559,-1,-1,-1,561,-1,-1,-1,563,-1,565,-1,-1,-1,-1,567,569,-1,571,-1,-1,-1,573,-1,-1,-1,-1,575,577,-1,-1,-1,-1,-1,579,581,583,-1,-1,-1,585,587,-1,-1,-1,-1,589,-1,-1,591,-1,-1,-1,-1,593,-1,-1,-1,-1,-1,-1,-1,595,597,-1,-1,-1,-1,599,-1,-1,-1,-1,-1,-1,601,603,-1,-1,605,-1,-1,-1,-1,607,609,-1,-1,-1,-1,611,613,-1,-1,-1,615,-1,-1,617,619,-1,-1,621,-1,623,-1,-1,625,-1,-1,627,-1,629,-1,631,633,-1,635,-1,-1,-1,-1],"loss_changes":[5.2182E2,1.645665E2,2.1440686E2,8.849897E1,3.3750275E1,5.9360233E1,1.0863602E2,4.582135E1,5.2748802E1,1.3109711E1,2.1878975E1,3.3959797E1,2.9880787E1,4.3019814E1,4.4839294E1,2.3229982E1,1.2150131E1,3.4097916E1,2.6108055E1,1.1132912E1,5.030182E0,1.894934E1,1.0047905E1,1.2445286E1,2.630033E1,1.5916628E1,1.5534126E1,1.7418396E1,2.1566486E1,3.3727722E1,3.1527546E1,1.7241867E1,1.4421852E1,8.282944E0,8.312149E0,2.3502024E1,1.4932354E1,1.0004089E1,1.6969917E1,9.63089E0,8.426025E0,0E0,5.0970154E0,1.9017906E1,1.5795534E1,8.693016E0,7.434832E0,4.8440247E0,3.8784647E0,1.9176544E1,1.2372835E1,3.5830097E0,1.547544E1,9.734779E0,1.1008474E1,1.4761634E1,1.6329464E1,1.5916483E1,7.257675E0,1.9712362E1,1.3832886E1,1.3245617E1,1.1317766E1,9.749952E0,1.829366E1,0E0,1.4703472E1,0E0,2.6027985E0,5.1550446E0,7.309727E0,2.9623995E1,1.4061619E1,1.1654207E1,5.248225E0,7.569028E0,8.752426E0,1.3140186E1,1.1678118E1,7.5290575E0,0E0,7.104088E0,1.0119779E1,4.1706543E0,0E0,1.2772816E1,1.420251E1,7.018362E0,1.40663185E1,5.0276337E0,1.1299875E1,0E0,0E0,0E0,2.1771164E0,0E0,0E0,2.3802473E1,1.150181E1,0E0,7.5757484E0,0E0,0E0,1.1341736E1,6.946475E0,9.505759E0,8.468399E0,7.3605027E0,3.0070047E0,9.4052925E0,1.4390475E1,7.19049E-1,1.3935814E1,1.5054655E0,1.2958986E1,8.081661E0,0E0,1.3026606E1,1.0021292E1,1.1276245E1,1.3903784E1,1.4031824E1,7.3753967E0,9.524153E0,1.0884169E1,6.6994133E0,0E0,1.5121389E1,8.146404E0,1.1443385E1,7.7115784E0,0E0,0E0,0E0,4.5842056E0,2.9268312E-1,0E0,6.701275E0,9.835722E0,8.730221E0,4.932919E0,1.2912308E1,7.791542E0,0E0,0E0,0E0,0E0,0E0,5.259079E0,9.495225E0,3.276495E0,1.1149143E1,5.0150194E0,0E0,0E0,8.470093E0,4.8330383E0,9.409242E0,0E0,0E0,2.3420105E0,7.1067243E0,7.904228E0,1.2133923E0,1.1698784E1,0E0,0E0,1.0645868E1,9.100665E0,0E0,4.8483734E0,5.4530907E-1,5.5869055E0,0E0,0E0,1.3165622E1,1.6447895E1,0E0,3.9010391E0,0E0,2.6754532E0,7.1437874E0,3.3526754E-1,0E0,0E0,0E0,0E0,5.2589035E0,3.1771777E0,1.0256183E1,6.5395355E0,0E0,0E0,6.878887E0,3.2337666E-1,6.592409E0,6.6620884E0,0E0,0E0,8.441528E0,9.549698E0,0E0,0E0,1.2514296E1,1.3215964E1,5.3648605E0,0E0,1.1319244E1,2.276185E0,7.209713E0,0E0,1.1661718E1,9.088501E0,7.9233065E0,2.8322577E0,1.0063553E1,1.0471399E1,2.1676521E0,8.981982E0,0E0,6.171797E0,5.213973E0,1.2200804E0,0E0,4.8395424E0,1.2538537E1,6.71397E0,1.6254578E0,0E0,5.253414E0,8.728701E0,0E0,6.054348E0,1.5151978E-2,0E0,0E0,0E0,0E0,4.5657444E0,3.1675243E-1,5.0642357E0,6.5243034E0,8.095607E0,0E0,0E0,0E0,8.929955E0,1.0726593E1,5.0498276E0,5.470937E0,4.5399475E0,4.433806E0,7.45055E0,0E0,0E0,9.601349E0,0E0,0E0,0E0,0E0,0E0,0E0,5.1227036E0,8.722925E0,0E0,0E0,2.2418518E0,0E0,0E0,0E0,5.071533E0,0E0,0E0,5.07288E0,7.216962E0,0E0,6.742815E0,0E0,3.6492271E0,0E0,2.7865753E0,0E0,0E0,0E0,0E0,1.0221172E1,9.763792E0,7.5923166E0,1.0880831E1,0E0,0E0,0E0,0E0,7.574833E0,0E0,0E0,0E0,5.5870914E0,3.972458E0,0E0,0E0,0E0,8.368993E-1,0E0,3.4224224E0,1.7406425E0,2.9937086E0,0E0,0E0,0E0,0E0,0E0,0E0,2.9113183E0,0E0,3.5460644E0,7.768425E0,0E0,1.1375488E1,8.690496E0,0E0,1.6283646E0,6.415748E0,1.6505132E0,5.0527496E0,0E0,0E0,0E0,0E0,0E0,1.0370367E1,5.399371E0,7.645447E0,0E0,0E0,0E0,0E0,0E0,7.4478703E0,0E0,7.787884E0,0E0,0E0,0E0,0E0,0E0,0E0,0E0,0E0,0E0,0E0,2.7152328E0,5.4845314E0,0E0,0E0,0E0,4.490553E0,0E0,0E0,1.1959667E0,0E0,1.3631039E0,0E0,0E0,0E0,0E0,0E0,0E0,0E0,0E0,0E0,5.4914207E0,0E0,5.1464043E0,0E0,0E0,0E0,0E0,0E0,2.6716232E0,0E0,2.9373436E0,4.6745105E0,0E0,0E0,6.0634546E0,4.462311E0,0E0,0E0,0E0,0E0,1.602479E0,4.5182915E0,0E0,2.6692963E0,0E0,0E0,1.8025513E0,0E0,2.2748337E0,0E0,4.7574587E0,0E0,4.801736E-1,6.726458E0,6.8259125E0,3.119636E0,0E0,0E0,0E0,6.2095642E-2,0E0,0E0,9.839507E0,1.9027176E0,0E0,3.5033054E0,6.7992325E0,7.3060083E0,0E0,0E0,0E0,0E0,3.170031E0,3.434311E0,0E0,0E0,0E0,0E0,0E0,0E0,0E0,0E0,0E0,0E0,0E0,0E0,7.7268224E0,6.9473724E0,1.1594781E1,0E0,3.0806057E0,0E0,0E0,0E0,0E0,0E0,0E0,0E0,0E0,0E0,9.88509E0,0E0,0E0,0E0,5.206543E0,9.043531E0,3.897274E0,0E0,0E0,4.1452837E0,0E0,0E0,0E0,0E0,0E0,0E0,0E0,0E0,0E0,0E0,0E0,0E0,0E0,5.4414825E0,0E0,0E0,3.5555344E0,0E0,0E0,0E0,0E0,0E0,2.4557495E0,3.0981262E0,0E0,0E0,6.826872E0,4.4355087E0,0E0,0E0,0E0,1.4186401E0,0E0,0E0,0E0,0E0,0E0,0E0,0E0,0E0,0E0,0E0,0E0,0E0,0E0,0E0,6.632848E0,9.225996E0,0E0,0E0,0E0,0E0,0E0,1.4704895E0,4.086268E-1,0E0,0E0,0E0,2.2829285E0,0E0,0E0,0E0,7.4675217E0,0E0,2.1187987E0,0E0,0E0,0E0,0E0,4.8903427E0,5.572876E0,0E0,3.4109473E-1,0E0,0E0,0E0,1.5595474E0,0E0,0E0,0E0,0E0,3.649014E0,1.6544342E0,0E0,0E0,0E0,0E0,0E0,1.6784172E0,6.8341556E0,5.0735474E-1,0E0,0E0,0E0,1.1325312E0,4.855543E0,0E0,0E0,0E0,0E0,1.72789E0,0E0,0E0,2.3924866E0,0E0,0E0,0E0,0E0,4.625244E0,0E0,0E0,0E0,0E0,0E0,0E0,0E0,6.5156555E-1,2.2948284E0,0E0,0E0,0E0,0E0,4.6484375E-1,0E0,0E0,0E0,0E0,0E0,0E0,1.3196716E0,1.1703415E0,0E0,0E0,4.595215E0,0E0,0E0,0E0,0E0,3.5899258E-1,2.2891235E-1,0E0,0E0,0E0,0E0,7.828432E0,2.843933E0,0E0,0E0,0E0,5.8440185E-1,0E0,0E0,3.1846924E0,8.854092E0,0E0,0E0,2.5195923E0,0E0,3.6011722E0,0E0,0E0,2.0631714E0,0E0,0E0,1.5211182E0,0E0,5.841675E-1,0E0,1.05407715E-1,4.244448E-1,0E0,1.0333252E-1,0E0,0E0,0E0,0E0],"parents":[2147483647,0,0,1,1,2,2,3,3,4,4,5,5,6,6,7,7,8,8,9,9,10,10,11,11,12,12,13,13,14,14,15,15,16,16,17,17,18,18,19,19,20,20,21,21,22,22,23,23,24,24,25,25,26,26,27,27,28,28,29,29,30,30,31,31,32,32,33,33,34,34,35,35,36,36,37,37,38,38,39,39,40,40,42,42,43,43,44,44,45,45,46,46,47,47,48,48,49,49,50,50,51,51,52,52,53,53,54,54,55,55,56,56,57,57,58,58,59,59,60,60,61,61,62,62,63,63,64,64,66,66,68,68,69,69,70,70,71,71,72,72,73,73,74,74,75,75,76,76,77,77,78,78,79,79,81,81,82,82,83,83,85,85,86,86,87,87,88,88,89,89,90,90,94,94,97,97,98,98,100,100,103,103,104,104,105,105,106,106,107,107,108,108,109,109,110,110,111,111,112,112,113,113,114,114,115,115,117,117,118,118,119,119,120,120,121,121,122,122,123,123,124,124,125,125,127,127,128,128,129,129,130,130,134,134,135,135,137,137,138,138,139,139,140,140,141,141,142,142,148,148,149,149,150,150,151,151,152,152,155,155,156,156,157,157,160,160,161,161,162,162,163,163,164,164,167,167,168,168,170,170,171,171,172,172,175,175,176,176,178,178,180,180,181,181,182,182,187,187,188,188,189,189,190,190,193,193,194,194,195,195,196,196,199,199,200,200,203,203,204,204,205,205,207,207,208,208,209,209,211,211,212,212,213,213,214,214,215,215,216,216,217,217,218,218,220,220,221,221,222,222,224,224,225,225,226,226,227,227,229,229,230,230,232,232,233,233,238,238,239,239,240,240,241,241,242,242,246,246,247,247,248,248,249,249,250,250,251,251,252,252,255,255,262,262,263,263,266,266,270,270,273,273,274,274,276,276,278,278,280,280,285,285,286,286,287,287,288,288,293,293,297,297,298,298,302,302,304,304,305,305,306,306,313,313,315,315,316,316,318,318,319,319,321,321,322,322,323,323,324,324,330,330,331,331,332,332,338,338,340,340,351,351,352,352,356,356,359,359,361,361,371,371,373,373,379,379,381,381,382,382,385,385,386,386,391,391,392,392,394,394,397,397,399,399,401,401,403,403,404,404,405,405,406,406,410,410,413,413,414,414,416,416,417,417,418,418,423,423,424,424,437,437,438,438,439,439,441,441,451,451,455,455,456,456,457,457,460,460,474,474,477,477,483,483,484,484,487,487,488,488,492,492,507,507,508,508,514,514,515,515,519,519,523,523,525,525,530,530,531,531,533,533,537,537,542,542,543,543,549,549,550,550,551,551,555,555,556,556,561,561,564,564,569,