{"learner":{"attributes":{},"feature_names":[],"feature_types":[],"gradient_booster":{"model":{"cats":{"enc":[],"feature_segments":[],"sorted_idx":[]},"gbtree_model_param":{"num_parallel_tree":"1","num_trees":"150"},"iteration_indptr":[0,1,2,3,4,5,6,7,8,9,10,11,12,13,14,15,16,17,18,19,20,21,22,23,24,25,26,27,28,29,30,31,32,33,34,35,36,37,38,39,40,41,42,43,44,45,46,47,48,49,50,51,52,53,54,55,56,57,58,59,60,61,62,63,64,65,66,67,68,69,70,71,72,73,74,75,76,77,78,79,80,81,82,83,84,85,86,87,88,89,90,91,92,93,94,95,96,97,98,99,100,101,102,103,104,105,106,107,108,109,110,111,112,113,114,115,116,117,118,119,120,121,122,123,124,125,126,127,128,129,130,131,132,133,134,135,136,137,138,139,140,141,142,143,144,145,146,147,148,149,150],"tree_info":[0,0,0,0,0,0,0,0,0,0,0,0,0,0,0,0,0,0,0,0,0,0,0,0,0,0,0,0,0,0,0,0,0,0,0,0,0,0,0,0,0,0,0,0,0,0,0,0,0,0,0,0,0,0,0,0,0,0,0,0,0,0,0,0,0,0,0,0,0,0,0,0,0,0,0,0,0,0,0,0,0,0,0,0,0,0,0,0,0,0,0,0,0,0,0,0,0,0,0,0,0,0,0,0,0,0,0,0,0,0,0,0,0,0,0,0,0,0,0,0,0,0,0,0,0,0,0,0,0,0,0,0,0,0,0,0,0,0,0,0,0,0,0,0,0,0,0,0,0,0],"trees":[{"base_weights":[-0E0,-6.629834E-1,6.530612E-1,-8.810572E-2,-1.1703511E0,-1.7282011E-2,1.1621783E0,5.703422E-1,-5E-1,-8.018868E-1,-1.6138328E0,6.2666667E-1,-5.878877E-1,4.10596E-1,1.4369885E0,1.0059172E0,-2.0833333E-1,-2.1656051E-1,-1.3148148E0,-2.3180592E-1,-1.2349272E0,1.3333334E-1,-1.6427525E0,8.7077534E-1,-6.138614E-1,5.277778E-1,-8.8268155E-1,-3.668639E-1,8.611111E-1,1.5996035E0,6.543779E-1,-4.4444442E-1,1.2638888E0,-8.2142854E-1,6.1904764E-1,-8.484848E-1,2.3913044E-1,-1.539267E0,3.448276E-1,-1.2087911E0,8.450704E-2,-1.3118279E0,8E-1,-5.555556E-2,6.0000002E-2,-1.1764706E-1,-1.6716417E0,-4.3037975E-1,1.1028037E0,6.451613E-2,-1.5348837E0,1.1818181E0,-4.6666667E-1,-3.3476394E-1,-1.2857143E0,-1.1807228E0,4E-1,-5.263158E-1,1.0551181E0,6.516854E-1,1.6839827E0,1.3103448E0,-9.52381E-2,-1.2432432E0,1.0476191E0,1.4461539E0,-3.75E-1,-1.0588235E0,5.714286E-2,-5.714286E-2,9.189189E-1,-1.0619469E0,3.809524E-1,5.14658E-1,-1.0769231E0,-1.6284152E0,3.3333334E-1,6.4705886E-2,-7.5E-1,-1.6521739E0,1.5384614E-1,3.859649E-1,-1.0666666E0,-1.6349809E0,-8.737864E-1,-5E-2,7.5E-2,6.0000002E-2,-6.363636E-2,-1.7012194E0,-2.2222221E-1,1E0,-9.830508E-1,6.0465115E-1,1.5760368E0,-8.235294E-1,1E0,-8.974359E-2,2.5E-2,1.7288135E0,6.060606E-2,8.8E-1,-1.2820512E0,2.247191E-2,-1.3898305E0,-1.4586467E0,-1.7391305E-1,5.555556E-2,-1.3846154E0,-7.333333E-2,7.3417723E-1,-1.1428572E0,8.571428E-1,1.1799163E0,-7.368421E-1,-2.4390243E-1,1.3076923E0,6.0317457E-1,1.7549133E0,1.4766355E0,-4.6153846E-1,-8.0701756E-1,6.9230765E-1,-1.5151514E0,2.4999999E-2,7.647059E-2,-2.5E-2,1.548387E0,-5E-1,8.888889E-1,-7.777778E-2,-0E0,-1.4594594E0,-7.692308E-1,1.2E0,2.2222222E-1,-1.2118226E0,8.5714287E-1,-6.363636E-2,-3.829787E-1,8.9400923E-1,8.695652E-2,-1.5652174E0,2.5E-2,-1.6871508E0,5E-2,-2.5E-2,2.4999999E-2,-6.666667E-2,-0E0,-1.8095238E0,-7.142857E-2,7.5E-2,8.5350317E-1,-6.1333334E-1,-1.3454546E0,5.555556E-2,4.0000003E-2,-1.7042801E0,-1.369863E-1,-1.240876E0,1.1111111E-2,-1.7173579E0,-6.363636E-2,4.5454547E-2,-2.5E-2,7E-2,-1.4166666E0,6.666667E-1,-0E0,1.2149532E0,1.6908213E0,-5.714286E-1,5E-1,-8.1818186E-2,-2.727273E-2,7.6E-2,9.272727E-2,-0E0,9.090909E-1,-6E-2,-5.555556E-2,8.0000006E-2,2.5E-2,-1.5428572E0,7.142857E-1,-5.7142854E-1,2.727273E-2,-1.6923076E0,3.9999998E-1,-1.5450981E0,7.333334E-2,-8.5714287E-1,5E-2,-1.5675676E0,1.0422535E0,-6.666667E-2,-8.1818186E-2,2.0000001E-2,-0E0,6.0000002E-2,-2.8571427E-1,1.3488371E0,-7.333334E-2,5E-2,6.923077E-2,-8.75E-1,1.6521739E0,-4.0000003E-2,1.4285715E0,-8.7999994E-1,1.8162031E0,3.809524E-1,4.2857143E-1,1.7590361E0,-5.555556E-2,2.5E-2,8.5714287E-1,-1.2340425E0,-9.333333E-1,1.2195122E0,-0E0,-8.620689E-2,1.6566523E0,-1.0526315E-1,5E-2,-6.666667E-2,7.1428575E-2,-2.5E-2,-7.826086E-1,6.923077E-2,6.666667E-1,-1.7575758E0,-0E0,-5.555556E-2,1.6E0,-1.0526315E-1,-6.363636E-2,1E0,-1.4285713E0,-1.5384614E-1,1.3333334E0,-5.555556E-2,3.6734694E-1,-1.1020408E0,1.1179488E0,-9.230769E-1,-6.363636E-2,1E0,2.5E-2,-9.047619E-2,-1.7471263E0,1.1111111E-2,-9.322034E-2,-2.5E-2,-3.75E-1,1.1317829E0,-1.0508474E0,8E-1,2E-2,-1.5918367E0,-1.7580645E0,-1.5384616E-1,-1.1999999E0,5.531915E-1,-1.4015749E0,5.714286E-1,-1.7383177E0,-1.5384613E-1,-1.7209302E0,3.3333335E-2,6.363636E-2,-2.5E-2,-1.3333333E0,3.478261E-1,1.4059405E0,-5.999999E-2,1.761194E0,-2.0000001E-2,-6.0000002E-2,2.5E-2,6.666667E-2,-5E-2,7.647059E-2,-3.333333E-2,-0E0,-8.709677E-2,-6.666666E-1,1.1044776E0,1E0,-9.268292E-1,-0E0,-9.166666E-2,6.363636E-2,-4.9999993E-2,-1.6348548E0,-0E0,-1.3103448E0,4.0000003E-2,-1.7142857E0,2.5E-2,-4E-1,1.4909091E0,6.363636E-2,-1.047619E0,1.11111104E-1,1.5628415E0,4E-1,-8.0952376E-2,1.1111111E-2,9.02439E-2,8.888889E-2,-2.0000001E-2,4.0000003E-2,-7.894736E-2,1.8345499E0,-3.3333335E-2,1.125E0,-7.1428575E-2,-9.3333334E-1,7.647059E-2,9.4736844E-2,9.090908E-3,-0E0,6.0000002E-2,5E-2,-1.5348837E0,-6.363636E-2,-0E0,-3.3333335E-2,1.5555556E0,-2.5E-2,1.7030568E0,6.363636E-2,-6.666666E-2,4.0000003E-2,-7.647058E-2,-0E0,5E-2,-9.354839E-2,-0E0,-0E0,9.090909E-2,-5.384615E-2,6.0000002E-2,7.5E-2,-2.5E-2,-1.8148148E0,-6.875E-1,6.666667E-1,-1.1578947E0,-2.5E-2,8.461539E-2,9.9999994E-1,-1.0588236E0,-1.4285713E0,2.727273E-2,-6.666667E-1,1.3033708E0,5E-2,-7.272728E-2,6.666667E-2,-0E0,-1.8095238E0,-0E0,-1.2E0,7.5E-1,-4.9999997E-1,1.3162394E0,3.529412E-1,-1.4782609E0,-5E-2,7.5E-2,-1.7333333E0,-0E0,-1.8421053E0,-6.666667E-1,5E-2,-5.555556E-2,3.3333335E-2,-8.4E-2,1.1111112E0,-9.333333E-1,-3.2258064E-1,-1.68E0,-2.5E-2,6.0000002E-2,-1.8010291E0,-1.047619E0,-5.555555E-2,5E-2,-2.5E-2,-8.974359E-2,-8E-2,-0E0,1.5555556E0,-4E-1,1.3333333E-1,1.84E0,1.8534031E0,-0E0,-7.333333E-2,4.0000003E-2,-1.8181817E-1,1.5918367E0,-2.5E-2,7.5E-2,-1.4285713E0,1.3333334E-1,-0E0,-1.7056277E0,-6.363636E-2,6.363636E-2,1.1111111E-2,-8.3333336E-2,1.1111111E-2,-9.384616E-2,-6.923077E-2,4.5454547E-2,9.1111116E-2,-0E0,-7.647058E-2,2.5E-2,6.842106E-2,-1.047619E0,-0E0,1.6531792E0,6.363636E-2,-5E-2,-0E0,1.8525798E0,-4.9999997E-2,7.857143E-2,-0E0,-6.363636E-2,-8.974359E-2,2.5E-2,-0E0,8.75E-2,1.7511111E0,-2.5E-2,-0E0,-1.8846153E0,-1.076923E0,7.5E-1,6.666667E-2,-4.0000003E-2,-0E0,-7.333333E-2,7.857143E-2,-6.666666E-1,-0E0,-6.923077E-2,-1.6842104E0,2.5E-2,-6.4705886E-2,5E-2,1.4352942E0,-5E-2,-1.8757763E0,-9.09091E-3,-0E0,-7.5E-2,6.666667E-2,-2.5E-2,-6.666666E-2,5E-2,1.4285715E0,-3.3333335E-2,-5.555556E-2,6.666667E-2,1.1111111E-2,-1.7073171E0,-9.02439E-2,-2.5E-2,-9.09091E-3,-1.8914027E0,-6.666667E-2,4.0000003E-2,-5E-2,1.5E0,-6.363636E-2,-0E0,-6.666667E-2,8.235294E-1,2.5E-2,-1.7916666E0,-1.8194444E0,-9.09091E-3,-1.3571428E0,4.5454547E-2,-0E0,8.75E-2,6.666666E-1,-1E0,7.333334E-2,-9.473684E-1,2.4999999E-2,9.43662E-2,1.8930482E0,-0E0,5.555556E-2,-5.5555552E-2,6.363636E-2,-6E-2,-1.1111111E-2,9.090909E-2,1.5384616E-1,-1.7446808E0,6.4705886E-2,-1.0588236E0,-5.555556E-2,5.555556E-2,-5.4545456E-1,-1.7934272E0,-5.555556E-2,5.555556E-2,-7.647058E-2,2.4999999E-2,5.555556E-2,-5.5555552E-2,1.7333333E0,-0E0,5E-2,-5E-2,-0E0,1.8663366E0,1.8317757E0,1.3333334E-1,-9.6E-2,-2.5E-2,-1.4418604E0,4.6153846E-1,6.666667E-2,-2.5E-2,-5E-2,-0E0,-8.823529E-2,-2.4999997E-2,-0E0,1.6712328E0,-5.7142854E-1,-9.735099E-2,1.6781609E0,4.827586E-1,-2.5E-2,-8.9189194E-2,-1.9262673E0,-0E0,-0E0,8.571429E-2,6.923077E-2,-2.5E-2,-1.8695652E0,-0E0,-1.8497317E0,-6.666666E-1,1.5384614E-1,-1.6595744E0,-5.5555552E-2,6.842106E-2,4.0000003E-2,-1.4117647E0,-7.333333E-2,2.5E-2,1.9337016E0,2E-2,5.555556E-2,-5E-2,-2.4999997E-2,-9.069767E-2,-6.923077E-2,-0E0,-6.4705886E-2,5.555556E-2,-9.090909E-3,-1.8446602E0,-1.1111111E-2,1.8E0,5E-2,-5E-2,1.88E0,3.3333334E-1,1.8857143E0,-2.5E-2,-5.555556E-2,6.0000002E-2,9.09091E-3,-8.888889E-2,5.555556E-2,-2.5E-2,-1.0588235E0,6.0000002E-2,-2.5E-2,1.7464789E0,2.4999999E-2,-6.0000002E-2,1.7590362E0,-0E0,-6.363636E-2,1.2727273E0,-1.9436619E0,-2.5E-2,-9.5454544E-2,-2.5E-2,-9.411765E-1,-1.8941399E0,5E-2,-6.470588E-2,5.555556E-2,-4.9999997E-2,-9.069767E-2,-0E0,2.5E-2,-8.6666666E-2,9.7740114E-2,2.5E-2,-1.8811882E0,-0E0,1.8451613E0,1.111111E-2,-0E0,1.8894472E0,-2.5E-2,5E-2,1.111111E-2,1.9219512E0,-0E0,-6.923077E-2,-2.5E-2,1.826087E0,1.8481013E0,-0E0,-0E0,7.777778E-2,-2.5E-2,-9.8086126E-2,-7.692308E-2,6.666667E-1,-1.915547E0,-3.333333E-1,-1.9187818E0,-1.1111111E-2,1.8918918E0,2.727273E-2,1.8989899E0,-0E0,7.692308E-1,9.795918E-2,1.880597E0,-0E0,2.5E-2,9.466667E-2,5E-2,-0E0,-1.1111111E-2,-1.9302325E0,-5E-2,2.4999999E-2,-2.5E-2,-1.9378238E0,1.9166666E0,2.5E-2,1.9086294E0,-0E0,5.555556E-2,-0E0,9.6850395E-2,2.727273E-2,-1.9375E0,-2.5E-2,-9.78836E-2,-2.5E-2,2.5E-2,9.714286E-2,1.9182631E0,1.1111111E-2,-2.5E-2,-1.9448819E0,1.111111E-2,1.9280206E0,-2.5E-2,-1.9523809E0,1.9379042E0,1.1111111E-2,-2.5E-2,-9.8000005E-2,1.9477807E0,2.727273E-2,6.666666E-1,1.9577837E0,5E-2,-0E0,1.9679573E0,7.692308E-1,1.9784075E0,6.666667E-1,5.555556E-2,-0E0,2.5E-2,1.9837178E0,5E-2,-0E0,9.94543E-2,2.4999999E-2],"categories":[],"categories_nodes":[],"categories_segments":[],"categories_sizes":[],"default_left":[0,0,0,0,0,0,0,0,0,0,0,0,0,0,0,0,0,0,0,0,0,0,0,0,0,0,0,0,0,0,0,0,0,0,0,0,0,0,0,0,0,0,0,0,0,0,0,0,0,0,0,0,0,0,0,0,0,0,0,0,0,0,0,0,0,0,0,0,0,0,0,0,0,0,0,0,0,0,0,0,0,0,0,0,0,0,0,0,0,0,0,0,0,0,0,0,0,0,0,0,0,0,0,0,0,0,0,0,0,0,0,0,0,0,0,0,0,0,0,0,0,0,0,0,0,0,0,0,0,0,0,0,0,0,0,0,0,0,0,0,0,0,0,0,0,0,0,0,0,0,0,0,0,0,0,0,0,0,0,0,0,0,0,0,0,0,0,0,0,0,0,0,0,0,0,0,0,0,0,0,0,0,0,0,0,0,0,0,0,0,0,0,0,0,0,0,0,0,0,0,0,0,0,0,0,0,0,0,0,0,0,0,0,0,0,0,0,0,0,0,0,0,0,0,0,0,0,0,0,0,0,0,0,0,0,0,0,0,0,0,0,0,0,0,0,0,0,0,0,0,0,0,0,0,0,0,0,0,0,0,0,0,0,0,0,0,0,0,0,0,0,0,0,0,0,0,0,0,0,0,0,0,0,0,0,0,0,0,0,0,0,0,0,0,0,0,0,0,0,0,0,0,0,0,0,0,0,0,0,0,0,0,0,0,0,0,0,0,0,0,0,0,0,0,0,0,0,0,0,0,0,0,0,0,0,0,0,0,0,0,0,0,0,0,0,0,0,0,0,0,0,0,0,0,0,0,0,0,0,0,0,0,0,0,0,0,0,0,0,0,0,0,0,0,0,0,0,0,0,0,0,0,0,0,0,0,0,0,0,0,0,0,0,0,0,0,0,0,0,0,0,0,0,0,0,0,0,0,0,0,0,0,0,0,0,0,0,0,0,0,0,0,0,0,0,0,0,0,0,0,0,0,0,0,0,0,0,0,0,0,0,0,0,0,0,0,0,0,0,0,0,0,0,0,0,0,0,0,0,0,0,0,0,0,0,0,0,0,0,0,0,0,0,0,0,0,0,0,0,0,0,0,0,0,0,0,0,0,0,0,0,0,0,0,0,0,0,0,0,0,0,0,0,0,0,0,0,0,0,0,0,0,0,0,0,0,0,0,0,0,0,0,0,0,0,0,0,0,0,0,0,0,0,0,0,0,0,0,0,0,0,0,0,0,0,0,0,0,0,0,0,0,0,0,0,0,0,0,0,0,0,0,0,0,0,0,0,0,0,0,0,0,0,0,0,0,0,0,0,0,0,0,0,0,0,0,0,0,0,0,0,0,0,0,0,0,0,0,0,0,0,0,0,0,0,0,0,0,0,0,0,0,0,0,0,0,0,0,0,0,0,0,0,0,0,0,0,0,0,0,0,0,0,0,0,0,0,0,0,0,0,0,0,0,0,0,0,0,0,0,0,0,0,0,0,0,0,0,0,0,0,0,0,0,0,0,0,0,0,0,0,0,0,0,0,0,0,0,0,0,0,0,0,0,0,0,0,0,0,0,0,0,0,0,0,0,0,0,0,0,0,0,0,0,0],"id":0,"left_children":[1,3,5,7,9,11,13,15,17,19,21,23,25,27,29,31,33,35,37,39,41,43,45,47,49,51,53,55,57,59,61,63,65,67,69,71,73,75,77,79,81,83,85,-1,-1,87,89,91,93,95,97,99,101,103,105,107,109,111,113,115,117,119,121,123,125,127,129,131,-1,-1,133,135,137,139,141,143,145,-1,147,149,151,153,155,157,159,-1,-1,-1,-1,161,163,165,167,169,171,173,175,-1,-1,177,179,181,183,185,187,189,191,-1,193,-1,195,197,199,201,203,205,207,209,211,213,215,217,219,221,-1,-1,-1,223,225,227,-1,229,231,233,235,237,239,241,-1,243,245,247,249,-1,251,-1,-1,-1,-1,-1,253,-1,-1,255,257,259,-1,-1,261,263,265,-1,267,-1,-1,-1,-1,269,271,273,275,277,279,281,-1,-1,-1,-1,-1,283,-1,-1,-1,-1,285,287,289,-1,291,293,295,-1,297,-1,299,301,-1,-1,-1,-1,-1,303,305,-1,-1,-1,307,309,-1,311,313,315,317,319,321,-1,-1,323,325,327,329,-1,-1,331,333,-1,-1,-1,-1,335,-1,337,339,-1,-1,341,343,-1,345,347,349,351,-1,353,355,357,359,-1,361,-1,-1,363,-1,-1,-1,365,367,369,371,-1,373,375,377,379,381,383,385,387,389,391,-1,-1,-1,393,395,397,-1,399,-1,-1,-1,-1,-1,-1,-1,-1,-1,401,403,405,407,-1,-1,-1,-1,409,411,413,-1,415,-1,417,419,-1,421,423,425,427,-1,-1,-1,-1,-1,-1,-1,429,-1,431,-1,433,-1,-1,-1,-1,-1,-1,435,-1,-1,-1,437,-1,439,-1,-1,-1,-1,-1,-1,-1,-1,-1,-1,-1,-1,-1,-1,441,443,445,447,-1,-1,449,451,453,-1,455,457,-1,-1,-1,-1,459,-1,461,463,465,467,469,471,-1,-1,473,-1,475,477,-1,-1,-1,-1,479,481,483,485,-1,-1,487,489,-1,-1,-1,-1,-1,-1,491,493,495,497,499,501,-1,-1,503,505,-1,-1,507,509,511,513,-1,-1,-1,-1,-1,-1,-1,-1,-1,515,-1,-1,-1,517,519,521,-1,-1,523,525,-1,-1,-1,-1,-1,-1,-1,-1,527,-1,-1,529,531,533,-1,-1,-1,-1,-1,535,-1,-1,537,-1,-1,-1,539,-1,541,-1,-1,-1,-1,-1,-1,-1,543,-1,-1,-1,-1,545,-1,-1,-1,547,-1,-1,-1,549,-1,-1,-1,551,-1,553,555,-1,557,-1,-1,-1,559,561,-1,563,-1,-1,565,-1,-1,-1,-1,-1,-1,-1,567,569,-1,571,-1,-1,573,575,-1,-1,-1,-1,-1,-1,577,579,-1,-1,-1,581,583,585,-1,-1,587,589,-1,-1,-1,-1,-1,-1,591,593,595,-1,597,599,-1,-1,601,-1,-1,-1,-1,-1,603,-1,605,607,609,611,-1,-1,-1,613,-1,-1,615,-1,-1,-1,-1,-1,-1,-1,-1,-1,-1,617,-1,619,-1,-1,621,623,625,-1,-1,-1,-1,-1,-1,-1,627,-1,-1,629,-1,-1,631,-1,-1,633,635,-1,-1,-1,637,639,-1,-1,-1,-1,-1,-1,-1,-1,-1,-1,641,-1,643,-1,-1,645,-1,-1,-1,647,-1,-1,-1,649,651,-1,-1,-1,-1,-1,-1,653,655,657,659,-1,661,-1,663,-1,665,-1,667,-1,-1,-1,-1,-1,-1,669,-1,-1,-1,671,673,-1,675,-1,-1,-1,-1,-1,677,-1,-1,-1,-1,-1,679,-1,-1,681,-1,683,-1,685,687,-1,-1,-1,689,-1,691,693,-1,-1,695,697,699,701,-1,-1,-1,703,-1,-1,-1,-1],"loss_changes":[6.317014E2,2.1106915E2,2.5086325E2,9.263249E1,6.153595E1,1.1730644E2,8.5693054E1,4.481063E1,4.8214912E1,5.204976E1,8.985565E0,4.5958088E1,5.613071E1,3.9982567E1,3.783252E1,3.217759E1,2.4857141E1,4.5412964E1,2.064634E1,2.876497E1,1.9867065E1,6.311111E0,7.3264465E0,3.843918E1,1.5875245E1,2.396616E1,2.921585E1,2.684132E1,1.9935604E1,1.9078674E1,2.6800781E1,1.7392534E1,2.2049576E1,1.4266808E1,1.21454315E1,1.7725471E1,3.3914276E1,8.514153E0,8.505578E0,1.3999046E1,2.5050854E1,1.5027084E1,7.8E0,0E0,0E0,7.995722E0,6.8027954E0,1.659601E1,2.4271484E1,1.370019E1,6.5846767E0,1.3387779E1,1.7598974E1,2.1986101E1,1.4550835E1,1.1234684E1,1.5112236E1,9.082706E0,1.5070129E1,1.33910885E1,1.6650513E1,9.226307E0,1.52733755E1,5.1420984E0,4.6792717E0,1.3706696E1,1.3319445E1,1.0817171E1,0E0,0E0,9.701454E0,1.1143612E1,9.359307E0,2.6477264E1,9.371239E0,6.56295E0,2.1666667E0,0E0,3.5833335E0,4.484474E0,1.5989011E1,2.7154463E1,1.0602018E1,1.2458237E1,1.37593E1,0E0,0E0,0E0,0E0,5.4723816E0,6.5050497E0,4.3E0,1.1495763E1,1.9834818E1,1.4338547E1,9.962567E0,7.2581816E0,0E0,0E0,3.2061615E0,9.915151E0,1.0737778E1,5.302931E0,1.8691814E1,9.557425E0,1.1303436E1,1.4147411E1,0E0,1.0074844E1,0E0,1.3969455E1,5.984415E0,1.0285716E0,1.5178024E1,7.4877195E0,1.1746013E1,1.0760532E1,2.0538414E1,1.7518433E1,7.1634293E0,2.58547E0,1.1184344E1,1.2279799E1,2.6123295E0,0E0,0E0,0E0,1.1274429E1,6.3333335E0,4.0873013E0,0E0,9.752508E0,1.2897621E1,8.547008E-1,8.652632E0,9.121213E0,1.1417961E1,9.682539E0,0E0,1.3083803E1,2.310722E1,8.411068E0,6.707037E0,0E0,5.5128403E0,0E0,0E0,0E0,0E0,0E0,1.9975662E-1,0E0,0E0,1.384272E1,1.2434803E1,6.5499077E0,0E0,0E0,5.087265E0,1.4053279E1,1.0775711E1,0E0,5.0660706E0,0E0,0E0,0E0,0E0,8.753878E0,3.287879E0,1.3449276E1,1.402491E1,8.318817E0,2.9571428E0,6.3333335E0,0E0,0E0,0E0,0E0,0E0,6.395722E0,0E0,0E0,0E0,0E0,2.6875572E0,1.2051885E1,1.4609756E1,0E0,3.102562E0,5.854545E0,8.841034E0,0E0,7.6197047E0,0E0,6.4691086E0,1.2081945E1,0E0,0E0,0E0,0E0,0E0,9.645021E0,1.4063591E1,0E0,0E0,0E0,8.236905E0,2.1100502E0,0E0,7.4158726E0,8.602104E0,1.0641052E1,1.5744047E1,1.1922129E1,4.0966187E0,0E0,0E0,1.0285714E0,9.431963E0,1.1878791E0,7.5338764E0,0E0,0E0,6.681076E0,9.735247E0,0E0,0E0,0E0,0E0,8.019437E0,0E0,6.666666E-1,3.2883682E0,0E0,0E0,4.363636E0,7.316599E0,0E0,4.5E0,1.0774139E1,8.804318E0,5.782052E0,0E0,1.2111645E1,7.3692017E0,1.7000637E1,8.097902E0,0E0,1.3333335E0,0E0,0E0,4.7421875E0,0E0,0E0,0E0,8.325E0,1.0365135E1,9.37171E0,7.8E0,0E0,2.759182E0,4.4586945E0,4.700855E0,7.839999E0,1.0782032E1,8.996368E0,2.9571428E0,5.0651855E0,4.7008543E0,7.304764E-2,0E0,0E0,0E0,2.1333332E0,2.139517E1,1.3702442E1,0E0,8.160507E0,0E0,0E0,0E0,0E0,0E0,0E0,0E0,0E0,0E0,7.333334E0,1.0789799E1,4.5E0,1.1095003E1,0E0,0E0,0E0,0E0,6.9711456E0,8.909091E0,4.329501E0,0E0,5.9286957E0,0E0,7.703496E0,6.7919197E0,0E0,4.6792717E0,1.454553E1,6.459137E0,5.8545456E0,0E0,0E0,0E0,0E0,0E0,0E0,0E0,6.7973022E0,0E0,9.160715E0,0E0,1.1878788E0,0E0,0E0,0E0,0E0,0E0,0E0,6.5846767E0,0E0,0E0,0E0,2.7222214E0,0E0,6.9364166E0,0E0,0E0,0E0,0E0,0E0,0E0,0E0,0E0,0E0,0E0,0E0,0E0,0E0,0E0,3.420227E0,9.764423E0,6.9333334E0,1.6982455E0,0E0,0E0,9.619049E0,1.4660635E0,6.018795E0,0E0,6.784314E0,1.4957436E1,0E0,0E0,0E0,0E0,4.1882324E0,0E0,1.8000002E0,3.5833335E0,6.333333E0,7.4676437E0,7.581699E0,4.8587246E0,0E0,0E0,9.024429E-2,0E0,4.3214417E0,6.9333334E0,0E0,0E0,0E0,0E0,8.888889E0,1.1878791E0,1.0075901E1,6.9816666E0,0E0,0E0,4.0152283E0,1.0772728E1,0E0,0E0,0E0,0E0,0E0,0E0,2.7222214E0,1.0266666E1,1.2196491E1,2.453537E-1,3.5085754E0,5.5555553E0,0E0,0E0,9.672728E0,5.4339294E0,0E0,0E0,7.27145E0,1.174902E1,5.5555553E0,4.9043274E0,0E0,0E0,0E0,0E0,0E0,0E0,0E0,0E0,0E0,5.5555553E0,0E0,0E0,0E0,4.679272E0,5.5555553E0,5.7310257E0,0E0,0E0,4E0,5.1862793E0,0E0,0E0,0E0,0E0,0E0,0E0,0E0,0E0,7.096237E0,0E0,0E0,3.138504E-1,7.964222E0,3.5833335E0,0E0,0E0,0E0,0E0,0E0,6.6666675E-1,0E0,0E0,2.3223877E-2,0E0,0E0,0E0,1.4392265E1,0E0,2.6276855E0,0E0,0E0,0E0,0E0,0E0,0E0,0E0,5.799671E0,0E0,0E0,0E0,0E0,5.438423E-2,0E0,0E0,0E0,3.6433563E0,0E0,0E0,0E0,2.5714283E0,0E0,0E0,0E0,3.8484163E0,0E0,3.34964E0,3.7945251E0,0E0,6.652912E0,0E0,0E0,0E0,9.005848E0,8.541178E0,0E0,4.303509E0,0E0,0E0,2.0641327E0,0E0,0E0,0E0,0E0,0E0,0E0,0E0,4.700855E0,1.0614014E-1,0E0,1.4660635E0,0E0,0E0,8.259061E0,4.0613403E0,0E0,0E0,0E0,0E0,0E0,0E0,5.7777863E0,4E0,0E0,0E0,0E0,3.6044312E0,7.671692E0,6.311111E0,0E0,0E0,6.1865177E0,2.58547E0,0E0,0E0,0E0,0E0,0E0,0E0,1.0164705E1,6.836487E0,2.9571428E0,0E0,2.9519463E0,1.1673981E1,0E0,0E0,3.7408447E-1,0E0,0E0,0E0,0E0,0E0,2.9051208E-1,0E0,3.855835E0,6.784314E0,4.700855E0,3.0103912E0,0E0,0E0,0E0,6.0921555E0,0E0,0E0,3.9149475E-1,0E0,0E0,0E0,0E0,0E0,0E0,0E0,0E0,0E0,0E0,3.4701538E0,0E0,2.4401398E0,0E0,0E0,3.552185E0,2.1666667E0,2.7375946E0,0E0,0E0,0E0,0E0,0E0,0E0,0E0,1.4660635E0,0E0,0E0,7.2617874E0,0E0,0E0,3.2508774E0,0E0,0E0,1.9797983E0,4.0753174E-1,0E0,0E0,0E0,9.188538E0,3.7802734E0,0E0,0E0,0E0,0E0,0E0,0E0,0E0,0E0,0E0,0E0,2.723114E0,0E0,1.321579E0,0E0,0E0,3.5880127E0,0E0,0E0,0E0,6.9252014E-1,0E0,0E0,0E0,3.4341354E0,2.5763702E-1,0E0,0E0,0E0,0E0,0E0,0E0,6.666666E-1,2.810028E0,2.1666667E0,3.6164856E-1,0E0,3.1756592E-1,0E0,3.6244507E0,0E0,8.547008E-1,0E0,1.4665527E0,0E0,0E0,0E0,0E0,0E0,0E0,3.7210083E-1,0E0,0E0,0E0,3.9813232E-1,3.6428833E-1,0E0,2.774231E0,0E0,0E0,0E0,0E0,0E0,3.8583374E-1,0E0,0E0,0E0,0E0,0E0,2.8109741E0,0E0,0E0,3.9987183E-1,0E0,2.8485718E0,0E0,4.1430664E-1,1.5952148E0,0E0,0E0,0E0,1.1488037E0,0E0,6.6666675E-1,7.776489E-1,0E0,0E0,1.227417E0,8.547008E-1,4.6246338E-1,6.666666E-1,0E0,0E0,0E0,4.7302246E-1,0E0,0E0,0E0,0E0],"parents":[2147483647,0,0,1,1,2,2,3,3,4,4,5,5,6,6,7,7,8,8,9,9,10,10,11,11,12,12,13,13,14,14,15,15,16,16,17,17,18,18,19,19,20,20,21,21,22,22,23,23,24,24,25,25,26,26,27,27,28,28,29,29,30,30,31,31,32,32,33,33,34,34,35,35,36,36,37,37,38,38,39,39,40,40,41,41,42,42,45,45,46,46,47,47,48,48,49,49,50,50,51,51,52,52,53,53,54,54,55,55,56,56,57,57,58,58,59,59,60,60,61,61,62,62,63,63,64,64,65,65,66,66,67,67,70,70,71,71,72,72,73,73,74,74,75,75,76,76,78,78,79,79,80,80,81,81,82,82,83,83,84,84,89,89,90,90,91,91,92,92,93,93,94,94,95,95,96,96,99,99,100,100,101,101,102,102,103,103,104,104,105,105,106,106,108,108,110,110,111,111,112,112,113,113,114,114,115,115,116,116,117,117,118,118,119,119,120,120,121,121,122,122,123,123,127,127,128,128,129,129,131,131,132,132,133,133,134,134,135,135,136,136,137,137,139,139,140,140,141,141,142,142,144,144,150,150,153,153,154,154,155,155,158,158,159,159,160,160,162,162,167,167,168,168,169,169,170,170,171,171,172,172,173,173,179,179,184,184,185,185,186,186,188,188,189,189,190,190,192,192,194,194,195,195,201,201,202,202,206,206,207,207,209,209,210,210,211,211,212,212,213,213,214,214,217,217,218,218,219,219,220,220,223,223,224,224,229,229,231,231,232,232,235,235,236,236,238,238,239,239,240,240,241,241,243,243,244,244,245,245,246,246,248,248,251,251,255,255,256,256,257,257,258,258,260,260,261,261,262,262,263,263,264,264,265,265,266,266,267,267,268,268,269,269,273,273,274,274,275,275,277,277,287,287,288,288,289,289,290,290,295,295,296,296,297,297,299,299,301,301,302,302,304,304,305,305,306,306,307,307,315,315,317,317,319,319,326,326,330,330,332,332,347,347,348,348,349,349,350,350,353,353,354,354,355,355,357,357,358,358,363,363,365,365,366,366,367,367,368,368,369,369,370,370,373,373,375,375,376,376,381,381,382,382,383,383,384,384,387,387,388,388,395,395,396,396,397,397,398,398,399,399,400,400,403,403,404,404,407,407,408,408,409,409,410,410,420,420,424,424,425,425,426,426,429,429,430,430,439,439,442,442,443,443,444,444,450,450,453,453,457,457,459,459,467,467,472,472,476,476,480,480,484,484,486,486,487,487,489,489,493,493,494,494,496,496,499,499,507,507,508,508,510,510,513,513,514,514,521,521,522,522,526,526,527,527,528,528,531,531,532,532,539,539,540,540,541,541,543,543,544,544,547,547,553,553,555,555,556,556,557,557,558,558,562,562,565,565,576,576,578,578,581,581,582,582,583,583,591,591,594,594,597,597,600,600,601,601,605,605,606,606,617,617,619,619,622,622,626,626,630,630,631,631,638,638,639,639,640,640,641,641,643,643,645,645,647,647,649,649,656,656,660,660,661,661,663,663,669,669,675,675,678,678,680,680,682,682,683,683,687,687,689,689,690,690,693,693,694,694,695,695,696,696,700,700],"right_children":[2,4,6,8,10,12,14,16,18,20,22,24,26,28,30,32,34,36,38,40,42,44,46,48,50,52,54,56,58,60,62,64,66,68,70,72,74,76,78,80,82,84,86,-1,-1,88,90,92,94,96,98,100,102,104,106,108,110,112,114,116,118,120,122,124,126,128,130,132,-1,-1,134,136,138,140,142,144,146,-1,148,150,152,154,156,158,160,-1,-1,-1,-1,162,164,166,168,170,172,174,176,-1,-1,178,180,182,184,186,188,190,192,-1,194,-1,196,198,200,202,204,206,208,210,212,214,216,218,220,222,-1,-1,-1,224,226,228,-1,230,232,234,236,238,240,242,-1,244,246,248,250,-1,252,-1,-1,-1,-1,-1,254,-1,-1,256,258,260,-1,-1,262,264,266,-1,268,-1,-1,-1,-1,270,272,274,276,278,280,282,-1,-1,-1,-1,-1,284,-1,-1,-1,-1,286,288,290,-1,292,294,296,-1,298,-1,300,302,-1,-1,-1,-1,-1,304,306,-1,-1,-1,308,310,-1,312,314,316,318,320,322,-1,-1,324,326,328,330,-1,-1,332,334,-1,-1,-1,-1,336,-1,338,340,-1,-1,342,344,-1,346,348,350,352,-1,354,356,358,360,-1,362,-1,-1,364,-1,-1,-1,366,368,370,372,-1,374,376,378,380,382,384,386,388,390,392,-1,-1,-1,394,396,398,-1,400,-1,-1,-1,-1,-1,-1,-1,-1,-1,402,404,406,408,-1,-1,-1,-1,410,412,414,-1,416,-1,418,420,-1,422,424,426,428,-1,-1,-1,-1,-1,-1,-1,430,-1,432,-1,434,-1,-1,-1,-1,-1,-1,436,-1,-1,-1,438,-1,440,-1,-1,-1,-1,-1,-1,-1,-1,-1,-1,-1,-1,-1,-1,442,444,446,448,-1,-1,450,452,454,-1,456,458,-1,-1,-1,-1,460,-1,462,464,466,468,470,472,-1,-1,474,-1,476,478,-1,-1,-1,-1,480,482,484,486,-1,-1,488,490,-1,-1,-1,-1,-1,-1,492,494,496,498,500,502,-1,-1,504,506,-1,-1,508,510,512,514,-1,-1,-1,-1,-1,-1,-1,-1,-1,516,-1,-1,-1,518,520,522,-1,-1,524,526,-1,-1,-1,-1,-1,-1,-1,-1,528,-1,-1,530,532,534,-1,-1,-1,-1,-1,536,-1,-1,538,-1,-1,-1,540,-1,542,-1,-1,-1,-1,-1,-1,-1,544,-1,-1,-1,-1,546,-1,-1,-1,548,-1,-1,-1,550,-1,-1,-1,552,-1,554,556,-1,558,-1,-1,-1,560,562,-1,564,-1,-1,566,-1,-1,-1,-1,-1,-1,-1,568,570,-1,572,-1,-1,574,576,-1,-1,-1,-1,-1,-1,578,580,-1,-1,-1,582,584,586,-1,-1,588,590,-1,-1,-1,-1,-1,-1,592,594,596,-1,598,600,-1,-1,602,-1,-1,-1,-1,-1,604,-1,606,608,610,612,-1,-1,-1,614,-1,-1,616,-1,-1,-1,-1,-1,-1,-1,-1,-1,-1,618,-1,620,-1,-1,622,624,626,-1,-1,-1,-1,-1,-1,-1,628,-1,-1,630,-1,-1,632,-1,-1,634,636,-1,-1,-1,638,640,-1,-1,-1,-1,-1,-1,-1,-1,-1,-1,642,-1,644,-1,-1,646,-1,-1,-1,648,-1,-1,-1,650,652,-1,-1,-1,-1,-1,-1,654,656,658,660,-1,662,-1,664,-1,666,-1,668,-1,-1,-1,-1,-1,-1,670,-1,-1,-1,672,674,-1,676,-1,-1,-1,-1,-1,678,-1,-1,-1,-1,-1,680,-1,-1,682,-1,684,-1,686,688,-1,-1,-1,690,-1,692,694,-1,-1,696,698,700,702,-1,-1,-1,704,-1,-1,-1,-1],"split_conditions":[-5.3101175E-2,-1.0423768E-1,8.962738E-2,-1.8210821E-1,2.6706696E-2,-7.8741595E-2,3.2141498E-1,5.2195735E-2,9.400178E-2,-2.0212242E-1,-3.646658E-1,9.7371414E-2,-2.638468E-1,-3.0286527E-1,5.9736498E-2,-1.02137506E-1,7.815303E-2,-1.265941E-1,1.1518265E-1,2.1421541E-1,8.834964E-2,-5.1701404E-2,-2.8814304E-1,-1.2050365E-1,8.426965E-2,-2.0242989E-1,1.3200307E-1,4.3541172E-1,-1.7056113E-1,2.631611E-1,-1.4112014E-1,2.3870945E-2,4.2131773E-1,2.2987732E-1,3.5268597E-2,3.2272545E-1,8.740052E-2,6.451272E-2,2.5035155E-1,-5.878907E-2,-2.923783E-3,1.3164303E-1,5.906519E-2,-5.555556E-2,6.0000002E-2,-1.9324453E-1,2.8463382E-1,-1.9201452E-1,-1.7909898E-1,-8.265029E-2,5.3839296E-2,1.405622E-1,-1.7425752E-1,1.3603458E-1,4.0414467E0,-3.474999E0,-2.9362413E-1,3.1608054E-1,5.136573E-1,2.2698576E-2,-6.983003E-2,1.3565646E-1,-1.503354E-1,1.16849676E-1,3.2228574E-1,-6.151375E-2,1.701253E-2,-8.2303956E-2,5.714286E-2,-5.714286E-2,-5.10434E-1,-1.5344915E-1,-2.0504372E0,-2.2375006E-2,1.02099255E-1,-1.070034E0,2.0346895E-1,6.4705886E-2,-8.4392466E-2,-2.8866434E-1,6.9698565E-2,2.3865753E-1,1.9996737E-1,-4.0462297E-1,-2.783923E0,-5E-2,7.5E-2,6.0000002E-2,-6.363636E-2,-5.293663E-1,8.99396E-2,4.118438E-2,1.7382783E-1,8.274212E-2,1.9989818E-1,1.3096173E-1,8.49109E-2,-8.974359E-2,2.5E-2,3.7473106E-1,5.179678E-2,-1.2749767E-1,-2.0832129E-1,3.8495824E-2,-2.138738E-1,8.6084984E-2,-6.868149E-2,5.555556E-2,-2.4219628E-1,-7.333333E-2,-1.7443037E-1,1.1805576E-1,1.5009795E-1,-5.448752E-2,-5.8936853E-2,-4.257043E-1,-2.248098E-2,2.254695E-1,1.06442876E-1,2.9394466E-1,2.9584154E-2,-2.7859023E-1,1.1032704E-2,-8.779517E-2,2.4999999E-2,7.647059E-2,-2.5E-2,1.362863E-1,-3.6526707E-1,8.51438E-2,-7.777778E-2,-1.9064355E-1,-4.4374794E-1,-2.0764528E-1,2.210728E-1,-1.2293785E-1,3.1573948E-1,2.3254463E-1,-6.363636E-2,-8.573234E-3,2.7214633E-2,-2.5214154E-1,-5.689075E-1,2.5E-2,3.8597673E-2,5E-2,-2.5E-2,2.4999999E-2,-6.666667E-2,-0E0,4.4245896E-1,-7.142857E-2,7.5E-2,2.5879124E-1,3.039843E-1,-4.1311386E-1,5.555556E-2,4.0000003E-2,2.8342232E-1,-2.3593527E-1,5.9063596E-1,1.1111111E-2,1.6817573E-1,-6.363636E-2,4.5454547E-2,-2.5E-2,7E-2,-2.7848512E-1,1.6893849E-1,-2.1548939E-1,-1.4200641E-1,3.2877648E-1,3.079745E-1,-1.652245E-2,-8.1818186E-2,-2.727273E-2,7.6E-2,9.272727E-2,-0E0,1.6747065E-1,-6E-2,-5.555556E-2,8.0000006E-2,2.5E-2,1.6504398E-1,-4.102275E-3,-1.344961E-2,2.727273E-2,-1.3753806E-1,3.446892E-1,3.3165365E-1,7.333334E-2,2.72261E-1,5E-2,1.819108E-1,1.6326497E-1,-6.666667E-2,-8.1818186E-2,2.0000001E-2,-0E0,6.0000002E-2,-1.0931156E-1,-2.5171125E-1,-7.333334E-2,5E-2,6.923077E-2,-1.5085687E-1,6.9458574E-2,-4.0000003E-2,1.0682529E-1,-1.7730626E-1,2.6473814E-1,2.6311454E-1,-1.5669331E-1,3.6289516E-1,-5.555556E-2,2.5E-2,3.4749433E-3,-2.5236705E-1,4.2590946E-1,-1.330069E-1,-0E0,-8.620689E-2,-4.9036992E-1,8.967247E-3,5E-2,-6.666667E-2,7.1428575E-2,-2.5E-2,-5.027578E-1,6.923077E-2,-4.0220607E-2,1.9797997E-1,-0E0,-5.555556E-2,1.2094649E-1,1.4150897E-1,-6.363636E-2,-3.1034559E-2,2.0358083E-1,1.3027199E-1,-4.8303345E-1,-5.555556E-2,4.6346057E-2,1.3736017E-1,-1.7107807E-1,-1.5345341E-1,-6.363636E-2,3.277523E-1,2.5E-2,-9.047619E-2,3.5285476E-1,1.1111111E-2,-9.322034E-2,-2.5E-2,1.6821475E-1,-2.6693624E-1,2.888932E-1,-4.5371157E-1,2E-2,1.9305542E-1,-4.793856E-2,-5.2711874E-2,-2.3839597E-1,-2.3894425E-1,-2.6980084E-1,-2.1110873E-1,5.147567E-3,4.298213E-2,-2.0342787E-1,3.3333335E-2,6.363636E-2,-2.5E-2,4.513385E-2,-3.850815E-1,-3.156867E-1,-5.999999E-2,2.7768412E-1,-2.0000001E-2,-6.0000002E-2,2.5E-2,6.666667E-2,-5E-2,7.647059E-2,-3.333333E-2,-0E0,-8.709677E-2,3.8265005E-1,-1.2301136E-1,-4.37762E-2,1.9484074E-1,-0E0,-9.166666E-2,6.363636E-2,-4.9999993E-2,-3.3899936E-1,1.4616811E-1,-3.5351597E-2,4.0000003E-2,3.866015E-1,2.5E-2,1.4143415E-1,-3.144032E-1,6.363636E-2,-1.0764681E-2,2.9071242E-1,-2.2537431E-1,1.423339E-1,-8.0952376E-2,1.1111111E-2,9.02439E-2,8.888889E-2,-2.0000001E-2,4.0000003E-2,-7.894736E-2,-3.0649614E-1,-3.3333335E-2,-2.5341398E-1,-7.1428575E-2,2.3967415E-2,7.647059E-2,9.4736844E-2,9.090908E-3,-0E0,6.0000002E-2,5E-2,1.0520555E-1,-6.363636E-2,-0E0,-3.3333335E-2,-3.3396524E-1,-2.5E-2,3.8859108E-1,6.363636E-2,-6.666666E-2,4.0000003E-2,-7.647058E-2,-0E0,5E-2,-9.354839E-2,-0E0,-0E0,9.090909E-2,-5.384615E-2,6.0000002E-2,7.5E-2,-2.5E-2,-3.121003E-1,1.3753648E-1,5.227829E-1,-2.0871446E-1,-2.5E-2,8.461539E-2,1.5686443E-1,1.2892799E-1,1.1508105E-1,2.727273E-2,5.1569387E-2,-1.9306816E-2,5E-2,-7.272728E-2,6.666667E-2,-0E0,3.3715224E-1,-0E0,2.6195842E-1,6.852349E-2,-6.7085996E-3,1.314718E-2,-1.7528512E-1,-3.729205E-1,-5E-2,7.5E-2,1.0617878E-1,-0E0,-1.8267208E-1,-1.3427483E-1,5E-2,-5.555556E-2,3.3333335E-2,-8.4E-2,-3.2121214E-1,2.3143706E-1,4.2961144E-1,-2.7076578E-1,-2.5E-2,6.0000002E-2,3.2730237E-1,2.3467535E-1,-5.555555E-2,5E-2,-2.5E-2,-8.974359E-2,-8E-2,-0E0,6.914619E-2,4.2104382E-2,-9.277791E-3,-2.3746836E-1,5.5962324E-1,-6.289148E-2,-7.333333E-2,4.0000003E-2,3.938027E-1,2.937956E-1,-2.5E-2,7.5E-2,-3.4360204E0,4.8316622E-1,1.3694616E-1,-1.2875788E-1,-6.363636E-2,6.363636E-2,1.1111111E-2,-8.3333336E-2,1.1111111E-2,-9.384616E-2,-6.923077E-2,4.5454547E-2,9.1111116E-2,-1.8782148E-1,-7.647058E-2,2.5E-2,6.842106E-2,5.992463E-1,-3.0201858E-2,-1.9306816E-2,6.363636E-2,-5E-2,-3.403904E-1,-2.4215738E-1,-4.9999997E-2,7.857143E-2,-0E0,-6.363636E-2,-8.974359E-2,2.5E-2,-0E0,8.75E-2,-1.7142221E-3,-2.5E-2,-0E0,1.4165708E-1,6.605044E-2,1.1110531E-2,6.666667E-2,-4.0000003E-2,-0E0,-7.333333E-2,7.857143E-2,1.3020085E-1,-0E0,-6.923077E-2,-4.395402E-2,2.5E-2,-6.4705886E-2,5E-2,1.1871011E-1,-5E-2,-1.8189366E-1,-9.09091E-3,-0E0,-7.5E-2,6.666667E-2,-2.5E-2,-6.666666E-2,5E-2,5.5737164E-2,-3.3333335E-2,-5.555556E-2,6.666667E-2,1.1111111E-2,-4.4697618E-1,-9.02439E-2,-2.5E-2,-9.09091E-3,4.6112174E-1,-6.666667E-2,4.0000003E-2,-5E-2,1.3058503E-1,-6.363636E-2,-0E0,-6.666667E-2,5.5503917E-1,2.5E-2,3.3790815E-1,1.552703E-1,-9.09091E-3,-5.323216E-1,4.5454547E-2,-0E0,8.75E-2,1.155964E-2,-6.699862E-1,7.333334E-2,-2.4282108E-1,2.4999999E-2,9.43662E-2,1.0206665E-1,-0E0,5.555556E-2,-5.5555552E-2,6.363636E-2,-6E-2,-1.1111111E-2,9.090909E-2,1.9425422E-2,-8.2356974E-2,6.4705886E-2,-2.4698762E-2,-5.555556E-2,5.555556E-2,1.582268E-2,-3.8449958E-1,-5.555556E-2,5.555556E-2,-7.647058E-2,2.4999999E-2,5.555556E-2,-5.5555552E-2,-5.6103736E-1,-1.7485003E-1,5E-2,-5E-2,-0E0,4.9304643E-1,1.4461747E-1,-2.2522163E-2,-9.6E-2,-2.5E-2,-8.0937E-2,-7.801801E-3,6.666667E-2,-2.5E-2,-5E-2,-0E0,-8.823529E-2,-2.4999997E-2,-1.750123E-1,-9.373286E-2,-1.7236668E-1,-9.735099E-2,1.7201413E-1,1.2246002E-1,-2.5E-2,-8.9189194E-2,5.644203E-1,-0E0,-0E0,8.571429E-2,6.923077E-2,-2.5E-2,8.30448E-2,-0E0,-1.6338521E0,-6.517617E-2,3.4165984E-1,3.985426E-2,-5.5555552E-2,6.842106E-2,4.0000003E-2,7.665198E-2,-7.333333E-2,2.5E-2,7.975509E-2,2E-2,5.555556E-2,-5E-2,-2.4999997E-2,-9.069767E-2,-6.923077E-2,-0E0,-6.4705886E-2,5.555556E-2,-9.090909E-3,2.2531901E-1,-1.1111111E-2,4.4864264E-1,5E-2,-5E-2,-4.0278053E-1,5.3992294E-2,-5.4713704E-2,-2.5E-2,-5.555556E-2,6.0000002E-2,9.09091E-3,-8.888889E-2,5.555556E-2,-2.5E-2,2.6206166E-1,6.0000002E-2,-2.5E-2,-4.9015787E-1,2.4999999E-2,-6.0000002E-2,-5.8380432E-2,-0E0,-6.363636E-2,-2.7256656E-1,4.16712E-2,-2.5E-2,-9.5454544E-2,-2.5E-2,5.90655E-2,6.893103E-1,5E-2,-6.470588E-2,5.555556E-2,-4.9999997E-2,-9.069767E-2,-0E0,2.5E-2,-8.6666666E-2,9.7740114E-2,2.5E-2,1.5664287E-1,-0E0,1.4409408E-1,1.111111E-2,-0E0,1.1926212E-1,-2.5E-2,5E-2,1.111111E-2,-5.2314025E-1,-0E0,-6.923077E-2,-2.5E-2,1.9989818E-1,-1.5402411E-1,-0E0,-0E0,7.777778E-2,-2.5E-2,-9.8086126E-2,-7.692308E-2,1.619303E-1,-2.0207465E-1,-2.8233957E-1,-4.7962952E-1,-1.1111111E-2,3.5879427E-1,2.727273E-2,4.4943333E-1,-0E0,3.897849E-1,9.795918E-2,-2.0384556E-1,-0E0,2.5E-2,9.466667E-2,5E-2,-0E0,-1.1111111E-2,6.143972E-1,-5E-2,2.4999999E-2,-2.5E-2,2.4304345E-1,-3.5727438E-1,2.5E-2,4.9796492E-1,-0E0,5.555556E-2,-0E0,9.6850395E-2,2.727273E-2,-3.104792E0,-2.5E-2,-9.78836E-2,-2.5E-2,2.5E-2,9.714286E-2,-2.1497665E-1,1.1111111E-2,-2.5E-2,-5.509852E-1,1.111111E-2,8.7184656E-1,-2.5E-2,-3.2291502E-1,4.3926588E-1,1.1111111E-2,-2.5E-2,-9.8000005E-2,-4.3884924E-1,2.727273E-2,7.0216894E-2,7.858658E-2,5E-2,-0E0,2.737062E-1,3.237128E-2,-1.09586746E-1,-2.4775244E-1,5.555556E-2,-0E0,2.5E-2,1.605006E-1,5E-2,-0E0,9.94543E-2,2.4999999E-2],"split_indices":[531,147,235,325,424,424,545,424,424,666,351,325,147,635,424,235,37,521,25,192,716,206,102,235,196,161,167,425,249,425,195,266,125,152,275,348,527,532,391,267,234,1,717,0,0,152,231,310,635,95,390,167,685,761,205,142,447,1,499,79,707,409,764,152,8,311,430,571,0,0,608,160,109,230,572,396,17,0,14,76,377,158,73,118,109,0,0,0,0,611,47,248,642,230,416,550,176,0,0,18,526,486,170,530,750,352,255,0,673,0,476,80,22,337,92,375,684,82,354,184,20,359,130,18,0,0,0,369,380,135,0,0,212,0,2,11,294,533,0,656,291,9,40,0,676,0,0,0,0,0,31,0,0,72,632,409,0,0,465,299,281,0,21,0,0,0,0,523,8,105,578,469,6,201,0,0,0,0,0,125,0,0,0,0,472,323,555,0,60,57,513,0,38,0,122,649,0,0,0,0,0,687,48,0,0,0,62,57,0,41,147,161,721,635,58,0,0,1,236,323,261,0,0,152,185,0,0,0,0,4,0,2,168,0,0,303,290,0,48,699,468,188,0,321,285,318,693,0,1,0,0,642,0,0,0,429,498,250,0,0,126,373,261,19,608,8,3,450,11,11,0,0,0,11,618,266,0,236,0,0,0,0,0,0,0,0,0,89,25,36,620,0,0,0,0,530,136,406,0,422,0,723,197,0,44,57,95,130,0,0,0,0,0,0,0,249,0,465,0,20,0,0,0,0,0,0,409,0,0,0,12,0,299,0,0,0,0,0,0,0,0,0,0,0,0,0,0,19,707,283,2,0,0,292,14,20,0,19,582,0,0,0,0,168,0,13,28,35,554,43,260,0,0,0,0,322,180,0,0,0,0,748,1,85,655,0,0,593,91,0,0,0,0,0,0,1,42,210,24,571,163,0,0,610,85,0,0,142,415,95,357,0,0,0,0,0,0,0,0,0,66,0,0,0,630,86,582,0,0,21,642,0,0,0,0,0,0,0,0,454,0,0,9,626,24,0,0,0,0,0,79,0,0,5,0,0,0,586,0,34,0,0,0,0,0,0,0,335,0,0,0,0,0,0,0,0,101,0,0,0,6,0,0,0,55,0,362,388,0,523,0,0,0,289,535,0,70,0,0,684,0,0,0,0,0,0,0,27,34,0,12,0,0,319,354,0,0,0,0,0,0,455,3,0,0,0,170,712,127,0,0,73,2,0,0,0,0,0,0,409,524,139,0,12,119,0,0,82,0,0,0,0,0,62,0,229,196,59,35,0,0,0,99,0,0,51,0,0,0,0,0,0,0,0,0,0,78,0,58,0,0,28,19,332,0,0,0,0,0,0,0,17,0,0,537,0,0,253,0,0,5,116,0,0,0,11,509,0,0,0,0,0,0,0,0,0,0,45,0,587,0,0,307,0,0,0,105,0,0,0,416,20,0,0,0,0,0,0,2,609,5,23,0,42,0,395,0,1,0,197,0,0,0,0,0,0,2,0,0,0,43,104,0,35,0,0,0,0,0,109,0,0,0,0,0,323,0,0,188,0,766,0,357,671,0,0,0,521,0,2,629,0,0,657,0,324,0,0,0,0,591,0,0,0,0],"split_type":[0,0,0,0,0,0,0,0,0,0,0,0,0,0,0,0,0,0,0,0,0,0,0,0,0,0,0,0,0,0,0,0,0,0,0,0,0,0,0,0,0,0,0,0,0,0,0,0,0,0,0,0,0,0,0,0,0,0,0,0,0,0,0,0,0,0,0,0,0,0,0,0,0,0,0,0,0,0,0,0,0,0,0,0,0,0,0,0,0,0,0,0,0,0,0,0,0,0,0,0,0,0,0,0,0,0,0,0,0,0,0,0,0,0,0,0,0,0,0,0,0,0,0,0,0,0,0,0,0,0,0,0,0,0,0,0,0,0,0,0,0,0,0,0,0,0,0,0,0,0,0,0,0,0,0,0,0,0,0,0,0,0,0,0,0,0,0,0,0,0,0,0,0,0,0,0,0,0,0,0,0,0,0,0,0,0,0,0,0,0,0,0,0,0,0,0,0,0,0,0,0,0,0,0,0,0,0,0,0,0,0,0,0,0,0,0,0,0,0,0,0,0,0,0,0,0,0,0,0,0,0,0,0,0,0,0,0,0,0,0,0,0,0,0,0,0,0,0,0,0,0,0,0,0,0,0,0,0,0,0,0,0,0,0,0,0,0,0,0,0,0,0,0,0,0,0,0,0,0,0,0,0,0,0,0,0,0,0,0,0,0,0,0,0,0,0,0,0,0,0,0,0,0,0,0,0,0,0,0,0,0,0,0,0,0,0,0,0,0,0,0,0,0,0,0,0,0,0,0,0,0,0,0,0,0,0,0,0,0,0,0,0,0,0,0,0,0,0,0,0,0,0,0,0,0,0,0,0,0,0,0,0,0,0,0,0,0,0,0,0,0,0,0,0,0,0,0,0,0,0,0,0,0,0,0,0,0,0,0,0,0,0,0,0,0,0,0,0,0,0,0,0,0,0,0,0,0,0,0,0,0,0,0,0,0,0,0,0,0,0,0,0,0,0,0,0,0,0,0,0,0,0,0,0,0,0,0,0,0,0,0,0,0,0,0,0,0,0,0,0,0,0,0,0,0,0,0,0,0,0,0,0,0,0,0,0,0,0,0,0,0,0,0,0,0,0,0,0,0,0,0,0,0,0,0,0,0,0,0,0,0,0,0,0,0,0,0,0,0,0,0,0,0,0,0,0,0,0,0,0,0,0,0,0,0,0,0,0,0,0,0,0,0,0,0,0,0,0,0,0,0,0,0,0,0,0,0,0,0,0,0,0,0,0,0,0,0,0,0,0,0,0,0,0,0,0,0,0,0,0,0,0,0,0,0,0,0,0,0,0,0,0,0,0,0,0,0,0,0,0,0,0,0,0,0,0,0,0,0,0,0,0,0,0,0,0,0,0,0,0,0,0,0,0,0,0,0,0,0,0,0,0,0,0,0,0,0,0,0,0,0,0,0,0,0,0,0,0,0,0,0,0,0,0,0,0,0,0,0,0,0,0,0,0,0,0,0,0,0,0,0,0,0,0,0,0,0,0,0,0,0,0,0,0,0,0,0,0,0,0,0,0,0,0,0,0,0,0,0,0,0,0,0,0,0,0,0,0,0,0,0,0,0,0,0,0,0,0,0,0,0,0,0,0,0],"sum_hessian":[1.457E3,7.23E2,7.34E2,3.395E2,3.835E2,3.1725E2,4.1675E2,1.305E2,2.09E2,2.11E2,1.725E2,1.49E2,1.6825E2,1.1225E2,3.045E2,8.35E1,4.7E1,1.56E2,5.3E1,9.175E1,1.1925E2,2.75E0,1.6975E2,1.2475E2,2.425E1,3.5E1,1.3325E2,4.125E1,7.1E1,2.5125E2,5.325E1,1.2500001E1,7.1E1,2.7E1,2E1,6.5E1,9.1E1,4.675E1,6.25E0,2.175E1,7E1,1.1525E2,4E0,1.25E0,1.5E0,3.25E0,1.665E2,1.875E1,1.06E2,1.45E1,9.75E0,2.1E1,1.4E1,5.725E1,7.6E1,1.975E1,2.15E1,8.5E0,6.25E1,2.125E1,2.3E2,2.8E1,2.525E1,8.250001E0,4.25E0,6.4E1,7E0,2.45E1,2.5E0,2.5E0,1.75E1,5.55E1,9.5E0,7.575E1,1.525E1,4.475E1,2E0,3.25E0,3.0000002E0,1.625E1,5.5E0,5.6E1,1.4E1,6.475E1,5.05E1,1E0,3E0,1.5E0,1.75E0,1.63E2,3.5000002E0,5E0,1.375E1,5.275E1,5.325E1,7.5E0,7E0,8.75E0,1E0,1.375E1,7.2500005E0,5.25E0,8.75E0,4.35E1,1.375E1,6.55E1,1.05E1,1.25E0,1.85E1,2.7500002E0,1.875E1,6E0,2.5000002E0,5.875E1,3.75E0,9.25E0,1.2E1,1.4750001E1,2.1525E2,2.575E1,2.25E0,1.325E1,1.2E1,7.2500005E0,1.0000001E0,3.25E0,1E0,6.1E1,3E0,3.5E0,3.5E0,7.0000005E0,1.75E1,2.25E0,1.525E1,5.75E0,4.975E1,7.75E0,1.75E0,2.2500002E1,5.325E1,4.75E0,1.05E1,1E0,4.375E1,1E0,1E0,1.0000001E0,2E0,1.5E0,1.475E1,2.5000002E0,3E0,3.825E1,1.775E1,1.275E1,1.25E0,1.5E0,6.325E1,1.725E1,3.325E1,1.25E0,1.6175E2,1.7500001E0,1.75E0,1E0,4E0,1.1E1,2.75E0,2.7E1,2.575E1,5.075E1,2.5E0,3E0,4.5E0,1.75E0,5.25E0,1.275E1,1E0,4.5E0,2.7500002E0,1.25E0,4E0,1E0,7.75E0,2E1,2.35E1,1.75E0,1.2E1,2.7500002E0,6.275E1,2.75E0,7.75E0,1E0,1.75E1,1.675E1,2E0,4.5E0,1.5E0,1.0000001E0,1.5E0,6E0,5.275E1,2.75E0,1E0,2.25E0,7E0,1.05E1,1.5E0,9.5E0,5.2500005E0,2.0575E2,9.5E0,6E0,1.975E1,1.25E0,1E0,2.5E0,1.075E1,2.7500002E0,9.25E0,1E0,6.2500005E0,5.725E1,3.7500002E0,1E0,2E0,2.5E0,1E0,4.7500005E0,2.25E0,2E0,1.55E1,1E0,1.25E0,1.15E1,3.7500002E0,1.75E0,4E0,4.1E1,8.75E0,6.5E0,1.25E0,1.125E1,1.1250001E1,4.775E1,5.5E0,1.75E0,3E0,1E0,9.5E0,4.25E1,1.25E0,1.375E1,1E0,7E0,3.125E1,1.375E1,4E0,1.5000001E0,1.125E1,6.1E1,2.25E0,6.5E0,1.075E1,3.075E1,2.5E0,1.595E2,2.2500005E0,9.75E0,1.25E0,1.75E0,1E0,5E0,2.2E1,2.425E1,1.5000002E0,4.925E1,1.5E0,1.5E0,1E0,2E0,1E0,3.25E0,1.2500001E0,1E0,6.75E0,4.2500005E0,1.575E1,4E0,1.95E1,1E0,1.1E1,1.75E0,1.0000002E0,5.925E1,3.5E0,6.25E0,1.5E0,1.65E1,1E0,4E0,1.275E1,1.75E0,4.25E0,8E0,4.475E1,2.75E0,4.25E0,1.25E0,9.25E0,8E0,1.5E0,1.5E0,3.7500005E0,2.045E2,1.25E0,7E0,2.5E0,2.75E0,3.25E0,1.8E1,1.7500002E0,1E0,1.5E0,1E0,9.75E0,1.75E0,1.0000002E0,1.25E0,8E0,1E0,5.625E1,1.75E0,2.0000002E0,1.5E0,3.2500002E0,1E0,1E0,1.45E1,1E0,1.5E0,1E1,2.2500002E0,1.5E0,3E0,1E0,2.6E1,1.5E1,5E0,3.7500002E0,1E0,5.5E0,8E0,3.25E0,9.500001E0,1.75E0,4.25E0,4.35E1,1E0,4.5E0,2E0,1E0,4.1E1,1.5E0,4E0,3E0,3.0000002E0,2.825E1,3.25E0,1.05E1,1E0,3E0,1.025E1,1E0,5.6E1,5E0,1E0,1.25E0,1.25E0,5.25E0,8E0,2.7500002E0,6.75E0,2.4E1,1E0,1.5E0,1.4475E2,1.4750001E1,1.2500005E0,1E0,1E0,8.75E0,4E0,1E0,8E0,1.4E1,6.5000005E0,1.775E1,4.675E1,2.5000002E0,2.7500002E0,1.5E0,4.5E0,1.125E1,1E0,3E0,1.3000001E1,6.5E0,2.5E0,5.675E1,1.75E0,1.75E0,1.25E0,5E0,1.25E0,1.525E1,2.25E0,1.75E0,1.025E1,2.5E0,3.2500002E0,1E0,3.75E0,4.2500005E0,2.5000002E0,4.225E1,1.75E0,1E0,2E0,2.025E2,1.0000001E0,6E0,1E0,1.75E0,8.75E0,1E0,1E0,7E0,5.525E1,1E0,1E0,2.5E1,1.2E1,3E0,3.5E0,1.5E0,1E0,2.7500002E0,6E0,2.0000002E0,1E0,2.25E0,8.500001E0,1E0,3.25E0,1E0,4.15E1,2E0,3.925E1,1.75E0,1E0,3E0,2E0,1E0,2.0000002E0,1E0,2.7E1,1.25E0,1.25E0,2E0,1.25E0,9.25E0,9.25E0,1E0,1.75E0,5.425E1,3.5E0,1.5E0,1E0,7E0,1.75E0,1.0000001E0,3.5E0,3.25E0,1E0,2.3E1,1.43E2,1.75E0,1.3000001E1,1.75E0,1E0,7E0,5E0,9E0,2.75E0,3.7500002E0,1.0000001E0,1.675E1,4.575E1,1E0,1.25E0,1.2500001E0,1.75E0,2.7500002E0,1.25E0,1E1,2.25E0,1.0750001E1,3.25E0,3.25E0,1.25E0,1.25E0,4.5E0,5.225E1,1.25E0,1.25E0,3.2500002E0,1.0000001E0,1.25E0,1.2500001E0,4.025E1,2E0,1E0,1E0,1.5E0,2.01E2,5.25E1,2.75E0,2.4E1,1E0,9.75E0,2.25E0,2E0,1E0,1E0,1.0000002E0,7.5000005E0,1.0000002E0,6E0,3.55E1,2.5000002E0,3.675E1,2.075E1,6.25E0,1E0,8.25E0,5.325E1,1E0,1E0,6E0,2.25E0,1E0,2.2E1,1E0,1.3875E2,4.25E0,2.2500002E0,1.075E1,1.2500001E0,3.75E0,1.5E0,7.5E0,2.7500002E0,1E0,4.425E1,1.5000001E0,1.25E0,1E0,1.0000002E0,9.75E0,2.25E0,1E0,3.25E0,1.25E0,1.7500001E0,5.05E1,1.25E0,3.9E1,1E0,1E0,1.99E2,2E0,5.15E1,1E0,1.25E0,1.5E0,1.75E0,8E0,1.25E0,1E0,3.2500002E0,2.75E0,1E0,3.45E1,1.0000001E0,1.5E0,1.975E1,1.0000001E0,1.75E0,4.5E0,5.225E1,1E0,2.1E1,1E0,7.5E0,1.3125E2,1E0,3.2500002E0,1.25E0,1.0000001E0,9.75E0,1.0000001E0,1E0,6.5E0,4.325E1,1E0,4.95E1,1E0,3.775E1,1.2500001E0,1E0,1.98E2,1E0,1E0,1.2500001E0,5.025E1,1.0000001E0,2.25E0,1E0,3.35E1,1.875E1,1.0000001E0,1E0,3.5E0,1E0,5.125E1,5.5E0,2E0,1.2925E2,2.0000002E0,4.825E1,1.25E0,3.6E1,1.75E0,1.97E2,1.0000001E0,2.25E0,4.8E1,3.25E1,1E0,1E0,1.775E1,1E0,1E0,1.25E0,1.28E2,1E0,1.0000001E0,1E0,4.725E1,3.5E1,1E0,1.96E2,1.0000001E0,1.25E0,1E0,3.075E1,1.75E0,1.27E2,1E0,4.625E1,1E0,1E0,3.4E1,1.9475E2,1.25E0,1E0,1.26E2,1.2500001E0,1.935E2,1E0,1.25E2,1.9225E2,1.25E0,1E0,1.24E2,1.905E2,1.75E0,2.0000002E0,1.885E2,1E0,1.0000001E0,1.8625E2,2.25E0,1.8425E2,2E0,1.25E0,1E0,1E0,1.8325E2,1E0,1E0,1.8225E2,1.0000001E0],"tree_param":{"num_deleted":"0","num_feature":"768","num_nodes":"705","size_leaf_vector":"1"}},{"base_weights":[-4.1785993E-4,-6.3264114E-1,6.223796E-1,-8.509906E-2,-1.1159618E0,-1.667041E-2,1.1078357E0,-4.9930984E-1,5.1532817E-1,-7.652496E-1,-1.5381885E0,5.969743E-1,-5.603947E-1,3.9206427E-1,1.3696426E0,5.286398E-1,-6.869688E-1,8.395085E-1,-4.9533993E-1,-2.2239621E-1,-1.1777023E0,-1.5662752E0,1.5005757E-1,8.3007365E-1,-5.872404E-1,5.032418E-1,-8.4146667E-1,-3.4968486E-1,8.2185715E-1,1.5244583E0,6.2488663E-1,9.7142315E-1,-1.0323051E0,-9.618599E-1,-1.0792352E-1,1.1159625E0,-2.0638373E-1,4.4770876E-1,-1.018495E0,-1.1553293E0,7.960893E-2,-1.2512128E0,7.657601E-1,9.333717E-3,-1.5855459E0,5.8814492E-2,-5.2905966E-2,-4.0928662E-1,1.0511814E0,6.0303245E-2,-1.4666326E0,1.1280084E0,-4.4646212E-1,-4.874473E-1,-1.419072E0,-1.1213396E0,3.7733883E-1,-5.006855E-1,1.0068911E0,6.2284684E-1,1.60475E0,1.2499119E0,-8.923793E-2,-4.8306547E-2,1.1797327E0,2.6172921E-2,-7.9825416E-2,-1.5315063E0,-6.300285E-1,-4.337559E-1,7.9649734E-1,-1.5085832E-2,1.3328168E0,-1.2136424E0,4.6794865E-1,-8.7843573E-1,1.0287198E0,-1.4206258E0,3.2356784E-1,-1.5792176E0,1.4687495E-1,-1.8998724E-1,1.2690307E0,-1.5586504E0,-8.345472E-1,7.065742E-2,-3.265309E-2,8.762418E-3,-1.6050411E0,9.5832574E-1,-9.3810475E-1,5.7688993E-1,1.5018766E0,-7.9100215E-1,9.570595E-1,1.1696786E-2,-8.576253E-2,-6.6190505E-1,1.4183468E0,8.409254E-1,-1.2259827E0,-1.0526034E0,-1.3766393E-1,3.2618314E-2,-1.4849535E0,5.40359E-2,-1.3181564E0,-7.071531E-2,6.9855523E-1,-1.0957756E0,8.317568E-1,1.1262524E0,-7.055706E-1,-2.3180252E-1,1.2489384E0,5.757549E-1,1.6723133E0,-2.3281617E-2,1.4117762E0,-7.6458323E-1,6.5777487E-1,1.5766515E0,1.8244874E-1,-3.4187087E-1,-1.6651517E0,-3.162495E-1,-1.4218025E0,4.4196105E-1,-9.495324E-1,-6.932738E-1,1.342557E0,9.222317E-1,-9.500565E-1,-3.7313607E-1,1.4410754E0,-8.310589E-2,7.983721E-3,-5.7753462E-2,9.461463E-1,1.1152686E-2,-6.851772E-2,1.4808325E0,-5.4313976E-2,-1.6203524E0,3.2561716E-2,-5.7978887E-2,1.0757256E0,1.7881394E-9,-8.64953E-2,-6.894139E-2,7.226496E-2,-9.300539E-1,2.8671762E-1,1.5798621E0,-1.5947813E-2,3.880947E-2,-1.6253537E0,-8.539966E-2,-1.1622634E0,-1.6329998E0,-3.0593628E-1,7.413927E-2,-1.0027113E-2,-1.3547041E0,6.43977E-1,-4.795434E-5,1.1594083E0,1.6120036E0,-5.5310225E-1,4.7951758E-1,-7.858042E-2,7.9264335E-2,-3.032808E-1,1.0332055E-2,-5.891573E-2,1.6914088E0,-2.929311E-1,-5.403589E-2,7.690003E-2,-1.0359804E-1,-8.261267E-2,-4.909641E-1,-1.6659566E0,4.801067E-1,-6.3775504E-1,1.8867377E-2,-1.6004729E0,3.332552E-2,-1.4908487E0,9.954692E-1,-6.4493E-2,-7.903234E-2,2.0425383E-2,-8.195638E-9,5.823196E-2,-2.6995972E-1,1.2872372E0,-6.887678E-2,3.2643612E-2,6.6890724E-2,-8.406672E-1,1.5810188E0,-3.8809467E-2,1.3658205E0,-8.431233E-1,1.7310052E0,3.5828364E-1,1.5355182E0,-2.0092923E-2,8.317569E-1,-1.1754771E0,1.0660185E0,-6.250273E-2,8.686283E-2,-1.0656203E-2,6.399157E-2,-1.0223231E0,5.7962712E-2,-5.974507E-2,-9.164583E-2,-6.293255E-1,8.5654944E-1,-5.341348E-1,-1.5854678E0,3.231619E-2,-5.580127E-2,8.064801E-1,6.5921944E-1,-1.2202412E0,-6.855806E-2,3.3431444E-2,-1.1372782E-2,1.55622E0,-2.6717687E-2,7.1815915E-2,-7.399324E-2,3.774953E-2,5.8707476E-2,-6.8598896E-2,1.5390258E0,-3.5490417E-1,1.3397732E0,-3.241186E-2,1.0630622E-2,8.3835095E-2,-8.9559324E-2,1.189075E-2,1.0364714E-2,6.727839E-2,-1.1298738E0,5.8959674E-2,9.3634456E-1,-6.03958E-1,1.0098881E-2,8.659274E-2,-6.8769404E-3,-1.6771857E0,-1.2839969E0,5.338123E-1,-1.3080394E0,5.5310243E-1,1.1170995E-2,-1.6486932E0,-6.458973E-2,4.402298E-2,-8.241641E-2,3.241249E-2,5.8565166E-2,-1.140445E-2,-1.2813936E0,3.3432257E-1,1.3437989E0,-5.8231976E-2,1.6795635E0,-1.940119E-2,-5.4384183E-2,1.13638E-2,-3.2605764E-2,6.155944E-2,-5.5385005E-2,3.181782E-2,1.042148E-2,8.9879066E-2,3.1640783E-2,-5.4388672E-2,5.5141784E-2,-5.745404E-2,-9.9287045E-1,7.722609E-1,-1.0448667E-2,-8.915698E-2,1.1428494E0,-4.3737602E-1,4.845711E-1,-1.0004107E0,-4.7790073E-2,5.8991987E-2,-1.657498E0,1.19052855E-2,2.2005407E-2,-8.662732E-2,-3.8504195E-1,1.4254389E0,6.1651953E-2,-1.0060043E0,1.0754767E-1,1.491306E0,3.8388884E-1,-7.778057E-2,9.491107E-3,8.66102E-2,8.509008E-2,-1.940119E-2,3.880947E-2,-7.592594E-2,1.7486671E0,-3.2412495E-2,1.2344753E0,-1.0839906E0,1.6342714E0,-8.2490867E-4,1.4901161E-9,5.823196E-2,-1.4572055E0,3.3011477E-2,8.0306835E-2,-3.7810422E-2,-1.029545E-2,-6.46719E-2,-1.2161937E0,5.4187622E-2,-5.3923097E-2,1.3079823E0,-2.374457E-2,-1.1008437E0,-1.7192557E0,1.0968144E-2,-5.756559E-1,1.289147E0,-3.2361157E-2,6.801699E-2,-1.4669297E0,3.739396E-2,8.598226E-2,1.0505871E-2,1.6178049E0,-1.4189672E-1,3.8205937E-2,-6.212988E-2,-8.216268E-3,8.446756E-2,-1.3489451E0,4.367542E-2,1.5566838E0,-1.08876545E-2,7.744107E-1,-1.127928E0,-1.7467238E0,-4.0082335E-1,-7.608407E-2,-1.0548413E-2,-6.5300626E-1,1.1165327E0,2.7210364E-2,-1.4282675E0,-1.1363791E-2,5.438419E-2,-1.6734036E0,-3.3757976E-1,-7.690003E-2,1.4901161E-9,1.4897584E0,-3.8106886E-1,1.3013096E-1,8.789672E-2,1.7676216E0,-6.8157135E-8,-1.3867697E0,4.0063652E-1,-2.58632E-2,7.328182E-2,1.5941546E0,-2.1458806E-1,-1.2409313E0,7.7477163E-1,-8.263229E-1,1.2306068E0,2.524611E-1,-1.3402809E0,-7.0080175E-3,-1.7350305E0,-5.301538E-2,5.46703E-2,-6.6890724E-2,4.402298E-2,8.712788E-2,4.2598213E-8,1.1548077E-2,-7.252426E-2,6.5782E-2,-1.0060043E0,-6.8157135E-8,1.5776058E0,5.8126837E-2,-3.2588582E-2,-1.9876494E-9,1.7658807E0,-1.1038466E-2,7.946624E-2,-6.755486E-2,-1.0801996E-2,8.9154944E-2,2.637736E-1,-8.03529E-3,-8.491028E-2,-7.343929E-2,-9.9151535E-3,8.1732504E-2,-1.0875373E-2,3.81573E-1,-9.7062695E-1,-1.5128189E0,6.9209136E-2,-9.077199E-2,-1.08883865E-2,3.1944856E-2,-6.471161E-2,-1.8949226E-2,8.046294E-2,-1.6335238E0,3.2354478E-2,-1.5929826E-2,1.6894777E0,-5.4261018E-2,3.8232956E-2,3.365304E-2,-1.5197959E0,8.805739E-2,-1.0142994E-2,8.682632E-1,-9.754398E-1,-3.2070033E-2,7.087105E-2,7.3935688E-3,-7.981529E-2,-1.8234032E0,-4.225145E-1,5.5248894E-2,-6.60621E-2,-6.753911E-2,3.227926E-2,-1.9066975E-2,7.529905E-2,-1.7951494E-1,-1.6033938E0,-1.6897688E0,1.3269328E-3,-6.205635E-2,3.95492E-2,1.4901161E-9,8.381451E-2,-9.6398336E-1,6.537367E-1,7.07153E-2,-9.109326E-1,1.8055156E0,1.4901161E-9,5.40359E-2,-5.40359E-2,-8.118383E-2,1.1468511E-2,5.8941722E-2,-3.2141235E-2,8.743985E-2,1.0743503E-2,5.3801525E-2,-5.212253E-2,1.0404613E-2,-7.9606436E-2,-3.247282E-2,7.1129754E-2,-5.3907275E-2,-1.0339905E-2,1.0696774E-2,7.394487E-2,6.0073197E-2,-6.09836E-2,3.2446537E-2,-1.5249261E0,-8.081543E-3,-1.7990329E0,-5.403589E-2,5.40359E-2,-7.252426E-2,1.1548077E-2,5.40359E-2,-5.40359E-2,1.654198E0,-1.9876494E-9,1.7881394E-9,1.7790232E0,5.3088713E-2,-3.25563E-2,7.8429663E-1,-1.0678679E0,2.6289193E-2,-7.368355E-2,-1.6657416E0,4.676845E-4,1.0714837E0,-6.697098E-2,-8.8446505E-2,1.0284326E-2,1.7930219E0,4.851464E-1,-1.6567951E0,1.1063721E-2,7.352582E-2,-3.272673E-2,1.1072582E-2,-7.165359E-2,6.2018394E-2,-6.1436098E-2,-9.530274E-3,-9.289304E-2,3.9881762E-2,-6.49338E-2,4.862259E-2,-6.3628666E-2,-1.6962863E0,1.7963258E-4,-8.3506275E-3,-1.7058227E0,2.300906E-2,-1.4370247E0,-3.836824E-2,6.4885035E-2,-6.9222316E-2,1.1512954E-2,9.220062E-2,1.940117E-2,-1.6785281E0,1.1375971E-2,-9.222188E-2,-1.0398122E-2,-1.080266E-2,1.7181722E0,1.7919607E0,1.6254386E-2,-6.1393123E-2,1.1361644E0,-6.669409E-2,-1.0425176E-2,-8.916288E-2,-1.0341395E-2,1.0036911E-2,6.721377E-2,1.826976E0,1.0375435E-2,6.0568523E-2,-3.2238614E-2,1.0857427E-2,-9.071357E-2,-9.009632E-2,-7.4146464E-3,-8.534928E-3,-1.7221719E0,-8.2050174E-2,-1.0436741E-2,-1.0771426E-2,-8.948922E-2,1.7611401E0,1.0802648E-2,1.4901161E-9,1.800986E0,1.4314772E0,-2.6910184E-2,9.312058E-2,1.0584122E-2,-1.7389098E0,-1.5013515E-2,1.805267E0,2.6408136E-2,1.8101028E0,-8.195638E-9,-1.1907003E-2,8.2651764E-2,-1.7557151E0,-1.60268E-2,9.272959E-2,8.730122E-1,1.8193123E0,-8.195638E-9,-2.0956855E-2,-1.7732377E0,5.7168793E-2,9.223132E-3,1.8284674E0,1.0802657E-2,-1.7824383E-2,-1.7853262E0,1.0802648E-2,1.8377404E0,-1.8083835E0,-8.222333E-1,1.8471336E0,1.0802657E-2,-9.1048636E-2,-2.5432572E-2,3.3233512E-2,-7.2658695E-2,1.8616253E0,7.645896E-1,1.8709738E0,7.497655E-1,-1.2373797E-2,6.3458696E-2,3.1008214E-2,1.8760271E0,5.4155786E-2,1.4901161E-9,1.8811457E0,3.1020751E-2,1.8863001E0,3.1159237E-2,3.1159246E-2,9.457626E-2],"categories":[],"categories_nodes":[],"categories_segments":[],"categories_sizes":[],"default_left":[0,0,0,0,0,0,0,0,0,0,0,0,0,0,0,0,0,0,0,0,0,0,0,0,0,0,0,0,0,0,0,0,0,0,0,0,0,0,0,0,0,0,0,0,0,0,0,0,0,0,0,0,0,0,0,0,0,0,0,0,0,0,0,0,0,0,0,0,0,0,0,0,0,0,0,0,0,0,0,0,0,0,0,0,0,0,0,0,0,0,0,0,0,0,0,0,0,0,0,0,0,0,0,0,0,0,0,0,0,0,0,0,0,0,0,0,0,0,0,0,0,0,0,0,0,0,0,0,0,0,0,0,0,0,0,0,0,0,0,0,0,0,0,0,0,0,0,0,0,0,0,0,0,0,0,0,0,0,0,0,0,0,0,0,0,0,0,0,0,0,0,0,0,0,0,0,0,0,0,0,0,0,0,0,0,0,0,0,0,0,0,0,0,0,0,0,0,0,0,0,0,0,0,0,0,0,0,0,0,0,0,0,0,0,0,0,0,0,0,0,0,0,0,0,0,0,0,0,0,0,0,0,0,0,0,0,0,0,0,0,0,0,0,0,0,0,0,0,0,0,0,0,0,0,0,0,0,0,0,0,0,0,0,0,0,0,0,0,0,0,0,0,0,0,0,0,0,0,0,0,0,0,0,0,0,0,0,0,0,0,0,0,0,0,0,0,0,0,0,0,0,0,0,0,0,0,0,0,0,0,0,0,0,0,0,0,0,0,0,0,0,0,0,0,0,0,0,0,0,0,0,0,0,0,0,0,0,0,0,0,0,0,0,0,0,0,0,0,0,0,0,0,0,0,0,0,0,0,0,0,0,0,0,0,0,0,0,0,0,0,0,0,0,0,0,0,0,0,0,0,0,0,0,0,0,0,0,0,0,0,0,0,0,0,0,0,0,0,0,0,0,0,0,0,0,0,0,0,0,0,0,0,0,0,0,0,0,0,0,0,0,0,0,0,0,0,0,0,0,0,0,0,0,0,0,0,0,0,0,0,0,0,0,0,0,0,0,0,0,0,0,0,0,0,0,0,0,0,0,0,0,0,0,0,0,0,0,0,0,0,0,0,0,0,0,0,0,0,0,0,0,0,0,0,0,0,0,0,0,0,0,0,0,0,0,0,0,0,0,0,0,0,0,0,0,0,0,0,0,0,0,0,0,0,0,0,0,0,0,0,0,0,0,0,0,0,0,0,0,0,0,0,0,0,0,0,0,0,0,0,0,0,0,0,0,0,0,0,0,0,0,0,0,0,0,0,0,0,0,0,0,0,0,0,0,0,0,0,0,0,0,0,0,0,0,0,0,0,0,0,0,0,0,0,0,0,0,0,0,0,0,0,0,0,0,0,0,0,0,0,0,0,0,0,0,0,0,0,0,0,0,0,0,0,0,0,0,0,0,0,0,0,0,0,0,0,0],"id":1,"left_children":[1,3,5,7,9,11,13,15,17,19,21,23,25,27,29,31,33,35,37,39,41,43,45,47,49,51,53,55,57,59,61,63,65,67,69,71,73,75,77,79,81,83,85,-1,87,-1,-1,89,91,93,95,97,99,101,103,105,107,109,111,113,115,117,119,-1,121,-1,-1,123,125,127,129,131,133,135,137,139,141,143,145,147,149,151,153,155,157,-1,-1,-1,159,161,163,165,167,169,171,-1,-1,173,175,177,179,181,183,-1,185,-1,187,-1,189,191,193,195,197,199,201,203,205,-1,207,209,211,213,215,217,219,221,223,225,227,229,231,233,235,237,239,-1,-1,-1,241,-1,-1,243,-1,245,-1,-1,247,-1,-1,-1,-1,249,251,253,-1,-1,255,257,259,261,263,-1,-1,265,267,269,271,273,275,277,-1,-1,279,-1,-1,281,283,-1,-1,285,-1,287,289,291,293,295,297,-1,299,301,-1,-1,-1,-1,-1,303,305,-1,-1,-1,307,309,-1,311,313,315,317,319,-1,321,323,325,-1,-1,-1,-1,327,-1,-1,-1,329,331,333,335,-1,-1,337,339,341,-1,-1,-1,343,-1,-1,-1,-1,-1,-1,345,347,349,-1,-1,-1,-1,-1,-1,-1,351,-1,353,355,-1,-1,-1,357,359,361,363,365,-1,367,-1,-1,-1,-1,-1,-1,369,371,373,-1,375,-1,-1,-1,-1,-1,-1,-1,-1,-1,-1,-1,-1,-1,377,379,-1,-1,381,383,385,387,-1,-1,389,-1,391,-1,393,395,-1,397,399,401,403,-1,-1,-1,-1,-1,-1,-1,405,-1,407,409,411,-1,-1,-1,413,-1,-1,-1,-1,-1,415,-1,-1,417,419,421,423,-1,425,427,-1,-1,429,-1,-1,-1,431,433,-1,-1,-1,-1,435,-1,437,439,441,443,445,447,-1,-1,449,451,-1,453,-1,-1,455,457,-1,-1,459,461,463,-1,465,467,469,471,-1,-1,473,475,477,479,481,483,485,487,-1,489,-1,-1,-1,-1,-1,491,-1,-1,-1,493,495,497,-1,-1,-1,499,-1,-1,-1,-1,-1,501,-1,-1,-1,-1,-1,-1,503,505,507,509,-1,-1,-1,-1,-1,-1,511,-1,-1,513,-1,-1,-1,515,-1,-1,517,519,-1,-1,521,-1,523,525,-1,-1,-1,-1,-1,-1,527,529,531,-1,-1,-1,-1,-1,533,535,-1,537,539,-1,-1,-1,-1,-1,-1,-1,-1,-1,-1,-1,-1,-1,-1,-1,-1,-1,-1,-1,-1,-1,-1,541,-1,543,-1,-1,-1,-1,-1,-1,545,-1,-1,547,-1,-1,549,551,-1,-1,553,-1,555,-1,-1,-1,557,559,561,-1,-1,-1,-1,-1,-1,-1,-1,-1,-1,-1,-1,-1,563,-1,-1,565,-1,567,-1,-1,-1,-1,-1,-1,569,-1,-1,-1,-1,571,573,-1,-1,575,-1,-1,-1,-1,-1,-1,577,-1,-1,-1,-1,-1,-1,-1,-1,579,-1,-1,-1,-1,581,-1,-1,583,585,-1,-1,-1,587,-1,589,-1,591,-1,-1,-1,593,-1,-1,595,597,-1,-1,599,-1,-1,601,-1,-1,603,-1,605,607,609,611,-1,-1,-1,-1,-1,613,615,617,619,-1,-1,-1,621,-1,-1,623,-1,625,-1,-1,-1],"loss_changes":[5.7346497E2,1.911712E2,2.2762997E2,8.480211E1,5.5656555E1,1.0634336E2,7.759943E1,3.9266834E1,4.6045563E1,4.7126114E1,8.445587E0,4.1823723E1,5.093957E1,3.6333534E1,3.420172E1,2.2911493E1,2.7111092E1,3.0826324E1,1.7453024E1,2.6185242E1,1.810704E1,6.0525208E0,5.889413E0,3.483046E1,1.4446416E1,2.18312E1,2.6714981E1,2.4087706E1,1.809592E1,1.7223572E1,2.4288656E1,1.1314365E1,7.409753E0,2.0926315E1,1.6896767E1,2.058635E1,1.6167286E1,1.09104185E1,1.2583288E1,1.2769066E1,2.29757E1,1.3563873E1,5.511071E0,0E0,6.070984E0,0E0,0E0,1.5164433E1,2.1965096E1,1.2575998E1,4.9387665E0,1.2353626E1,1.6063766E1,1.6583138E1,7.847885E0,1.0402338E1,1.3918043E1,8.437036E0,1.3752838E1,1.217838E1,1.5062622E1,8.6969185E0,1.3728059E1,0E0,8.900589E0,0E0,0E0,6.0972366E0,1.815362E1,1.9361624E1,1.3318717E1,1.35649805E1,1.3534241E1,6.1090326E0,1.2329863E1,2.7417605E0,1.068438E1,8.284641E0,7.933731E0,4.097843E0,1.4854719E1,2.096428E1,7.034582E0,1.1481323E1,1.2524921E1,0E0,0E0,0E0,5.5629272E0,3.940967E0,1.0580842E1,1.8035843E1,1.3144646E1,9.173424E0,6.808771E0,0E0,0E0,1.9243168E0,9.475571E0,1.0024351E1,4.487425E0,1.0274532E1,1.6810034E1,0E0,8.570213E0,0E0,7.6652603E0,0E0,1.2927068E1,5.7457952E0,9.6869755E-1,1.3754974E1,5.2313366E0,1.0908911E1,9.956661E0,1.8782337E1,1.6021545E1,0E0,6.610016E0,1.0311727E1,1.1445677E1,5.10532E0,1.1540275E1,8.419195E0,5.352188E0,1.4489826E1,8.121433E0,1.0115625E1,1.2436798E1,5.2965E0,4.2063007E0,6.5616627E0,8.110194E0,9.328451E0,1.2223206E1,0E0,0E0,0E0,8.232076E0,0E0,0E0,1.6910915E0,0E0,5.5751877E0,0E0,0E0,7.745781E-1,0E0,0E0,0E0,0E0,1.1119036E1,2.1654224E1,2.0027008E0,0E0,0E0,4.7140656E0,1.3100612E1,9.648792E0,5.12204E0,6.6896367E0,0E0,0E0,8.115271E0,1.9907627E0,1.2408527E1,1.3008453E1,7.6299896E0,1.706691E0,4.20292E0,0E0,0E0,3.3488712E0,0E0,0E0,2.2580338E0,3.2614474E0,0E0,0E0,5.9934115E0,0E0,1.232279E1,2.1838875E0,1.5378334E1,1.2675621E1,6.214358E0,5.1823196E0,0E0,6.6990204E0,1.1068974E1,0E0,0E0,0E0,0E0,0E0,8.976978E0,1.2756813E1,0E0,0E0,0E0,7.59291E0,2.0860004E0,0E0,6.8381634E0,8.007099E0,9.802612E0,1.4590594E1,3.8901482E0,0E0,9.6869683E-1,7.0293407E0,1.2272766E1,0E0,0E0,0E0,0E0,6.732645E-1,0E0,0E0,0E0,8.095274E0,9.261545E0,1.3546778E1,5.1384354E0,0E0,0E0,9.902059E0,4.999088E0,1.2367664E1,0E0,0E0,0E0,1.8904209E0,0E0,0E0,0E0,0E0,0E0,0E0,8.589661E0,5.166807E0,5.3967876E0,0E0,0E0,0E0,0E0,0E0,0E0,0E0,1.0711605E1,0E0,1.2631485E1,1.2414391E1,0E0,0E0,0E0,4.7914124E0,1.2071295E0,8.845595E0,8.169376E0,1.7066907E0,0E0,4.6809387E0,0E0,0E0,0E0,0E0,0E0,0E0,1.9707842E0,1.955306E1,1.2439873E1,0E0,7.4163666E0,0E0,0E0,0E0,0E0,0E0,0E0,0E0,0E0,0E0,0E0,0E0,0E0,0E0,7.9555798E0,5.8949857E0,0E0,0E0,9.214956E0,1.1661564E1,8.829265E0,1.0116455E1,0E0,0E0,4.9820786E0,0E0,5.2142663E0,0E0,7.2022295E0,6.2049847E0,0E0,3.218801E0,1.34185095E1,5.8772125E0,3.779833E0,0E0,0E0,0E0,0E0,0E0,0E0,0E0,6.171997E0,0E0,3.9611177E0,7.5036335E-1,4.3652954E0,0E0,0E0,0E0,3.0024204E0,0E0,0E0,0E0,0E0,0E0,1.1208534E0,0E0,0E0,4.212303E0,1.0238214E1,1.0812582E1,2.272194E0,0E0,4.5319095E0,6.209036E0,0E0,0E0,8.440861E0,0E0,0E0,0E0,8.919174E0,4.0330606E0,0E0,0E0,0E0,0E0,7.923008E0,0E0,5.026697E0,8.893084E0,5.4558296E0,6.3851576E0,5.1572876E0,7.689254E0,0E0,0E0,4.945757E0,5.3812485E0,0E0,6.5892715E0,0E0,0E0,4.459076E0,5.313352E0,0E0,0E0,2.4972668E0,9.667204E0,1.1305061E1,0E0,3.1914673E0,5.2535286E0,4.482441E0,3.8002808E0,0E0,0E0,1.9680023E0,5.9246144E0,3.8887234E0,5.5324984E0,3.2239056E-1,1.0701447E0,9.486681E0,7.6823807E0,0E0,3.9556808E0,0E0,0E0,0E0,0E0,0E0,5.2535276E0,0E0,0E0,0E0,3.2188E0,5.2535286E0,5.2160797E0,0E0,0E0,0E0,4.7122803E0,0E0,0E0,0E0,0E0,0E0,3.243703E0,0E0,0E0,0E0,0E0,0E0,0E0,1.1766314E1,6.78878E0,3.8500748E0,1.0952318E1,0E0,0E0,0E0,0E0,0E0,0E0,5.274441E0,0E0,0E0,6.411484E0,0E0,0E0,0E0,4.8328247E0,0E0,0E0,6.000266E0,3.053537E0,0E0,0E0,8.376199E0,0E0,2.733612E0,5.843382E0,0E0,0E0,0E0,0E0,0E0,0E0,7.5255513E0,4.10421E0,3.557312E0,0E0,0E0,0E0,0E0,0E0,7.389719E0,6.481387E0,0E0,2.8834584E0,1.8299408E0,0E0,0E0,0E0,0E0,0E0,0E0,0E0,0E0,0E0,0E0,0E0,0E0,0E0,0E0,0E0,0E0,0E0,0E0,0E0,0E0,0E0,0E0,4.9505424E0,0E0,2.5366058E0,0E0,0E0,0E0,0E0,0E0,0E0,5.2970047E0,0E0,0E0,3.2085571E0,0E0,0E0,1.2176804E1,7.4930525E-1,0E0,0E0,2.1985245E0,0E0,7.976589E-1,0E0,0E0,0E0,2.495453E0,5.6993146E0,5.551235E0,0E0,0E0,0E0,0E0,0E0,0E0,0E0,0E0,0E0,0E0,0E0,0E0,0E0,3.977211E0,0E0,0E0,3.6069336E0,0E0,1.5966272E0,0E0,0E0,0E0,0E0,0E0,0E0,2.1739883E0,0E0,0E0,0E0,0E0,2.1960144E0,3.227295E0,0E0,0E0,7.4362507E0,0E0,0E0,0E0,0E0,0E0,0E0,2.5907135E0,0E0,0E0,0E0,0E0,0E0,0E0,0E0,0E0,3.1353455E0,0E0,0E0,0E0,0E0,1.1504211E0,0E0,0E0,3.2600098E0,4.733898E0,0E0,0E0,0E0,3.0527039E0,0E0,7.859802E-2,0E0,3.2930908E0,0E0,0E0,0E0,2.762329E0,0E0,0E0,4.8618436E-1,2.4899292E0,0E0,0E0,1.8885498E0,0E0,0E0,2.5230103E0,0E0,0E0,1.7538147E0,0E0,2.5568848E0,1.3922119E0,5.887347E0,1.6011353E0,0E0,0E0,0E0,0E0,0E0,5.675049E-1,2.4812722E0,2.0446777E-2,8.1208277E-1,0E0,0E0,0E0,2.8747559E-2,0E0,0E0,2.2766113E-2,0E0,3.2714844E-2,0E0,0E0,0E0],"parents":[2147483647,0,0,1,1,2,2,3,3,4,4,5,5,6,6,7,7,8,8,9,9,10,10,11,11,12,12,13,13,14,14,15,15,16,16,17,17,18,18,19,19,20,20,21,21,22,22,23,23,24,24,25,25,26,26,27,27,28,28,29,29,30,30,31,31,32,32,33,33,34,34,35,35,36,36,37,37,38,38,39,39,40,40,41,41,42,42,44,44,47,47,48,48,49,49,50,50,51,51,52,52,53,53,54,54,55,55,56,56,57,57,58,58,59,59,60,60,61,61,62,62,64,64,67,67,68,68,69,69,70,70,71,71,72,72,73,73,74,74,75,75,76,76,77,77,78,78,79,79,80,80,81,81,82,82,83,83,84,84,88,88,89,89,90,90,91,91,92,92,93,93,94,94,97,97,98,98,99,99,100,100,101,101,102,102,104,104,106,106,108,108,109,109,110,110,111,111,112,112,113,113,114,114,115,115,116,116,118,118,119,119,120,120,121,121,122,122,123,123,124,124,125,125,126,126,127,127,128,128,129,129,130,130,131,131,132,132,133,133,134,134,138,138,141,141,143,143,146,146,151,151,152,152,153,153,156,156,157,157,158,158,159,159,160,160,163,163,164,164,165,165,166,166,167,167,168,168,169,169,172,172,175,175,176,176,179,179,181,181,182,182,183,183,184,184,185,185,186,186,188,188,189,189,195,195,196,196,200,200,201,201,203,203,204,204,205,205,206,206,207,207,209,209,210,210,211,211,216,216,220,220,221,221,222,222,223,223,226,226,227,227,228,228,232,232,239,239,240,240,241,241,249,249,251,251,252,252,256,256,257,257,258,258,259,259,260,260,262,262,269,269,270,270,271,271,273,273,287,287,288,288,291,291,292,292,293,293,294,294,297,297,299,299,301,301,302,302,304,304,305,305,306,306,307,307,315,315,317,317,318,318,319,319,323,323,329,329,332,332,333,333,334,334,335,335,337,337,338,338,341,341,345,345,346,346,351,351,353,353,354,354,355,355,356,356,357,357,358,358,361,361,362,362,364,364,367,367,368,368,371,371,372,372,373,373,375,375,376,376,377,377,378,378,381,381,382,382,383,383,384,384,385,385,386,386,387,387,388,388,390,390,396,396,400,400,401,401,402,402,406,406,412,412,419,419,420,420,421,421,422,422,429,429,432,432,436,436,439,439,440,440,443,443,445,445,446,446,453,453,454,454,455,455,461,461,462,462,464,464,465,465,488,488,490,490,497,497,500,500,503,503,504,504,507,507,509,509,513,513,514,514,515,515,529,529,532,532,534,534,541,541,546,546,547,547,550,550,557,557,566,566,571,571,574,574,575,575,579,579,581,581,583,583,587,587,590,590,591,591,594,594,597,597,600,600,602,602,603,603,604,604,605,605,611,611,612,612,613,613,614,614,618,618,621,621,623,623],"right_children":[2,4,6,8,10,12,14,16,18,20,22,24,26,28,30,32,34,36,38,40,42,44,46,48,50,52,54,56,58,60,62,64,66,68,70,72,74,76,78,80,82,84,86,-1,88,-1,-1,90,92,94,96,98,100,102,104,106,108,110,112,114,116,118,120,-1,122,-1,-1,124,126,128,130,132,134,136,138,140,142,144,146,148,150,152,154,156,158,-1,-1,-1,160,162,164,166,168,170,172,-1,-1,174,176,178,180,182,184,-1,186,-1,188,-1,190,192,194,196,198,200,202,204,206,-1,208,210,212,214,216,218,220,222,224,226,228,230,232,234,236,238,240,-1,-1,-1,242,-1,-1,244,-1,246,-1,-1,248,-1,-1,-1,-1,250,252,254,-1,-1,256,258,260,262,264,-1,-1,266,268,270,272,274,276,278,-1,-1,280,-1,-1,282,284,-1,-1,286,-1,288,290,292,294,296,298,-1,300,302,-1,-1,-1,-1,-1,304,306,-1,-1,-1,308,310,-1,312,314,316,318,320,-1,322,324,326,-1,-1,-1,-1,328,-1,-1,-1,330,332,334,336,-1,-1,338,340,342,-1,-1,-1,344,-1,-1,-1,-1,-1,-1,346,348,350,-1,-1,-1,-1,-1,-1,-1,352,-1,354,356,-1,-1,-1,358,360,362,364,366,-1,368,-1,-1,-1,-1,-1,-1,370,372,374,-1,376,-1,-1,-1,-1,-1,-1,-1,-1,-1,-1,-1,-1,-1,378,380,-1,-1,382,384,386,388,-1,-1,390,-1,392,-1,394,396,-1,398,400,402,404,-1,-1,-1,-1,-1,-1,-1,406,-1,408,410,412,-1,-1,-1,414,-1,-1,-1,-1,-1,416,-1,-1,418,420,422,424,-1,426,428,-1,-1,430,-1,-1,-1,432,434,-1,-1,-1,-1,436,-1,438,440,442,444,446,448,-1,-1,450,452,-1,454,-1,-1,456,458,-1,-1,460,462,464,-1,466,468,470,472,-1,-1,474,476,478,480,482,484,486,488,-1,490,-1,-1,-1,-1,-1,492,-1,-1,-1,494,496,498,-1,-1,-1,500,-1,-1,-1,-1,-1,502,-1,-1,-1,-1,-1,-1,504,506,508,510,-1,-1,-1,-1,-1,-1,512,-1,-1,514,-1,-1,-1,516,-1,-1,518,520,-1,-1,522,-1,524,526,-1,-1,-1,-1,-1,-1,528,530,532,-1,-1,-1,-1,-1,534,536,-1,538,540,-1,-1,-1,-1,-1,-1,-1,-1,-1,-1,-1,-1,-1,-1,-1,-1,-1,-1,-1,-1,-1,-1,542,-1,544,-1,-1,-1,-1,-1,-1,546,-1,-1,548,-1,-1,550,552,-1,-1,554,-1,556,-1,-1,-1,558,560,562,-1,-1,-1,-1,-1,-1,-1,-1,-1,-1,-1,-1,-1,564,-1,-1,566,-1,568,-1,-1,-1,-1,-1,-1,570,-1,-1,-1,-1,572,574,-1,-1,576,-1,-1,-1,-1,-1,-1,578,-1,-1,-1,-1,-1,-1,-1,-1,580,-1,-1,-1,-1,582,-1,-1,584,586,-1,-1,-1,588,-1,590,-1,592,-1,-1,-1,594,-1,-1,596,598,-1,-1,600,-1,-1,602,-1,-1,604,-1,606,608,610,612,-1,-1,-1,-1,-1,614,616,618,620,-1,-1,-1,622,-1,-1,624,-1,626,-1,-1,-1],"split_conditions":[-5.3101175E-2,-1.0423768E-1,8.962738E-2,7.9916745E-2,2.6706696E-2,-7.8741595E-2,3.2141498E-1,-8.244734E-2,1.10221006E-1,-2.0212242E-1,1.2462969E-1,9.7371414E-2,-2.638468E-1,-3.0286527E-1,5.9736498E-2,2.630024E-1,6.2805824E-2,2.1978801E-2,-1.0775425E-2,2.1421541E-1,8.834964E-2,-3.479317E-1,-3.5227427E-1,-1.2050365E-1,8.426965E-2,-2.0242989E-1,2.5034416E-1,4.3541172E-1,-1.7056113E-1,2.631611E-1,-1.4112014E-1,1.7128825E-1,5.5225343E-3,-9.374238E-2,-7.2289936E-2,-4.6671194E-1,3.8923407E-1,-7.7720106E-2,3.4021422E-1,-5.878907E-2,1.108415E-1,1.3164303E-1,-2.3823154E-1,9.333717E-3,-4.0730435E-1,5.8814492E-2,-5.2905966E-2,-1.9201452E-1,-1.7909898E-1,-8.265029E-2,5.4645956E-2,-3.1997564E-1,-1.7425752E-1,3.577286E-1,-7.619329E-1,-3.474999E0,-2.9362413E-1,3.1608054E-1,5.136573E-1,2.2698576E-2,-6.983003E-2,-5.0719064E-1,-1.503354E-1,-4.8306547E-2,2.1529412E-1,2.6172921E-2,-7.9825416E-2,-2.3584661E-1,1.4475681E-2,-5.2201617E-1,3.4896964E-1,-2.194118E-2,-4.4027564E-1,-2.8780964E-1,2.4629039E-1,-1.3523242E-1,2.936174E-1,1.0078876E-1,-5.4170465E-1,-2.8866434E-1,6.9698565E-2,3.25713E-1,8.989952E-2,-4.0462297E-1,-8.1132765E0,7.065742E-2,-3.265309E-2,8.762418E-3,2.8463382E-1,1.1456727E-1,1.7382783E-1,8.274212E-2,1.9989818E-1,1.3096173E-1,-1.1315472E-1,1.1696786E-2,-8.576253E-2,-4.272051E-1,2.4377635E-1,-1.2749767E-1,-2.030544E-1,6.358454E-2,1.16004445E-1,3.2618314E-2,-1.1045809E-1,5.40359E-2,-5.4755457E-2,-7.071531E-2,-1.7443037E-1,-2.9428154E-1,1.5009795E-1,-5.448752E-2,-6.3278824E-2,-4.257043E-1,-2.248098E-2,2.254695E-1,1.06442876E-1,-2.3281617E-2,6.3141957E-3,-2.7859023E-1,-1.8575032E-1,6.1426595E-2,-2.360549E-1,-1.4171034E-1,2.3253508E0,-2.1935993E-1,6.03158E-1,-2.1667117E-1,-4.7674868E-1,2.6681492E-1,-5.2661695E-2,1.3162125E-2,1.8935898E-1,-6.878516E-1,6.905069E-2,-8.310589E-2,7.983721E-3,-5.7753462E-2,-7.054743E-2,1.1152686E-2,-6.851772E-2,-2.0874049E-1,-5.4313976E-2,1.857796E-1,3.2561716E-2,-5.7978887E-2,6.971887E-2,1.7881394E-9,-8.64953E-2,-6.894139E-2,7.226496E-2,8.426776E-2,1.7176446E-1,-5.691387E-1,-1.5947813E-2,3.880947E-2,-4.5712912E-1,-4.3381255E-2,5.9063596E-1,-1.3890302E-1,8.99396E-2,7.413927E-2,-1.0027113E-2,-2.7848512E-1,-1.9166512E-2,-2.1548939E-1,-1.4200641E-1,3.2877648E-1,-3.641756E-1,-2.1044394E-1,-7.858042E-2,7.9264335E-2,2.891276E-2,1.0332055E-2,-5.891573E-2,-2.0427147E-1,2.6055224E-2,-5.403589E-2,7.690003E-2,-2.2127585E-1,-8.261267E-2,-1.2177154E-2,-1.7111127E-1,-9.023422E-2,5.068125E-2,7.765312E-2,3.4587163E-1,3.332552E-2,1.3765518E-1,1.6326497E-1,-6.4493E-2,-7.903234E-2,2.0425383E-2,-8.195638E-9,5.823196E-2,-1.0931156E-1,-2.5171125E-1,-6.887678E-2,3.2643612E-2,6.6890724E-2,-1.5085687E-1,-4.092095E-1,-3.8809467E-2,1.0682529E-1,-1.7730626E-1,2.6473814E-1,-2.93127E-1,2.078237E-1,-2.0092923E-2,3.4749433E-3,2.6203638E-1,3.978138E-1,-6.250273E-2,8.686283E-2,-1.0656203E-2,6.399157E-2,2.7615893E-1,5.7962712E-2,-5.974507E-2,-9.164583E-2,1.8758762E-1,-3.725163E-2,-9.0308934E-2,1.852425E-1,3.231619E-2,-5.580127E-2,-3.3952532E0,-1.3922838E0,-1.2177713E-1,-6.855806E-2,3.3431444E-2,-1.1372782E-2,8.353695E-2,-2.6717687E-2,7.1815915E-2,-7.399324E-2,3.774953E-2,5.8707476E-2,-6.8598896E-2,3.245737E-1,-4.3802947E-1,-3.2896227E-1,-3.241186E-2,1.0630622E-2,8.3835095E-2,-8.9559324E-2,1.189075E-2,1.0364714E-2,6.727839E-2,-1.6632792E-2,5.8959674E-2,-2.139326E-1,2.3442632E-1,1.0098881E-2,8.659274E-2,-6.8769404E-3,5.4630107E-1,3.3067092E-1,-1.7085072E-1,-2.051734E-1,-1.7031145E-1,1.1170995E-2,6.893103E-1,-6.458973E-2,4.402298E-2,-8.241641E-2,3.241249E-2,5.8565166E-2,-1.140445E-2,4.513385E-2,-3.850815E-1,-3.156867E-1,-5.8231976E-2,2.7768412E-1,-1.940119E-2,-5.4384183E-2,1.13638E-2,-3.2605764E-2,6.155944E-2,-5.5385005E-2,3.181782E-2,1.042148E-2,8.9879066E-2,3.1640783E-2,-5.4388672E-2,5.5141784E-2,-5.745404E-2,2.3678845E-1,9.872347E-2,-1.0448667E-2,-8.915698E-2,2.857433E-1,2.9561192E-1,3.90906E-2,-3.9000112E-1,-4.7790073E-2,5.8991987E-2,-3.7743306E-1,1.19052855E-2,-3.2698604E-1,-8.662732E-2,1.4143415E-1,-3.144032E-1,6.1651953E-2,-2.0591384E-1,2.9071242E-1,-2.2537431E-1,1.239293E-1,-7.778057E-2,9.491107E-3,8.66102E-2,8.509008E-2,-1.940119E-2,3.880947E-2,-7.592594E-2,-3.0649614E-1,-3.2412495E-2,-1.2955819E-1,-9.288231E-2,2.785346E-1,-8.2490867E-4,1.4901161E-9,5.823196E-2,-2.6144588E-1,3.3011477E-2,8.0306835E-2,-3.7810422E-2,-1.029545E-2,-6.46719E-2,2.1262568E-1,5.4187622E-2,-5.3923097E-2,5.6306105E-2,3.3012128E-1,1.281284E-1,8.539666E-2,1.0968144E-2,-3.392549E-1,-7.58218E-2,-3.2361157E-2,6.801699E-2,4.9176297E-1,3.739396E-2,8.598226E-2,1.0505871E-2,-2.4670863E-1,1.6727364E-1,3.8205937E-2,-6.212988E-2,-8.216268E-3,8.446756E-2,-2.4247137E-1,4.367542E-2,1.11295E-1,1.6665806E-1,2.4689826E-1,1.1189637E-1,-2.9514134E-2,-5.160176E-1,-7.608407E-2,-1.0548413E-2,3.4766182E-1,1.29406E-1,2.7210364E-2,-4.978274E-1,-1.1363791E-2,5.438419E-2,4.277403E0,8.5879005E-2,-7.690003E-2,1.4901161E-9,6.914619E-2,-3.949728E-2,-9.277791E-3,8.789672E-2,5.5962324E-1,-6.289148E-2,-2.5214517E-2,1.4969376E-1,-2.58632E-2,7.328182E-2,-6.1916232E-2,2.640512E-1,-8.2356974E-2,-5.681449E-1,1.6132398E-2,3.5158315E-1,1.6682638E-1,-2.2864306E-1,-7.0080175E-3,-8.4339494E-1,-5.301538E-2,5.46703E-2,-6.6890724E-2,4.402298E-2,8.712788E-2,-1.8782148E-1,1.1548077E-2,-7.252426E-2,6.5782E-2,3.529103E-1,-3.0201858E-2,-1.9306816E-2,5.8126837E-2,-3.2588582E-2,-1.9876494E-9,-2.4215738E-1,-1.1038466E-2,7.946624E-2,-6.755486E-2,-1.0801996E-2,8.9154944E-2,-1.6655865E-1,-8.03529E-3,-8.491028E-2,-7.343929E-2,-9.9151535E-3,8.1732504E-2,-1.0875373E-2,1.1860669E-2,-3.7280107E-1,1.9370723E-1,1.9530599E-1,-9.077199E-2,-1.08883865E-2,3.1944856E-2,-6.471161E-2,-1.8949226E-2,8.046294E-2,3.2744473E-1,3.2354478E-2,-1.5929826E-2,1.6768721E-1,-5.4261018E-2,3.8232956E-2,3.365304E-2,6.5435314E-1,8.805739E-2,-1.0142994E-2,1.03208095E-1,-8.1493445E-2,-3.2070033E-2,7.087105E-2,1.02808595E-1,-7.981529E-2,-1.2840442E-1,2.1225672E-2,5.5248894E-2,-6.60621E-2,-6.753911E-2,3.227926E-2,-1.9066975E-2,7.529905E-2,4.868087E-1,-7.604855E-2,-5.660233E-1,1.3269328E-3,-6.205635E-2,3.95492E-2,1.4901161E-9,8.381451E-2,3.1165206E-1,-3.5766283E-1,7.07153E-2,3.4309238E-1,1.0206665E-1,1.4901161E-9,5.40359E-2,-5.40359E-2,-8.118383E-2,1.1468511E-2,5.8941722E-2,-3.2141235E-2,8.743985E-2,1.0743503E-2,5.3801525E-2,-5.212253E-2,1.0404613E-2,-7.9606436E-2,-3.247282E-2,7.1129754E-2,-5.3907275E-2,-1.0339905E-2,1.0696774E-2,7.394487E-2,6.0073197E-2,-6.09836E-2,3.2446537E-2,4.0408987E-1,-8.081543E-3,8.064439E-1,-5.403589E-2,5.40359E-2,-7.252426E-2,1.1548077E-2,5.40359E-2,-5.40359E-2,-5.6103736E-1,-1.9876494E-9,1.7881394E-9,4.9304643E-1,5.3088713E-2,-3.25563E-2,-2.6035038E-1,-2.412904E-1,2.6289193E-2,-7.368355E-2,3.0466852E-1,4.676845E-4,1.2823129E-2,-6.697098E-2,-8.8446505E-2,1.0284326E-2,1.9326818E-1,1.2470532E-1,-3.702649E-1,1.1063721E-2,7.352582E-2,-3.272673E-2,1.1072582E-2,-7.165359E-2,6.2018394E-2,-6.1436098E-2,-9.530274E-3,-9.289304E-2,3.9881762E-2,-6.49338E-2,4.862259E-2,-6.3628666E-2,3.821983E-1,1.7963258E-4,-8.3506275E-3,-2.9128873E-1,2.300906E-2,6.5764135E-1,-3.836824E-2,6.4885035E-2,-6.9222316E-2,1.1512954E-2,9.220062E-2,1.940117E-2,-1.4399048E-2,1.1375971E-2,-9.222188E-2,-1.0398122E-2,-1.080266E-2,4.4864264E-1,-4.0278053E-1,1.6254386E-2,-6.1393123E-2,1.1616839E0,-6.669409E-2,-1.0425176E-2,-8.916288E-2,-1.0341395E-2,1.0036911E-2,6.721377E-2,4.7730902E-1,1.0375435E-2,6.0568523E-2,-3.2238614E-2,1.0857427E-2,-9.071357E-2,-9.009632E-2,-7.4146464E-3,-8.534928E-3,7.8737617E-1,-8.2050174E-2,-1.0436741E-2,-1.0771426E-2,-8.948922E-2,1.4409408E-1,1.0802648E-2,1.4901161E-9,1.1926212E-1,-4.1272715E-1,-2.6910184E-2,9.312058E-2,1.0584122E-2,3.2730237E-1,-1.5013515E-2,3.9367405E-1,2.6408136E-2,4.4943333E-1,-8.195638E-9,-1.1907003E-2,8.2651764E-2,-3.0534542E-1,-1.60268E-2,9.272959E-2,-1.0102295E-1,4.9796492E-1,-8.195638E-9,-2.0956855E-2,-5.159841E-1,5.7168793E-2,9.223132E-3,-2.1497665E-1,1.0802657E-2,-1.7824383E-2,1.6123627E-1,1.0802648E-2,8.7184656E-1,4.3395463E-1,-1.6114937E-2,3.5495648E-1,1.0802657E-2,-9.1048636E-2,-2.5432572E-2,3.3233512E-2,-7.2658695E-2,2.737062E-1,-2.6511258E-1,-1.4500384E-1,-5.718497E-1,-1.2373797E-2,6.3458696E-2,3.1008214E-2,5.167311E-1,5.4155786E-2,1.4901161E-9,5.688036E-1,3.1020751E-2,-6.312193E-1,3.1159237E-2,3.1159246E-2,9.457626E-2],"split_indices":[531,147,235,235,424,424,545,386,424,666,501,325,147,635,424,499,249,161,296,192,716,669,49,235,196,161,167,425,249,425,195,509,590,11,585,253,6,577,376,267,328,1,440,0,351,0,0,310,635,95,153,9,685,85,450,142,447,1,499,79,707,455,764,0,557,0,0,430,255,618,85,500,265,21,678,105,727,175,264,76,377,72,12,118,752,0,0,0,231,397,642,230,416,550,412,0,0,204,239,486,554,761,158,0,649,0,500,0,476,605,22,337,92,375,684,82,354,0,591,359,146,195,494,741,588,424,586,91,291,166,262,320,727,461,120,0,0,0,689,0,0,34,0,598,0,0,290,0,0,0,0,265,158,0,0,0,759,507,281,621,47,0,0,523,12,105,578,469,9,9,0,0,135,0,0,607,97,0,0,455,0,37,617,313,575,38,76,0,89,649,0,0,0,0,0,687,48,0,0,0,62,139,0,41,147,161,375,150,0,1,348,374,0,0,0,0,340,0,0,0,742,366,414,217,0,0,308,381,264,0,0,0,494,0,0,0,0,0,0,290,287,625,0,0,0,0,0,0,0,316,0,398,391,0,0,0,93,111,207,339,9,0,509,0,0,0,0,0,0,11,618,266,0,236,0,0,0,0,0,0,0,0,0,0,0,0,0,731,491,0,0,254,13,257,618,0,0,150,0,51,0,723,197,0,22,57,95,29,0,0,0,0,0,0,0,249,0,171,9,254,0,0,0,643,0,0,0,0,0,42,0,0,215,417,96,520,0,195,60,0,0,124,0,0,0,269,242,0,0,0,0,737,0,150,460,603,663,373,549,0,0,186,678,0,342,0,0,205,189,0,0,1,331,210,0,571,163,56,31,0,0,380,545,34,605,22,69,10,372,0,726,0,0,0,0,0,66,0,0,0,94,86,582,0,0,0,642,0,0,0,0,0,44,0,0,0,0,0,0,139,530,464,340,0,0,0,0,0,0,357,0,0,416,0,0,0,497,0,0,744,269,0,0,97,0,543,387,0,0,0,0,0,0,17,645,112,0,0,0,0,0,283,311,0,59,684,0,0,0,0,0,0,0,0,0,0,0,0,0,0,0,0,0,0,0,0,0,0,486,0,766,0,0,0,0,0,0,455,0,0,170,0,0,703,476,0,0,641,0,130,0,0,0,105,671,607,0,0,0,0,0,0,0,0,0,0,0,0,0,500,0,0,167,0,67,0,0,0,0,0,0,36,0,0,0,0,58,28,0,0,360,0,0,0,0,0,0,558,0,0,0,0,0,0,0,0,767,0,0,0,0,587,0,0,307,336,0,0,0,593,0,200,0,395,0,0,0,469,0,0,5,35,0,0,706,0,0,323,0,0,388,0,766,718,318,228,0,0,0,0,0,657,9,128,311,0,0,0,550,0,0,79,0,300,0,0,0],"split_type":[0,0,0,0,0,0,0,0,0,0,0,0,0,0,0,0,0,0,0,0,0,0,0,0,0,0,0,0,0,0,0,0,0,0,0,0,0,0,0,0,0,0,0,0,0,0,0,0,0,0,0,0,0,0,0,0,0,0,0,0,0,0,0,0,0,0,0,0,0,0,0,0,0,0,0,0,0,0,0,0,0,0,0,0,0,0,0,0,0,0,0,0,0,0,0,0,0,0,0,0,0,0,0,0,0,0,0,0,0,0,0,0,0,0,0,0,0,0,0,0,0,0,0,0,0,0,0,0,0,0,0,0,0,0,0,0,0,0,0,0,0,0,0,0,0,0,0,0,0,0,0,0,0,0,0,0,0,0,0,0,0,0,0,0,0,0,0,0,0,0,0,0,0,0,0,0,0,0,0,0,0,0,0,0,0,0,0,0,0,0,0,0,0,0,0,0,0,0,0,0,0,0,0,0,0,0,0,0,0,0,0,0,0,0,0,0,0,0,0,0,0,0,0,0,0,0,0,0,0,0,0,0,0,0,0,0,0,0,0,0,0,0,0,0,0,0,0,0,0,0,0,0,0,0,0,0,0,0,0,0,0,0,0,0,0,0,0,0,0,0,0,0,0,0,0,0,0,0,0,0,0,0,0,0,0,0,0,0,0,0,0,0,0,0,0,0,0,0,0,0,0,0,0,0,0,0,0,0,0,0,0,0,0,0,0,0,0,0,0,0,0,0,0,0,0,0,0,0,0,0,0,0,0,0,0,0,0,0,0,0,0,0,0,0,0,0,0,0,0,0,0,0,0,0,0,0,0,0,0,0,0,0,0,0,0,0,0,0,0,0,0,0,0,0,0,0,0,0,0,0,0,0,0,0,0,0,0,0,0,0,0,0,0,0,0,0,0,0,0,0,0,0,0,0,0,0,0,0,0,0,0,0,0,0,0,0,0,0,0,0,0,0,0,0,0,0,0,0,0,0,0,0,0,0,0,0,0,0,0,0,0,0,0,0,0,0,0,0,0,0,0,0,0,0,0,0,0,0,0,0,0,0,0,0,0,0,0,0,0,0,0,0,0,0,0,0,0,0,0,0,0,0,0,0,0,0,0,0,0,0,0,0,0,0,0,0,0,0,0,0,0,0,0,0,0,0,0,0,0,0,0,0,0,0,0,0,0,0,0,0,0,0,0,0,0,0,0,0,0,0,0,0,0,0,0,0,0,0,0,0,0,0,0,0,0,0,0,0,0,0,0,0,0,0,0,0,0,0,0,0,0,0,0,0,0,0,0,0,0,0,0,0,0,0,0,0,0,0,0,0,0,0,0,0,0,0,0,0,0,0,0,0,0,0,0,0,0,0,0,0,0,0,0,0,0,0,0,0,0,0,0,0,0,0,0,0,0,0,0,0,0,0,0,0,0,0,0],"sum_hessian":[1.4544299E3,7.217454E2,7.326846E2,3.389422E2,3.8280322E2,3.1672122E2,4.1596332E2,2.0067377E2,1.3826842E2,2.1064697E2,1.7215625E2,1.4874754E2,1.679737E2,1.12068726E2,3.038946E2,3.0698414E1,1.6997536E2,1.0481687E2,3.3451538E1,9.161123E1,1.1903575E2,1.6941008E2,2.746165E0,1.24533554E2,2.4213984E1,3.4944767E1,1.3302893E2,4.1182007E1,7.088672E1,2.5072781E2,5.3166775E1,2.4208899E1,6.4895153E0,1.1481022E2,5.516514E1,8.2850525E1,2.1966345E1,1.1987275E1,2.1464264E1,2.1712614E1,6.989861E1,1.1504059E2,3.9951606E0,1.7476653E0,1.6766241E2,1.4991615E0,1.2470036E0,1.8724924E1,1.0580863E2,1.4481733E1,9.73225E0,2.0965065E1,1.3979702E1,8.362087E1,4.940806E1,1.971469E1,2.1467318E1,8.490978E0,6.239574E1,2.121851E1,2.2950931E2,2.7952E1,2.5214777E1,1.9969224E0,2.2211977E1,1.7463245E0,4.743191E0,4.0930523E1,7.38797E1,4.0937237E1,1.4227902E1,1.3478917E1,6.937161E1,8.487978E0,1.3478367E1,3.4959466E0,8.491328E0,1.6470549E1,4.993714E0,1.6220015E1,5.4925995E0,5.766781E1,1.2230804E1,6.461991E1,5.0420685E1,2.7461364E0,1.249024E0,1.7485222E0,1.659139E2,4.994948E0,1.3729977E1,5.2665646E1,5.3142982E1,7.4896326E0,6.9921007E0,1.2488775E0,8.483373E0,2.747454E0,1.8217611E1,5.242643E0,8.73706E0,3.1200285E1,5.242059E1,1.2485708E0,4.815949E1,1.249036E0,1.8465652E1,2.7463062E0,1.872101E1,5.9923277E0,2.498651E0,5.8650063E1,3.7456813E0,9.237956E0,1.1980555E1,1.4727632E1,2.1478168E2,2.2481318E0,2.5703867E1,1.3230276E1,1.1984501E1,1.5472843E1,6.739134E0,4.493144E0,3.6437378E1,5.3913334E1,1.9966364E1,1.5227008E1,2.571023E1,3.74396E0,1.0483942E1,6.737815E0,6.7411027E0,3.9935791E0,6.537803E1,6.2399435E0,2.248034E0,2.7452927E0,1.0733074E1,1.2480083E0,2.2479384E0,7.242894E0,1.2484345E0,1.5221158E1,1.2493912E0,1.4980699E0,3.495644E0,1.5E0,1.4720016E1,2.4968143E0,2.9957852E0,2.222042E1,3.5447388E1,1.0232934E1,1.9978704E0,1.4994001E0,6.3120506E1,1.5727884E1,3.46928E1,1.6216682E2,3.747073E0,3.246289E0,1.7486589E0,1.0981903E1,2.7480733E0,2.696193E1,2.5703716E1,5.0644485E1,2.4984946E0,2.9971547E0,4.4924774E0,4.494137E0,2.4979644E0,1.248112E0,1.499342E0,1.5720727E1,2.4968848E0,1.249036E0,3.9936068E0,2.747042E0,5.9900174E0,1.722659E1,1.3973695E1,2.3468962E1,2.8951628E1,3.495254E0,4.4664234E1,1.2492397E0,1.7216413E1,1.6723232E1,1.9977794E0,4.4932632E0,1.4990642E0,1.0000001E0,1.4986508E0,5.9933267E0,5.2656734E1,2.4966416E0,1.2490394E0,2.247306E0,6.9906497E0,1.0481154E1,1.4994001E0,9.484068E0,5.2435637E0,2.0529474E2,9.486938E0,2.420569E1,1.4981761E0,2.4986508E0,1.0731626E1,1.0235513E1,1.7489884E0,1.4225651E1,1.2471924E0,3.494144E0,3.2449899E0,1.498017E0,2.995127E0,3.0696226E1,5.741151E0,7.9876213E0,4.5925713E1,1.8718424E1,1.2479402E0,2.4962366E0,1.2730771E1,3.4964676E0,2.2213762E1,2.4951835E0,1.2487766E0,1.2481185E0,9.235824E0,1.7474005E0,4.9904146E0,5.2437754E0,1.4973273E0,1.4978222E0,2.4957569E0,6.213248E1,3.2455506E0,8.735994E0,1.9970801E0,1.2479725E0,5.9949217E0,1.3972608E1,1.2485505E0,1.2478626E0,2.2477815E0,2.0721674E1,1.4987464E0,2.0467703E1,1.4979685E1,1.2480098E0,8.984924E0,2.2479377E0,6.087257E1,4.9917827E0,1.0736102E1,3.2194305E1,2.4984946E0,1.2484524E0,1.6091837E2,1.9979765E0,1.7490964E0,9.73225E0,1.2496529E0,1.4986963E0,1.249377E0,4.993607E0,2.1968323E1,2.4205065E1,1.498651E0,4.9144638E1,1.4998499E0,1.2490615E0,1.2494332E0,1.2490977E0,1.748057E0,1.2494534E0,1.248511E0,1.2482836E0,1.4472444E1,1.2476287E0,1.2492561E0,1.2498828E0,1.497159E0,1.2481459E1,4.7451315E0,1.2474127E0,1.2726282E1,1.3483519E1,9.985443E0,6.98834E0,2.196329E1,1.9961518E0,1.4991021E0,4.3416138E1,1.2480971E0,2.4968536E0,1.471956E1,3.9964023E0,1.272683E1,1.7482295E0,4.245097E0,7.9907117E0,4.4666023E1,2.7476048E0,4.243045E0,1.2484596E0,9.232695E0,7.984218E0,1.4998499E0,1.4994001E0,3.7441638E0,2.0404507E2,1.2496529E0,5.991275E0,3.4956641E0,2.2707817E1,1.4978739E0,1E0,1.4986508E0,9.482519E0,1.2491069E0,7.986774E0,2.2487388E0,1.2475886E0,1.9974012E0,4.4922457E0,1.2489051E0,1.2482361E0,6.739385E0,2.4711712E1,2.1214E1,1.7470772E1,1.2476528E0,3.2452397E0,9.485531E0,1.2479516E0,2.2485158E0,1.9965853E1,2.2479095E0,7.9884734E0,1.2473502E0,5.9386776E1,2.7457073E0,1.4972863E0,1.7482643E0,1.747427E0,6.988567E0,1.8973566E1,1.7481085E0,1.1979177E1,8.488525E0,3.9942756E0,1.098541E1,5.7378014E1,3.494558E0,3.7442777E0,1.2475051E0,3.4957466E0,7.240355E0,1.7473879E0,3.0446917E1,1.2494332E0,1.2490615E0,1.5767046E2,3.2479103E0,3.993607E0,1E0,7.9866185E0,1.3981705E1,6.492456E0,1.771261E1,4.6646564E1,2.4980721E0,9.73463E0,2.7468286E0,1.7480804E0,2.9970512E0,9.98833E0,3.495189E0,5.99049E0,3.9949532E0,2.495595E0,4.492745E0,4.741556E0,1.7221733E1,2.2471166E0,4.116902E1,1.2472519E0,1.2496018E0,2.2473059E0,1.7490964E0,1.0228757E1,2.498072E0,1.2491525E0,2.9959445E0,3.7456145E0,4.245097E0,2.4980721E0,4.216795E1,1.4984825E0,1.2491224E0,1.9987506E0,2.0204633E2,1.2485983E0,4.7426763E0,2.2473907E0,1.2482734E0,2.0211874E1,2.4959428E0,1.747638E0,7.7348804E0,3.244215E0,1.2480307E0,5.491813E0,1.2475721E0,1.7722523E1,6.9891896E0,1.547301E1,5.740991E0,1.6222479E1,1.248292E0,1.2475271E0,1.9977126E0,1.497582E0,7.9879494E0,1.8718075E1,1.2477776E0,1.9966836E0,5.739009E1,1.2489854E0,1.4967217E0,1.2492551E0,1.772431E1,1.0731262E1,1.2479159E0,4.493085E0,3.9954402E0,1.248272E0,2.7460036E0,3.4958582E0,7.489551E0,5.3881012E1,3.497002E0,1.2496382E0,2.2449198E0,2.2477605E0,1.2479861E0,1.498342E0,5.742013E0,3.9938064E0,2.645311E1,1.5617297E2,1.4974837E0,1.7483842E0,1.4995261E0,1E0,6.9866185E0,8.987443E0,4.9942613E0,2.746306E0,3.74615E0,4.5646564E1,1E0,1.249036E0,1.2490361E0,8.486017E0,1.248613E0,1.4990927E0,1.247736E0,8.740466E0,1.2478634E0,1.2487097E0,2.2464793E0,1.2481521E0,4.7423377E0,1.2482272E0,2.7467258E0,1.2480239E0,1.2475712E0,1.2472568E0,3.2454882E0,2.9948218E0,1.7467341E0,1.2492197E0,1.5972513E1,1.7470026E0,3.9422016E1,1.249036E0,1.249036E0,2.9959447E0,1.2491525E0,1.249036E0,1.2490361E0,4.01692E1,1.9987506E0,1.5E0,2.0054633E2,1.2473944E0,1.2485484E0,1.422816E1,3.4943628E0,1.7470415E0,5.242148E0,1.3974741E1,1.4982686E0,3.4941552E0,2.246836E0,1.7470104E1,1.2479708E0,5.239641E1,4.993677E0,1.6476252E1,1.2480597E0,3.244318E0,1.248767E0,1.2478648E0,2.7475755E0,1.7484306E0,1.7474276E0,1.2485623E0,5.2632446E1,1.4990449E0,1.997957E0,1.9982269E0,1.9955794E0,2.4955006E1,1.4981048E0,1.7482632E0,1.5442471E2,2.2476697E0,6.7397738E0,1.4976394E0,3.4966218E0,2.4969387E0,1.2492112E0,4.4146713E1,1.4998502E0,1.4724122E1,1.248391E0,3.8173412E1,1.2486035E0,1.2499614E0,3.891924E1,1.9854712E2,1.9992191E0,1.747204E0,1.2480956E1,2.2467232E0,1.2476398E0,1.272724E1,1.2475014E0,1.2476257E0,2.2465293E0,5.114876E1,1.2476517E0,2.9959965E0,1.9976808E0,1.247869E0,1.5228382E1,2.320723E1,1.7477756E0,1.7478638E0,1.5267685E2,5.491765E0,1.2480087E0,1.2480263E0,1.3476095E1,3.7669277E1,1.2499616E0,1E0,1.9754712E2,1.0733011E1,1.7479451E0,4.9901066E1,1.2476968E0,1.5068016E2,1.9966835E0,3.59196E1,1.7496747E0,1.9654712E2,1.0000001E0,1.2486436E0,9.484367E0,1.4868071E2,1.9994503E0,3.317498E1,2.7446222E0,1.9554712E2,1.0000001E0,2.2464583E0,1.4643425E2,1.4964669E0,1.2481554E0,1.9429715E2,1.2499614E0,1.4968474E0,1.4493741E2,1.2499616E0,1.930472E2,1.4069147E2,4.2459397E0,1.9179723E2,1.2499614E0,1.3894461E2,1.7468568E0,1.2490087E0,2.996931E0,1.8855345E2,3.2437818E0,1.8630426E2,2.2491825E0,1.2487192E0,1.9950626E0,1.2474848E0,1.8505678E2,1.2491825E0,1E0,1.8380928E2,1.2474922E0,1.8256175E2,1.2475314E0,1.2475313E0,1.8131422E2],"tree_param":{"num_deleted":"0","num_feature":"768","num_nodes":"627","size_leaf_vector":"1"}},{"base_weights":[-6.130903E-4,-6.2408376E-1,5.76579E-1,-1.6551892E-1,-1.139099E0,-2.3026542E-1,9.295335E-1,4.8704726E-1,-5.3177977E-1,-1.4310875E0,-7.7558106E-1,2.649179E-1,-7.5076807E-1,1.978172E-1,1.2134076E0,4.9186375E-2,1.2730141E0,-2.627129E-2,-9.711712E-1,-1.035529E0,-1.6382563E0,-4.6000725E-1,-1.2540647E0,1.2981085E0,-1.2186157E-2,9.855599E-2,-1.0624471E0,6.640785E-1,-4.2362297E-1,1.3904076E0,5.3081626E-1,-3.9370838E-1,6.475824E-1,-8.4260345E-2,1.459745E0,4.5809862E-1,-6.52461E-1,-1.3620715E0,-4.3405175E-1,4.7668844E-2,-1.1932838E0,-1.6600434E0,1.0841593E-2,-8.013852E-1,1.476862E-1,-1.3776163E0,1.2249652E-1,1.5593735E0,-4.771525E-1,-2.6405486E-1,1.0796431E0,-1.1549189E0,4.9176446E-1,-1.3128012E0,-2.886185E-1,2.2272721E-2,9.8612416E-1,6.1118066E-2,-1.1163375E0,4.141635E-1,1.508116E0,9.307078E-1,-4.501326E-1,-1.0464071E0,1.3195525E-1,-6.669556E-2,8.2746613E-1,-6.455764E-2,8.070761E-1,1.6326059E0,2.592682E-1,-2.2193258E-1,9.9690473E-1,-8.4772396E-1,8.2676464E-1,2.353122E-1,-1.4454345E0,3.5387936E-1,-8.1671935E-1,8.208506E-1,-5.864144E-2,-1.4273908E0,-5.0456893E-1,1.0418618E-2,-1.6821796E0,-1.2675905E0,-9.847807E-2,-1.1207818E0,5.0590146E-1,-1.5690978E0,-4.6164754E-1,5.580619E-2,-4.9432214E-2,-1.039439E-2,1.6743991E0,3.0735044E-2,-5.9772994E-2,-9.1267275E-3,-1.2327989E0,-5.7431735E-2,1.3522676E0,1.5574715E-5,-7.783386E-2,9.562539E-1,-8.051636E-1,1.6162439E-1,-1.4171066E0,-6.6419846E-1,9.989548E-1,7.319178E-1,-6.6511565E-1,-9.765643E-1,1.1238856E0,1.3755081E0,-2.4662338E-1,-1.2791308E0,2.2102619E-2,9.1007537E-1,-7.307294E-1,1.5578152E0,4.1455552E-1,4.3311372E-1,1.4223398E0,-9.948529E-1,3.9800525E-1,-1.247493E0,4.332897E-2,6.720601E-1,-1.0026317E0,3.8094856E-2,1.3676226E0,-1.2215307E-2,6.432407E-2,-1.041786E-2,1.7032282E0,-8.338035E-1,5.7682015E-2,-1.2277912E0,7.651044E-1,1.2167269E0,-6.9198763E-1,9.46692E-2,-1.1277329E0,-3.1311814E-2,6.575416E-2,6.3573085E-2,-5.5248447E-2,2.6138201E-2,-1.5036607E0,8.449291E-1,-9.841865E-1,-1.008708E0,7.1511286E-1,-3.782645E-2,7.392315E-2,-9.216873E-2,-1.556088E0,1.5818419E-1,-7.186507E-2,-6.6437223E-4,-1.7041336E0,4.4046262E-1,-1.4702228E0,1.2549623E0,-5.104648E-1,3.2292098E-2,-7.804861E-2,9.7090936E-1,-5.756036E-1,1.2001692E-2,-1.6275258E0,9.5683485E-1,-1.1350894E0,8.784959E-2,1.0203985E-2,-5.814996E-1,6.455983E-1,4.1569073E-2,-1.5391185E0,-3.1288166E-2,1.5556381E0,1.2780702E0,-7.859479E-1,-6.7946896E-2,3.6829792E-2,-6.1771013E-2,6.481984E-2,-1.4987878E0,2.8509948E-1,2.2586267E-1,-1.1293647E0,7.137265E-2,-1.0470302E-2,1.1041223E0,-8.031487E-1,-1.343045E0,6.3281274E-1,-6.260502E-2,-8.688445E-3,-2.7053273E-1,1.3057225E0,7.902212E-2,9.621324E-3,3.3012053E-1,-9.318613E-1,-1.4452388E0,2.7064824E-2,1.2113328E0,-7.724578E-1,-1.2239188E0,4.7454484E-2,8.219923E-1,1.6251789E0,1.1339724E0,-9.6139807E-1,1.0320784E0,-3.3865392E-1,1.6537899E0,2.2865807E-1,4.216733E-2,-1.3069365E0,-7.3786205E-1,1.2768477E0,3.1003047E-2,-1.3971777E0,-6.1550665E-1,1.224848E0,-1.4157759E0,3.794305E-2,-8.699158E-1,8.123547E-1,-3.1777304E-2,1.528995E0,1.7788221E0,-3.3315265E-4,-1.0465662E-2,-5.432355E-2,3.0467648E-2,-1.4436171E0,-8.1063527E-1,1.1377501E0,1.4425868E0,-1.0449941E-3,3.1558927E-2,-6.721344E-2,6.607611E-2,-7.9603845E-1,-1.18439876E-1,-1.3619093E0,-1.04594775E-1,-1.5608515E0,-5.322745E-1,1.3001865E0,-7.056178E-2,1.2936733E-2,-1.1450635E0,5.737688E-2,-3.1242657E-2,6.8555824E-2,-6.2239196E-2,5.989043E-2,1.1051944E-2,-1.6222554E0,7.2808576E-1,-6.4667225E-2,-8.927904E-3,-1.7195054E0,6.5839775E-2,-5.1188447E-2,1.592013E-2,-1.6013641E0,9.819123E-3,7.45502E-2,-1.2351346E0,3.0090666E-1,-5.4728176E-2,1.2067004E0,4.7589127E-2,-1.1700416E0,-6.2756464E-3,-1.7075963E0,1.022275E-2,6.1102517E-2,1.9131323E-2,-7.808193E-2,1.0544361E0,-8.0416924E-1,-6.55349E-1,1.056021E0,-3.6942103E-4,-8.578225E-2,1.4948872E-2,8.615049E-2,1.7362708E-3,8.175892E-2,-5.184985E-2,-9.221338E-3,-1.0082908E-1,-1.5695187E0,-3.1436615E-2,5.3506196E-2,-6.2805384E-2,1.1145961E0,3.1994294E-2,-1.4079973E0,1.4791116E0,-2.8235275E-1,-5.2629054E-2,-9.765177E-3,1.914484E-2,-8.368864E-2,-3.0791825E-2,7.048612E-2,-9.824783E-1,5.932198E-2,-3.8623872E-1,1.4185004E0,7.244259E-2,-2.6696938E-1,-1.3015301E0,5.9328455E-2,-1.6661054E0,-2.701168E-1,-5.9242797E-1,1.4918929E0,1.0694823E-2,-6.2670246E-2,3.0769816E-2,-8.061501E-2,-5.128899E-2,1.0667435E0,-1.2918101E-1,1.6466242E0,-2.6433742E-2,8.043955E-2,-7.006366E-2,1.0070247E-2,-4.3614022E-2,1.3090926E0,6.4056225E-2,-7.6668894E-1,8.635478E-2,9.635715E-3,6.561765E-2,-5.0371654E-2,7.1498686E-3,-8.11728E-2,-6.845834E-2,3.2082055E-2,7.5749844E-2,1.0183976E-2,-1.5986735E0,-3.8946485E-3,-7.451761E-2,5.990681E-2,-3.1040031E-2,1.4459752E0,-9.469202E-3,-8.035194E-2,-1.2694232E0,3.1249752E-2,1.3416741E0,-4.1596428E-2,-8.664838E-3,8.533194E-2,9.029374E-2,2.9600102E-2,-8.158436E-2,1.102824E-2,-9.98656E-3,-5.2952684E-2,1.3736038E0,-1.8939516E-2,1.5636834E0,-1.845723E-2,-5.4052502E-2,5.3985506E-2,-6.895246E-2,5.225913E-2,8.977425E-1,-6.867708E-2,-1.4987133E0,6.2506935E-3,5.2520987E-2,-5.520744E-2,-5.5284363E-1,-1.6439875E0,3.2779332E-2,-6.232022E-2,-1.5581905E-2,8.457903E-2,5.581018E-1,-1.3075118E0,1.0768278E-2,-1.6926022E0,-3.4945484E-2,7.0338145E-2,-1.7347659E0,-1.0025935E-2,-1.6888611E0,1.09239025E-2,-8.121591E-2,7.31643E-3,-8.5875183E-1,8.590968E-1,1.4581946E0,-2.3478334E-1,-7.623009E-2,1.0860037E-2,-1.9966887E-2,-1.7736211E0,9.512248E-3,6.632861E-2,5.5517906E-1,-1.0302726E0,5.2264493E-2,-1.1441307E0,1.44287E0,-1.4923367E-1,-5.908786E-2,5.9202548E-2,-5.542312E-2,5.303643E-2,-2.3077367E-1,-1.6313193E0,1.0419567E-2,6.8829834E-2,-8.2392745E-2,-2.4850637E-4,8.201024E-2,9.676968E-3,3.0366851E-2,-5.2209962E-2,-7.0093594E-2,1.0126188E-2,-5.6931295E-2,3.1147767E-2,-7.3233466E-3,1.5396563E0,-7.817559E-1,6.58844E-2,2.8108802E-1,-8.479686E-2,-1.7964495E-2,-8.793797E-2,4.4285282E-2,-6.2084503E-2,-5.5692304E-2,9.746689E-3,8.3861895E-2,-3.9426732E-4,1.3164032E0,-3.5997566E-2,5.090477E-2,-5.5467945E-2,1.675486E0,3.92658E-1,1.5286642E0,-3.1791847E-2,4.173633E-2,-1.1394973E0,-9.243115E-3,-8.486587E-2,-5.1692005E-2,5.1404484E-2,8.185139E-2,-1.071129E-2,-7.472974E-2,-1.0104929E-2,1.0265322E-2,7.759731E-2,8.381836E-2,-8.602298E-3,1.6668257E0,-1.1934091E-2,6.733604E-2,-1.0081217E-2,-1.5936178E0,-7.4977763E-3,5.1541258E-2,-5.109471E-2,3.2419603E-2,-6.15496E-2,-1.701564E0,-2.2921954E-1,5.370596E-2,-1.0377917E-2,-3.9814597E-1,-1.4973674E0,-8.832037E-2,-2.0583292E-2,-1.7947968E-2,-1.7503138E0,-9.569732E-3,-8.752355E-2,5.189572E-2,-5.1369168E-2,-9.004991E-3,-5.6228336E-2,-2.1060038E-2,7.588111E-2,8.413695E-2,-1.8212518E-2,-5.1142167E-2,3.282046E-2,-2.9063297E-2,-8.9895606E-2,6.641463E-2,-3.7423115E-2,-1.1978314E0,4.2585474E-2,-7.538248E-2,1.0672243E-2,-1.9021947E-2,1.6374333E0,8.617303E-1,-5.597797E-2,-5.1304962E-2,3.3279117E-2,-1.6812359E0,-7.7037513E-3,5.8880653E-2,-5.9435632E-2,1.6210586E0,-1.825061E-2,6.899354E-1,-7.429369E-2,-3.096507E-2,5.2711934E-2,-3.8059328E-2,1.5384672E0,1.6869855E0,-1.0460533E-2,-8.430415E-1,6.8944424E-2,4.4860582E-5,8.5599974E-2,-1.4461852E0,8.489447E-3,-1.0620151E-2,8.891819E-2,-8.70659E-2,-3.6127028E-1,-1.7323445E0,-8.772785E-3,-5.0790507E-2,3.285774E-2,3.7904326E-2,-5.9477683E-2,-1.6679962E0,-3.0374518E-1,-1.7665766E0,-2.3802642E-2,-1.596375E0,-3.5696837E-1,1.8606521E-2,8.713113E-2,5.571431E-2,9.807964E-3,-1.7169629E0,-9.015307E-3,-1.8132566E-2,1.7084602E0,5.9595753E-2,-1.1577706E-2,8.433823E-2,-1.0801266E-2,1.6989559E0,-1.2323834E-2,-1.0423406E-2,-5.5029202E-2,-8.205524E-2,-1.07682375E-2,-5.641486E-2,3.2596093E-2,-1.7799774E0,-6.652046E-1,-8.7627575E-2,-1.7021958E-2,-6.2143248E-2,5.3974014E-2,-1.7821308E0,-3.5835188E-2,1.0223674E-2,-8.7859385E-2,5.5758524E-1,-1.1601281E0,-1.7748183E-2,-1.7536055E0,1.755194E0,9.088791E-3,-1.6900847E-3,1.7108582E0,-3.5085227E-2,-9.068712E-2,1.3704083E-2,-5.9549093E-2,-7.643599E-1,-1.7993374E0,6.685984E-2,-3.781721E-2,-9.907902E-3,-7.049346E-2,-8.95952E-2,-2.4923189E-2,9.008659E-2,2.6083285E-2,4.572378E-1,1.7303907E0,-8.413771E-3,-5.0997913E-2,-9.087114E-2,-8.34115E-1,6.633017E-2,-5.464312E-2,1.7577964E0,9.6453416E-1,-5.5949032E-2,-7.252966E-3,1.770294E0,1.5751911E-2,-4.2504779E-1,7.8637175E-2,9.248738E-3,1.7790362E0,-5.8855325E-2,3.018759E-2,1.7880384E0,1.666317E-2,1.7970107E0,2.3953494E-2,1.8062743E0,7.5315464E-1,2.9055713E-2,1.811033E0,7.2980844E-3,5.1225293E-2,2.9156206E-2,9.0791434E-2],"categories":[],"categories_nodes":[],"categories_segments":[],"categories_sizes":[],"default_left":[0,0,0,0,0,0,0,0,0,0,0,0,0,0,0,0,0,0,0,0,0,0,0,0,0,0,0,0,0,0,0,0,0,0,0,0,0,0,0,0,0,0,0,0,0,0,0,0,0,0,0,0,0,0,0,0,0,0,0,0,0,0,0,0,0,0,0,0,0,0,0,0,0,0,0,0,0,0,0,0,0,0,0,0,0,0,0,0,0,0,0,0,0,0,0,0,0,0,0,0,0,0,0,0,0,0,0,0,0,0,0,0,0,0,0,0,0,0,0,0,0,0,0,0,0,0,0,0,0,0,0,0,0,0,0,0,0,0,0,0,0,0,0,0,0,0,0,0,0,0,0,0,0,0,0,0,0,0,0,0,0,0,0,0,0,0,0,0,0,0,0,0,0,0,0,0,0,0,0,0,0,0,0,0,0,0,0,0,0,0,0,0,0,0,0,0,0,0,0,0,0,0,0,0,0,0,0,0,0,0,0,0,0,0,0,0,0,0,0,0,0,0,0,0,0,0,0,0,0,0,0,0,0,0,0,0,0,0,0,0,0,0,0,0,0,0,0,0,0,0,0,0,0,0,0,0,0,0,0,0,0,0,0,0,0,0,0,0,0,0,0,0,0,0,0,0,0,0,0,0,0,0,0,0,0,0,0,0,0,0,0,0,0,0,0,0,0,0,0,0,0,0,0,0,0,0,0,0,0,0,0,0,0,0,0,0,0,0,0,0,0,0,0,0,0,0,0,0,0,0,0,0,0,0,0,0,0,0,0,0,0,0,0,0,0,0,0,0,0,0,0,0,0,0,0,0,0,0,0,0,0,0,0,0,0,0,0,0,0,0,0,0,0,0,0,0,0,0,0,0,0,0,0,0,0,0,0,0,0,0,0,0,0,0,0,0,0,0,0,0,0,0,0,0,0,0,0,0,0,0,0,0,0,0,0,0,0,0,0,0,0,0,0,0,0,0,0,0,0,0,0,0,0,0,0,0,0,0,0,0,0,0,0,0,0,0,0,0,0,0,0,0,0,0,0,0,0,0,0,0,0,0,0,0,0,0,0,0,0,0,0,0,0,0,0,0,0,0,0,0,0,0,0,0,0,0,0,0,0,0,0,0,0,0,0,0,0,0,0,0,0,0,0,0,0,0,0,0,0,0,0,0,0,0,0,0,0,0,0,0,0,0,0,0,0,0,0,0,0,0,0,0,0,0,0,0,0,0,0,0,0,0,0,0,0,0,0,0,0,0,0,0,0,0,0,0,0,0,0,0,0,0,0,0,0,0,0,0,0,0,0,0,0,0,0,0,0,0,0,0,0,0,0,0,0,0,0,0,0,0,0,0,0,0,0,0,0,0,0,0,0,0,0,0,0,0,0,0,0,0,0,0,0,0,0,0,0,0,0,0,0,0,0,0,0,0,0,0,0,0,0,0,0,0,0,0,0,0,0],"id":2,"left_children":[1,3,5,7,9,11,13,15,17,19,21,23,25,27,29,31,33,35,37,39,41,43,45,47,49,51,53,55,57,59,61,63,65,67,69,71,73,75,77,79,81,83,-1,85,87,89,91,93,95,97,99,101,103,105,107,109,111,113,115,117,119,121,123,125,127,-1,129,-1,131,133,135,137,139,141,143,145,147,149,151,153,-1,155,157,-1,159,161,163,165,167,169,171,-1,-1,-1,173,-1,-1,175,177,-1,179,-1,-1,181,183,185,187,189,191,193,195,197,199,201,203,205,-1,207,209,211,213,215,217,219,221,223,-1,225,227,229,231,-1,-1,-1,233,235,-1,237,239,241,243,245,247,-1,-1,-1,-1,-1,249,251,253,255,257,-1,-1,259,261,263,-1,-1,265,267,269,271,273,-1,-1,275,277,-1,279,281,283,-1,-1,285,287,-1,289,-1,291,293,295,-1,-1,-1,-1,297,299,301,303,-1,-1,305,307,309,311,-1,-1,313,315,-1,-1,317,319,321,-1,323,325,327,-1,329,331,333,335,337,339,341,343,-1,345,347,349,-1,351,353,355,357,-1,359,361,-1,363,365,-1,-1,-1,-1,367,369,371,373,375,-1,-1,-1,377,379,381,383,385,387,389,-1,-1,391,-1,-1,-1,-1,-1,-1,393,395,-1,-1,397,-1,-1,-1,399,-1,-1,401,403,-1,405,-1,407,-1,409,-1,-1,-1,-1,411,413,415,417,-1,-1,-1,-1,419,-1,-1,-1,421,423,-1,-1,-1,425,-1,427,429,431,-1,-1,-1,-1,-1,-1,433,-1,435,437,-1,439,441,-1,443,445,447,449,-1,-1,-1,-1,-1,451,453,455,-1,-1,-1,-1,-1,457,-1,459,-1,-1,-1,-1,-1,-1,-1,-1,-1,-1,461,463,-1,-1,-1,465,-1,-1,467,-1,469,-1,-1,-1,-1,-1,-1,-1,-1,-1,471,-1,473,-1,-1,-1,-1,-1,475,-1,477,479,-1,-1,481,483,-1,-1,-1,-1,485,487,-1,489,-1,-1,491,-1,493,-1,-1,495,497,499,501,503,-1,-1,-1,505,-1,-1,507,509,-1,511,513,515,-1,-1,-1,-1,517,519,-1,-1,-1,-1,-1,-1,-1,-1,-1,-1,-1,-1,521,523,525,-1,527,-1,-1,-1,-1,-1,-1,-1,-1,-1,529,-1,-1,-1,531,533,535,-1,-1,537,-1,-1,-1,-1,-1,-1,-1,-1,-1,-1,-1,-1,539,-1,-1,-1,541,-1,-1,-1,-1,-1,543,545,-1,-1,547,549,-1,-1,-1,551,-1,-1,-1,-1,-1,-1,-1,-1,-1,-1,-1,-1,-1,-1,-1,-1,553,-1,-1,-1,-1,555,557,-1,-1,-1,559,-1,-1,-1,561,-1,563,-1,-1,-1,-1,565,567,-1,569,-1,-1,-1,571,-1,-1,-1,-1,573,575,-1,-1,-1,-1,-1,577,579,581,-1,583,585,-1,-1,-1,-1,587,-1,-1,589,-1,-1,-1,-1,591,-1,-1,-1,-1,-1,-1,-1,593,595,-1,-1,-1,-1,597,-1,-1,-1,599,601,-1,603,605,-1,-1,607,-1,-1,-1,-1,609,611,-1,-1,-1,-1,-1,-1,-1,-1,613,615,-1,-1,-1,617,-1,-1,619,621,-1,-1,623,-1,625,-1,-1,627,-1,-1,629,-1,631,-1,633,635,-1,637,-1,-1,-1,-1],"loss_changes":[5.2171E2,1.6440488E2,2.1460013E2,8.865473E1,3.3714844E1,5.9454536E1,1.0858493E2,4.587285E1,5.2696968E1,1.3116638E1,2.182026E1,3.395832E1,2.9844494E1,4.3059734E1,4.4843933E1,2.324921E1,1.221624E1,3.408904E1,2.6065125E1,1.113842E1,5.0852966E0,1.8988117E1,1.0095993E1,1.23772545E1,2.626509E1,1.5884143E1,1.5559502E1,1.7492924E1,2.1524254E1,3.373108E1,3.1527445E1,1.7458199E1,1.4392087E1,8.266878E0,8.292206E0,2.3452648E1,1.4854502E1,1.006282E1,1.6855907E1,9.649706E0,8.412735E0,5.1346436E0,0E0,1.9011833E1,1.5817111E1,8.684235E0,7.424994E0,4.8402214E0,3.858986E0,1.9145077E1,1.2430283E1,3.5830545E0,1.5442276E1,9.745346E0,1.10085335E1,1.4797264E1,1.6347946E1,1.5928387E1,7.2522545E0,1.9712376E1,1.38341675E1,1.3245602E1,1.131769E1,9.786821E0,1.8352837E1,0E0,1.4784029E1,0E0,2.5715904E0,5.103485E0,7.292145E0,2.957874E1,1.4042763E1,1.1659777E1,5.237099E0,7.6283574E0,8.754517E0,1.3091775E1,1.168697E1,7.574446E0,0E0,7.027046E0,1.0066588E1,0E0,4.1698914E0,1.2770271E1,1.4229948E1,6.9974403E0,1.4067144E1,5.0365295E0,1.1299786E1,0E0,0E0,0E0,2.1744041E0,0E0,0E0,2.3765644E1,1.149275E1,0E0,7.5757694E0,0E0,0E0,1.1315447E1,6.9481583E0,9.505843E0,8.476585E0,7.360616E0,3.0070405E0,9.406139E0,1.4423204E1,7.19059E-1,1.3834488E1,1.5054684E0,1.2984447E1,8.076347E0,0E0,1.30266285E1,1.0021313E1,1.1278259E1,1.3903775E1,1.4031786E1,7.375412E0,9.52412E0,1.0884187E1,6.7056656E0,0E0,1.5091504E1,8.13766E0,1.1368333E1,7.6405487E0,0E0,0E0,0E0,4.5725174E0,3.2395935E-1,0E0,6.696745E0,9.833264E0,8.754742E0,4.9329767E0,1.3019271E1,7.834549E0,0E0,0E0,0E0,0E0,0E0,5.2610474E0,9.587693E0,3.2692156E0,1.1177719E1,5.0214276E0,0E0,0E0,8.525823E0,4.8265E0,9.384241E0,0E0,0E0,2.3413696E0,7.101816E0,7.908432E0,1.200531E0,1.177526E1,0E0,0E0,1.0650227E1,9.016494E0,0E0,4.921669E0,5.4524755E-1,5.587126E0,0E0,0E0,1.3170789E1,1.6489967E1,0E0,3.885254E0,0E0,2.6754036E0,7.245962E0,3.352666E-1,0E0,0E0,0E0,0E0,5.319786E0,3.1771836E0,1.0256091E1,6.5395727E0,0E0,0E0,6.8759823E0,3.2337523E-1,6.607889E0,6.66196E0,0E0,0E0,8.387129E0,9.555672E0,0E0,0E0,1.251433E1,1.3229234E1,5.357807E0,0E0,1.1319267E1,2.276189E0,7.209732E0,0E0,1.1661775E1,8.945435E0,7.923273E0,2.8322492E0,1.006357E1,1.0471391E1,2.1676636E0,8.981999E0,0E0,6.1717567E0,5.2139826E0,1.2200842E0,0E0,5.509247E0,1.2442022E1,6.786009E0,1.6215782E0,0E0,5.250261E0,8.690448E0,0E0,6.1580086E0,1.5930176E-2,0E0,0E0,0E0,0E0,4.561817E0,3.175695E-1,5.058983E0,6.467163E0,8.145244E0,0E0,0E0,0E0,8.922218E0,1.0755727E1,5.1310654E0,5.4709444E0,4.5431213E0,4.4091206E0,7.43734E0,0E0,0E0,9.598145E0,0E0,0E0,0E0,0E0,0E0,0E0,5.115532E0,8.700287E0,0E0,0E0,2.241211E0,0E0,0E0,0E0,5.07473E0,0E0,0E0,5.060341E0,7.181118E0,0E0,6.747799E0,0E0,3.633624E0,0E0,2.7869263E0,0E0,0E0,0E0,0E0,8.025141E-1,9.898029E0,7.6071215E0,1.0880711E1,0E0,0E0,0E0,0E0,7.665169E0,0E0,0E0,0E0,5.5493584E0,3.980774E0,0E0,0E0,0E0,8.3690214E-1,0E0,3.4224434E0,1.7406483E0,2.9957676E0,0E0,0E0,0E0,0E0,0E0,0E0,2.87999E0,0E0,3.5460207E0,7.6934586E0,0E0,1.1375521E1,8.704231E0,0E0,1.6254387E0,6.4157586E0,1.6505151E0,5.0527573E0,0E0,0E0,0E0,0E0,0E0,1.037042E1,5.3243456E0,7.64386E0,0E0,0E0,0E0,0E0,0E0,7.4478836E0,0E0,7.787876E0,0E0,0E0,0E0,0E0,0E0,0E0,0E0,0E0,0E0,0E0,2.0796318E0,4.7666993E0,0E0,0E0,0E0,4.5326595E0,0E0,0E0,1.1925058E0,0E0,1.3458824E0,0E0,0E0,0E0,0E0,0E0,0E0,0E0,0E0,0E0,5.52845E0,0E0,5.1114044E0,0E0,0E0,0E0,0E0,0E0,2.6065161E0,0E0,2.9458275E0,4.7227163E0,0E0,0E0,6.0634794E0,4.464386E0,0E0,0E0,0E0,0E0,1.6025708E0,4.5075836E0,0E0,2.6299515E0,0E0,0E0,1.7343445E0,0E0,2.2769928E0,0E0,0E0,4.783499E0,4.7115946E-1,6.726073E0,6.826088E0,3.1197171E0,0E0,0E0,0E0,6.2210083E-2,0E0,0E0,6.0104074E0,9.33452E0,0E0,3.513955E0,6.7992516E0,7.3060713E0,0E0,0E0,0E0,0E0,3.1700056E0,3.4409027E0,0E0,0E0,0E0,0E0,0E0,0E0,0E0,0E0,0E0,0E0,0E0,0E0,7.668624E0,6.9473877E0,1.159478E1,0E0,3.080576E0,0E0,0E0,0E0,0E0,0E0,0E0,0E0,0E0,0E0,9.885044E0,0E0,0E0,0E0,5.2059937E0,9.043549E0,3.8972816E0,0E0,0E0,4.145215E0,0E0,0E0,0E0,0E0,0E0,0E0,0E0,0E0,0E0,0E0,0E0,0E0,5.4309235E0,0E0,0E0,0E0,3.5830154E0,0E0,0E0,0E0,0E0,0E0,2.3786926E0,3.0981317E0,0E0,0E0,6.82036E0,4.4003906E0,0E0,0E0,0E0,1.4169617E0,0E0,0E0,0E0,0E0,0E0,0E0,0E0,0E0,0E0,0E0,0E0,0E0,0E0,0E0,0E0,0E0,7.682823E0,0E0,0E0,0E0,0E0,1.4704361E0,4.0857315E-1,0E0,0E0,0E0,2.2877045E0,0E0,0E0,0E0,7.4674225E0,0E0,2.1187413E0,0E0,0E0,0E0,0E0,4.890278E0,5.5722656E0,0E0,3.4109378E-1,0E0,0E0,0E0,1.5595303E0,0E0,0E0,0E0,0E0,3.6408973E0,1.6557007E0,0E0,0E0,0E0,0E0,0E0,1.7446518E0,6.8443446E0,4.736023E-1,0E0,5.1143074E0,7.4095316E0,0E0,0E0,0E0,0E0,1.732727E0,0E0,0E0,2.3925018E0,0E0,0E0,0E0,0E0,4.6245728E0,0E0,0E0,0E0,0E0,0E0,0E0,0E0,6.5263367E-1,2.2938616E0,0E0,0E0,0E0,0E0,4.630432E-1,0E0,0E0,0E0,6.1129103E0,9.7625875E-1,0E0,1.3036804E0,1.1703339E0,0E0,0E0,4.594055E0,0E0,0E0,0E0,0E0,3.591504E-1,2.732544E-1,0E0,0E0,0E0,0E0,0E0,0E0,0E0,0E0,7.8284454E0,2.8424072E0,0E0,0E0,0E0,5.705023E-1,0E0,0E0,3.184021E0,8.854049E0,0E0,0E0,2.519165E0,0E0,3.601157E0,0E0,0E0,2.0628052E0,0E0,0E0,1.5206909E0,0E0,5.835571E-1,0E0,1.0510254E-1,4.244218E-1,0E0,1.0308838E-1,0E0,0E0,0E0,0E0],"parents":[2147483647,0,0,1,1,2,2,3,3,4,4,5,5,6,6,7,7,8,8,9,9,10,10,11,11,12,12,13,13,14,14,15,15,16,16,17,17,18,18,19,19,20,20,21,21,22,22,23,23,24,24,25,25,26,26,27,27,28,28,29,29,30,30,31,31,32,32,33,33,34,34,35,35,36,36,37,37,38,38,39,39,40,40,41,41,43,43,44,44,45,45,46,46,47,47,48,48,49,49,50,50,51,51,52,52,53,53,54,54,55,55,56,56,57,57,58,58,59,59,60,60,61,61,62,62,63,63,64,64,66,66,68,68,69,69,70,70,71,71,72,72,73,73,74,74,75,75,76,76,77,77,78,78,79,79,81,81,82,82,84,84,85,85,86,86,87,87,88,88,89,89,90,90,94,94,97,97,98,98,100,100,103,103,104,104,105,105,106,106,107,107,108,108,109,109,110,110,111,111,112,112,113,113,114,114,115,115,117,117,118,118,119,119,120,120,121,121,122,122,123,123,124,124,125,125,127,127,128,128,129,129,130,130,134,134,135,135,137,137,138,138,139,139,140,140,141,141,142,142,148,148,149,149,150,150,151,151,152,152,155,155,156,156,157,157,160,160,161,161,162,162,163,163,164,164,167,167,168,168,170,170,171,171,172,172,175,175,176,176,178,178,180,180,181,181,182,182,187,187,188,188,189,189,190,190,193,193,194,194,195,195,196,196,199,199,200,200,203,203,204,204,205,205,207,207,208,208,209,209,211,211,212,212,213,213,214,214,215,215,216,216,217,217,218,218,220,220,221,221,222,222,224,224,225,225,226,226,227,227,229,229,230,230,232,232,233,233,238,238,239,239,240,240,241,241,242,242,246,246,247,247,248,248,249,249,250,250,251,251,252,252,255,255,262,262,263,263,266,266,270,270,273,273,274,274,276,276,278,278,280,280,285,285,286,286,287,287,288,288,293,293,297,297,298,298,302,302,304,304,305,305,306,306,313,313,315,315,316,316,318,318,319,319,321,321,322,322,323,323,324,324,330,330,331,331,332,332,338,338,340,340,351,351,352,352,356,356,359,359,361,361,371,371,373,373,379,379,381,381,382,382,385,385,386,386,391,391,392,392,394,394,397,397,399,399,402,402,403,403,404,404,405,405,406,406,410,410,413,413,414,414,416,416,417,417,418,418,423,423,424,424,437,437,438,438,439,439,441,441,451,451,455,455,456,456,457,457,460,460,473,473,477,477,483,483,484,484,487,487,488,488,492,492,509,509,514,514,515,515,519,519,523,523,525,525,530,530,531,531,533,533,537,537,542,542,543,543,549,549,550,550,551,551,553,553,554,554,559,559,562,562,567,567,575,575,576,576,581,581,585,585,586,586,588,588,589,589,592,592,597,597,598,598,607,607,608,608,612,612,615,615,616,616,619,619,621,621,624,624,627,627,629,629,631,631,632,632,634,634],"right_children":[2,4,6,8,10,12,14,16,18,20,22,24,26,28,30,32,34,36,38,40,42,44,46,48,50,52,54,56,58,60,62,64,66,68,70,72,74,76,78,80,82,84,-1,86,88,90,92,94,96,98,100,102,104,106,108,110,112,114,116,118,120,122,124,126,128,-1,130,-1,132,134,136,138,140,142,144,146,148,150,152,154,-1,156,158,-1,160,162,164,166,168,170,172,-1,-1,-1,174,-1,-1,176,178,-1,180,-1,-1,182,184,186,188,190,192,194,196,198,200,202,204,206,-1,208,210,212,214,216,218,220,222,224,-1,226,228,230,232,-1,-1,-1,234,236,-1,238,240,242,244,246,248,-1,-1,-1,-1,-1,250,252,254,256,258,-1,-1,260,262,264,-1,-1,266,268,270,272,274,-1,-1,276,278,-1,280,282,284,-1,-1,286,288,-1,290,-1,292,294,296,-1,-1,-1,-1,298,300,302,304,-1,-1,306,308,310,312,-1,-1,314,316,-1,-1,318,320,322,-1,324,326,328,-1,330,332,334,336,338,340,342,344,-1,346,348,350,-1,352,354,356,358,-1,360,362,-1,364,366,-1,-1,-1,-1,368,370,372,374,376,-1,-1,-1,378,380,382,384,386,388,390,-1,-1,392,-1,-1,-1,-1,-1,-1,394,396,-1,-1,398,-1,-1,-1,400,-1,-1,402,404,-1,406,-1,408,-1,410,-1,-1,-1,-1,412,414,416,418,-1,-1,-1,-1,420,-1,-1,-1,