{"learner":{"attributes":{},"feature_names":[],"feature_types":[],"gradient_booster":{"model":{"cats":{"enc":[],"feature_segments":[],"sorted_idx":[]},"gbtree_model_param":{"num_parallel_tree":"1","num_trees":"150"},"iteration_indptr":[0,1,2,3,4,5,6,7,8,9,10,11,12,13,14,15,16,17,18,19,20,21,22,23,24,25,26,27,28,29,30,31,32,33,34,35,36,37,38,39,40,41,42,43,44,45,46,47,48,49,50,51,52,53,54,55,56,57,58,59,60,61,62,63,64,65,66,67,68,69,70,71,72,73,74,75,76,77,78,79,80,81,82,83,84,85,86,87,88,89,90,91,92,93,94,95,96,97,98,99,100,101,102,103,104,105,106,107,108,109,110,111,112,113,114,115,116,117,118,119,120,121,122,123,124,125,126,127,128,129,130,131,132,133,134,135,136,137,138,139,140,141,142,143,144,145,146,147,148,149,150],"tree_info":[0,0,0,0,0,0,0,0,0,0,0,0,0,0,0,0,0,0,0,0,0,0,0,0,0,0,0,0,0,0,0,0,0,0,0,0,0,0,0,0,0,0,0,0,0,0,0,0,0,0,0,0,0,0,0,0,0,0,0,0,0,0,0,0,0,0,0,0,0,0,0,0,0,0,0,0,0,0,0,0,0,0,0,0,0,0,0,0,0,0,0,0,0,0,0,0,0,0,0,0,0,0,0,0,0,0,0,0,0,0,0,0,0,0,0,0,0,0,0,0,0,0,0,0,0,0,0,0,0,0,0,0,0,0,0,0,0,0,0,0,0,0,0,0,0,0,0,0,0,0],"trees":[{"base_weights":[-2.7718504E-6,-6.5934455E-1,6.4952475E-1,-8.708542E-2,-1.1583061E0,-1.7070143E-2,1.151155E0,5.5350405E-1,-4.906576E-1,-7.870413E-1,-1.5774703E0,6.103879E-1,-5.74318E-1,3.965866E-1,1.4184164E0,-2.9885367E-1,9.072158E-1,-2.2885794E-2,-9.339449E-1,-2.2222516E-1,-1.1951762E0,-5.507283E-1,-1.6369193E0,8.4392947E-1,-5.2991825E-1,4.7499844E-1,-8.571467E-1,-3.3513814E-1,8.157884E-1,1.5746338E0,6.0944074E-1,-7.777814E-1,3.7209135E-1,-2.117664E-1,1.1455104E0,-5.4098696E-1,5.727687E-1,-1.0761466E0,2.1538378E-1,3.3513337E-1,-6.666703E-1,-1.2689129E0,1.2195049E-3,4.761816E-4,-4.4681043E-3,-1.6692724E0,-1.5000065E-3,-3.5789788E-1,1.0630624E0,5.1279936E-2,-5.593243E-3,9.999997E-1,-3.684239E-1,-3.132551E-1,-1.2222272E0,-9.899029E-1,3.3962107E-1,-1.8518629E-3,9.925918E-1,1.6213492E0,3.8461306E-4,1.1515148E0,-8.264681E-2,2.0407543E-4,-1.0886118E0,8.571426E-1,-2.558154E-3,-4.716989E-3,3.0769173E-3,1.3548379E0,-1.249987E-1,1.8181626E-1,-9.870169E-1,8.379883E-1,-2.5926093E-3,-1.2857196E0,-2.64152E-1,3.3333339E-3,-2.0000075E-3,-6.865704E-1,7.826079E-1,-9.071079E-1,1.525418E-3,-4.0816656E-1,-1.4170909E0,-2.2727319E-3,-1.7017887E0,2.999996E-3,-7.7333695E-1,-1.11112796E-1,1.2244893E0,-2.8000118E-3,3.3333285E-3,6.7999987E-3,2.0407989E-4,2.6829222E-3,-4.5454707E-3,2.0617055E-2,-5.4666814E-3,-1.3758916E0,-1.2903503E-1,-6.4706104E-3,-9.804011E-4,-2.3404406E-3,7.3417693E-1,1.1499996E0,-8.000126E-4,4.324311E-1,1.680511E0,1.3207496E-3,6.9696973E-3,-6.3014024E-1,5.2941144E-1,-1.5000121E-3,-6.271207E-3,5.3488375E-3,9.99998E-4,1.4749027E0,-5.0000474E-4,-3.0232458E-3,2.1951217E-3,7.4285585E-1,-5.333353E-1,-1.3153197E0,-9.524012E-2,-7.1429124E-4,1.1048949E0,-2.8571737E-1,-1.4264206E0,-7.0129937E-1,2.6530551E-3,-5.319165E-3,4.9999164E-4,-1.363639E-3,1.0526309E0,-1.0828067E0,4.347729E-4,-5.0000213E-3,1.7241327E-3,-2.4391242E-4,-1.4907218E0,-1.7373797E0,-2.0930269E-3,-3.8556753E-9,-5.272749E-3,-3.600009E-3,3.3333297E-3,6.451443E-2,1.3599998E0,5.999994E-1,-4.9123013E-1,-1.4636068E0,-7.3171285E-4,2.380947E-3,-3.5000157E-3,4.827583E-3,2.43904E-4,-9.5238205E-4,1.3027519E0,4.583331E-3,-1.304356E-3,5.789468E-1,1.7372593E0,-5.0000194E-3,-2.0408857E-4,4.6666646E-3,-6.9767545E-4,1.5862064E0,1.4893537E-3,-2.4391242E-4,5.510203E-3,-5.000013E-3,9.99998E-4,-1.5000012E-3,-7.362663E-3,2.5581345E-3,-3.5000104E-3,-3.8556753E-9,1.2845528E0,-3.658553E-3,1.4285643E-3,-5.0000474E-4,-1.5265363E0,-5.652171E-3,-1.9608584E-4,6.3440828E-3,2.4389868E-4,-8.000083E-4,-1.2755951E0,-1.2195187E-3,-1.5505676E0,-8.815361E-3,-2.5000086E-3,-2.5000086E-3,2.8571384E-3,1.4950167E0,3.7681028E-1,-1.2195134E-3,8.860754E-1,-8.947407E-1,1.0344875E-3,-1.0000112E-3,-1.5518726E0,1.4111675E0,7.3169917E-4,5.3571407E-3,-2.000002E-3,1.7822485E0,2.413789E-3,8.341461E-3,2.765952E-3,1.4285696E-3,7.2277235E-3,-2.093032E-3,-8.018048E-3,-1.6279148E-3,-7.115409E-3,-1.6132989E0,-2.000014E-3,1.5857146E0,7.3169917E-4,4.5833355E-3,-2.1951357E-3,4.9999706E-4,5.593218E-3,-5.7143043E-3,-5.0001027E-4,-8.156708E-3,-2.2727416E-3,1.4971431E0,1.9047556E-3,9.083023E-3,3.4482738E-3,-2.692324E-3,-8.461568E-3,2.195127E-3,1.6447878E0,2.3809522E-3,7.908498E-3,1.9999999E-3,8.577406E-3],"categories":[],"categories_nodes":[],"categories_segments":[],"categories_sizes":[],"default_left":[0,0,0,0,0,0,0,0,0,0,0,0,0,0,0,0,0,0,0,0,0,0,0,0,0,0,0,0,0,0,0,0,0,0,0,0,0,0,0,0,0,0,0,0,0,0,0,0,0,0,0,0,0,0,0,0,0,0,0,0,0,0,0,0,0,0,0,0,0,0,0,0,0,0,0,0,0,0,0,0,0,0,0,0,0,0,0,0,0,0,0,0,0,0,0,0,0,0,0,0,0,0,0,0,0,0,0,0,0,0,0,0,0,0,0,0,0,0,0,0,0,0,0,0,0,0,0,0,0,0,0,0,0,0,0,0,0,0,0,0,0,0,0,0,0,0,0,0,0,0,0,0,0,0,0,0,0,0,0,0,0,0,0,0,0,0,0,0,0,0,0,0,0,0,0,0,0,0,0,0,0,0,0,0,0,0,0,0,0,0,0,0,0,0,0,0,0,0,0,0,0,0,0,0,0,0,0,0,0,0,0,0,0,0,0,0,0,0,0,0,0,0,0,0,0,0,0,0,0,0,0,0,0,0,0,0,0,0,0,0,0],"id":0,"left_children":[1,3,5,7,9,11,13,15,17,19,21,23,25,27,29,31,33,35,37,39,41,43,45,47,49,51,53,55,57,59,61,63,65,67,69,71,73,75,77,79,81,83,-1,-1,-1,85,-1,87,89,91,-1,93,95,97,99,101,103,-1,105,107,-1,109,111,-1,113,115,-1,-1,-1,117,119,121,123,125,-1,127,129,-1,-1,131,133,135,-1,137,139,-1,141,-1,143,145,147,-1,-1,-1,-1,-1,-1,149,-1,151,153,-1,-1,-1,155,157,-1,159,161,-1,-1,163,165,-1,-1,-1,-1,167,-1,-1,-1,169,171,173,175,-1,177,179,181,183,-1,-1,-1,-1,185,187,-1,-1,-1,-1,189,191,-1,-1,-1,-1,-1,193,195,197,199,201,-1,-1,-1,-1,-1,-1,203,-1,-1,205,207,-1,-1,-1,-1,209,-1,-1,-1,-1,-1,-1,-1,-1,-1,-1,211,-1,-1,-1,213,-1,-1,-1,-1,-1,215,-1,217,-1,-1,-1,-1,219,221,-1,223,225,-1,-1,227,229,-1,-1,-1,231,-1,-1,-1,-1,-1,-1,-1,-1,-1,233,-1,235,-1,-1,-1,-1,-1,-1,-1,-1,-1,237,-1,-1,-1,-1,-1,-1,239,-1,-1,-1,-1],"loss_changes":[1.25651665E2,4.1473064E1,4.9441647E1,1.8083889E1,1.0850212E1,2.2885477E1,1.6448082E1,8.441475E0,8.853518E0,9.692917E0,1.2653885E0,8.649526E0,1.0690461E1,7.4664626E0,6.8630447E0,3.0850136E0,5.4155426E0,7.0529733E0,3.8192158E0,5.0167146E0,2.9463882E0,8.4926796E-1,9.287338E-1,7.214657E0,2.059053E0,3.9108057E0,5.1074295E0,4.422921E0,3.5553322E0,3.4610367E0,4.4658155E0,1.418433E0,2.2817378E0,3.152519E0,4.464485E0,4.1126366E0,3.5169632E0,3.012764E0,1.1692349E0,4.7662897E0,2.870216E0,2.457138E0,0E0,0E0,0E0,4.9237823E-1,0E0,2.3542538E0,4.3439236E0,1.8404149E0,0E0,1.7400832E0,2.347188E0,3.2651114E0,2.5438156E0,9.416537E-1,2.0326972E0,0E0,2.6332722E0,2.7656097E0,0E0,1.0515757E0,2.3609457E0,0E0,1.3966131E-1,2.2618032E-1,0E0,0E0,0E0,2.5842094E0,1.1311643E0,2.6029475E0,2.1290793E0,2.5009036E0,0E0,1.7592487E0,2.2134886E0,0E0,0E0,1.1004707E0,2.2533393E0,1.6922541E0,0E0,2.5285118E0,1.9321938E0,0E0,6.816406E-1,0E0,8.155196E-1,2.1848922E0,2.9931564E0,0E0,0E0,0E0,0E0,0E0,0E0,3.1713238E0,0E0,1.3064995E0,1.4045821E0,0E0,0E0,0E0,5.792105E-1,2.7052717E0,0E0,1.4813008E0,1.9291382E0,0E0,0E0,7.5476897E-1,1.0489193E0,0E0,0E0,0E0,0E0,1.2240658E0,0E0,0E0,0E0,1.0489659E0,1.2266703E0,4.4413853E-1,1.5142215E0,0E0,1.4192991E0,1.0118494E0,1.6068859E0,1.0495397E0,0E0,0E0,0E0,0E0,1.1751127E0,1.1924658E0,0E0,0E0,0E0,0E0,1.0283356E0,6.266022E-2,0E0,0E0,0E0,0E0,0E0,1.172813E0,1.7597389E0,1.4232165E0,1.7908204E0,1.1451283E0,0E0,0E0,0E0,0E0,0E0,0E0,1.1600571E0,0E0,0E0,2.260602E0,1.6313934E0,0E0,0E0,0E0,0E0,6.075287E-2,0E0,0E0,0E0,0E0,0E0,0E0,0E0,0E0,0E0,0E0,5.759373E-1,0E0,0E0,0E0,3.747673E-1,0E0,0E0,0E0,0E0,0E0,4.263916E-1,0E0,6.3941956E-1,0E0,0E0,0E0,0E0,1.6088982E0,1.9219437E0,0E0,6.102607E-1,6.3503647E-1,0E0,0E0,3.092785E-1,3.0211258E-1,0E0,0E0,0E0,3.3311462E-1,0E0,0E0,0E0,0E0,0E0,0E0,0E0,0E0,0E0,4.9430466E-1,0E0,2.2623825E-1,0E0,0E0,0E0,0E0,0E0,0E0,0E0,0E0,0E0,2.1800995E-3,0E0,0E0,0E0,0E0,0E0,0E0,4.533882E-1,0E0,0E0,0E0,0E0],"parents":[2147483647,0,0,1,1,2,2,3,3,4,4,5,5,6,6,7,7,8,8,9,9,10,10,11,11,12,12,13,13,14,14,15,15,16,16,17,17,18,18,19,19,20,20,21,21,22,22,23,23,24,24,25,25,26,26,27,27,28,28,29,29,30,30,31,31,32,32,33,33,34,34,35,35,36,36,37,37,38,38,39,39,40,40,41,41,45,45,47,47,48,48,49,49,51,51,52,52,53,53,54,54,55,55,56,56,58,58,59,59,61,61,62,62,64,64,65,65,69,69,70,70,71,71,72,72,73,73,75,75,76,76,79,79,80,80,81,81,83,83,84,84,86,86,88,88,89,89,90,90,97,97,99,99,100,100,104,104,105,105,107,107,108,108,111,111,112,112,117,117,121,121,122,122,123,123,124,124,126,126,127,127,128,128,129,129,134,134,135,135,140,140,141,141,147,147,148,148,149,149,150,150,151,151,158,158,161,161,162,162,167,167,178,178,182,182,188,188,190,190,195,195,196,196,198,198,199,199,202,202,203,203,207,207,217,217,219,219,229,229,236,236],"right_children":[2,4,6,8,10,12,14,16,18,20,22,24,26,28,30,32,34,36,38,40,42,44,46,48,50,52,54,56,58,60,62,64,66,68,70,72,74,76,78,80,82,84,-1,-1,-1,86,-1,88,90,92,-1,94,96,98,100,102,104,-1,106,108,-1,110,112,-1,114,116,-1,-1,-1,118,120,122,124,126,-1,128,130,-1,-1,132,134,136,-1,138,140,-1,142,-1,144,146,148,-1,-1,-1,-1,-1,-1,150,-1,152,154,-1,-1,-1,156,158,-1,160,162,-1,-1,164,166,-1,-1,-1,-1,168,-1,-1,-1,170,172,174,176,-1,178,180,182,184,-1,-1,-1,-1,186,188,-1,-1,-1,-1,190,192,-1,-1,-1,-1,-1,194,196,198,200,202,-1,-1,-1,-1,-1,-1,204,-1,-1,206,208,-1,-1,-1,-1,210,-1,-1,-1,-1,-1,-1,-1,-1,-1,-1,212,-1,-1,-1,214,-1,-1,-1,-1,-1,216,-1,218,-1,-1,-1,-1,220,222,-1,224,226,-1,-1,228,230,-1,-1,-1,232,-1,-1,-1,-1,-1,-1,-1,-1,-1,234,-1,236,-1,-1,-1,-1,-1,-1,-1,-1,-1,238,-1,-1,-1,-1,-1,-1,240,-1,-1,-1,-1],"split_conditions":[-5.3101175E-2,-1.0423768E-1,8.962738E-2,-1.8210821E-1,2.6706696E-2,-7.8741595E-2,3.2141498E-1,-1.2622268E-1,-4.143452E-2,-2.0212242E-1,-1.1533951E-1,9.7371414E-2,-2.638468E-1,-3.0286527E-1,5.9736498E-2,1.5369555E-1,-7.422639E-2,1.2628652E-2,1.2204184E-1,-1.4760245E-1,7.747461E-2,-9.602392E-2,6.4204025E-1,-1.2050365E-1,8.426965E-2,-2.0242989E-1,1.3200307E-1,4.3541172E-1,-1.7056113E-1,2.7082074E-1,-1.4112014E-1,-1.7937015E-1,-1.6413024E-1,-7.542014E-3,-2.2020994E-1,-2.9887652E0,1.6256015E-1,6.310511E-2,2.5841194E-1,4.1664843E-2,1.5402746E-1,-2.14704E-1,1.2195049E-3,4.761816E-4,-4.4681043E-3,-6.6375303E-1,-1.5000065E-3,-1.9201452E-1,-4.0431863E-1,-8.265029E-2,-5.593243E-3,1.405622E-1,-1.7425752E-1,1.3603458E-1,4.0414467E0,-1.0055731E-1,-6.354397E-2,-1.8518629E-3,-5.406253E-2,2.0181395E-1,3.8461306E-4,-6.409607E-2,-1.503354E-1,2.0407543E-4,3.0499361E-2,-3.3360624E-1,-2.558154E-3,-4.716989E-3,3.0769173E-3,1.6520129E-1,-1.5714282E-1,-3.321465E-1,6.3384406E-2,1.3478227E-1,-2.5926093E-3,-5.7274386E-2,6.879996E-2,3.3333339E-3,-2.0000075E-3,9.113011E-2,-2.8782507E-2,-7.901609E-2,1.525418E-3,-3.805838E-2,1.3641456E-1,-2.2727319E-3,2.309253E-1,2.999996E-3,-1.3919066E-1,3.8530827E-2,1.66107E-1,-2.8000118E-3,3.3333285E-3,6.7999987E-3,2.0407989E-4,2.6829222E-3,-4.5454707E-3,3.8495824E-2,-5.4666814E-3,-7.557227E-2,-1.9868429E-1,-6.4706104E-3,-9.804011E-4,-2.3404406E-3,4.334239E-1,-4.9668252E-1,-8.000126E-4,-2.0855069E-1,-6.983003E-2,1.3207496E-3,6.9696973E-3,1.1833791E-1,-7.664353E-2,-1.5000121E-3,-6.271207E-3,5.3488375E-3,9.99998E-4,3.2727212E-1,-5.0000474E-4,-3.0232458E-3,2.1951217E-3,3.799741E-2,3.2279155E-1,3.6704715E-2,1.0034251E-1,-7.1429124E-4,1.4107172E-1,-4.22409E-2,1.00727774E-1,4.187107E-2,2.6530551E-3,-5.319165E-3,4.9999164E-4,-1.363639E-3,6.849993E-2,1.927395E-1,4.347729E-4,-5.0000213E-3,1.7241327E-3,-2.4391242E-4,-6.475731E-2,4.5388542E-2,-2.0930269E-3,-3.8556753E-9,-5.272749E-3,-3.600009E-3,3.3333297E-3,1.2256499E-1,1.3218771E-1,2.4583828E-2,7.5001456E-3,-1.2875788E-1,-7.3171285E-4,2.380947E-3,-3.5000157E-3,4.827583E-3,2.43904E-4,-9.5238205E-4,4.1298547E-1,4.583331E-3,-1.304356E-3,2.159276E-1,1.06442876E-1,-5.0000194E-3,-2.0408857E-4,4.6666646E-3,-6.9767545E-4,1.6768721E-1,1.4893537E-3,-2.4391242E-4,5.510203E-3,-5.000013E-3,9.99998E-4,-1.5000012E-3,-7.362663E-3,2.5581345E-3,-3.5000104E-3,-3.8556753E-9,-1.4759296E-1,-3.658553E-3,1.4285643E-3,-5.0000474E-4,-5.121534E-1,-5.652171E-3,-1.9608584E-4,6.3440828E-3,2.4389868E-4,-8.000083E-4,-2.89139E-1,-1.2195187E-3,1.1585347E-1,-8.815361E-3,-2.5000086E-3,-2.5000086E-3,2.8571384E-3,1.1791626E-1,-7.045856E-2,-1.2195134E-3,-8.684447E-2,-1.1561768E-1,1.0344875E-3,-1.0000112E-3,1.6740091E-1,1.12441204E-1,7.3169917E-4,5.3571407E-3,-2.000002E-3,3.5522607E-1,2.413789E-3,8.341461E-3,2.765952E-3,1.4285696E-3,7.2277235E-3,-2.093032E-3,-8.018048E-3,-1.6279148E-3,-7.115409E-3,-3.3726552E-1,-2.000014E-3,-2.8287822E-1,7.3169917E-4,4.5833355E-3,-2.1951357E-3,4.9999706E-4,5.593218E-3,-5.7143043E-3,-5.0001027E-4,-8.156708E-3,-2.2727416E-3,-5.7437558E-2,1.9047556E-3,9.083023E-3,3.4482738E-3,-2.692324E-3,-8.461568E-3,2.195127E-3,-2.3099773E-1,2.3809522E-3,7.908498E-3,1.9999999E-3,8.577406E-3],"split_indices":[531,147,235,325,424,424,545,419,424,666,158,325,147,635,424,230,235,569,25,214,716,165,509,235,196,161,167,425,249,372,195,54,520,266,618,142,416,736,391,632,642,354,0,0,0,49,0,310,635,95,0,167,685,761,205,758,742,0,582,425,0,660,764,0,679,147,0,0,0,41,531,578,191,545,0,571,235,0,0,122,569,510,0,507,17,0,231,0,604,328,545,0,0,0,0,0,0,530,0,501,459,0,0,0,50,436,0,732,707,0,0,463,92,0,0,0,0,387,0,0,0,419,110,745,723,0,586,151,621,601,0,0,0,0,325,540,0,0,0,0,543,549,0,0,0,0,0,65,210,323,411,357,0,0,0,0,0,0,82,0,0,82,354,0,0,0,0,416,0,0,0,0,0,0,0,0,0,0,521,0,0,0,291,0,0,0,0,0,643,0,78,0,0,0,0,579,325,0,25,139,0,0,538,278,0,0,0,196,0,0,0,0,0,0,0,0,0,19,0,378,0,0,0,0,0,0,0,0,0,507,0,0,0,0,0,0,19,0,0,0,0],"split_type":[0,0,0,0,0,0,0,0,0,0,0,0,0,0,0,0,0,0,0,0,0,0,0,0,0,0,0,0,0,0,0,0,0,0,0,0,0,0,0,0,0,0,0,0,0,0,0,0,0,0,0,0,0,0,0,0,0,0,0,0,0,0,0,0,0,0,0,0,0,0,0,0,0,0,0,0,0,0,0,0,0,0,0,0,0,0,0,0,0,0,0,0,0,0,0,0,0,0,0,0,0,0,0,0,0,0,0,0,0,0,0,0,0,0,0,0,0,0,0,0,0,0,0,0,0,0,0,0,0,0,0,0,0,0,0,0,0,0,0,0,0,0,0,0,0,0,0,0,0,0,0,0,0,0,0,0,0,0,0,0,0,0,0,0,0,0,0,0,0,0,0,0,0,0,0,0,0,0,0,0,0,0,0,0,0,0,0,0,0,0,0,0,0,0,0,0,0,0,0,0,0,0,0,0,0,0,0,0,0,0,0,0,0,0,0,0,0,0,0,0,0,0,0,0,0,0,0,0,0,0,0,0,0,0,0,0,0,0,0,0,0],"sum_hessian":[2.914E2,1.446E2,1.468E2,6.79E1,7.6700005E1,6.345E1,8.335E1,2.61E1,4.18E1,4.22E1,3.45E1,2.9800001E1,3.365E1,2.245E1,6.09E1,7.7000003E0,1.84E1,2.085E1,2.095E1,1.835E1,2.385E1,2.45E0,3.205E1,2.495E1,4.85E0,7E0,2.665E1,8.25E0,1.42E1,5.025E1,1.0650001E1,4.4E0,3.3E0,3.25E0,1.5150001E1,1.12E1,9.650001E0,1.87E1,2.25E0,8.25E0,1.01E1,2.2800001E1,1.0500001E0,1.1E0,1.35E0,3.1050001E1,1E0,3.75E0,2.12E1,2.9E0,1.95E0,4.2000003E0,2.8E0,1.145E1,1.52E1,3.95E0,4.3E0,1.7E0,1.25E1,4.865E1,1.6E0,5.6E0,5.05E0,1.45E0,2.95E0,2.15E0,1.15E0,1.65E0,1.6E0,1.295E1,2.2E0,4.5E0,6.7000003E0,7.9500003E0,1.7E0,1.4400001E1,4.3E0,1.25E0,1E0,2.3500001E0,5.9E0,8.150001E0,1.95E0,3.9E0,1.89E1,1.2E0,2.985E1,1E0,2.75E0,2.6000001E0,1.86E1,1.5E0,1.4E0,2.75E0,1.45E0,1.0500001E0,1.75E0,8.7E0,2.75E0,1.31E1,2.1000001E0,2.4E0,1.5500001E0,1.35E0,2.95E0,1.1E1,1.5E0,2.7E0,4.595E1,1.65E0,3.95E0,2.65E0,2.4E0,1E0,1.95E0,1.15E0,1E0,1.195E1,1E0,1.15E0,1.0500001E0,2.5E0,2E0,4.55E0,2.15E0,1.8000001E0,6.15E0,2.15E0,1.225E1,2.8500001E0,1.45E0,1.35E0,1E0,1.2E0,4.7000003E0,6.85E0,1.3000001E0,2E0,1.9E0,1.0500001E0,1.785E1,2.87E1,1.15E0,1E0,1.75E0,1.5E0,1.1E0,2.1000001E0,1.65E1,4E0,4.7000003E0,1.205E1,1.0500001E0,1.1E0,1E0,1.9E0,1.0500001E0,1.1E0,9.900001E0,1.4E0,1.3000001E0,2.8E0,4.315E1,1.2E0,1.45E0,1.25E0,1.15E0,1.06E1,1.35E0,1.0500001E0,1.45E0,1E0,1E0,1E0,3.55E0,1.15E0,1E0,1E0,5.15E0,1.0500001E0,1.1E0,1E0,1.125E1,1.3000001E0,1.5500001E0,3.65E0,1.0500001E0,1.5E0,5.35E0,1.0500001E0,1.6800001E1,2.77E1,1E0,1E0,1.1E0,1.405E1,2.45E0,1.0500001E0,2.95E0,2.8E0,1.9E0,1E0,1.105E1,8.85E0,1.0500001E0,1.8000001E0,1E0,4.125E1,1.9E0,9.25E0,1.35E0,1.1E0,4.05E0,1.15E0,1.01E1,1.15E0,4.2000003E0,1.555E1,1.25E0,1.3E1,1.0500001E0,1.4E0,1.0500001E0,1E0,1.95E0,1.8000001E0,1E0,9.85E0,1.2E0,7.75E0,1.1E0,3.9350002E1,1.9E0,1.6E0,1.395E1,1.0500001E0,1.195E1,1.1E0,6.65E0,1E0,1.095E1],"tree_param":{"num_deleted":"0","num_feature":"768","num_nodes":"241","size_leaf_vector":"1"}},{"base_weights":[-1.0089299E-4,-6.564462E-1,6.464759E-1,-8.6825356E-2,-1.1531076E0,-1.7066533E-2,1.1458122E0,5.509568E-1,-4.8862588E-1,-7.83665E-1,-1.5702037E0,6.0762197E-1,-5.718522E-1,3.9480233E-1,1.4118137E0,-2.9779446E-1,9.0318453E-1,-2.2917422E-2,-9.299528E-1,-2.2148615E-1,-1.1898842E0,-5.491329E-1,-1.6292813E0,8.402459E-1,-5.281356E-1,4.7326866E-1,-8.535568E-1,-3.3397406E-1,8.1232846E-1,1.5672151E0,6.070024E-1,-7.752966E-1,3.711134E-1,-2.110942E-1,1.1404926E0,-5.38985E-1,5.704102E-1,-1.0715897E0,2.147174E-1,3.3350322E-1,-6.640234E-1,-1.2633344E0,1.216382E-3,4.7493473E-4,-4.4552833E-3,-1.6609281E0,-1.7025919E-3,-3.5658795E-1,1.0584776E0,5.116033E-2,-5.574785E-3,9.9635273E-1,-3.6707303E-1,-3.1215376E-1,-1.2169485E0,-9.864637E-1,3.3843914E-1,-1.8460341E-3,9.884643E-1,1.6137046E0,3.8342984E-4,1.1470218E0,-8.243792E-2,2.0347153E-4,-1.0851415E0,8.548747E-1,-2.5513144E-3,-4.702321E-3,3.067454E-3,1.3489469E0,-1.2463259E-1,1.8113802E-1,-9.83362E-1,8.3469075E-1,-2.58445E-3,-1.2801387E0,-2.6343474E-1,3.329053E-3,-1.6287691E-3,-6.8457806E-1,7.7945626E-1,-9.0357316E-1,1.5203771E-3,-4.0679532E-1,-1.4107581E0,-2.2665346E-3,-1.693261E0,2.6762516E-3,-7.5434005E-1,-1.1063159E-1,1.2192094E0,-2.7916154E-3,3.3236118E-3,6.7751226E-3,2.0347597E-4,2.676054E-3,-4.5310236E-3,2.0482497E-2,-5.4466664E-3,-1.3698906E0,-1.2875098E-1,-6.4478205E-3,-9.774214E-4,-2.33372E-3,7.3179203E-1,1.1452576E0,-7.976126E-4,4.3115604E-1,1.672528E0,1.316638E-3,6.941956E-3,-6.284166E-1,5.2793276E-1,-1.702907E-3,-6.1864117E-3,1.2137686E-3,5.22669E-3,1.4685197E0,-4.987544E-4,-3.0151638E-3,2.1895014E-3,7.406486E-1,-2.6600154E-3,-1.3103514E0,-9.506309E-2,-7.1199535E-4,1.1005893E0,-2.8499708E-1,-1.4201068E0,-6.9931376E-1,2.645207E-3,-5.2055535E-3,2.4687123E-4,-1.3599201E-3,1.0485302E0,-1.0786158E0,4.335447E-4,-4.9833753E-3,1.718486E-3,-2.4328774E-4,-1.4840508E0,-1.7286632E0,-2.0874303E-3,-3.8743018E-9,-5.16863E-3,-3.5892162E-3,3.3246046E-3,6.4307116E-2,1.3541244E0,5.979761E-1,-4.8968402E-1,-1.457183E0,-7.29839E-4,-3.167525E-3,2.1940416E-3,4.811787E-3,2.4327944E-4,-9.498882E-4,1.2974367E0,4.569977E-3,-1.3006704E-3,5.769376E-1,1.7289436E0,-1.9908491E-4,-4.9912934E-3,4.6590753E-3,-7.014241E-4,1.5792553E0,1.4850763E-3,-2.4328774E-4,5.493922E-3,-1.7027581E-3,-7.304806E-3,2.3778556E-3,-3.1662153E-3,-3.8743018E-9,1.2795488E0,-3.654151E-3,1.4296687E-3,-4.987544E-4,-1.5197494E0,-5.6362227E-3,-1.9549008E-4,6.3192337E-3,2.4327413E-4,-7.976082E-4,-1.2706047E0,-1.2163958E-3,-1.5435758E0,-2.865144E-3,-8.79675E-3,-2.1893827E-3,2.6756078E-3,1.488459E0,3.7561938E-1,-1.2163905E-3,8.8319105E-1,-8.919057E-1,1.0310987E-3,-1.4242622E-3,-1.5412602E0,1.4053648E0,7.2982523E-4,5.4550427E-3,-1.6251291E-3,1.7736682E0,2.405884E-3,8.303955E-3,2.7580103E-3,1.4248284E-3,7.198816E-3,-2.0874355E-3,-7.981687E-3,-1.6235615E-3,-7.086746E-3,-1.6059309E0,-1.9944597E-3,1.5787213E0,7.2982523E-4,4.5699812E-3,-2.189515E-3,5.7004206E-3,6.8922853E-4,-5.695967E-3,-4.9875985E-4,-8.102694E-3,-2.2665446E-3,7.457174E-3,1.8875771E-3,9.038916E-3,3.4369847E-3,-2.6840423E-3,-8.422231E-3,2.1895068E-3,1.6374062E0,2.1892001E-3,8.532289E-3],"categories":[],"categories_nodes":[],"categories_segments":[],"categories_sizes":[],"default_left":[0,0,0,0,0,0,0,0,0,0,0,0,0,0,0,0,0,0,0,0,0,0,0,0,0,0,0,0,0,0,0,0,0,0,0,0,0,0,0,0,0,0,0,0,0,0,0,0,0,0,0,0,0,0,0,0,0,0,0,0,0,0,0,0,0,0,0,0,0,0,0,0,0,0,0,0,0,0,0,0,0,0,0,0,0,0,0,0,0,0,0,0,0,0,0,0,0,0,0,0,0,0,0,0,0,0,0,0,0,0,0,0,0,0,0,0,0,0,0,0,0,0,0,0,0,0,0,0,0,0,0,0,0,0,0,0,0,0,0,0,0,0,0,0,0,0,0,0,0,0,0,0,0,0,0,0,0,0,0,0,0,0,0,0,0,0,0,0,0,0,0,0,0,0,0,0,0,0,0,0,0,0,0,0,0,0,0,0,0,0,0,0,0,0,0,0,0,0,0,0,0,0,0,0,0,0,0,0,0,0,0,0,0,0,0,0,0,0,0,0,0,0,0,0,0,0,0,0,0,0,0,0,0,0,0,0,0],"id":1,"left_children":[1,3,5,7,9,11,13,15,17,19,21,23,25,27,29,31,33,35,37,39,41,43,45,47,49,51,53,55,57,59,61,63,65,67,69,71,73,75,77,79,81,83,-1,-1,-1,85,-1,87,89,91,-1,93,95,97,99,101,103,-1,105,107,-1,109,111,-1,113,115,-1,-1,-1,117,119,121,123,125,-1,127,129,-1,-1,131,133,135,-1,137,139,-1,141,-1,143,145,147,-1,-1,-1,-1,-1,-1,149,-1,151,153,-1,-1,-1,155,157,-1,159,161,-1,-1,163,165,-1,-1,-1,-1,167,-1,-1,-1,169,-1,171,173,-1,175,177,179,181,-1,-1,-1,-1,183,185,-1,-1,-1,-1,187,189,-1,-1,-1,-1,-1,191,193,195,197,199,-1,-1,-1,-1,-1,-1,201,-1,-1,203,205,-1,-1,-1,-1,207,-1,-1,-1,-1,-1,-1,-1,-1,209,-1,-1,-1,211,-1,-1,-1,-1,-1,213,-1,215,-1,-1,-1,-1,217,219,-1,221,223,-1,-1,225,227,-1,-1,-1,229,-1,-1,-1,-1,-1,-1,-1,-1,-1,231,-1,233,-1,-1,-1,-1,-1,-1,-1,-1,-1,-1,-1,-1,-1,-1,-1,-1,235,-1,-1],"loss_changes":[1.2451112E2,4.109098E1,4.898973E1,1.7925472E1,1.0742378E1,2.2683613E1,1.6292992E1,8.370546E0,8.775294E0,9.601866E0,1.246727E0,8.581187E0,1.0605375E1,7.406692E0,6.790329E0,3.0665364E0,5.370594E0,6.997811E0,3.7887554E0,4.9738564E0,2.9231682E0,8.44465E-1,7.8234863E-1,7.1551876E0,2.0457025E0,3.8822703E0,5.059984E0,4.392211E0,3.5282087E0,3.4274902E0,4.4319596E0,1.4094398E0,2.269622E0,3.1330254E0,4.427168E0,4.082176E0,3.4917295E0,2.982975E0,1.0092487E0,4.733229E0,2.8489184E0,2.431404E0,0E0,0E0,0E0,4.818802E-1,0E0,2.088726E0,4.306511E0,1.8295554E0,0E0,1.7272372E0,2.3335142E0,3.2408495E0,2.519781E0,9.3464804E-1,2.0201774E0,0E0,2.61263E0,2.7325592E0,0E0,1.0421467E0,2.3479156E0,0E0,2.6050568E-2,1.1348677E-1,0E0,0E0,0E0,2.5629463E0,1.125238E0,2.5885756E0,2.1119933E0,2.4819794E0,0E0,1.7402859E0,2.2007072E0,0E0,0E0,9.2802286E-1,2.237287E0,1.6795912E0,0E0,2.5117798E0,1.9144173E0,0E0,6.693649E-1,0E0,7.79778E-1,2.1726334E0,2.966833E0,0E0,0E0,0E0,0E0,0E0,0E0,3.150604E0,0E0,1.2937126E0,1.1660674E0,0E0,0E0,0E0,5.753288E-1,2.684801E0,0E0,1.4727523E0,1.9043579E0,0E0,0E0,7.5481546E-1,1.0483139E0,0E0,0E0,0E0,0E0,1.2108803E0,0E0,0E0,0E0,1.0428369E0,0E0,3.1309986E-1,1.268528E0,0E0,1.4082623E0,1.0107687E0,1.5916023E0,1.0436518E0,0E0,0E0,0E0,0E0,1.1656518E0,1.1824808E0,0E0,0E0,0E0,0E0,1.0166664E0,4.3289185E-2,0E0,0E0,0E0,0E0,0E0,9.672658E-1,1.7412033E0,1.4145486E0,1.7793977E0,8.4723854E-1,0E0,0E0,0E0,0E0,0E0,0E0,1.1494617E0,0E0,0E0,2.1165576E0,1.610321E0,0E0,0E0,0E0,0E0,5.5858612E-2,0E0,0E0,0E0,0E0,0E0,0E0,0E0,0E0,5.696907E-1,0E0,0E0,0E0,3.676777E-1,0E0,0E0,0E0,0E0,0E0,4.2117023E-1,0E0,6.299019E-1,0E0,0E0,0E0,0E0,1.5932465E0,1.9112744E0,0E0,5.99164E-1,6.3074136E-1,0E0,0E0,2.9608536E-1,3.0835152E-1,0E0,0E0,0E0,3.230133E-1,0E0,0E0,0E0,0E0,0E0,0E0,0E0,0E0,0E0,4.850006E-1,0E0,2.2024918E-1,0E0,0E0,0E0,0E0,0E0,0E0,0E0,0E0,0E0,0E0,0E0,0E0,0E0,0E0,0E0,0E0,3.255043E-1,0E0,0E0],"parents":[2147483647,0,0,1,1,2,2,3,3,4,4,5,5,6,6,7,7,8,8,9,9,10,10,11,11,12,12,13,13,14,14,15,15,16,16,17,17,18,18,19,19,20,20,21,21,22,22,23,23,24,24,25,25,26,26,27,27,28,28,29,29,30,30,31,31,32,32,33,33,34,34,35,35,36,36,37,37,38,38,39,39,40,40,41,41,45,45,47,47,48,48,49,49,51,51,52,52,53,53,54,54,55,55,56,56,58,58,59,59,61,61,62,62,64,64,65,65,69,69,70,70,71,71,72,72,73,73,75,75,76,76,79,79,80,80,81,81,83,83,84,84,86,86,88,88,89,89,90,90,97,97,99,99,100,100,104,104,105,105,107,107,108,108,111,111,112,112,117,117,121,121,123,123,124,124,126,126,127,127,128,128,129,129,134,134,135,135,140,140,141,141,147,147,148,148,149,149,150,150,151,151,158,158,161,161,162,162,167,167,176,176,180,180,186,186,188,188,193,193,194,194,196,196,197,197,200,200,201,201,205,205,215,215,217,217,234,234],"right_children":[2,4,6,8,10,12,14,16,18,20,22,24,26,28,30,32,34,36,38,40,42,44,46,48,50,52,54,56,58,60,62,64,66,68,70,72,74,76,78,80,82,84,-1,-1,-1,86,-1,88,90,92,-1,94,96,98,100,102,104,-1,106,108,-1,110,112,-1,114,116,-1,-1,-1,118,120,122,124,126,-1,128,130,-1,-1,132,134,136,-1,138,140,-1,142,-1,144,146,148,-1,-1,-1,-1,-1,-1,150,-1,152,154,-1,-1,-1,156,158,-1,160,162,-1,-1,164,166,-1,-1,-1,-1,168,-1,-1,-1,170,-1,172,174,-1,176,178,180,182,-1,-1,-1,-1,184,186,-1,-1,-1,-1,188,190,-1,-1,-1,-1,-1,192,194,196,198,200,-1,-1,-1,-1,-1,-1,202,-1,-1,204,206,-1,-1,-1,-1,208,-1,-1,-1,-1,-1,-1,-1,-1,210,-1,-1,-1,212,-1,-1,-1,-1,-1,214,-1,216,-1,-1,-1,-1,218,220,-1,222,224,-1,-1,226,228,-1,-1,-1,230,-1,-1,-1,-1,-1,-1,-1,-1,-1,232,-1,234,-1,-1,-1,-1,-1,-1,-1,-1,-1,-1,-1,-1,-1,-1,-1,-1,236,-1,-1],"split_conditions":[-5.3101175E-2,-1.0423768E-1,8.962738E-2,-1.8210821E-1,2.6706696E-2,-7.8741595E-2,3.2141498E-1,-1.2622268E-1,-4.143452E-2,-2.0212242E-1,-1.1533951E-1,9.7371414E-2,-2.638468E-1,-3.0286527E-1,5.9736498E-2,1.5369555E-1,-7.422639E-2,1.2628652E-2,1.2204184E-1,-1.4760245E-1,7.747461E-2,-9.602392E-2,6.374056E-1,-1.2050365E-1,8.426965E-2,-2.0242989E-1,1.3200307E-1,4.3541172E-1,-1.7056113E-1,2.7082074E-1,-1.4112014E-1,-1.7937015E-1,-1.6413024E-1,-7.542014E-3,-2.2020994E-1,-2.9887652E0,1.6256015E-1,6.310511E-2,-7.574308E-2,4.1664843E-2,1.5402746E-1,-2.14704E-1,1.216382E-3,4.7493473E-4,-4.4552833E-3,-6.6375303E-1,-1.7025919E-3,-1.9015712E-1,-4.0431863E-1,-8.265029E-2,-5.574785E-3,1.405622E-1,-1.7425752E-1,1.3603458E-1,4.0414467E0,-1.0055731E-1,-6.354397E-2,-1.8460341E-3,-5.406253E-2,2.0181395E-1,3.8342984E-4,-6.409607E-2,-1.503354E-1,2.0347153E-4,5.644325E-2,2.5196907E-1,-2.5513144E-3,-4.702321E-3,3.067454E-3,1.6520129E-1,-1.5714282E-1,-3.321465E-1,6.3384406E-2,1.3478227E-1,-2.58445E-3,-5.7274386E-2,6.879996E-2,3.329053E-3,-1.6287691E-3,1.996946E-1,-2.8782507E-2,-7.901609E-2,1.5203771E-3,-3.805838E-2,1.3641456E-1,-2.2665346E-3,2.309253E-1,2.6762516E-3,-1.3919066E-1,3.8530827E-2,1.66107E-1,-2.7916154E-3,3.3236118E-3,6.7751226E-3,2.0347597E-4,2.676054E-3,-4.5310236E-3,3.8495824E-2,-5.4466664E-3,-7.557227E-2,-2.4582364E-1,-6.4478205E-3,-9.774214E-4,-2.33372E-3,4.334239E-1,-4.9668252E-1,-7.976126E-4,-2.0855069E-1,-6.983003E-2,1.316638E-3,6.941956E-3,-9.095154E-2,-7.0472114E-2,-1.702907E-3,-6.1864117E-3,1.2137686E-3,5.22669E-3,3.2727212E-1,-4.987544E-4,-3.0151638E-3,2.1895014E-3,3.799741E-2,-2.6600154E-3,4.422972E-2,-4.9961498E-1,-7.1199535E-4,1.4107172E-1,6.570172E-2,1.00727774E-1,4.187107E-2,2.645207E-3,-5.2055535E-3,2.4687123E-4,-1.3599201E-3,6.849993E-2,1.927395E-1,4.335447E-4,-4.9833753E-3,1.718486E-3,-2.4328774E-4,-6.475731E-2,-8.05823E-1,-2.0874303E-3,-3.8743018E-9,-5.16863E-3,-3.5892162E-3,3.3246046E-3,1.24028444E-1,1.3218771E-1,2.4583828E-2,7.5001456E-3,-1.2090762E-1,-7.29839E-4,-3.167525E-3,2.1940416E-3,4.811787E-3,2.4327944E-4,-9.498882E-4,4.1298547E-1,4.569977E-3,-1.3006704E-3,1.5733916E-1,1.06442876E-1,-1.9908491E-4,-4.9912934E-3,4.6590753E-3,-7.014241E-4,1.6768721E-1,1.4850763E-3,-2.4328774E-4,5.493922E-3,-1.7027581E-3,-7.304806E-3,2.3778556E-3,-3.1662153E-3,-3.8743018E-9,-1.4759296E-1,-3.654151E-3,1.4296687E-3,-4.987544E-4,-5.121534E-1,-5.6362227E-3,-1.9549008E-4,6.3192337E-3,2.4327413E-4,-7.976082E-4,-2.89139E-1,-1.2163958E-3,1.1585347E-1,-2.865144E-3,-8.79675E-3,-2.1893827E-3,2.6756078E-3,1.1791626E-1,-7.045856E-2,-1.2163905E-3,4.836962E-1,-1.1561768E-1,1.0310987E-3,-1.4242622E-3,1.6740091E-1,7.928193E-3,7.2982523E-4,5.4550427E-3,-1.6251291E-3,3.5522607E-1,2.405884E-3,8.303955E-3,2.7580103E-3,1.4248284E-3,7.198816E-3,-2.0874355E-3,-7.981687E-3,-1.6235615E-3,-7.086746E-3,-3.3726552E-1,-1.9944597E-3,-2.8287822E-1,7.2982523E-4,4.5699812E-3,-2.189515E-3,5.7004206E-3,6.8922853E-4,-5.695967E-3,-4.9875985E-4,-8.102694E-3,-2.2665446E-3,7.457174E-3,1.8875771E-3,9.038916E-3,3.4369847E-3,-2.6840423E-3,-8.422231E-3,2.1895068E-3,-2.267106E-1,2.1892001E-3,8.532289E-3],"split_indices":[531,147,235,325,424,424,545,419,424,666,158,325,147,635,424,230,235,569,25,214,716,165,509,235,196,161,167,425,249,372,195,54,520,266,618,142,416,736,638,632,642,354,0,0,0,49,0,310,635,95,0,167,685,761,205,758,742,0,582,425,0,660,764,0,679,692,0,0,0,41,531,578,191,545,0,571,235,0,0,563,569,510,0,507,17,0,231,0,604,328,545,0,0,0,0,0,0,530,0,501,591,0,0,0,50,436,0,732,707,0,0,359,353,0,0,0,0,387,0,0,0,419,0,745,68,0,586,704,621,601,0,0,0,0,325,540,0,0,0,0,543,441,0,0,0,0,0,65,210,323,411,357,0,0,0,0,0,0,82,0,0,82,354,0,0,0,0,416,0,0,0,0,0,0,0,0,521,0,0,0,291,0,0,0,0,0,643,0,78,0,0,0,0,579,325,0,283,139,0,0,538,380,0,0,0,196,0,0,0,0,0,0,0,0,0,19,0,378,0,0,0,0,0,0,0,0,0,0,0,0,0,0,0,0,19,0,0],"split_type":[0,0,0,0,0,0,0,0,0,0,0,0,0,0,0,0,0,0,0,0,0,0,0,0,0,0,0,0,0,0,0,0,0,0,0,0,0,0,0,0,0,0,0,0,0,0,0,0,0,0,0,0,0,0,0,0,0,0,0,0,0,0,0,0,0,0,0,0,0,0,0,0,0,0,0,0,0,0,0,0,0,0,0,0,0,0,0,0,0,0,0,0,0,0,0,0,0,0,0,0,0,0,0,0,0,0,0,0,0,0,0,0,0,0,0,0,0,0,0,0,0,0,0,0,0,0,0,0,0,0,0,0,0,0,0,0,0,0,0,0,0,0,0,0,0,0,0,0,0,0,0,0,0,0,0,0,0,0,0,0,0,0,0,0,0,0,0,0,0,0,0,0,0,0,0,0,0,0,0,0,0,0,0,0,0,0,0,0,0,0,0,0,0,0,0,0,0,0,0,0,0,0,0,0,0,0,0,0,0,0,0,0,0,0,0,0,0,0,0,0,0,0,0,0,0,0,0,0,0,0,0,0,0,0,0,0,0],"sum_hessian":[2.9139697E2,1.4459856E2,1.4679843E2,6.7899475E1,7.669908E1,6.3449474E1,8.3348946E1,2.6099789E1,4.1799686E1,4.219963E1,3.4499447E1,2.979974E1,3.3649734E1,2.2449854E1,6.0899094E1,7.6999702E0,1.8399818E1,2.0849873E1,2.0949814E1,1.8349897E1,2.3849731E1,2.4499931E0,3.2049454E1,2.4949762E1,4.849978E0,6.999957E0,2.6649778E1,8.249962E0,1.4199892E1,5.0249157E1,1.0649937E1,4.3999805E0,3.2999897E0,3.2499871E0,1.5149832E1,1.1199929E1,9.649943E0,1.869982E1,2.2499955E0,8.249953E0,1.0099945E1,2.2799732E1,1.0499996E0,1.0999999E0,1.3499932E0,3.0999456E1,1.0499985E0,3.7499857E0,2.1199776E1,2.8999932E0,1.9499848E0,4.1999683E0,2.799989E0,1.1449949E1,1.519983E1,3.9499745E0,4.299987E0,1.6999986E0,1.2499893E1,4.864916E1,1.5999999E0,5.5999513E0,5.049986E0,1.45E0,2.9499805E0,2.1499915E0,1.1499981E0,1.6499908E0,1.5999962E0,1.2949836E1,2.1999962E0,4.499983E0,6.6999464E0,7.9499464E0,1.6999971E0,1.4399832E1,4.2999873E0,1.0999975E0,1.1499978E0,2.3499904E0,5.899963E0,8.149946E0,1.9499989E0,3.8999863E0,1.8899746E1,1.1999984E0,2.9799458E1,1.0499973E0,2.6999884E0,2.599992E0,1.8599783E1,1.4999971E0,1.399996E0,2.7499683E0,1.45E0,1.0499982E0,1.7499908E0,8.699969E0,2.7499795E0,1.3099834E1,2.0999954E0,2.3999748E0,1.5499997E0,1.3499981E0,2.9499888E0,1.0999893E1,1.4999998E0,2.699992E0,4.5949165E1,1.6499993E0,3.9499521E0,2.6499927E0,2.3999932E0,1.049999E0,1.8999815E0,1.0499977E0,1.0999938E0,1.1949836E1,1E0,1.1499974E0,1.0499988E0,2.499989E0,1.9999936E0,4.5499516E0,2.149995E0,1.7999997E0,6.1499467E0,2.149996E0,1.2249836E1,2.8499897E0,1.4499974E0,1.2999924E0,1.0499978E0,1.1999995E0,4.6999636E0,6.849946E0,1.3E0,1.9999876E0,1.8999987E0,1.0500001E0,1.7849747E1,2.864946E1,1.1499988E0,1E0,1.6999882E0,1.4999952E0,1.0999969E0,2.0999963E0,1.6499788E1,3.9999843E0,4.699985E0,1.2049834E1,1.0499998E0,1.0499974E0,1.0499979E0,1.8999889E0,1.0500001E0,1.0999998E0,9.899894E0,1.3999926E0,1.2999994E0,2.7999861E0,4.314918E1,1.4499972E0,1.1999954E0,1.2499956E0,1.1499975E0,1.0599836E1,1.3499993E0,1.0500001E0,1.449989E0,1.0499989E0,3.4999526E0,1.0999979E0,1.0499972E0,1E0,5.1499467E0,1.0499976E0,1.0999984E0,1E0,1.1249836E1,1.2999897E0,1.5500001E0,3.6499634E0,1.0500001E0,1.4999998E0,5.3499465E0,1.0499996E0,1.6799747E1,1.2499765E0,2.7399483E1,1.0499984E0,1.0499979E0,1.4049796E1,2.4499915E0,1.0499996E0,2.9499848E0,2.7999854E0,1.8999996E0,1.0999981E0,1.0949837E1,8.849894E0,1.0499998E0,1.6499882E0,1.1499978E0,4.1249184E1,1.8999974E0,9.249839E0,1.3499974E0,1.0999994E0,4.0499473E0,1.1499988E0,1.0099837E1,1.1499991E0,4.1999474E0,1.5549747E1,1.2499986E0,1.2999796E1,1.0499998E0,1.3999926E0,1.0499988E0,1.7999895E0,1.1499953E0,1.7999854E0,1E0,9.749838E0,1.1999984E0,7.749907E0,1.0999864E0,3.934919E1,1.8999944E0,1.5999972E0,1.3949751E1,1.0499988E0,1.1949798E1,1.049998E0,1.0899799E1],"tree_param":{"num_deleted":"0","num_feature":"768","num_nodes":"237","size_leaf_vector":"1"}},{"base_weights":[-2.0269616E-4,-6.535677E-1,6.4344025E-1,-8.654359E-2,-1.1479695E0,-1.7060809E-2,1.1404948E0,-5.151611E-1,5.0684524E-1,-7.803203E-1,-1.5630354E0,6.0488176E-1,-5.6940424E-1,3.9291131E-1,1.4052907E0,4.6667743E-1,-7.0113546E-1,8.330522E-1,-4.9478093E-1,-2.2075991E-1,-1.1846414E0,-5.47544E-1,-1.6217496E0,8.365973E-1,-5.2636296E-1,4.7155043E-1,-8.499937E-1,-3.3281684E-1,8.087098E-1,1.559892E0,6.045797E-1,8.5899E-1,-3.7601355E-3,-9.6672624E-1,-1.1661445E-1,1.098373E0,-2.0095138E-1,3.844322E-1,-8.827458E-1,3.3186695E-1,-6.6139376E-1,-1.257809E0,1.2132676E-3,4.7369074E-4,-4.4425232E-3,-1.6532066E0,-1.6982339E-3,-3.553327E-1,1.0539486E0,5.1041238E-2,-5.556447E-3,9.9273133E-1,-3.6572883E-1,-3.110334E-1,-1.2117342E0,-9.8304653E-1,3.3726284E-1,-1.8402253E-3,9.8416114E-1,1.6061602E0,3.8225012E-4,1.1425632E0,-8.22299E-2,1.1420704E0,-2.1287455E-4,5.4877702E-2,-1.1016533E0,-5.857454E-1,4.2546925E-1,-1.9975763E-3,1.2332038E0,-4.5269155E-3,3.769273E-1,3.6434734E-3,-7.367774E-4,-1.1437991E0,7.318866E-4,-6.826401E-1,7.763256E-1,-9.0006304E-1,1.5153537E-3,-4.0543118E-1,-1.4044896E0,-2.2603588E-3,-1.6853284E0,2.669405E-3,-7.519723E-1,-1.10152744E-1,1.2139955E0,-2.7832505E-3,3.3139342E-3,6.750453E-3,2.0287406E-4,2.669208E-3,-4.5166495E-3,2.0381259E-2,-5.4267854E-3,-1.363977E0,-1.284216E-1,-6.4252047E-3,-9.7445096E-4,-2.3270226E-3,7.29419E-1,1.1403207E0,-7.9522055E-4,4.2988667E-1,1.6646523E0,1.3125405E-3,6.9144587E-3,-6.266995E-1,5.2645934E-1,1.2144335E-3,6.7415815E-3,2.798994E-3,-2.7192098E-3,-3.650833E-1,-1.3261355E0,-1.0303001E0,1.4456156E-1,8.545373E-1,-1.7132878E-3,2.883433E-1,1.4549519E0,-1.7043839E-3,3.9498983E-3,-7.0701083E-3,-1.1055133E-3,-5.1912856E-3,2.466801E-4,-1.3562124E-3,1.0444591E0,-1.0744561E0,4.3231907E-4,-4.9668266E-3,1.7128587E-3,-2.4266455E-4,-1.4774495E0,-1.7205055E0,-2.0818512E-3,-3.7066639E-9,-5.152424E-3,-3.5784696E-3,3.3159112E-3,6.4142674E-2,1.3483181E0,5.9602565E-1,-4.8814547E-1,-1.4508555E0,-7.279702E-4,2.1886341E-3,-3.1596315E-3,4.796079E-3,2.426566E-4,-9.4740064E-4,1.2919098E0,4.55669E-3,-1.2969954E-3,5.750666E-1,1.7207316E0,-4.977721E-3,-1.9849434E-4,4.646164E-3,-6.995483E-4,-6.370287E-1,2.3783802E-3,-2.1789238E-4,-1.4348205E0,-6.3378536E-3,-7.2882534E-4,-2.0873866E-3,3.0354704E-3,6.1098966E-3,-4.7402634E-4,-1.4803183E-3,4.5544202E-3,1.6139437E0,1.2617112E-3,6.2945825E-3,2.4265132E-4,-7.952162E-4,-1.2656555E0,-1.2132805E-3,-1.5366594E0,-8.754994E-3,-2.8547347E-3,-2.1837798E-3,2.6687633E-3,1.481983E0,3.7443414E-1,-1.2132752E-3,8.8040125E-1,-8.890867E-1,1.0277213E-3,-1.4205332E-3,-1.5344845E0,1.3993298E0,7.279566E-4,5.438135E-3,-1.6207842E-3,1.7651973E0,2.3980099E-3,9.586966E-4,-9.094709E-1,-1.5352111E0,-2.0612997E-3,8.539993E-3,1.7015669E-3,-1.6192211E-3,-7.058342E-3,-1.5986452E0,-1.9889225E-3,1.571818E0,7.279566E-4,4.556694E-3,-2.183912E-3,5.6821727E-3,6.873853E-4,-7.202766E-4,-5.6058518E-3,-8.0663115E-3,-2.2603686E-3,7.4244E-3,1.882641E-3,8.995383E-3,3.425745E-3,-4.7046898E-4,-5.9080645E-3,-8.162611E-3,-2.5383453E-3,-2.6757931E-3,-8.383355E-3,2.183904E-3,1.630123E0,2.1835973E-3,8.49364E-3],"categories":[],"categories_nodes":[],"categories_segments":[],"categories_sizes":[],"default_left":[0,0,0,0,0,0,0,0,0,0,0,0,0,0,0,0,0,0,0,0,0,0,0,0,0,0,0,0,0,0,0,0,0,0,0,0,0,0,0,0,0,0,0,0,0,0,0,0,0,0,0,0,0,0,0,0,0,0,0,0,0,0,0,0,0,0,0,0,0,0,0,0,0,0,0,0,0,0,0,0,0,0,0,0,0,0,0,0,0,0,0,0,0,0,0,0,0,0,0,0,0,0,0,0,0,0,0,0,0,0,0,0,0,0,0,0,0,0,0,0,0,0,0,0,0,0,0,0,0,0,0,0,0,0,0,0,0,0,0,0,0,0,0,0,0,0,0,0,0,0,0,0,0,0,0,0,0,0,0,0,0,0,0,0,0,0,0,0,0,0,0,0,0,0,0,0,0,0,0,0,0,0,0,0,0,0,0,0,0,0,0,0,0,0,0,0,0,0,0,0,0,0,0,0,0,0,0,0,0,0,0,0,0,0,0,0,0,0,0,0,0,0,0,0,0,0,0,0,0,0,0,0,0,0,0],"id":2,"left_children":[1,3,5,7,9,11,13,15,17,19,21,23,25,27,29,31,33,35,37,39,41,43,45,47,49,51,53,55,57,59,61,63,-1,65,67,69,71,73,75,77,79,81,-1,-1,-1,83,-1,85,87,89,-1,91,93,95,97,99,101,-1,103,105,-1,107,109,111,-1,113,115,117,119,-1,121,-1,123,-1,-1,125,-1,127,129,131,-1,133,135,-1,137,-1,139,141,143,-1,-1,-1,-1,-1,-1,145,-1,147,149,-1,-1,-1,151,153,-1,155,157,-1,-1,159,161,-1,-1,-1,-1,163,165,167,169,171,-1,173,175,-1,-1,-1,-1,-1,-1,-1,177,179,-1,-1,-1,-1,181,183,-1,-1,-1,-1,-1,185,187,189,191,193,-1,-1,-1,-1,-1,-1,195,-1,-1,197,199,-1,-1,-1,-1,201,-1,-1,203,-1,-1,-1,-1,-1,-1,-1,-1,205,-1,-1,-1,-1,207,-1,209,-1,-1,-1,-1,211,213,-1,215,217,-1,-1,219,221,-1,-1,-1,223,-1,-1,225,227,-1,-1,-1,-1,-1,229,-1,231,-1,-1,-1,-1,-1,-1,-1,-1,-1,-1,-1,-1,-1,-1,-1,-1,-1,-1,-1,-1,233,-1,-1],"loss_changes":[1.2337959E2,4.071622E1,4.854091E1,1.7784393E1,1.06367035E1,2.2483957E1,1.61447E1,7.722167E0,1.0017953E1,9.511803E0,1.2285385E0,8.513594E0,1.0521115E1,7.345174E0,6.719139E0,4.0166025E0,5.235256E0,6.406945E0,3.0169542E0,4.93124E0,2.9002266E0,8.396952E-1,7.7134705E-1,7.097063E0,2.032465E0,3.8539882E0,5.013691E0,4.3617554E0,3.50037E0,3.394577E0,4.398449E0,1.5288401E0,0E0,3.3065453E0,3.2754092E0,4.148056E0,2.5597792E0,6.7489994E-1,1.7121587E0,4.700754E0,2.8278189E0,2.4060974E0,0E0,0E0,0E0,4.726715E-1,0E0,2.076757E0,4.269657E0,1.818765E0,0E0,1.7145395E0,2.3199325E0,3.217017E0,2.4965363E0,9.277277E-1,2.0077448E0,0E0,2.59134E0,2.7002106E0,0E0,1.0328541E0,2.334964E0,4.9775696E-1,0E0,1.4229573E0,2.9632359E0,2.3565893E0,2.3031964E0,0E0,3.1107826E0,0E0,1.3662788E0,0E0,0E0,8.5919476E-1,0E0,9.2323065E-1,2.2213883E0,1.6670623E0,0E0,2.495179E0,1.8969116E0,0E0,6.5839386E-1,0E0,7.748935E-1,2.160451E0,2.9406242E0,0E0,0E0,0E0,0E0,0E0,0E0,3.1303995E0,0E0,1.2811947E0,1.1602889E0,0E0,0E0,0E0,5.714812E-1,2.6637106E0,0E0,1.4642626E0,1.8790588E0,0E0,0E0,7.507417E-1,1.0425487E0,0E0,0E0,0E0,0E0,1.7319946E0,2.1119614E0,7.281647E-1,1.1502992E0,1.5809009E0,0E0,1.8886257E0,2.1547909E0,0E0,0E0,0E0,0E0,0E0,0E0,0E0,1.1563025E0,1.1726265E0,0E0,0E0,0E0,0E0,1.0052071E0,3.9535522E-2,0E0,0E0,0E0,0E0,0E0,9.623203E-1,1.723032E0,1.4061228E0,1.7680641E0,8.3732224E-1,0E0,0E0,0E0,0E0,0E0,0E0,1.1384163E0,0E0,0E0,2.1039817E0,1.5897827E0,0E0,0E0,0E0,0E0,1.3371847E0,0E0,0E0,8.4015465E-1,0E0,0E0,0E0,0E0,0E0,0E0,0E0,0E0,8.142605E-1,0E0,0E0,0E0,0E0,4.1604042E-1,0E0,6.205864E-1,0E0,0E0,0E0,0E0,1.5778847E0,1.9006755E0,0E0,5.9509873E-1,4.955361E-1,0E0,0E0,2.896061E-1,3.0274963E-1,0E0,0E0,0E0,3.132019E-1,0E0,0E0,7.87488E-1,4.4107056E-1,0E0,0E0,0E0,0E0,0E0,4.759369E-1,0E0,2.1443939E-1,0E0,0E0,0E0,0E0,0E0,0E0,0E0,0E0,0E0,0E0,0E0,0E0,0E0,0E0,0E0,0E0,0E0,0E0,0E0,0E0,3.1833267E-1,0E0,0E0],"parents":[2147483647,0,0,1,1,2,2,3,3,4,4,5,5,6,6,7,7,8,8,9,9,10,10,11,11,12,12,13,13,14,14,15,15,16,16,17,17,18,18,19,19,20,20,21,21,22,22,23,23,24,24,25,25,26,26,27,27,28,28,29,29,30,30,31,31,33,33,34,34,35,35,36,36,37,37,38,38,39,39,40,40,41,41,45,45,47,47,48,48,49,49,51,51,52,52,53,53,54,54,55,55,56,56,58,58,59,59,61,61,62,62,63,63,65,65,66,66,67,67,68,68,70,70,72,72,75,75,77,77,78,78,79,79,81,81,82,82,84,84,86,86,87,87,88,88,95,95,97,97,98,98,102,102,103,103,105,105,106,106,109,109,110,110,115,115,116,116,117,117,118,118,119,119,121,121,122,122,130,130,131,131,136,136,137,137,143,143,144,144,145,145,146,146,147,147,154,154,157,157,158,158,163,163,166,166,175,175,180,180,182,182,187,187,188,188,190,190,191,191,194,194,195,195,199,199,202,202,203,203,209,209,211,211,232,232],"right_children":[2,4,6,8,10,12,14,16,18,20,22,24,26,28,30,32,34,36,38,40,42,44,46,48,50,52,54,56,58,60,62,64,-1,66,68,70,72,74,76,78,80,82,-1,-1,-1,84,-1,86,88,90,-1,92,94,96,98,100,102,-1,104,106,-1,108,110,112,-1,114,116,118,120,-1,122,-1,124,-1,-1,126,-1,128,130,132,-1,134,136,-1,138,-1,140,142,144,-1,-1,-1,-1,-1,-1,146,-1,148,150,-1,-1,-1,152,154,-1,156,158,-1,-1,160,162,-1,-1,-1,-1,164,166,168,170,172,-1,174,176,-1,-1,-1,-1,-1,-1,-1,178,180,-1,-1,-1,-1,182,184,-1,-1,-1,-1,-1,186,188,190,192,194,-1,-1,-1,-1,-1,-1,196,-1,-1,198,200,-1,-1,-1,-1,202,-1,-1,204,-1,-1,-1,-1,-1,-1,-1,-1,206,-1,-1,-1,-1,208,-1,210,-1,-1,-1,-1,212,214,-1,216,218,-1,-1,220,222,-1,-1,-1,224,-1,-1,226,228,-1,-1,-1,-1,-1,230,-1,232,-1,-1,-1,-1,-1,-1,-1,-1,-1,-1,-1,-1,-1,-1,-1,-1,-1,-1,-1,-1,234,-1,-1],"split_conditions":[-5.3101175E-2,-1.0423768E-1,8.962738E-2,7.391189E-2,2.6706696E-2,-7.8741595E-2,3.2141498E-1,-8.244734E-2,1.10221006E-1,-2.0212242E-1,-1.1533951E-1,9.7371414E-2,-2.638468E-1,-3.0286527E-1,5.9736498E-2,2.630024E-1,6.2805824E-2,2.1978801E-2,7.250216E-1,-1.4760245E-1,7.747461E-2,-9.602392E-2,6.374056E-1,-1.2050365E-1,8.426965E-2,-2.0242989E-1,1.3200307E-1,4.3541172E-1,-1.7056113E-1,2.7082074E-1,-1.4112014E-1,5.6555882E-2,-3.7601355E-3,-2.1935993E-1,-1.1230575E-1,-4.4027564E-1,3.8923407E-1,-8.6831406E-2,2.5911722E-1,4.1664843E-2,1.5402746E-1,-2.14704E-1,1.2132676E-3,4.7369074E-4,-4.4425232E-3,-6.6375303E-1,-1.6982339E-3,-1.9015712E-1,-4.0431863E-1,-8.265029E-2,-5.556447E-3,1.405622E-1,-1.7425752E-1,1.3603458E-1,4.0414467E0,-1.0055731E-1,-6.354397E-2,-1.8402253E-3,-5.406253E-2,2.0181395E-1,3.8225012E-4,-6.409607E-2,-1.503354E-1,1.4422901E-1,-2.1287455E-4,-1.4257035E-1,2.5274995E-1,3.877617E-2,-2.7614962E-2,-1.9975763E-3,-4.2861322E-1,-4.5269155E-3,3.1683806E-1,3.6434734E-3,-7.367774E-4,-1.2735398E-1,7.318866E-4,8.7468445E-2,-2.8782507E-2,-7.901609E-2,1.5153537E-3,-3.805838E-2,1.3641456E-1,-2.2603588E-3,2.309253E-1,2.669405E-3,-1.3919066E-1,3.8530827E-2,1.66107E-1,-2.7832505E-3,3.3139342E-3,6.750453E-3,2.0287406E-4,2.669208E-3,-4.5166495E-3,3.8495824E-2,-5.4267854E-3,-7.557227E-2,-2.144272E-1,-6.4252047E-3,-9.7445096E-4,-2.3270226E-3,4.334239E-1,-4.9668252E-1,-7.9522055E-4,-2.0855069E-1,-6.983003E-2,1.3125405E-3,6.9144587E-3,1.1833791E-1,-7.0472114E-2,1.2144335E-3,6.7415815E-3,2.798994E-3,-2.7192098E-3,2.7958784E-1,-2.3584661E-1,5.216129E-1,-9.179858E-2,2.2474508E-1,-1.7132878E-3,8.6420044E-2,-2.5792217E-1,-1.7043839E-3,3.9498983E-3,-7.0701083E-3,-1.1055133E-3,-5.1912856E-3,2.466801E-4,-1.3562124E-3,6.849993E-2,1.927395E-1,4.3231907E-4,-4.9668266E-3,1.7128587E-3,-2.4266455E-4,-6.475731E-2,8.797741E-3,-2.0818512E-3,-3.7066639E-9,-5.152424E-3,-3.5784696E-3,3.3159112E-3,1.24028444E-1,1.3218771E-1,2.4583828E-2,7.5001456E-3,-1.2090762E-1,-7.279702E-4,2.1886341E-3,-3.1596315E-3,4.796079E-3,2.426566E-4,-9.4740064E-4,4.1298547E-1,4.55669E-3,-1.2969954E-3,1.5733916E-1,1.06442876E-1,-4.977721E-3,-1.9849434E-4,4.646164E-3,-6.995483E-4,-1.980142E-1,2.3783802E-3,-2.1789238E-4,1.660843E-1,-6.3378536E-3,-7.2882534E-4,-2.0873866E-3,3.0354704E-3,6.1098966E-3,-4.7402634E-4,-1.4803183E-3,4.5544202E-3,4.1058287E-1,1.2617112E-3,6.2945825E-3,2.4265132E-4,-7.952162E-4,-2.89139E-1,-1.2132805E-3,1.1585347E-1,-8.754994E-3,-2.8547347E-3,-2.1837798E-3,2.6687633E-3,1.1791626E-1,-7.045856E-2,-1.2132752E-3,4.836962E-1,1.383945E-1,1.0277213E-3,-1.4205332E-3,1.6740091E-1,7.928193E-3,7.279566E-4,5.438135E-3,-1.6207842E-3,3.5522607E-1,2.3980099E-3,9.586966E-4,-1.9463444E-1,-2.9380056E-3,-2.0612997E-3,8.539993E-3,1.7015669E-3,-1.6192211E-3,-7.058342E-3,-3.3726552E-1,-1.9889225E-3,-2.8287822E-1,7.279566E-4,4.556694E-3,-2.183912E-3,5.6821727E-3,6.873853E-4,-7.202766E-4,-5.6058518E-3,-8.0663115E-3,-2.2603686E-3,7.4244E-3,1.882641E-3,8.995383E-3,3.425745E-3,-4.7046898E-4,-5.9080645E-3,-8.162611E-3,-2.5383453E-3,-2.6757931E-3,-8.383355E-3,2.183904E-3,-2.267106E-1,2.1835973E-3,8.49364E-3],"split_indices":[531,147,235,235,424,424,545,386,424,666,158,325,147,635,424,499,249,161,360,214,716,165,509,235,196,161,167,425,249,372,195,424,0,424,127,265,6,500,632,632,642,354,0,0,0,49,0,310,635,95,0,167,685,761,205,758,742,0,582,425,0,660,764,323,0,112,17,507,655,0,253,0,678,0,0,561,0,122,569,510,0,507,17,0,231,0,604,328,545,0,0,0,0,0,0,530,0,501,459,0,0,0,50,436,0,732,707,0,0,463,353,0,0,0,0,486,430,72,240,763,0,736,197,0,0,0,0,0,0,0,325,540,0,0,0,0,543,549,0,0,0,0,0,65,210,323,411,357,0,0,0,0,0,0,82,0,0,82,354,0,0,0,0,160,0,0,11,0,0,0,0,0,0,0,0,499,0,0,0,0,643,0,78,0,0,0,0,579,325,0,283,562,0,0,538,380,0,0,0,196,0,0,516,690,0,0,0,0,0,19,0,378,0,0,0,0,0,0,0,0,0,0,0,0,0,0,0,0,0,0,0,0,19,0,0],"split_type":[0,0,0,0,0,0,0,0,0,0,0,0,0,0,0,0,0,0,0,0,0,0,0,0,0,0,0,0,0,0,0,0,0,0,0,0,0,0,0,0,0,0,0,0,0,0,0,0,0,0,0,0,0,0,0,0,0,0,0,0,0,0,0,0,0,0,0,0,0,0,0,0,0,0,0,0,0,0,0,0,0,0,0,0,0,0,0,0,0,0,0,0,0,0,0,0,0,0,0,0,0,0,0,0,0,0,0,0,0,0,0,0,0,0,0,0,0,0,0,0,0,0,0,0,0,0,0,0,0,0,0,0,0,0,0,0,0,0,0,0,0,0,0,0,0,0,0,0,0,0,0,0,0,0,0,0,0,0,0,0,0,0,0,0,0,0,0,0,0,0,0,0,0,0,0,0,0,0,0,0,0,0,0,0,0,0,0,0,0,0,0,0,0,0,0,0,0,0,0,0,0,0,0,0,0,0,0,0,0,0,0,0,0,0,0,0,0,0,0,0,0,0,0,0,0,0,0,0,0,0,0,0,0,0,0],"sum_hessian":[2.913881E2,1.4459431E2,1.4679378E2,6.789795E1,7.6696365E1,6.3447933E1,8.334584E1,3.9498886E1,2.8399063E1,4.219853E1,3.4497833E1,2.9798967E1,3.3648968E1,2.244943E1,6.089641E1,6.0498357E0,3.344905E1,2.1549257E1,6.8498054E0,1.8349598E1,2.384893E1,2.4499729E0,3.204786E1,2.4949057E1,4.8499117E0,6.99983E0,2.6649137E1,8.249847E0,1.4199583E1,5.024665E1,1.064976E1,4.7998724E0,1.2499632E0,2.2549347E1,1.0899703E1,1.7099377E1,4.4498796E0,2.0999546E0,4.7498507E0,8.249819E0,1.0099779E1,2.2798931E1,1.0499984E0,1.0999998E0,1.3499732E0,3.0997864E1,1.049996E0,3.7499456E0,2.119911E1,2.8999727E0,1.9499391E0,4.199873E0,2.7999566E0,1.1449802E1,1.5199334E1,3.9498987E0,4.299948E0,1.6999941E0,1.2499589E1,4.8646652E1,1.5999998E0,5.599806E0,5.049954E0,3.4498858E0,1.3499866E0,2.6999412E0,1.9849405E1,5.799846E0,5.0998564E0,1.2499613E0,1.5849416E1,1.7499557E0,2.6999242E0,1.0499662E0,1.0499885E0,3.6998854E0,1.049965E0,2.3499675E0,5.8998513E0,8.149784E0,1.9499955E0,3.8999445E0,1.8898987E1,1.1999937E0,2.979787E1,1.0499918E0,2.6999538E0,2.5999684E0,1.8599142E1,1.4999882E0,1.3999845E0,2.7498732E0,1.4499999E0,1.0499926E0,1.749964E0,8.699884E0,2.749918E0,1.3099345E1,2.099989E0,2.3999E0,1.5499985E0,1.3499926E0,2.9499557E0,1.099959E1,1.4999989E0,2.6999686E0,4.5946686E1,1.6499972E0,3.9498088E0,2.6499753E0,2.3999786E0,1.0499606E0,2.3999252E0,1.4999704E0,1.1999707E0,5.249876E0,1.4599529E1,3.3499048E0,2.4499416E0,3.1999185E0,1.899938E0,3.4498892E0,1.2399527E1,1.0499879E0,1.6499363E0,2.449911E0,1.2499743E0,1.2999704E0,1.0499971E0,1.1999979E0,4.6998534E0,6.8497844E0,1.2999997E0,1.9999502E0,1.8999944E0,1.0500001E0,1.7848988E1,2.8647875E1,1.149995E0,1E0,1.6999537E0,1.4999806E0,1.0999877E0,2.0999866E0,1.6499157E1,3.9999452E0,4.6999393E0,1.2049346E1,1.0499995E0,1.0499965E0,1.0499924E0,1.8999559E0,1.05E0,1.099999E0,9.8995905E0,1.3999708E0,1.2999978E0,2.799948E0,4.3146736E1,1.1999782E0,1.449997E0,1.2499808E0,1.1499978E0,4.1499E0,1.0999763E0,1.2499714E0,1.3349558E1,2.2999287E0,1.0499761E0,1.1499764E0,1.2999651E0,2.09995E0,1.0999683E0,2.0499427E0,1.3999466E0,1.0649561E1,1.7499658E0,3.6498535E0,1.05E0,1.4999989E0,5.3497853E0,1.0499985E0,1.6798988E1,2.7397926E1,1.2499499E0,1.0499945E0,1.049992E0,1.40491905E1,2.4499655E0,1.0499985E0,2.9499464E0,2.7999413E0,1.899998E0,1.0999963E0,1.0949349E1,8.849591E0,1.0499995E0,1.6499518E0,1.1499962E0,4.1246746E1,1.899989E0,1.0999814E0,3.0499184E0,1.1699602E1,1.649956E0,9.599603E0,1.0499585E0,1.149997E0,4.199788E0,1.5548994E1,1.2499949E0,1.2999191E1,1.0499995E0,1.3999708E0,1.0499948E0,1.7999526E0,1.1499939E0,1.0499885E0,1.7499529E0,9.749356E0,1.1999937E0,7.749613E0,1.0999787E0,3.934677E1,1.8999776E0,1.099978E0,1.9499404E0,1.0149637E1,1.549965E0,1.5999885E0,1.3949005E1,1.049995E0,1.1949196E1,1.0499942E0,1.0899201E1],"tree_param":{"num_deleted":"0","num_feature":"768","num_nodes":"235","size_leaf_vector":"1"}},{"base_weights":[-2.9760404E-4,-6.5069765E-1,6.404312E-1,-8.623488E-2,-1.1428812E0,-1.7057326E-2,1.1352301E0,5.469892E-1,-4.851613E-1,-7.7700335E-1,-1.5559471E0,6.021642E-1,-5.669796E-1,3.91034E-1,1.3988379E0,9.5030034E-1,-1.9198896E-1,-7.9697657E-1,1.5538515E-1,-2.2003849E-1,-1.1794472E0,-5.459621E-1,-1.6143048E0,8.3298004E-1,-5.245999E-1,4.6984333E-1,-8.4646404E-1,-3.3166647E-1,8.051188E-1,1.5526532E0,6.021731E-1,-3.3981273E-1,1.1848559E0,-7.1506184E-1,5.159446E-1,1.1044498E-1,-9.6411294E-1,5.3541636E-1,-6.881182E-1,3.302412E-1,-6.5878105E-1,-1.252336E0,1.2101614E-3,4.7245016E-4,-4.4298265E-3,-1.6455755E0,-1.6938876E-3,-3.5408375E-1,1.0494602E0,5.0922614E-2,-5.538224E-3,9.891348E-1,-3.6439162E-1,-3.0993143E-1,-1.2065672E0,-9.7965133E-1,3.3609223E-1,-1.834437E-3,9.798925E-1,1.5987042E0,3.8107365E-4,1.1381387E0,-8.202283E-2,2.0850152E-3,-4.438114E-3,1.3488779E0,-1.2596011E-3,-2.7514922E-2,-5.672721E-3,8.8411283E-1,-1.2563932E-3,-4.9753335E-1,4.263419E-3,-1.21124E0,-2.4724314E-1,-1.9479617E-1,1.098173E0,-9.9310505E-1,1.2132127E-3,-6.80711E-1,7.7321553E-1,-8.9657706E-1,1.5103479E-3,-4.040738E-1,-1.3982844E0,-2.2542013E-3,-1.6774904E0,2.662581E-3,-7.496166E-1,-1.0967598E-1,1.2088302E0,-2.7749168E-3,3.3042955E-3,6.7259837E-3,2.0227389E-4,2.6623842E-3,-4.5023523E-3,2.0264996E-2,-5.407034E-3,-1.3581201E0,-1.2809326E-1,-6.402763E-3,-9.714903E-4,-2.320347E-3,7.270576E-1,1.1354257E0,-7.92835E-4,4.2862278E-1,1.6568713E0,1.3084563E-3,6.8872017E-3,-6.249898E-1,5.249922E-1,1.4526823E0,2.2639248E-4,3.8996194E-3,-4.3924702E-3,7.378967E-4,5.6475853E-3,-4.26746E-3,6.975401E-4,-1.3001267E0,2.437008E-4,6.654506E-1,-8.1618845E-1,-4.3112966E-3,4.241345E-1,1.300788E0,2.4260304E-4,-1.2080531E-3,-5.893407E-3,-5.1798467E-3,2.4958706E-4,-1.3525153E-3,1.040417E0,-1.0703272E0,4.310968E-4,-4.950372E-3,1.7072511E-3,-2.4204349E-4,-1.4709171E0,-1.7124469E0,-2.0762898E-3,-3.7252903E-9,-5.136312E-3,-3.5677683E-3,3.307251E-3,6.397878E-2,1.342569E0,5.94085E-1,-4.8663983E-1,-1.4445912E0,-7.261057E-4,-3.1565598E-3,2.1880427E-3,4.780458E-3,2.4203498E-4,-9.4491907E-4,1.2864323E0,4.5434684E-3,-1.2933315E-3,5.732057E-1,1.7126207E0,-1.9352033E-4,-4.969085E-3,4.638644E-3,-7.032697E-4,1.556534E0,9.240002E-4,-5.5071217E-4,-1.4220586E0,-2.3539453E-4,4.983996E-3,-6.118007E-3,6.195904E-4,-1.6808478E-3,4.3895897E-3,1.6983588E-3,7.310552E-3,6.2701222E-3,2.4202968E-4,-7.928307E-4,-1.2607468E0,-1.2101752E-3,-1.5298171E0,-2.8336528E-3,-8.714596E-3,-2.1781938E-3,2.6619416E-3,1.4755745E0,3.7325436E-1,-1.2101699E-3,8.7762684E-1,-8.8632077E-1,1.0243559E-3,-1.4168142E-3,-1.5277796E0,1.3933514E0,7.2609266E-4,5.4213307E-3,-1.6164515E-3,1.7568332E0,2.3901656E-3,2.91947E-3,8.320135E-3,-1.5303756E0,-2.4440803E-3,-1.6148938E-3,-7.030193E-3,-1.5914404E0,-1.9834032E-3,1.5649899E0,7.2609266E-4,4.543473E-3,-2.1783258E-3,5.664042E-3,6.855475E-4,-5.593441E-3,-7.112878E-4,-8.030331E-3,-2.2542113E-3,1.4789416E0,1.8661417E-3,1.790482E0,3.4145564E-3,-2.6708574E-3,-1.6221303E0,-2.6675744E-3,-8.3449315E-3,2.1783176E-3,1.622922E0,2.337152E-3,7.816419E-3,9.054211E-3,2.7863896E-3,-2.3645821E-3,-8.489235E-3,2.1780122E-3,8.455446E-3],"categories":[],"categories_nodes":[],"categories_segments":[],"categories_sizes":[],"default_left":[0,0,0,0,0,0,0,0,0,0,0,0,0,0,0,0,0,0,0,0,0,0,0,0,0,0,0,0,0,0,0,0,0,0,0,0,0,0,0,0,0,0,0,0,0,0,0,0,0,0,0,0,0,0,0,0,0,0,0,0,0,0,0,0,0,0,0,0,0,0,0,0,0,0,0,0,0,0,0,0,0,0,0,0,0,0,0,0,0,0,0,0,0,0,0,0,0,0,0,0,0,0,0,0,0,0,0,0,0,0,0,0,0,0,0,0,0,0,0,0,0,0,0,0,0,0,0,0,0,0,0,0,0,0,0,0,0,0,0,0,0,0,0,0,0,0,0,0,0,0,0,0,0,0,0,0,0,0,0,0,0,0,0,0,0,0,0,0,0,0,0,0,0,0,0,0,0,0,0,0,0,0,0,0,0,0,0,0,0,0,0,0,0,0,0,0,0,0,0,0,0,0,0,0,0,0,0,0,0,0,0,0,0,0,0,0,0,0,0,0,0,0,0,0,0,0,0,0,0,0,0,0,0,0,0,0,0,0,0],"id":3,"left_children":[1,3,5,7,9,11,13,15,17,19,21,23,25,27,29,31,33,35,37,39,41,43,45,47,49,51,53,55,57,59,61,63,65,67,69,71,73,75,77,79,81,83,-1,-1,-1,85,-1,87,89,91,-1,93,95,97,99,101,103,-1,105,107,-1,109,111,-1,-1,113,-1,115,-1,117,-1,119,-1,121,123,125,127,129,-1,131,133,135,-1,137,139,-1,141,-1,143,145,147,-1,-1,-1,-1,-1,-1,149,-1,151,153,-1,-1,-1,155,157,-1,159,161,-1,-1,163,165,167,-1,-1,-1,-1,-1,-1,-1,169,-1,171,173,-1,175,177,-1,-1,-1,-1,-1,-1,179,181,-1,-1,-1,-1,183,185,-1,-1,-1,-1,-1,187,189,191,193,195,-1,-1,-1,-1,-1,-1,197,-1,-1,199,201,-1,-1,-1,-1,203,-1,-1,205,-1,-1,-1,-1,-1,-1,-1,-1,-1,-1,-1,207,-1,209,-1,-1,-1,-1,211,213,-1,215,217,-1,-1,219,221,-1,-1,-1,223,-1,-1,-1,225,-1,-1,-1,227,-1,229,-1,-1,-1,-1,-1,-1,-1,-1,-1,231,-1,233,-1,-1,235,-1,-1,-1,237,-1,-1,-1,-1,-1,-1,-1,-1],"loss_changes":[1.2225782E2,4.0348614E1,4.809781E1,1.7669239E1,1.0532722E1,2.2286596E1,1.5998619E1,8.258821E0,8.6719265E0,9.422894E0,1.2107468E0,8.4466915E0,1.0437771E1,7.284275E0,6.649231E0,5.7583485E0,4.2199326E0,4.496889E0,5.128508E0,4.8890314E0,2.8775635E0,8.3495903E-1,7.6057434E-1,7.0395775E0,2.0193377E0,3.8259556E0,4.967848E0,4.331557E0,3.4728222E0,3.3621979E0,4.365273E0,1.8211757E0,3.9216213E0,1.8145761E0,1.6344498E0,2.8609998E0,4.0494995E0,4.651798E0,1.6744635E0,4.6685443E0,2.8069158E0,2.381195E0,0E0,0E0,0E0,4.636917E-1,0E0,2.0648677E0,4.2332516E0,1.8080435E0,0E0,1.7019868E0,2.306443E0,3.1932974E0,2.4736156E0,9.2089033E-1,1.9953971E0,0E0,2.5702982E0,2.668518E0,0E0,1.0236969E0,2.3220937E0,0E0,0E0,1.8014851E0,0E0,3.0556386E0,0E0,4.839797E-1,0E0,9.353854E-1,0E0,2.0791626E0,4.463468E0,2.6584003E0,1.2660565E0,2.730379E-1,0E0,9.212265E-1,2.2056365E0,1.6546626E0,0E0,2.4787068E0,1.8796692E0,0E0,6.476822E-1,0E0,7.700505E-1,2.1483445E0,2.914791E0,0E0,0E0,0E0,0E0,0E0,0E0,3.1104918E0,0E0,1.268877E0,1.1587428E0,0E0,0E0,0E0,5.676675E-1,2.6428623E0,0E0,1.4558309E0,1.8542938E0,0E0,0E0,7.5079215E-1,1.0419476E0,1.3910427E0,0E0,0E0,0E0,0E0,0E0,0E0,0E0,2.2880993E0,0E0,8.614391E-1,2.1048877E0,0E0,1.5198816E0,3.0959034E-1,0E0,0E0,0E0,0E0,0E0,0E0,1.1470647E0,1.1629E0,0E0,0E0,0E0,0E0,9.939461E-1,4.7218323E-2,0E0,0E0,0E0,0E0,0E0,9.574017E-1,1.7051659E0,1.3977597E0,1.756934E0,8.275833E-1,0E0,0E0,0E0,0E0,0E0,0E0,1.1275387E0,0E0,0E0,2.0915017E0,1.5696564E0,0E0,0E0,0E0,0E0,2.4631882E-1,0E0,0E0,7.883358E-1,0E0,0E0,0E0,0E0,0E0,0E0,0E0,0E0,0E0,0E0,0E0,4.110012E-1,0E0,6.114845E-1,0E0,0E0,0E0,0E0,1.5627785E0,1.8901451E0,0E0,5.9107566E-1,4.9784255E-1,0E0,0E0,2.832985E-1,3.0796623E-1,0E0,0E0,0E0,3.037567E-1,0E0,0E0,0E0,3.354187E-1,0E0,0E0,0E0,4.671135E-1,0E0,2.0877075E-1,0E0,0E0,0E0,0E0,0E0,0E0,0E0,0E0,0E0,1.568985E-2,0E0,3.8146973E-3,0E0,0E0,2.020073E-1,0E0,0E0,0E0,3.1133652E-1,0E0,0E0,0E0,0E0,0E0,0E0,0E0,0E0],"parents":[2147483647,0,0,1,1,2,2,3,3,4,4,5,5,6,6,7,7,8,8,9,9,10,10,11,11,12,12,13,13,14,14,15,15,16,16,17,17,18,18,19,19,20,20,21,21,22,22,23,23,24,24,25,25,26,26,27,27,28,28,29,29,30,30,31,31,32,32,33,33,34,34,35,35,36,36,37,37,38,38,39,39,40,40,41,41,45,45,47,47,48,48,49,49,51,51,52,52,53,53,54,54,55,55,56,56,58,58,59,59,61,61,62,62,65,65,67,67,69,69,71,71,73,73,74,74,75,75,76,76,77,77,79,79,80,80,81,81,83,83,84,84,86,86,88,88,89,89,90,90,97,97,99,99,100,100,104,104,105,105,107,107,108,108,111,111,112,112,113,113,121,121,123,123,124,124,126,126,127,127,134,134,135,135,140,140,141,141,147,147,148,148,149,149,150,150,151,151,158,158,161,161,162,162,167,167,170,170,182,182,184,184,189,189,190,190,192,192,193,193,196,196,197,197,201,201,205,205,209,209,211,211,221,221,223,223,226,226,230,230],"right_children":[2,4,6,8,10,12,14,16,18,20,22,24,26,28,30,32,34,36,38,40,42,44,46,48,50,52,54,56,58,60,62,64,66,68,70,72,74,76,78,80,82,84,-1,-1,-1,86,-1,88,90,92,-1,94,96,98,100,102,104,-1,106,108,-1,110,112,-1,-1,114,-1,116,-1,118,-1,120,-1,122,124,126,128,130,-1,132,134,136,-1,138,140,-1,142,-1,144,146,148,-1,-1,-1,-1,-1,-1,150,-1,152,154,-1,-1,-1,156,158,-1,160,162,-1,-1,164,166,168,-1,-1,-1,-1,-1,-1,-1,170,-1,172,174,-1,176,178,-1,-1,-1,-1,-1,-1,180,182,-1,-1,-1,-1,184,186,-1,-1,-1,-1,-1,188,190,192,194,196,-1,-1,-1,-1,-1,-1,198,-1,-1,200,202,-1,-1,-1,-1,204,-1,-1,206,-1,-1,-1,-1,-1,-1,-1,-1,-1,-1,-1,208,-1,210,-1,-1,-1,-1,212,214,-1,216,218,-1,-1,220,222,-1,-1,-1,224,-1,-1,-1,226,-1,-1,-1,228,-1,230,-1,-1,-1,-1,-1,-1,-1,-1,-1,232,-1,234,-1,-1,236,-1,-1,-1,238,-1,-1,-1,-1,-1,-1,-1,-1],"split_conditions":[-5.3101175E-2,-1.0423768E-1,8.962738E-2,-1.8210821E-1,2.6706696E-2,-7.8741595E-2,3.2141498E-1,5.2195735E-2,-1.3186193E-1,-2.0212242E-1,-1.1533951E-1,9.7371414E-2,-2.638468E-1,-3.0286527E-1,5.9736498E-2,-1.02137506E-1,7.815303E-2,-2.1426126E-1,-4.913811E-2,-1.4760245E-1,7.747461E-2,-9.602392E-2,6.374056E-1,-1.2050365E-1,8.426965E-2,-2.0242989E-1,1.3200307E-1,4.3541172E-1,-1.7056113E-1,2.7082074E-1,-1.4112014E-1,1.1038542E-1,4.2131773E-1,1.04687884E-1,1.619303E-1,-3.1563942E0,1.6277894E-1,-1.7936078E-1,1.589584E-1,4.1664843E-2,1.5402746E-1,-2.14704E-1,1.2101614E-3,4.7245016E-4,-4.4298265E-3,-6.6375303E-1,-1.6938876E-3,-1.9015712E-1,-4.0431863E-1,-8.265029E-2,-5.538224E-3,1.405622E-1,-1.7425752E-1,1.3603458E-1,4.0414467E0,-1.0055731E-1,-6.354397E-2,-1.834437E-3,-5.406253E-2,2.0181395E-1,3.8107365E-4,-6.409607E-2,-1.503354E-1,2.0850152E-3,-4.438114E-3,1.09906286E-1,-1.2596011E-3,3.2605767E-2,-5.672721E-3,-1.4382625E-1,-1.2563932E-3,-3.4526205E-1,4.263419E-3,2.3374774E-1,8.6484894E-2,2.4010979E-1,-9.082748E-2,-3.3789083E-2,1.2132127E-3,1.996946E-1,-2.8782507E-2,-7.901609E-2,1.5103479E-3,-3.805838E-2,1.3641456E-1,-2.2542013E-3,2.309253E-1,2.662581E-3,-1.3919066E-1,3.8530827E-2,1.66107E-1,-2.7749168E-3,3.3042955E-3,6.7259837E-3,2.0227389E-4,2.6623842E-3,-4.5023523E-3,3.8495824E-2,-5.407034E-3,-7.557227E-2,-2.4582364E-1,-6.402763E-3,-9.714903E-4,-2.320347E-3,4.334239E-1,-4.9668252E-1,-7.92835E-4,-2.0855069E-1,-6.983003E-2,1.3084563E-3,6.8872017E-3,-9.095154E-2,-7.664353E-2,-3.3090267E-2,2.2639248E-4,3.8996194E-3,-4.3924702E-3,7.378967E-4,5.6475853E-3,-4.26746E-3,6.975401E-4,-6.530786E-1,2.437008E-4,-2.5772765E-1,1.5493234E-1,-4.3112966E-3,1.8073761E-1,2.0235774E-1,2.4260304E-4,-1.2080531E-3,-5.893407E-3,-5.1798467E-3,2.4958706E-4,-1.3525153E-3,6.849993E-2,1.927395E-1,4.310968E-4,-4.950372E-3,1.7072511E-3,-2.4204349E-4,-6.475731E-2,-8.05823E-1,-2.0762898E-3,-3.7252903E-9,-5.136312E-3,-3.5677683E-3,3.307251E-3,1.24028444E-1,1.3218771E-1,2.4583828E-2,7.5001456E-3,-1.2090762E-1,-7.261057E-4,-3.1565598E-3,2.1880427E-3,4.780458E-3,2.4203498E-4,-9.4491907E-4,4.1298547E-1,4.5434684E-3,-1.2933315E-3,1.5733916E-1,1.06442876E-1,-1.9352033E-4,-4.969085E-3,4.638644E-3,-7.032697E-4,-5.307859E-1,9.240002E-4,-5.5071217E-4,9.672118E-2,-2.3539453E-4,4.983996E-3,-6.118007E-3,6.195904E-4,-1.6808478E-3,4.3895897E-3,1.6983588E-3,7.310552E-3,6.2701222E-3,2.4202968E-4,-7.928307E-4,-2.89139E-1,-1.2101752E-3,1.1585347E-1,-2.8336528E-3,-8.714596E-3,-2.1781938E-3,2.6619416E-3,1.1791626E-1,-7.045856E-2,-1.2101699E-3,4.836962E-1,-5.299442E-2,1.0243559E-3,-1.4168142E-3,1.6740091E-1,1.12441204E-1,7.2609266E-4,5.4213307E-3,-1.6164515E-3,3.5522607E-1,2.3901656E-3,2.91947E-3,8.320135E-3,-7.95722E-6,-2.4440803E-3,-1.6148938E-3,-7.030193E-3,-3.3726552E-1,-1.9834032E-3,-2.8287822E-1,7.2609266E-4,4.543473E-3,-2.1783258E-3,5.664042E-3,6.855475E-4,-5.593441E-3,-7.112878E-4,-8.030331E-3,-2.2542113E-3,-5.7437558E-2,1.8661417E-3,1.4169382E-1,3.4145564E-3,-2.6708574E-3,-5.297827E-1,-2.6675744E-3,-8.3449315E-3,2.1783176E-3,-2.267106E-1,2.337152E-3,7.816419E-3,9.054211E-3,2.7863896E-3,-2.3645821E-3,-8.489235E-3,2.1780122E-3,8.455446E-3],"split_indices":[531,147,235,325,424,424,545,424,528,666,158,325,147,635,424,235,37,424,414,214,716,165,509,235,196,161,167,425,249,372,195,499,125,574,2,308,397,9,206,632,642,354,0,0,0,49,0,310,635,95,0,167,685,761,205,758,742,0,582,425,0,660,764,0,0,369,0,530,0,501,0,334,0,319,571,477,259,387,0,563,569,510,0,507,17,0,231,0,604,328,545,0,0,0,0,0,0,530,0,501,591,0,0,0,50,436,0,732,707,0,0,359,92,454,0,0,0,0,0,0,0,686,0,154,337,0,189,383,0,0,0,0,0,0,325,540,0,0,0,0,543,441,0,0,0,0,0,65,210,323,411,357,0,0,0,0,0,0,82,0,0,82,354,0,0,0,0,334,0,0,736,0,0,0,0,0,0,0,0,0,0,0,643,0,78,0,0,0,0,579,325,0,283,686,0,0,538,278,0,0,0,196,0,0,0,609,0,0,0,19,0,378,0,0,0,0,0,0,0,0,0,507,0,161,0,0,291,0,0,0,19,0,0,0,0,0,0,0,0],"split_type":[0,0,0,0,0,0,0,0,0,0,0,0,0,0,0,0,0,0,0,0,0,0,0,0,0,0,0,0,0,0,0,0,0,0,0,0,0,0,0,0,0,0,0,0,0,0,0,0,0,0,0,0,0,0,0,0,0,0,0,0,0,0,0,0,0,0,0,0,0,0,0,0,0,0,0,0,0,0,0,0,0,0,0,0,0,0,0,0,0,0,0,0,0,0,0,0,0,0,0,0,0,0,0,0,0,0,0,0,0,0,0,0,0,0,0,0,0,0,0,0,0,0,0,0,0,0,0,0,0,0,0,0,0,0,0,0,0,0,0,0,0,0,0,0,0,0,0,0,0,0,0,0,0,0,0,0,0,0,0,0,0,0,0,0,0,0,0,0,0,0,0,0,0,0,0,0,0,0,0,0,0,0,0,0,0,0,0,0,0,0,0,0,0,0,0,0,0,0,0,0,0,0,0,0,0,0,0,0,0,0,0,0,0,0,0,0,0,0,0,0,0,0,0,0,0,0,0,0,0,0,0,0,0,0,0,0,0,0,0],"sum_hessian":[2.9137415E2,1.4458807E2,1.4678607E2,6.7896225E1,7.669186E1,6.344539E1,8.3340675E1,2.6098457E1,4.1797768E1,4.2196705E1,3.449515E1,2.9797693E1,3.3647694E1,2.2448711E1,6.0891964E1,1.6698807E1,9.399651E0,2.7948397E1,1.3849371E1,1.83491E1,2.3847605E1,2.4499393E0,3.204521E1,2.4947891E1,4.8498025E0,6.999618E0,2.6648077E1,8.249657E0,1.4199056E1,5.0242504E1,1.0649459E1,2.4999151E0,1.4198891E1,5.3998094E0,3.9998415E0,4.399843E0,2.3548553E1,9.799541E0,4.0498295E0,8.249595E0,1.0099505E1,2.279761E1,1.0499965E0,1.0999994E0,1.3499398E0,3.099522E1,1.0499922E0,3.7498794E0,2.1198011E1,2.8999388E0,1.9498636E0,4.1997156E0,2.7999022E0,1.1449566E1,1.519851E1,3.9497721E0,4.2998843E0,1.6999868E0,1.2499068E1,4.8642506E1,1.5999994E0,5.5995655E0,5.049894E0,1.149974E0,1.3499411E0,1.2798944E1,1.3999462E0,2.44991E0,2.9498994E0,2.5998802E0,1.3999612E0,2.5999076E0,1.7999353E0,1.699889E1,6.5496635E0,4.549774E0,5.2497673E0,2.9998667E0,1.0499628E0,2.3499277E0,5.899667E0,8.149516E0,1.9499899E0,3.8998756E0,1.8897734E1,1.1999862E0,2.9795233E1,1.0499825E0,2.6998966E0,2.599929E0,1.8598083E1,1.4999737E0,1.3999652E0,2.7497158E0,1.4499998E0,1.0499831E0,1.7499192E0,8.69975E0,2.7498167E0,1.3098536E1,2.0999749E0,2.3997755E0,1.5499967E0,1.3499835E0,2.9499009E0,1.0999071E1,1.4999979E0,2.6999292E0,4.5942577E1,1.6499937E0,3.9495718E0,2.649943E0,2.3999507E0,1.174902E1,1.0499249E0,1.2999604E0,1.1499496E0,1.0499701E0,1.5499102E0,1.4499477E0,1.1499599E0,1.5848946E1,1.1499435E0,2.4499187E0,4.099745E0,1.9999053E0,2.5498686E0,4.199818E0,1.049949E0,1.0499649E0,1.9499019E0,1.2999357E0,1.049992E0,1.199995E0,4.6996717E0,6.8495164E0,1.2999995E0,1.9998883E0,1.8999875E0,1.0499998E0,1.7847733E1,2.8645245E1,1.1499888E0,1E0,1.6998967E0,1.4999565E0,1.0999726E0,2.0999706E0,1.6498112E1,3.9998755E0,4.699874E0,1.2048537E1,1.0499988E0,1.0499841E0,1.0499908E0,1.899901E0,1.0499998E0,1.0999978E0,9.899073E0,1.3999342E0,1.2999951E0,2.799884E0,4.3142693E1,1.4499882E0,1.1999547E0,1.2499598E0,1.1499909E0,1.0649091E1,1.0999289E0,1.6499265E0,1.4199019E1,1.0499761E0,1.3999425E0,2.6498332E0,1.4499116E0,1.049926E0,1.4999427E0,1.0499625E0,3.1498556E0,3.649672E0,1.0499998E0,1.4999979E0,5.3495183E0,1.0499965E0,1.6797737E1,1.2498739E0,2.739537E1,1.0499882E0,1.0499823E0,1.4048189E1,2.4499228E0,1.0499965E0,2.9498792E0,2.7998784E0,1.8999954E0,1.0999932E0,1.0948544E1,8.849074E0,1.0499988E0,1.649891E0,1.149993E0,4.1242718E1,1.8999753E0,1.6998736E0,8.949218E0,1.2149085E1,2.0499344E0,1.1499932E0,4.1995254E0,1.5547748E1,1.2499888E0,1.2998191E1,1.0499988E0,1.3999342E0,1.0499886E0,1.7998868E0,1.1499922E0,1.7499056E0,1.0499729E0,9.748557E0,1.1999862E0,7.7491393E0,1.0999349E0,3.934277E1,1.8999496E0,1.5999339E0,1.054915E1,1.5999742E0,1.3947774E1,1.0499886E0,1.1948202E1,1.0999213E0,6.649218E0,3.824297E1,1.0997978E0,1.0999657E0,9.449185E0,1.0499878E0,1.0898214E1],"tree_param":{"num_deleted":"0","num_feature":"768","num_nodes":"239","size_leaf_vector":"1"}},{"base_weights":[-3.6714633E-4,-6.478409E-1,6.3748723E-1,-8.590591E-2,-1.1378413E0,-1.7053843E-2,1.130083E0,-5.113999E-1,5.031618E-1,-7.737136E-1,-1.5489366E0,5.9946865E-1,-5.6457335E-1,3.8928705E-1,1.3925E0,4.6387607E-1,-6.9614303E-1,8.2695544E-1,-4.910432E-1,-2.1932174E-1,-1.1743006E0,-5.4438686E-1,-1.6069438E0,8.293932E-1,-5.228468E-1,4.6814746E-1,-8.429617E-1,-3.3052275E-1,8.017343E-1,1.5455525E0,5.9978175E-1,8.544502E-1,-3.7454604E-3,-9.599424E-1,-1.15597196E-1,1.0905937E0,-2.0030108E-1,3.8353664E-1,-8.771726E-1,3.286259E-1,-6.561852E-1,-1.2469144E0,1.2070643E-3,4.712127E-4,-4.4171903E-3,-1.638032E0,-1.6895543E-3,-3.52841E-1,1.0450115E0,5.080439E-2,-5.520117E-3,9.855632E-1,-3.630612E-1,-3.0883545E-1,-1.2014462E0,-9.7627765E-1,3.3492732E-1,-1.8286689E-3,9.758592E-1,1.5913922E0,3.7990132E-4,1.1337476E0,-8.181664E-2,1.1354868E0,-2.0645541E-4,5.363958E-2,-1.093778E0,-5.818731E-1,4.231351E-1,-1.9879371E-3,1.2245985E0,-4.507118E-3,3.749441E-1,-7.3101243E-4,3.6309343E-3,-1.1371942E0,7.3425E-4,-6.7879003E-1,7.7012604E-1,-8.9311516E-1,1.50536E-3,-1.3259108E0,4.9526414E-5,-2.2480646E-3,-1.6697439E0,2.6557788E-3,-7.4727273E-1,-1.09201685E-1,1.2037129E0,-2.7666138E-3,3.2946947E-3,6.7017144E-3,2.0167553E-4,2.655583E-3,-4.4881296E-3,2.0149572E-2,-5.3874115E-3,-1.3523191E0,-1.2776585E-1,-6.380492E-3,-9.685385E-4,-2.3136947E-3,7.2470796E-1,1.130798E0,-7.9045666E-4,4.273645E-1,1.6492436E0,1.3043851E-3,6.8601826E-3,-6.232864E-1,5.235301E-1,1.2066532E-3,6.7031914E-3,2.6789212E-3,-2.8442175E-3,-3.6210752E-1,-1.316811E0,-1.0241898E0,1.4448184E-1,8.498511E-1,-1.7038565E-3,2.8575358E-1,1.4450002E0,-1.699411E-3,3.9322483E-3,-7.02966E-3,-1.0986271E-3,-5.165714E-3,2.493827E-4,-1.3488297E-3,1.0364035E0,-1.0662287E0,4.2987947E-4,-4.5267844E-1,-1.5112813E0,-1.7044843E0,-2.0707455E-3,-3.7439167E-9,-5.120293E-3,-3.5571132E-3,3.2986226E-3,6.381531E-2,1.3368762E0,5.9215426E-1,-4.8514035E-1,-1.4383892E0,-7.2424684E-4,2.1826508E-3,-3.1487015E-3,4.7649243E-3,2.414152E-4,-9.4244553E-4,1.2812517E0,4.5303134E-3,-1.2896784E-3,5.713544E-1,1.7046734E0,-1.9294795E-4,-4.955626E-3,4.625833E-3,-7.013891E-4,-6.328491E-1,2.3713442E-3,-2.1547654E-4,-1.4247663E0,-6.301855E-3,-7.219913E-4,3.0292636E-3,-2.0814014E-3,6.0791443E-3,-4.7544978E-4,-1.479329E-3,4.5292154E-3,1.6030215E0,1.2508276E-3,6.2458557E-3,2.4140993E-4,-7.9045235E-4,-1.2558783E0,2.31024E-3,-8.28529E-1,-1.5726227E0,-1.7726049E-3,-8.67385E-3,-2.8234145E-3,-2.1726254E-3,2.6551415E-3,1.4692324E0,3.7208018E-1,-1.2070723E-3,8.748676E-1,-8.835677E-1,1.0210021E-3,-1.4131065E-3,-1.5211443E0,1.3877033E0,7.24233E-4,5.404626E-3,-1.6121322E-3,1.7486409E0,2.3823513E-3,9.556487E-4,-9.038492E-1,-1.5244342E0,-2.0474538E-3,8.481616E-3,1.6932288E-3,-1.6105787E-3,-7.002297E-3,-5.335456E-3,-4.3749303E-4,-1.6212782E0,-2.152469E-3,1.5582354E0,7.24233E-4,4.530318E-3,-2.1727562E-3,5.646027E-3,6.8371464E-4,-5.5758064E-3,-7.094672E-4,-7.994741E-3,-2.2480746E-3,7.364225E-3,1.860781E-3,8.910338E-3,3.4034166E-3,-4.666469E-4,-5.872242E-3,-8.10408E-3,-2.5260504E-3,-2.5764103E-3,-8.4245475E-3,2.1727479E-3,1.6158015E0,2.1724438E-3,8.417696E-3],"categories":[],"categories_nodes":[],"categories_segments":[],"categories_sizes":[],"default_left":[0,0,0,0,0,0,0,0,0,0,0,0,0,0,0,0,0,0,0,0,0,0,0,0,0,0,0,0,0,0,0,0,0,0,0,0,0,0,0,0,0,0,0,0,0,0,0,0,0,0,0,0,0,0,0,0,0,0,0,0,0,0,0,0,0,0,0,0,0,0,0,0,0,0,0,0,0,0,0,0,0,0,0,0,0,0,0,0,0,0,0,0,0,0,0,0,0,0,0,0,0,0,0,0,0,0,0,0,0,0,0,0,0,0,0,0,0,0,0,0,0,0,0,0,0,0,0,0,0,0,0,0,0,0,0,0,0,0,0,0,0,0,0,0,0,0,0,0,0,0,0,0,0,0,0,0,0,0,0,0,0,0,0,0,0,0,0,0,0,0,0,0,0,0,0,0,0,0,0,0,0,0,0,0,0,0,0,0,0,0,0,0,0,0,0,0,0,0,0,0,0,0,0,0,0,0,0,0,0,0,0,0,0,0,0,0,0,0,0,0,0,0,0,0,0,0,0,0,0,0,0,0,0,0,0,0,0],"id":4,"left_children":[1,3,5,7,9,11,13,15,17,19,21,23,25,27,29,31,33,35,37,39,41,43,45,47,49,51,53,55,57,59,61,63,-1,65,67,69,71,73,75,77,79,81,-1,-1,-1,83,-1,85,87,89,-1,91,93,95,97,99,101,-1,103,105,-1,107,109,111,-1,113,115,117,119,-1,121,-1,123,-1,-1,125,-1,127,129,131,-1,133,-1,-1,135,-1,137,139,141,-1,-1,-1,-1,-1,-1,143,-1,145,147,-1,-1,-1,149,151,-1,153,155,-1,-1,157,159,-1,-1,-1,-1,161,163,165,167,169,-1,171,173,-1,-1,-1,-1,-1,-1,-1,175,177,-1,179,181,183,-1,-1,-1,-1,-1,185,187,189,191,193,-1,-1,-1,-1,-1,-1,195,-1,-1,197,199,-1,-1,-1,-1,201,-1,-1,203,-1,-1,-1,-1,-1,-1,-1,-1,205,-1,-1,-1,-1,207,-1,209,211,-1,-1,-1,-1,-1,213,215,-1,217,219,-1,-1,221,223,-1,-1,-1,225,-1,-1,227,229,-1,-1,-1,-1,-1,-1,-1,231,-1,233,-1,-1,-1,-1,-1,-1,-1,-1,-1,-1,-1,-1,-1,-1,-1,-1,-1,-1,-1,-1,235,-1,-1],"loss_changes":[1.21153755E2,3.99873E1,4.766563E1,1.7525179E1,1.0430412E1,2.2091316E1,1.5852165E1,7.6194124E0,9.869541E0,9.335108E0,1.1933365E0,8.3804655E0,1.0355249E1,7.2262397E0,6.5814514E0,3.9798102E0,5.1645126E0,6.324918E0,2.9872E0,4.8472285E0,2.855175E0,8.30256E-1,7.5003815E-1,6.9827213E0,2.00632E0,3.7981725E0,4.9226093E0,4.301609E0,3.4465036E0,3.330635E0,4.332433E0,1.5068631E0,0E0,3.253006E0,3.2352676E0,4.096054E0,2.5359578E0,6.688509E-1,1.6979203E0,4.6365976E0,2.7862058E0,2.3756752E0,0E0,0E0,0E0,4.549408E-1,0E0,2.0530567E0,4.197296E0,1.7973896E0,0E0,1.6895766E0,2.2930458E0,3.169791E0,2.451023E0,9.141369E-1,1.9831357E0,0E0,2.5503378E0,2.637741E0,0E0,1.0146761E0,2.3093E0,4.9269724E-1,0E0,1.4152125E0,2.9252758E0,2.3325353E0,2.2779114E0,0E0,3.0733376E0,0E0,1.3556273E0,0E0,0E0,8.498144E-1,0E0,9.16484E-1,2.190032E0,1.6423941E0,0E0,2.9411469E0,0E0,0E0,6.3720703E-1,0E0,7.6524854E-1,2.1363137E0,2.8893032E0,0E0,0E0,0E0,0E0,0E0,0E0,3.0907257E0,0E0,1.256752E0,1.1530017E0,0E0,0E0,0E0,5.638881E-1,2.6230774E0,0E0,1.4474571E0,1.8303757E0,0E0,0E0,7.467525E-1,1.0362302E0,0E0,0E0,0E0,0E0,1.715328E0,2.0834293E0,7.218323E-1,1.1447498E0,1.5680039E0,0E0,1.872833E0,2.1287117E0,0E0,0E0,0E0,0E0,0E0,0E0,0E0,1.1379342E0,1.1533003E0,0E0,2.2219272E0,7.23011E-1,4.3632507E-2,0E0,0E0,0E0,0E0,0E0,9.525096E-1,1.6875973E0,1.3894582E0,1.7458838E0,8.180218E-1,0E0,0E0,0E0,0E0,0E0,0E0,1.1173973E0,0E0,0E0,2.0791147E0,1.5502625E0,0E0,0E0,0E0,0E0,1.3226755E0,0E0,0E0,8.2766724E-1,0E0,0E0,0E0,0E0,0E0,0E0,0E0,0E0,7.9969025E-1,0E0,0E0,0E0,0E0,4.060526E-1,0E0,6.4018583E-1,2.3823929E-1,0E0,0E0,0E0,0E0,0E0,1.547924E0,1.8796831E0,0E0,5.8709383E-1,4.944458E-1,0E0,0E0,2.7713585E-1,3.034153E-1,0E0,0E0,0E0,2.9478455E-1,0E0,0E0,7.786052E-1,4.285717E-1,0E0,0E0,0E0,0E0,0E0,0E0,0E0,2.4351501E-1,0E0,2.032547E-1,0E0,0E0,0E0,0E0,0E0,0E0,0E0,0E0,0E0,0E0,0E0,0E0,0E0,0E0,0E0,0E0,0E0,0E0,0E0,0E0,3.0451584E-1,0E0,0E0],"parents":[2147483647,0,0,1,1,2,2,3,3,4,4,5,5,6,6,7,7,8,8,9,9,10,10,11,11,12,12,13,13,14,14,15,15,16,16,17,17,18,18,19,19,20,20,21,21,22,22,23,23,24,24,25,25,26,26,27,27,28,28,29,29,30,30,31,31,33,33,34,34,35,35,36,36,37,37,38,38,39,39,40,40,41,41,45,45,47,47,48,48,49,49,51,51,52,52,53,53,54,54,55,55,56,56,58,58,59,59,61,61,62,62,63,63,65,65,66,66,67,67,68,68,70,70,72,72,75,75,77,77,78,78,79,79,81,81,84,84,86,86,87,87,88,88,95,95,97,97,98,98,102,102,103,103,105,105,106,106,109,109,110,110,115,115,116,116,117,117,118,118,119,119,121,121,122,122,130,130,131,131,133,133,134,134,135,135,141,141,142,142,143,143,144,144,145,145,152,152,155,155,156,156,161,161,164,164,173,173,178,178,180,180,181,181,187,187,188,188,190,190,191,191,194,194,195,195,199,199,202,202,203,203,211,211,213,213,234,234],"right_children":[2,4,6,8,10,12,14,16,18,20,22,24,26,28,30,32,34,36,38,40,42,44,46,48,50,52,54,56,58,60,62,64,-1,66,68,70,72,74,76,78,80,82,-1,-1,-1,84,-1,86,88,90,-1,92,94,96,98,100,102,-1,104,106,-1,108,110,112,-1,114,116,118,120,-1,122,-1,124,-1,-1,126,-1,128,130,132,-1,134,-1,-1,136,-1,138,140,142,-1,-1,-1,-1,-1,-1,144,-1,146,148,-1,-1,-1,150,152,-1,154,156,-1,-1,158,160,-1,-1,-1,-1,162,164,166,168,170,-1,172,174,-1,-1,-1,-1,-1,-1,-1,176,178,-1,180,182,184,-1,-1,-1,-1,-1,186,188,190,192,194,-1,-1,-1,-1,-1,-1,196,-1,-1,198,200,-1,-1,-1,-1,202,-1,-1,204,-1,-1,-1,-1,-1,-1,-1,-1,206,-1,-1,-1,-1,208,-1,210,212,-1,-1,-1,-1,-1,214,216,-1,218,220,-1,-1,222,224,-1,-1,-1,226,-1,-1,228,230,-1,-1,-1,-1,-1,-1,-1,232,-1,234,-1,-1,-1,-1,-1,-1,-1,-1,-1,-1,-1,-1,-1,-1,-1,-1,-1,-1,-1,-1,236,-1,-1],"split_conditions":[-5.3101175E-2,-1.0423768E-1,8.962738E-2,7.391189E-2,2.6706696E-2,-7.8741595E-2,3.2141498E-1,-8.244734E-2,1.10221006E-1,-2.0212242E-1,-1.1533951E-1,9.7371414E-2,-2.638468E-1,-3.0286527E-1,5.9736498E-2,2.630024E-1,6.2805824E-2,2.1978801E-2,7.250216E-1,-1.4760245E-1,7.747461E-2,-9.602392E-2,6.374056E-1,-1.2050365E-1,8.426965E-2,-2.0242989E-1,1.3200307E-1,4.3541172E-1,-1.7056113E-1,2.7082074E-1,-1.4112014E-1,5.6555882E-2,-3.7454604E-3,-2.1935993E-1,-1.1230575E-1,-4.4027564E-1,3.8923407E-1,2.7508602E-1,2.5911722E-1,4.1664843E-2,1.5402746E-1,5.851228E-1,1.2070643E-3,4.712127E-4,-4.4171903E-3,-6.6375303E-1,-1.6895543E-3,-1.9015712E-1,-4.0431863E-1,-8.265029E-2,-5.520117E-3,1.405622E-1,-1.7425752E-1,1.3603458E-1,4.0414467E0,-1.0055731E-1,-6.354397E-2,-1.8286689E-3,-5.406253E-2,2.0181395E-1,3.7990132E-4,-6.409607E-2,-1.503354E-1,1.4422901E-1,-2.0645541E-4,2.09887E-1,2.5274995E-1,3.877617E-2,-2.7614962E-2,-1.9879371E-3,-4.2861322E-1,-4.507118E-3,3.1683806E-1,-7.3101243E-4,3.6309343E-3,-1.2735398E-1,7.3425E-4,8.7468445E-2,-2.8782507E-2,-7.901609E-2,1.50536E-3,-2.8612828E0,4.9526414E-5,-2.2480646E-3,2.309253E-1,2.6557788E-3,-1.3919066E-1,3.8530827E-2,1.66107E-1,-2.7666138E-3,3.2946947E-3,6.7017144E-3,2.0167553E-4,2.655583E-3,-4.4881296E-3,3.8495824E-2,-5.3874115E-3,-7.557227E-2,-2.144272E-1,-6.380492E-3,-9.685385E-4,-2.3136947E-3,4.334239E-1,-4.9668252E-1,-7.9045666E-4,-2.0855069E-1,-6.983003E-2,1.3043851E-3,6.8601826E-3,-9.095154E-2,-7.664353E-2,1.2066532E-3,6.7031914E-3,2.6789212E-3,-2.8442175E-3,2.7958784E-1,-2.3584661E-1,5.216129E-1,-1.0142093E-1,2.2474508E-1,-1.7038565E-3,8.6420044E-2,-2.5792217E-1,-1.699411E-3,3.9322483E-3,-7.02966E-3,-1.0986271E-3,-5.165714E-3,2.493827E-4,-1.3488297E-3,6.849993E-2,1.927395E-1,4.2987947E-4,-6.381451E-2,4.668074E-1,8.797741E-3,-2.0707455E-3,-3.7439167E-9,-5.120293E-3,-3.5571132E-3,3.2986226E-3,1.24028444E-1,1.3218771E-1,2.4583828E-2,7.5001456E-3,-1.2090762E-1,-7.2424684E-4,2.1826508E-3,-3.1487015E-3,4.7649243E-3,2.414152E-4,-9.4244553E-4,4.1298547E-1,4.5303134E-3,-1.2896784E-3,1.5733916E-1,1.06442876E-1,-1.9294795E-4,-4.955626E-3,4.625833E-3,-7.013891E-4,-1.980142E-1,2.3713442E-3,-2.1547654E-4,1.660843E-1,-6.301855E-3,-7.219913E-4,3.0292636E-3,-2.0814014E-3,6.0791443E-3,-4.7544978E-4,-1.479329E-3,4.5292154E-3,4.1058287E-1,1.2508276E-3,6.2458557E-3,2.4140993E-4,-7.9045235E-4,-2.89139E-1,2.31024E-3,3.6965704E-1,5.802083E-1,-1.7726049E-3,-8.67385E-3,-2.8234145E-3,-2.1726254E-3,2.6551415E-3,1.1791626E-1,-7.045856E-2,-1.2070723E-3,4.836962E-1,-5.299442E-2,1.0210021E-3,-1.4131065E-3,1.6740091E-1,7.928193E-3,7.24233E-4,5.404626E-3,-1.6121322E-3,3.5522607E-1,2.3823513E-3,9.556487E-4,-1.9463444E-1,-2.9380056E-3,-2.0474538E-3,8.481616E-3,1.6932288E-3,-1.6105787E-3,-7.002297E-3,-5.335456E-3,-4.3749303E-4,-3.3726552E-1,-2.152469E-3,-2.8287822E-1,7.24233E-4,4.530318E-3,-2.1727562E-3,5.646027E-3,6.8371464E-4,-5.5758064E-3,-7.094672E-4,-7.994741E-3,-2.2480746E-3,7.364225E-3,1.860781E-3,8.910338E-3,3.4034166E-3,-4.666469E-4,-5.872242E-3,-8.10408E-3,-2.5260504E-3,-2.5764103E-3,-8.4245475E-3,2.1727479E-3,-2.267106E-1,2.1724438E-3,8.417696E-3],"split_indices":[531,147,235,235,424,424,545,386,424,666,158,325,147,635,424,499,249,161,360,214,716,165,509,235,196,161,167,425,249,372,195,424,0,424,127,265,6,767,632,632,642,281,0,0,0,49,0,310,635,95,0,167,685,761,205,758,742,0,582,425,0,660,764,323,0,760,17,507,655,0,253,0,678,0,0,561,0,122,569,510,0,109,0,0,231,0,604,328,545,0,0,0,0,0,0,530,0,501,459,0,0,0,50,436,0,732,707,0,0,359,92,0,0,0,0,486,430,72,354,763,0,736,197,0,0,0,0,0,0,0,325,540,0,135,176,549,0,0,0,0,0,65,210,323,411,357,0,0,0,0,0,0,82,0,0,82,354,0,0,0,0,160,0,0,11,0,0,0,0,0,0,0,0,499,0,0,0,0,643,0,6,509,0,0,0,0,0,579,325,0,283,686,0,0,538,380,0,0,0,196,0,0,516,690,0,0,0,0,0,0,0,19,0,378,0,0,0,0,0,0,0,0,0,0,0,0,0,0,0,0,0,0,0,0,19,0,0],"split_type":[0,0,0,0,0,0,0,0,0,0,0,0,0,0,0,0,0,0,0,0,0,0,0,0,0,0,0,0,0,0,0,0,0,0,0,0,0,0,0,0,0,0,0,0,0,0,0,0,0,0,0,0,0,0,0,0,0,0,0,0,0,0,0,0,0,0,0,0,0,0,0,0,0,0,0,0,0,0,0,0,0,0,0,0,0,0,0,0,0,0,0,0,0,0,0,0,0,0,0,0,0,0,0,0,0,0,0,0,0,0,0,0,0,0,0,0,0,0,0,0,0,0,0,0,0,0,0,0,0,0,0,0,0,0,0,0,0,0,0,0,0,0,0,0,0,0,0,0,0,0,0,0,0,0,0,0,0,0,0,0,0,0,0,0,0,0,0,0,0,0,0,0,0,0,0,0,0,0,0,0,0,0,0,0,0,0,0,0,0,0,0,0,0,0,0,0,0,0,0,0,0,0,0,0,0,0,0,0,0,0,0,0,0,0,0,0,0,0,0,0,0,0,0,0,0,0,0,0,0,0,0,0,0,0,0,0,0],"sum_hessian":[2.913548E2,1.4457936E2,1.4677542E2,6.789377E1,7.66856E1,6.3441853E1,8.3333565E1,3.9496555E1,2.8397211E1,4.219417E1,3.4491432E1,2.979592E1,3.364593E1,2.2447737E1,6.0885826E1,6.0495415E0,3.3447014E1,2.1547745E1,6.849466E0,1.834841E1,2.384576E1,2.449892E0,3.204154E1,2.494627E1,4.8496504E0,6.9993234E0,2.6646608E1,8.249392E0,1.4198345E1,5.023678E1,1.0649047E1,4.799636E0,1.2499056E0,2.2547802E1,1.0899211E1,1.7098005E1,4.44974E0,2.0999074E0,4.7495584E0,8.249285E0,1.0099125E1,2.2795767E1,1.0499939E0,1.0999991E0,1.3498931E0,3.0991552E1,1.0499866E0,3.749787E0,2.1196484E1,2.8998919E0,1.9497584E0,4.1994967E0,2.7998269E0,1.1449239E1,1.519737E1,3.9495964E0,4.299795E0,1.6999768E0,1.2498368E1,4.863678E1,1.5999991E0,5.5992303E0,5.0498166E0,3.4496622E0,1.3499737E0,2.6998854E0,1.9847918E1,5.7995706E0,5.0996404E0,1.2499388E0,1.5848066E1,1.7498978E0,2.699842E0,1.0499687E0,1.0499387E0,3.6996262E0,1.0499325E0,2.3498743E0,5.8994102E0,8.149143E0,1.949982E0,2.139597E1,1.3997984E0,1.1999754E0,2.9791576E1,1.0499696E0,2.6998174E0,2.5998745E0,1.859661E1,1.4999534E0,1.3999383E0,2.749497E0,1.4499997E0,1.04997E0,1.7498567E0,8.699564E0,2.7496748E0,1.3097411E1,2.0999587E0,2.3996024E0,1.5499941E0,1.3499707E0,2.9498243E0,1.0998372E1,1.4999962E0,2.6998746E0,4.5936905E1,1.6499887E0,3.9492416E0,2.6499012E0,2.3999152E0,1.04992E0,2.3997421E0,1.5999342E0,1.099951E0,5.249671E0,1.4598247E1,3.3497107E0,2.4498596E0,3.1997578E0,1.8998827E0,3.4497373E0,1.239833E1,1.0499779E0,1.6498642E0,2.4496813E0,1.2499449E0,1.2998832E0,1.0499909E0,1.1999912E0,4.699419E0,6.849144E0,1.299999E0,4.349345E0,1.7046623E1,2.8641598E1,1.1499798E0,1E0,1.6998175E0,1.4999229E0,1.0999515E0,2.0999484E0,1.649666E1,3.9997766E0,4.699787E0,1.2047414E1,1.0499978E0,1.0499867E0,1.0499719E0,1.8998246E0,1.0499998E0,1.0999962E0,9.898376E0,1.3998834E0,1.2999913E0,2.7997944E0,4.313711E1,1.4499878E0,1.1999134E0,1.2499237E0,1.1499916E0,4.1497183E0,1.0999523E0,1.2499434E0,1.3348303E1,2.2997582E0,1.0499525E0,1.2999265E0,1.1499331E0,2.0998209E0,1.0999368E0,2.0498888E0,1.3998483E0,1.0648411E1,1.7499182E0,3.6494195E0,1.0499998E0,1.4999962E0,5.349148E0,1.1998559E0,3.1494894E0,1.5846785E1,1.1998391E0,2.7391775E1,1.2498211E0,1.0499793E0,1.0499691E0,1.4046797E1,2.4498634E0,1.0499939E0,2.9497826E0,2.7997954E0,1.899992E0,1.0999892E0,1.0947424E1,8.848378E0,1.0499978E0,1.6498063E0,1.1499882E0,4.1237156E1,1.8999561E0,1.0999702E0,3.0497484E0,1.1698394E1,1.6499091E0,9.598484E0,1.0499275E0,1.1499878E0,4.19916E0,2.049634E0,1.0998554E0,1.4796903E1,1.0498818E0,1.29967985E1,1.0499978E0,1.3998834E0,1.0499799E0,1.7997924E0,1.1499903E0,1.7498255E0,1.0499698E0,9.747449E0,1.1999754E0,7.7484627E0,1.0999155E0,3.9337242E1,1.8999106E0,1.0999606E0,1.9497877E0,1.0148469E1,1.5499243E0,1.2999539E0,1.3496949E1,1.0499799E0,1.1946819E1,1.0499789E0,1.089684E1],"tree_param":{"num_deleted":"0","num_feature":"768","num_nodes":"237","size_leaf_vector":"1"}},{"base_weights":[-4.6386322E-4,-6.653452E-1,6.151295E-1,-1.1133877E-1,-1.1408426E0,-2.4061525E-1,9.8814225E-1,5.243211E-1,-5.143297E-1,-7.807967E-1,-1.5404782E0,2.749506E-1,-7.734571E-1,2.0474887E-1,1.2864394E0,-3.3830053E-1,8.8514173E-1,-4.2214204E-2,-9.5440996E-1,-2.164654E-1,-1.2009252E0,-5.2135307E-1,-1.5997133E0,8.362304E-1,-1.9699211E-1,9.446704E-2,-1.0815582E0,6.770916E-1,-4.2791766E-1,2.98534E-1,1.4198129E0,2.7891833E-1,-7.8796023E-1,-1.8763302E-1,1.1179975E0,-5.6784856E-1,5.791395E-1,-1.0967593E0,1.8895057E-1,-6.8505144E-1,2.931189E-1,-1.2693812E0,7.2204E-4,7.256342E-4,-4.404615E-3,-2.3191415E-3,-1.6397185E0,1.0310585E0,-1.6401503E-3,2.7195606E-1,-6.774734E-1,7.812492E-1,-4.025446E-1,-1.2455453E0,-2.4535833E-2,2.3877814E-2,9.815824E-1,3.8931254E-1,-7.8870344E-1,8.06079E-1,-5.6118923E-1,1.5907103E0,6.477294E-1,-1.4671546E-3,3.8299593E-3,2.1047353E-4,-5.469656E-3,-4.560539E-3,3.0449259E-3,1.3323933E0,-1.2568998E-1,1.4947003E-1,-9.990531E-1,-3.8753143E-1,8.832345E-1,-1.5413678E-4,-1.2238734E0,3.3187808E-3,-1.8791931E-3,-1.9944705E-2,-1.08204E0,-3.9008957E-1,9.660368E-1,-1.341033E0,4.6925637E-5,-1.672616E0,-2.2447517E-3,1.3025413E0,1.1699206E-1,5.853647E-1,-3.5862678E-3,7.7006296E-4,-9.3788636E-1,7.013271E-4,5.29408E-3,-8.788808E-1,2.2897755E-3,7.457198E-4,-1.3612337E0,-2.8252143E-3,2.4541488E-3,6.209824E-1,-5.640394E-1,-1.2539441E-3,1.1654087E0,9.252609E-1,-3.7655889E-3,1.3588116E-3,-9.682681E-1,-1.4378569E-3,1.1466974E0,1.2809876E-3,-4.8992406E-3,1.64156E0,3.4390628E-1,1.1009324E0,-8.310832E-2,1.4338168E0,6.8626006E-4,-3.002138E-3,2.1675853E-3,-3.186564E-3,7.361961E-1,-6.5749916E-3,-1.2645979E-1,1.1944781E-3,-4.1244426E-3,1.1506406E0,-7.9968874E-4,-1.8379022E-1,-1.3665619E0,3.7888759E-3,-4.5017472E-1,2.3691413E-4,-6.8268585E-3,-8.0072534E-1,1.6333082E-3,-7.1191794E-4,6.3852724E-3,-2.6337194E-1,-1.453029E0,-2.3521127E-3,-1.7023137E0,7.3240683E-3,1.8011149E-3,-2.1555044E-3,3.3078683E-3,-1.2275118E-3,8.589237E-1,-1.1709999E0,2.420408E-4,-5.29609E-3,-1.2169515E-3,-1.455797E0,-1.2462183E-3,4.8459372E-3,-7.450752E-4,-5.070764E-3,1.6845106E-3,1.3935373E0,3.2522926E-1,5.867463E-3,1.292685E-3,2.4031084E-4,-1.1316001E0,6.5734616E-4,6.924289E-3,4.4090196E-1,1.689425E0,4.0038354E-3,-1.7378151E-3,1.2601979E0,1.6636282E-4,-5.620333E-1,4.9929196E-1,1.551051E0,1.2746078E-3,5.0680307E-3,2.2761393E-4,-3.1503346E-3,2.194201E-3,6.723526E-3,6.8538426E-4,2.0961233E-3,-3.6328223E-3,-9.110665E-4,-1.4486607E0,1.1558627E-3,-4.2021307E-3,-5.250457E-3,-4.6430557E-4,-3.7366268E-3,1.6590125E-3,-1.5530993E0,-5.715352E-1,-8.6432975E-3,-2.5823796E-3,1.10541E0,-2.651099E-4,-1.6084007E-3,-6.790652E-3,-1.6501347E-3,-1.5292344E0,1.7904019E-3,7.6039764E-3,-1.579812E-3,4.0036845E-3,-6.508129E-3,-2.4395836E-4,-7.2481605E-4,4.0650875E-3,1.7158738E0,1.3610737E-3,7.2412617E-3,4.3487232E-4,6.5317523E-4,-4.690181E-3,-1.2269006E-3,4.729541E-3,2.138077E-3,8.136966E-3,-1.8537162E-3,-1.5135945E0,-1.6175319E0,-2.5839708E-3,2.8896745E-4,-4.693394E-3,1.1914656E-3,6.628906E-3,-2.2904694E-3,-8.128068E-3,3.2306223E-3,1.7443529E0,-2.6459806E-3,-8.045551E-3,-2.322161E-3,-8.370739E-3,3.080837E-3,1.768102E0,8.929781E-3,2.6010196E-3],"categories":[],"categories_nodes":[],"categories_segments":[],"categories_sizes":[],"default_left":[0,0,0,0,0,0,0,0,0,0,0,0,0,0,0,0,0,0,0,0,0,0,0,0,0,0,0,0,0,0,0,0,0,0,0,0,0,0,0,0,0,0,0,0,0,0,0,0,0,0,0,0,0,0,0,0,0,0,0,0,0,0,0,0,0,0,0,0,0,0,0,0,0,0,0,0,0,0,0,0,0,0,0,0,0,0,0,0,0,0,0,0,0,0,0,0,0,0,0,0,0,0,0,0,0,0,0,0,0,0,0,0,0,0,0,0,0,0,0,0,0,0,0,0,0,0,0,0,0,0,0,0,0,0,0,0,0,0,0,0,0,0,0,0,0,0,0,0,0,0,0,0,0,0,0,0,0,0,0,0,0,0,0,0,0,0,0,0,0,0,0,0,0,0,0,0,0,0,0,0,0,0,0,0,0,0,0,0,0,0,0,0,0,0,0,0,0,0,0,0,0,0,0,0,0,0,0,0,0,0,0,0,0,0,0,0,0,0,0,0,0,0,0,0,0,0,0,0,0,0,0,0,0,0,0,0,0,0,0,0,0],"id":5,"left_children":[1,3,5,7,9,11,13,15,17,19,21,23,25,27,29,31,33,35,37,39,41,43,45,47,49,51,53,55,57,59,61,63,65,67,69,71,73,75,77,79,81,83,-1,-1,-1,-1,85,87,-1,89,91,93,95,97,99,101,103,105,107,109,111,113,115,-1,-1,-1,-1,-1,-1,117,119,121,123,125,127,-1,129,-1,-1,131,133,135,137,139,-1,141,-1,143,145,147,-1,-1,149,-1,-1,151,-1,-1,153,-1,-1,155,157,-1,159,161,-1,-1,163,-1,165,-1,-1,167,169,171,173,175,-1,-1,-1,-1,177,-1,179,-1,-1,181,-1,183,185,-1,187,-1,-1,189,-1,-1,-1,191,193,-1,195,-1,-1,-1,-1,-1,197,199,-1,-1,-1,201,-1,-1,-1,-1,-1,203,205,-1,-1,-1,207,-1,-1,209,211,-1,-1,213,-1,215,217,219,-1,-1,-1,-1,-1,-1,-1,-1,-1,-1,221,-1,-1,-1,-1,-1,-1,223,225,-1,-1,227,-1,-1,-1,-1,229,-1,-1,-1,-1,-1,-1,-1,-1,231,-1,-1,-1,-1,-1,-1,-1,-1,-1,-1,233,235,-1,-1,-1,-1,-1,-1,-1,-1,237,-1,-1,-1,-1,-1,239,-1,-1],"loss_changes":[1.2005899E2,3.7021496E1,4.885595E1,1.7238255E1,9.70076E0,1.3135545E1,2.4570168E1,8.453072E0,8.487479E0,9.672186E0,1.2720261E0,6.6932154E0,6.358247E0,9.4028015E0,9.691986E0,2.564796E0,4.892785E0,7.1378646E0,3.657137E0,4.760994E0,2.3746452E0,9.426025E-1,7.157059E-1,2.9349966E0,3.3832946E0,2.720539E0,2.9762173E0,3.5263128E0,4.3311343E0,4.989683E0,7.859726E0,1.4234288E0,1.3539112E0,2.9792619E0,4.3129845E0,3.7988088E0,3.2963092E0,2.5362473E0,1.1075568E0,2.6844726E0,4.904805E0,2.0965347E0,0E0,0E0,0E0,0E0,4.6296692E-1,2.3411398E0,0E0,2.8686552E0,1.724915E0,4.3851542E-1,2.3491974E0,2.6227016E0,1.2104521E0,2.7020054E0,3.0442877E0,3.6660817E0,2.1290193E0,2.9183216E0,1.7736988E0,2.8893738E0,4.6946125E0,0E0,0E0,0E0,0E0,0E0,0E0,1.4211063E0,1.1097795E0,2.9156246E0,1.9011545E0,1.0463198E0,2.4014907E0,0E0,2.2639046E0,0E0,0E0,1.9637693E0,2.1124325E0,1.9096117E0,1.9915242E0,2.2175636E0,0E0,2.626648E-1,0E0,6.419153E-1,1.2999467E0,1.6993713E0,0E0,0E0,1.3670707E0,0E0,0E0,1.3180709E-1,0E0,0E0,1.1036835E0,0E0,0E0,1.1631646E0,1.9230603E0,0E0,1.6068707E0,3.171804E-1,0E0,0E0,1.4817991E0,0E0,1.147543E0,0E0,0E0,2.2480774E0,1.3523356E0,1.4286432E0,2.023692E0,1.2903614E0,0E0,0E0,0E0,0E0,6.2441134E-1,0E0,1.1589977E0,0E0,0E0,1.0842447E0,0E0,1.35191E0,1.1699486E0,0E0,1.1912912E0,0E0,0E0,5.8201957E-1,0E0,0E0,0E0,1.1839654E0,8.1435394E-1,0E0,3.440857E-3,0E0,0E0,0E0,0E0,0E0,1.2160275E0,3.0207825E-1,0E0,0E0,0E0,5.4088783E-1,0E0,0E0,0E0,0E0,0E0,5.291729E-1,1.350496E0,0E0,0E0,0E0,1.3079033E0,0E0,0E0,8.481242E-1,1.3969421E0,0E0,0E0,1.52845E0,0E0,1.138198E0,1.3461045E0,2.3872757E-1,0E0,0E0,0E0,0E0,0E0,0E0,0E0,0E0,0E0,0E0,3.9406013E-1,0E0,0E0,0E0,0E0,0E0,0E0,2.821846E-1,8.743422E-1,0E0,0E0,4.6738815E-1,0E0,0E0,0E0,0E0,4.5257187E-1,0E0,0E0,0E0,0E0,0E0,0E0,0E0,0E0,3.5443115E-1,0E0,0E0,0E0,0E0,0E0,0E0,0E0,0E0,0E0,0E0,3.2824516E-1,2.2102737E-1,0E0,0E0,0E0,0E0,0E0,0E0,0E0,0E0,1.6397095E-1,0E0,0E0,0E0,0E0,0E0,7.978821E-2,0E0,0E0],"parents":[2147483647,0,0,1,1,2,2,3,3,4,4,5,5,6,6,7,7,8,8,9,9,10,10,11,11,12,12,13,13,14,14,15,15,16,16,17,17,18,18,19,19,20,20,21,21,22,22,23,23,24,24,25,25,26,26,27,27,28,28,29,29,30,30,31,31,32,32,33,33,34,34,35,35,36,36,37,37,38,38,39,39,40,40,41,41,46,46,47,47,49,49,50,50,51,51,52,52,53,53,54,54,55,55,56,56,57,57,58,58,59,59,60,60,61,61,62,62,69,69,70,70,71,71,72,72,73,73,74,74,76,76,79,79,80,80,81,81,82,82,83,83,85,85,87,87,88,88,89,89,92,92,95,95,98,98,101,101,102,102,104,104,105,105,108,108,110,110,113,113,114,114,115,115,116,116,117,117,122,122,124,124,127,127,129,129,130,130,132,132,135,135,139,139,140,140,142,142,148,148,149,149,153,153,159,159,160,160,164,164,167,167,168,168,171,171,173,173,174,174,175,175,186,186,193,193,194,194,197,197,202,202,211,211,222,222,223,223,232,232,238,238],"right_children":[2,4,6,8,10,12,14,16,18,20,22,24,26,28,30,32,34,36,38,40,42,44,46,48,50,52,54,56,58,60,62,64,66,68,70,72,74,76,78,80,82,84,-1,-1,-1,-1,86,88,-1,90,92,94,96,98,100,102,104,106,108,110,112,114,116,-1,-1,-1,-1,-1,-1,118,120,122,124,126,128,-1,130,-1,-1,132,134,136,138,140,-1,142,-1,144,146,148,-1,-1,150,-1,-1,152,-1,-1,154,-1,-1,156,158,-1,160,162,-1,-1,164,-1,166,-1,-1,168,170,172,174,176,-1,-1,-1,-1,178,-1,180,-1,-1,182,-1,184,186,-1,188,-1,-1,190,-1,-1,-1,192,194,-1,196,-1,-1,-1,-1,-1,198,200,-1,-1,-1,202,-1,-1,-1,-1,-1,204,206,-1,-1,-1,208,-1,-1,210,212,-1,-1,214,-1,216,218,220,-1,-1,-1,-1,-1,-1,-1,-1,-1,-1,222,-1,-1,-1,-1,-1,-1,224,226,-1,-1,228,-1,-1,-1,-1,230,-1,-1,-1,-1,-1,-1,-1,-1,232,-1,-1,-1,-1,-1,-1,-1,-1,-1,-1,234,236,-1,-1,-1,-1,-1,-1,-1,-1,238,-1,-1,-1,-1,-1,240,-1,-1],"split_conditions":[-5.964507E-2,-1.0423768E-1,2.6175996E-2,-1.8210821E-1,2.6706696E-2,1.405622E-1,3.0870518E-1,-1.2622268E-1,-4.143452E-2,-2.0212242E-1,-1.1533951E-1,-4.482098E-3,-1.18624E-1,-3.7683353E-2,-3.009594E-2,-9.322013E-2,-7.422639E-2,1.2628652E-2,1.2204184E-1,4.3983307E-2,6.601854E-2,-9.602392E-2,-8.05823E-1,1.46273E-1,2.4921411E-1,-6.924474E-2,7.479583E-2,-8.921344E-2,-1.5736833E0,7.256657E-3,2.8141148E-2,2.0151174E-1,-4.9028137E-1,-7.542014E-3,-2.2020994E-1,-2.9887652E0,2.983268E-1,6.3793816E-2,-7.574308E-2,8.772265E-1,1.8699923E-1,5.9063596E-1,7.2204E-4,7.256342E-4,-4.404615E-3,-2.3191415E-3,2.309253E-1,-9.30156E-2,-1.6401503E-3,-7.222063E-2,-3.58525E-2,4.5455548E-1,1.7185114E-1,-3.129772E-1,-6.3827045E-2,-2.336745E-2,-6.1010268E-2,3.534833E-1,-6.2148616E-2,4.895408E-1,3.1352267E-1,1.06442876E-1,-1.3768953E-1,-1.4671546E-3,3.8299593E-3,2.1047353E-4,-5.469656E-3,-4.560539E-3,3.0449259E-3,1.5089835E-1,-1.5714282E-1,-4.0627033E-2,6.3384406E-2,1.7082736E-1,-2.868229E-1,-1.5413678E-4,-5.7274386E-2,3.3187808E-3,-1.8791931E-3,1.2313239E-3,-1.0113029E-2,7.094738E-2,2.1434113E-1,-2.962532E0,4.6925637E-5,-6.6375303E-1,-2.2447517E-3,-2.358251E-2,3.4329495E-1,1.5765335E-2,-3.5862678E-3,7.7006296E-4,1.2241365E-1,7.013271E-4,5.29408E-3,9.849298E-2,2.2897755E-3,7.457198E-4,3.4405273E-1,-2.8252143E-3,2.4541488E-3,1.7503242E-1,2.2618256E0,-1.2539441E-3,1.7280547E-1,-2.8382875E-2,-3.7655889E-3,1.3588116E-3,-1.4918283E-1,-1.4378569E-3,4.3098E-2,1.2809876E-3,-4.8992406E-3,1.907119E-1,-2.348181E-1,2.2561619E-1,1.7596897E-1,3.2727212E-1,6.8626006E-4,-3.002138E-3,2.1675853E-3,-3.186564E-3,3.4189126E-1,-6.5749916E-3,-5.5033976E-1,1.1944781E-3,-4.1244426E-3,3.2774514E-1,-7.9968874E-4,3.314202E-2,-5.21985E-1,3.7888759E-3,-5.0218743E-1,2.3691413E-4,-6.8268585E-3,-1.6182531E-1,1.6333082E-3,-7.1191794E-4,6.3852724E-3,7.382756E-2,1.918984E-1,-2.3521127E-3,7.378338E-1,7.3240683E-3,1.8011149E-3,-2.1555044E-3,3.3078683E-3,-1.2275118E-3,5.6249008E-2,-3.91916E-1,2.420408E-4,-5.29609E-3,-1.2169515E-3,-5.195855E-1,-1.2462183E-3,4.8459372E-3,-7.450752E-4,-5.070764E-3,1.6845106E-3,7.882941E-2,2.8498492E-1,5.867463E-3,1.292685E-3,2.4031084E-4,8.534975E-2,6.5734616E-4,6.924289E-3,-1.3927522E-1,3.0864668E-1,4.0038354E-3,-1.7378151E-3,3.405887E-2,1.6636282E-4,-1.08664714E-1,-6.557537E-2,2.2039022E-2,1.2746078E-3,5.0680307E-3,2.2761393E-4,-3.1503346E-3,2.194201E-3,6.723526E-3,6.8538426E-4,2.0961233E-3,-3.6328223E-3,-9.110665E-4,1.3412583E-1,1.1558627E-3,-4.2021307E-3,-5.250457E-3,-4.6430557E-4,-3.7366268E-3,1.6590125E-3,3.9419472E-1,9.146091E-2,-8.6432975E-3,-2.5823796E-3,3.363941E-2,-2.651099E-4,-1.6084007E-3,-6.790652E-3,-1.6501347E-3,2.1523738E-1,1.7904019E-3,7.6039764E-3,-1.579812E-3,4.0036845E-3,-6.508129E-3,-2.4395836E-4,-7.2481605E-4,4.0650875E-3,-3.5481295E-1,1.3610737E-3,7.2412617E-3,4.3487232E-4,6.5317523E-4,-4.690181E-3,-1.2269006E-3,4.729541E-3,2.138077E-3,8.136966E-3,-1.8537162E-3,-4.4051605E-1,-1.7271686E-1,-2.5839708E-3,2.8896745E-4,-4.693394E-3,1.1914656E-3,6.628906E-3,-2.2904694E-3,-8.128068E-3,3.2306223E-3,-3.0248562E-1,-2.6459806E-3,-8.045551E-3,-2.322161E-3,-8.370739E-3,3.080837E-3,1.4620297E-1,8.929781E-3,2.6010196E-3],"split_indices":[531,147,235,325,424,167,545,419,424,666,158,255,424,424,707,354,235,569,25,707,716,165,441,761,385,416,716,328,470,195,424,429,4,266,618,142,415,621,638,360,572,281,0,0,0,0,231,161,0,755,338,508,642,195,285,76,707,81,15,636,364,354,161,0,0,0,0,0,0,41,531,96,191,167,197,0,571,0,0,492,147,567,603,109,0,49,0,753,592,577,0,0,567,0,0,489,0,0,366,0,0,695,588,0,402,112,0,0,530,0,486,0,0,425,384,290,1,387,0,0,0,0,621,0,264,0,0,88,0,206,259,0,197,0,0,531,0,0,0,727,763,0,586,0,0,0,0,0,720,440,0,0,0,302,0,0,0,0,0,294,592,0,0,0,35,0,0,215,484,0,0,750,0,354,756,323,0,0,0,0,0,0,0,0,0,0,99,0,0,0,0,0,0,486,340,0,0,230,0,0,0,0,144,0,0,0,0,0,0,0,0,658,0,0,0,0,0,0,0,0,0,0,291,135,0,0,0,0,0,0,0,0,660,0,0,0,0,0,161,0,0],"split_type":[0,0,0,0,0,0,0,0,0,0,0,0,0,0,0,0,0,0,0,0,0,0,0,0,0,0,0,0,0,0,0,0,0,0,0,0,0,0,0,0,0,0,0,0,0,0,0,0,0,0,0,0,0,0,0,0,0,0,0,0,0,0,0,0,0,0,0,0,0,0,0,0,0,0,0,0,0,0,0,0,0,0,0,0,0,0,0,0,0,0,0,0,0,0,0,0,0,0,0,0,0,0,0,0,0,0,0,0,0,0,0,0,0,0,0,0,0,0,0,0,0,0,0,0,0,0,0,0,0,0,0,0,0,0,0,0,0,0,0,0,0,0,0,0,0,0,0,0,0,0,0,0,0,0,0,0,0,0,0,0,0,0,0,0,0,0,0,0,0,0,0,0,0,0,0,0,0,0,0,0,0,0,0,0,0,0,0,0,0,0,0,0,0,0,0,0,0,0,0,0,0,0,0,0,0,0,0,0,0,0,0,0,0,0,0,0,0,0,0,0,0,0,0,0,0,0,0,0,0,0,0,0,0,0,0,0,0,0,0,0,0],"sum_hessian":[2.9133014E2,1.4001929E2,1.5131085E2,6.524078E1,7.4778496E1,4.6041042E1,1.0526981E2,2.5196259E1,4.004453E1,4.089159E1,3.3886906E1,2.3645845E1,2.2395199E1,2.9495255E1,7.577456E1,7.44935E0,1.7746908E1,1.9847828E1,2.0196703E1,1.8097557E1,2.2794033E1,2.399832E0,3.1487074E1,1.0448085E1,1.3197761E1,6.0488667E0,1.634633E1,1.684713E1,1.2648124E1,9.398393E0,6.637617E1,3.2997327E0,4.1496177E0,3.1997511E0,1.4547156E1,1.079874E1,9.049087E0,1.799684E1,2.1998634E0,9.248659E0,8.848898E0,2.1744064E1,1.0499687E0,1.0499985E0,1.3498336E0,1.499696E0,2.998738E1,9.048338E0,1.3997465E0,6.898672E0,6.299088E0,2.2994878E0,3.749379E0,1.3996546E1,2.3497856E0,5.699216E0,1.1147915E1,3.8494697E0,8.798654E0,5.9488406E0,3.4495518E0,5.347862E1,1.2897552E1,1.6998456E0,1.599887E0,1.3499151E0,2.7997022E0,1.5998302E0,1.5999211E0,1.2347313E1,2.1998434E0,4.299609E0,6.499131E0,2.0997937E0,6.9492936E0,2.0498724E0,1.5946967E1,1.0999403E0,1.0999233E0,3.8495083E0,5.399151E0,4.5994315E0,4.2494664E0,2.0544235E1,1.1998278E0,2.878741E1,1.1999683E0,6.648656E0,2.3996823E0,5.5488844E0,1.349788E0,1.5997487E0,4.6993394E0,1.1497391E0,1.1497488E0,2.399665E0,1.3497139E0,1.0499247E0,1.2946621E1,1.0998689E0,1.2499166E0,2.7996125E0,2.8996031E0,1.399747E0,9.748168E0,2.74963E0,1.0998397E0,1.1997523E0,7.5989017E0,1.4497505E0,4.49909E0,1.299828E0,2.1497238E0,5.1078804E1,2.3998127E0,7.6483207E0,5.2492304E0,1.1197364E1,1.1499487E0,1.1499139E0,1.0499296E0,1.799847E0,2.499762E0,4.3992624E0,2.0998685E0,1.0498568E0,1.0499368E0,5.449382E0,1.4999115E0,2.1998575E0,1.3747109E1,1.099904E0,2.7496045E0,1.2498279E0,4.149323E0,2.849664E0,1.7497675E0,1.049918E0,3.1995485E0,2.2495897E0,1.8294647E1,1.0999663E0,2.7687445E1,5.1988974E0,1.4497584E0,1.2998413E0,1.099841E0,1.3998255E0,4.149059E0,3.649498E0,1.0498416E0,1.3498397E0,1.0498253E0,1.1646985E1,1.2996366E0,1.749687E0,1.0499256E0,1.8497852E0,1.049818E0,7.1485496E0,2.5996182E0,1.4497697E0,1.2998601E0,1.1498326E0,6.449069E0,1.1497906E0,3.3492994E0,2.3496988E0,4.8729107E1,1.3498724E0,1.0499403E0,6.498575E0,1.1497457E0,2.8996956E0,2.349535E0,9.897441E0,1.2999237E0,1.4498607E0,1.0499014E0,1.0499405E0,1.0499281E0,4.2994637E0,1.1499183E0,1.1499285E0,1.0499289E0,1.0998749E0,1.2647235E1,1.1497923E0,1.599812E0,1.7497857E0,1.0998784E0,1.0997282E0,1.1498613E0,1.5745291E1,2.5493553E0,2.6637877E1,1.0495676E0,3.0992339E0,1.049825E0,1.1498315E0,2.4996662E0,1.0496839E0,1.0597301E1,1.1998204E0,5.948729E0,1.2498295E0,1.3497887E0,5.39919E0,1.049879E0,1.1498268E0,1.199872E0,4.762947E1,1.0996336E0,5.3987885E0,1.0997865E0,1.2498342E0,1.6498616E0,1.0497683E0,1.2997667E0,1.0498201E0,8.84762E0,1.0998012E0,1.1547433E1,1.4295594E1,1.4496969E0,1.2497383E0,1.2996169E0,1.0498012E0,2.0494325E0,1.349728E0,9.247573E0,1.8493819E0,4.578009E1,1.5998251E0,9.947608E0,1.0997696E0,1.3195825E1,1.4993501E0,4.428074E1,4.323105E1,1.0496922E0],"tree_param":{"num_deleted":"0","num_feature":"768","num_nodes":"241","size_leaf_vector":"1"}},{"base_weights":[-5.181294E-4,-6.422717E-1,6.317153E-1,-8.5316524E-2,-1.127976E0,-1.7282361E-2,1.1201897E0,5.407261E-1,-4.7971022E-1,-7.6728344E-1,-1.5352288E0,5.909693E-1,-5.641054E-1,3.862175E-1,1.3802243E0,9.3989646E-1,-1.9053659E-1,-7.887038E-1,1.5494351E-1,-2.1778858E-1,-1.1643528E0,-5.412863E-1,-1.5925573E0,-4.824588E-1,8.2100606E-1,4.7107303E-1,-8.404852E-1,-3.288221E-1,7.959801E-1,1.5318358E0,5.9502983E-1,-3.3661664E-1,1.1720321E0,-7.097451E-1,5.1215327E-1,1.0905179E-1,-9.540657E-1,5.3222406E-1,-6.825821E-1,-5.2833813E-1,5.346691E-1,-1.236438E0,1.201128E-3,4.6850115E-4,-4.3921E-3,-1.6234545E0,-1.6682212E-3,2.5338638E-3,-8.1467736E-1,1.0260454E0,-3.6641368E-1,9.696586E-1,-3.392031E-1,-3.0806255E-1,-1.2000664E0,-9.713347E-1,3.3325854E-1,-1.8195298E-3,9.6903265E-1,1.5751455E0,1.3251594E-4,1.1255867E0,-8.201267E-2,2.073453E-3,-4.4038473E-3,1.3346274E0,-1.2551727E-3,-2.6180921E-2,-5.63545E-3,8.788178E-1,-1.2560444E-3,-4.95684E-1,4.23807E-3,-1.199153E0,-2.4341875E-1,-1.9223984E-1,1.0903881E0,-9.857831E-1,1.2098658E-3,-1.1119815E0,-9.5789045E-2,-2.7844328E-1,1.0413127E0,-3.968209E-1,-1.3810833E0,-2.2355742E-3,-1.6547859E0,-1.1020584E0,5.00613E-4,-1.08778335E-1,1.180985E0,2.2614156E-3,-7.9469067E-1,6.531674E-3,-2.236006E-4,2.6495722E-3,-4.3674503E-3,1.8967092E-2,-5.359361E-3,-1.3522749E0,-1.2576894E-1,-6.1615807E-4,-6.1227414E-3,-2.3035328E-3,7.212695E-1,1.123087E0,-7.8924064E-4,1.6076761E0,1.6669976E-4,1.2893259E-3,6.8139965E-3,-6.213491E-1,5.211024E-1,1.4378452E0,2.0848008E-4,3.8827125E-3,-4.3638293E-3,7.389615E-4,5.609393E-3,6.909124E-4,-4.248031E-3,-1.2874241E0,2.5153047E-4,6.6240895E-1,-8.0850565E-1,-4.281606E-3,4.231143E-1,1.2915292E0,2.4146495E-4,-1.1938175E-3,-5.8536516E-3,-1.0333175E-3,-6.663766E-3,5.603241E-1,-6.1300904E-1,-4.0831203E-3,1.8974018E-3,1.3529181E-3,6.3747256E-3,-4.9010334E-3,1.7171429E-3,-2.2095036E-4,-1.4532361E0,-1.6891239E0,-2.059212E-3,-6.3564572E-3,-1.666474E-3,-3.5399157E-3,3.2817805E-3,1.4661663E0,4.8029274E-1,-9.244164E-4,-5.0532008E-3,5.882534E-1,-4.8371983E-1,-1.4393289E0,-7.1455206E-4,-3.1329575E-3,2.1819787E-3,4.7420473E-3,2.4072603E-4,-9.4034884E-4,1.2727025E0,1.637428E0,6.5652473E-4,-4.9425466E-3,-1.9028332E-4,4.6126074E-3,-7.067275E-4,1.5256369E0,1.1770425E-3,-5.373426E-4,-1.4084568E0,-2.3139089E-4,4.9586855E-3,-6.0684937E-3,6.256695E-4,-1.6639361E-3,4.3684007E-3,7.2596013E-3,1.6840319E-3,-1.6898311E-3,9.2121655E-1,1.3656286E-3,-1.0146313E0,-1.1829732E-3,-1.5117339E0,-8.59597E-3,-2.7945298E-3,1.2892975E-3,8.0037555E-3,8.1056404E-1,-3.193115E-3,-1.2015401E-3,8.693723E-1,1.9131912E-3,-7.740818E-1,-1.4017336E-3,-1.5232882E0,1.3783873E0,7.211399E-4,5.738797E-1,1.6922219E0,8.028168E-3,2.3801369E-3,-1.5157497E0,-2.4206792E-3,5.5550644E-3,1.2017991E-3,-1.1967772E-3,-6.0151955E-3,-1.5729936E0,-1.9470062E-3,-5.005691E-4,1.0591141E0,5.61293E-3,6.764595E-4,-5.317205E-3,2.514093E-4,-8.013724E-3,-2.231942E-3,1.4634827E0,1.8373644E-3,-7.916468E-4,4.5251446E-3,1.7172562E0,1.9812076E-3,-2.6499352E-3,-1.6064318E0,-2.6356513E-3,-8.248476E-3,8.948619E-4,6.3620093E-3,2.3063645E-3,7.736472E-3,1.9019084E-3,1.7476615E0,-2.3495383E-3,-8.405565E-3,6.9449884E-1,1.7947984E0,5.0788433E-3,1.388249E-4,9.106501E-3,2.0781455E-3],"categories":[],"categories_nodes":[],"categories_segments":[],"categories_sizes":[],"default_left":[0,0,0,0,0,0,0,0,0,0,0,0,0,0,0,0,0,0,0,0,0,0,0,0,0,0,0,0,0,0,0,0,0,0,0,0,0,0,0,0,0,0,0,0,0,0,0,0,0,0,0,0,0,0,0,0,0,0,0,0,0,0,0,0,0,0,0,0,0,0,0,0,0,0,0,0,0,0,0,0,0,0,0,0,0,0,0,0,0,0,0,0,0,0,0,0,0,0,0,0,0,0,0,0,0,0,0,0,0,0,0,0,0,0,0,0,0,0,0,0,0,0,0,0,0,0,0,0,0,0,0,0,0,0,0,0,0,0,0,0,0,0,0,0,0,0,0,0,0,0,0,0,0,0,0,0,0,0,0,0,0,0,0,0,0,0,0,0,0,0,0,0,0,0,0,0,0,0,0,0,0,0,0,0,0,0,0,0,0,0,0,0,0,0,0,0,0,0,0,0,0,0,0,0,0,0,0,0,0,0,0,0,0,0,0,0,0,0,0,0,0,0,0,0,0,0,0,0,0,0,0,0,0,0,0,0,0,0,0,0,0,0,0,0,0],"id":6,"left_children":[1,3,5,7,9,11,13,15,17,19,21,23,25,27,29,31,33,35,37,39,41,43,45,47,49,51,53,55,57,59,61,63,65,67,69,71,73,75,77,79,81,83,-1,-1,-1,85,-1,-1,87,89,91,93,95,97,99,101,103,-1,105,107,-1,109,111,-1,-1,113,-1,115,-1,117,-1,119,-1,121,123,125,127,129,-1,131,133,135,137,139,141,-1,143,145,-1,147,149,-1,151,-1,-1,-1,-1,153,-1,155,157,-1,-1,-1,159,161,-1,163,-1,-1,-1,165,167,169,-1,-1,-1,-1,-1,-1,-1,171,-1,173,175,-1,177,179,-1,-1,-1,-1,-1,181,183,-1,-1,-1,-1,-1,-1,-1,185,187,-1,-1,-1,-1,-1,189,191,-1,-1,193,195,197,-1,-1,-1,-1,-1,-1,199,201,-1,-1,-1,-1,-1,203,-1,-1,205,-1,-1,-1,-1,-1,-1,-1,-1,-1,207,-1,209,-1,211,-1,-1,-1,-1,213,-1,-1,215,-1,217,-1,219,221,-1,223,225,-1,-1,227,-1,-1,-1,-1,-1,229,-1,-1,231,-1,-1,-1,-1,-1,-1,233,-1,-1,-1,235,-1,-1,237,-1,-1,-1,-1,-1,-1,-1,239,-1,-1,241,243,-1,-1,-1,-1],"loss_changes":[1.1900482E2,3.9278923E1,4.685842E1,1.7267963E1,1.0231148E1,2.1764423E1,1.5559105E1,8.0878935E0,8.513901E0,9.1696E0,1.159729E0,8.048868E0,1.0249827E1,7.1311884E0,6.4537125E0,5.63815E0,4.1574316E0,4.400936E0,5.0549574E0,4.803398E0,2.8122025E0,8.208165E-1,7.4315643E-1,2.4173517E0,6.679962E0,3.5198963E0,4.903431E0,4.2581015E0,3.402938E0,3.2976608E0,4.276394E0,1.7960118E0,3.851122E0,1.7960987E0,1.620121E0,2.831766E0,3.983059E0,4.5762005E0,1.6540132E0,3.477802E0,2.8231168E0,2.3413544E0,0E0,0E0,0E0,4.3884277E-1,0E0,0E0,1.41153E0,4.0570145E0,1.9546235E0,1.8168769E0,2.2040658E0,3.1298149E0,2.461691E0,9.1194725E-1,1.9649229E0,0E0,2.5203295E0,2.4427414E0,0E0,1.0067577E0,2.2916207E0,0E0,0E0,1.7811699E0,0E0,3.0220656E0,0E0,4.737866E-1,0E0,9.2496043E-1,0E0,2.0495396E0,4.3996234E0,2.6300273E0,1.2475052E0,2.730422E-1,0E0,9.136195E-1,3.4820817E0,1.4251115E0,3.751979E-1,2.4524906E0,1.8545685E0,0E0,6.1811066E-1,7.7114105E-2,0E0,2.115066E0,3.241003E0,0E0,2.5426173E-1,0E0,0E0,0E0,0E0,3.0601628E0,0E0,1.267683E0,1.1461984E0,0E0,0E0,0E0,5.5821466E-1,2.5927553E0,0E0,1.9251251E0,0E0,0E0,0E0,7.440288E-1,1.0344727E0,9.8639107E-1,0E0,0E0,0E0,0E0,0E0,0E0,0E0,2.2544537E0,0E0,8.5103524E-1,2.0809033E0,0E0,1.4996951E0,3.0714512E-1,0E0,0E0,0E0,0E0,0E0,1.8024033E0,2.2876651E0,0E0,0E0,0E0,0E0,0E0,0E0,0E0,9.833336E-1,4.6180725E-2,0E0,0E0,0E0,0E0,0E0,1.7899189E0,3.177735E0,0E0,0E0,1.3734201E0,1.7299676E0,8.325825E-1,0E0,0E0,0E0,0E0,0E0,0E0,1.1007767E0,1.8070068E0,0E0,0E0,0E0,0E0,0E0,2.1776962E-1,0E0,0E0,7.7321625E-1,0E0,0E0,0E0,0E0,0E0,0E0,0E0,0E0,0E0,1.91648E-1,0E0,3.108549E-1,0E0,6.107445E-1,0E0,0E0,0E0,0E0,1.4637768E0,0E0,0E0,5.822551E-1,0E0,1.1506627E0,0E0,2.9808617E-1,3.0927277E-1,0E0,1.0765349E0,7.7381897E-1,0E0,0E0,3.2377434E-1,0E0,0E0,0E0,0E0,0E0,4.5740128E-1,0E0,0E0,6.731014E-1,0E0,0E0,0E0,0E0,0E0,0E0,2.0996094E-2,0E0,0E0,0E0,1.1104889E0,0E0,0E0,1.9006729E-1,0E0,0E0,0E0,0E0,0E0,0E0,0E0,8.596039E-1,0E0,0E0,7.105069E-1,7.041626E-1,0E0,0E0,0E0,0E0],"parents":[2147483647,0,0,1,1,2,2,3,3,4,4,5,5,6,6,7,7,8,8,9,9,10,10,11,11,12,12,13,13,14,14,15,15,16,16,17,17,18,18,19,19,20,20,21,21,22,22,23,23,24,24,25,25,26,26,27,27,28,28,29,29,30,30,31,31,32,32,33,33,34,34,35,35,36,36,37,37,38,38,39,39,40,40,41,41,45,45,48,48,49,49,50,50,51,51,52,52,53,53,54,54,55,55,56,56,58,58,59,59,61,61,62,62,65,65,67,67,69,69,71,71,73,73,74,74,75,75,76,76,77,77,79,79,80,80,81,81,82,82,83,83,84,84,86,86,87,87,89,89,90,90,92,92,97,97,99,99,100,100,104,104,105,105,107,107,111,111,112,112,113,113,121,121,123,123,124,124,126,126,127,127,133,133,134,134,142,142,143,143,149,149,150,150,153,153,154,154,155,155,162,162,163,163,169,169,172,172,182,182,184,184,186,186,191,191,194,194,196,196,198,198,199,199,201,201,202,202,205,205,211,211,214,214,221,221,225,225,228,228,236,236,239,239,240,240],"right_children":[2,4,6,8,10,12,14,16,18,20,22,24,26,28,30,32,34,36,38,40,42,44,46,48,50,52,54,56,58,60,62,64,66,68,70,72,74,76,78,80,82,84,-1,-1,-1,86,-1,-1,88,90,92,94,96,98,100,102,104,-1,106,108,-1,110,112,-1,-1,114,-1,116,-1,118,-1,120,-1,122,124,126,128,130,-1,132,134,136,138,140,142,-1,144,146,-1,148,150,-1,152,-1,-1,-1,-1,154,-1,156,158,-1,-1,-1,160,162,-1,164,-1,-1,-1,166,168,170,-1,-1,-1,-1,-1,-1,-1,172,-1,174,176,-1,178,180,-1,-1,-1,-1,-1,182,184,-1,-1,-1,-1,-1,-1,-1,186,188,-1,-1,-1,-1,-1,190,192,-1,-1,194,196,198,-1,-1,-1,-1,-1,-1,200,202,-1,-1,-1,-1,-1,204,-1,-1,206,-1,-1,-1,-1,-1,-1,-1,-1,-1,208,-1,210,-1,212,-1,-1,-1,-1,214,-1,-1,216,-1,218,-1,220,222,-1,224,226,-1,-1,228,-1,-1,-1,-1,-1,230,-1,-1,232,-1,-1,-1,-1,-1,-1,234,-1,-1,-1,236,-1,-1,238,-1,-1,-1,-1,-1,-1,-1,240,-1,-1,242,244,-1,-1,-1,-1],"split_conditions":[-5.3101175E-2,-1.0423768E-1,8.962738E-2,-1.8210821E-1,2.6706696E-2,-7.694497E-2,3.2141498E-1,5.2195735E-2,-1.3186193E-1,-2.0212242E-1,-1.1533951E-1,-1.2050365E-1,