{"learner":{"attributes":{},"feature_names":[],"feature_types":[],"gradient_booster":{"model":{"cats":{"enc":[],"feature_segments":[],"sorted_idx":[]},"gbtree_model_param":{"num_parallel_tree":"1","num_trees":"150"},"iteration_indptr":[0,1,2,3,4,5,6,7,8,9,10,11,12,13,14,15,16,17,18,19,20,21,22,23,24,25,26,27,28,29,30,31,32,33,34,35,36,37,38,39,40,41,42,43,44,45,46,47,48,49,50,51,52,53,54,55,56,57,58,59,60,61,62,63,64,65,66,67,68,69,70,71,72,73,74,75,76,77,78,79,80,81,82,83,84,85,86,87,88,89,90,91,92,93,94,95,96,97,98,99,100,101,102,103,104,105,106,107,108,109,110,111,112,113,114,115,116,117,118,119,120,121,122,123,124,125,126,127,128,129,130,131,132,133,134,135,136,137,138,139,140,141,142,143,144,145,146,147,148,149,150],"tree_info":[0,0,0,0,0,0,0,0,0,0,0,0,0,0,0,0,0,0,0,0,0,0,0,0,0,0,0,0,0,0,0,0,0,0,0,0,0,0,0,0,0,0,0,0,0,0,0,0,0,0,0,0,0,0,0,0,0,0,0,0,0,0,0,0,0,0,0,0,0,0,0,0,0,0,0,0,0,0,0,0,0,0,0,0,0,0,0,0,0,0,0,0,0,0,0,0,0,0,0,0,0,0,0,0,0,0,0,0,0,0,0,0,0,0,0,0,0,0,0,0,0,0,0,0,0,0,0,0,0,0,0,0,0,0,0,0,0,0,0,0,0,0,0,0,0,0,0,0,0,0],"trees":[{"base_weights":[-0E0,-6.629831E-1,6.53061E-1,-8.8105686E-2,-1.1703507E0,-1.7282004E-2,1.162178E0,5.7034194E-1,-4.9999976E-1,-8.018865E-1,-1.6138321E0,6.266665E-1,-5.878874E-1,4.1059586E-1,1.4369882E0,1.0059168E0,-2.0833321E-1,-2.1656041E-1,-1.314814E0,-2.3180583E-1,-1.2349269E0,1.3333334E-1,-1.6427518E0,8.7077504E-1,-6.1386126E-1,5.2777755E-1,-8.826811E-1,-3.6686376E-1,8.611108E-1,1.5996033E0,6.543776E-1,-4.4444385E-1,1.2638886E0,-8.214279E-1,6.1904746E-1,-8.4848446E-1,2.3913033E-1,-1.539266E0,3.4482738E-1,-1.2087905E0,8.450701E-2,-1.3118275E0,8E-1,-5.555556E-2,6.0000002E-2,-1.1764706E-1,-1.671641E0,-4.3037966E-1,1.1028033E0,6.451611E-2,-1.5348837E0,1.1818177E0,-4.6666652E-1,-3.3476365E-1,-1.2857138E0,-1.1807224E0,3.9999983E-1,-5.263155E-1,1.0551177E0,6.5168524E-1,1.6839824E0,1.3103445E0,-9.5238045E-2,-1.2432408E0,1.0476191E0,1.4461535E0,-3.75E-1,-1.0588226E0,5.714286E-2,-5.714286E-2,9.1891867E-1,-1.0619463E0,3.809524E-1,5.1465774E-1,-1.0769231E0,-1.6284142E0,3.3333334E-1,6.4705886E-2,-7.4999917E-1,-1.652173E0,1.5384604E-1,3.8596478E-1,-1.066666E0,-1.6349806E0,-8.7378615E-1,-5E-2,7.5E-2,6.0000002E-2,-6.363636E-2,-1.7012187E0,-2.22222E-1,1E0,-9.830505E-1,6.046508E-1,1.5760366E0,-8.2352895E-1,1E0,-8.974359E-2,2.5E-2,1.7288135E0,6.0605995E-2,8.8E-1,-1.2820507E0,2.2471892E-2,-1.3898293E0,-1.458646E0,-1.7391305E-1,5.555556E-2,-1.3846147E0,-7.333316E-2,7.3417723E-1,-1.1428572E0,8.5714173E-1,1.1799159E0,-7.368421E-1,-2.4390233E-1,1.3076923E0,6.031739E-1,1.7549131E0,1.476635E0,-4.6153846E-1,-8.0701727E-1,6.9230723E-1,-1.515149E0,2.4999944E-2,7.647059E-2,-2.5E-2,1.5483868E0,-5E-1,8.888889E-1,-7.777778E-2,-0E0,-1.4594584E0,-7.692308E-1,1.1999997E0,2.2222222E-1,-1.2118219E0,8.5714287E-1,-6.363636E-2,-3.829782E-1,8.940091E-1,8.695652E-2,-1.5652174E0,2.5E-2,-1.6871496E0,5E-2,-2.5E-2,2.4999944E-2,-6.666667E-2,-0E0,-1.8095227E0,-7.142848E-2,7.5E-2,8.535028E-1,-6.1333334E-1,-1.3454536E0,5.555556E-2,4.0000003E-2,-1.7042797E0,-1.3698623E-1,-1.2408757E0,1.1111111E-2,-1.7173572E0,-6.363626E-2,4.5454547E-2,-2.5E-2,7E-2,-1.4166662E0,6.666667E-1,-0E0,1.2149522E0,1.6908209E0,-5.714286E-1,5E-1,-8.181812E-2,-2.727273E-2,7.6E-2,9.272727E-2,-0E0,9.0909016E-1,-5.9999924E-2,-5.555556E-2,8.0000006E-2,2.5E-2,-1.5428563E0,7.1428525E-1,-5.7142806E-1,2.727273E-2,-1.6923059E0,3.9999902E-1,-1.5450976E0,7.333334E-2,-8.5714287E-1,5E-2,-1.5675668E0,1.0422535E0,-6.666667E-2,-8.1818186E-2,2.0000001E-2,-0E0,6.0000002E-2,-2.857141E-1,1.3488368E0,-7.333334E-2,5E-2,6.923077E-2,-8.749995E-1,1.6521739E0,-4.0000003E-2,1.4285715E0,-8.7999743E-1,1.816203E0,3.809522E-1,4.2857143E-1,1.7590353E0,-5.555556E-2,2.5E-2,8.5714287E-1,-1.234042E0,-9.333311E-1,1.2195122E0,-0E0,-8.6206734E-2,1.6566522E0,-1.0526296E-1,5E-2,-6.666667E-2,7.1428575E-2,-2.5E-2,-7.8260744E-1,6.923077E-2,6.666667E-1,-1.7575743E0,-0E0,-5.555556E-2,1.6E0,-1.05263054E-1,-6.363636E-2,1E0,-1.4285705E0,-1.5384609E-1,1.3333334E0,-5.555556E-2,3.6734667E-1,-1.1020387E0,1.1179487E0,-9.230769E-1,-6.363636E-2,1E0,2.5E-2,-9.047619E-2,-1.7471251E0,1.1111111E-2,-2.4999944E-2,-9.3220316E-2,-3.75E-1,1.1317823E0,-1.0508474E0,8E-1,1.9999964E-2,-1.5918361E0,-1.758064E0,-1.5384616E-1,-1.1999992E0,5.531913E-1,-1.4015746E0,5.714286E-1,-1.7383171E0,-1.538455E-1,-1.7209295E0,3.3333335E-2,6.363636E-2,-2.5E-2,-1.3333323E0,3.47826E-1,1.4059398E0,-5.9999783E-2,1.7611938E0,-2.0000001E-2,-6.0000002E-2,2.5E-2,6.666667E-2,-5E-2,7.647059E-2,-3.3333268E-2,-0E0,-8.709672E-2,-6.666655E-1,1.1044773E0,1E0,-9.2682827E-1,-9.16666E-2,-0E0,6.363636E-2,-4.9999774E-2,-1.6348543E0,-0E0,-1.3103448E0,4.0000003E-2,-1.7142848E0,2.5E-2,-4E-1,1.4909091E0,6.363636E-2,-1.0476182E0,1.11111E-1,1.5628412E0,4E-1,-8.095231E-2,1.1111111E-2,9.02439E-2,8.888889E-2,-2.0000001E-2,4.0000003E-2,-7.894707E-2,1.8345497E0,-3.3333335E-2,1.1249994E0,-7.1428575E-2,-9.3333334E-1,7.647059E-2,9.4736844E-2,9.090879E-3,-0E0,6.0000002E-2,5E-2,-1.534883E0,-6.363636E-2,-0E0,-3.3333335E-2,1.5555556E0,1.7030568E0,-2.4999944E-2,6.363636E-2,-6.666647E-2,4.0000003E-2,-7.647043E-2,-0E0,5E-2,-9.3548305E-2,-0E0,-0E0,9.090909E-2,-5.384608E-2,6.0000002E-2,7.5E-2,-2.5E-2,-1.8148133E0,-6.874998E-1,6.666667E-1,-1.1578937E0,-2.5E-2,8.461539E-2,9.99999E-1,-1.0588236E0,-1.428569E0,2.7272684E-2,-6.666667E-1,1.3033706E0,5E-2,-7.272728E-2,6.666667E-2,-0E0,-1.8095224E0,-0E0,-1.2E0,7.5E-1,-4.9999887E-1,1.3162389E0,3.529412E-1,-1.4782609E0,-5E-2,7.5E-2,-1.7333326E0,-0E0,-1.8421047E0,-6.666667E-1,5E-2,-5.555556E-2,3.3333335E-2,-8.399994E-2,1.1111112E0,-9.333322E-1,-3.2258064E-1,-1.6799997E0,-2.5E-2,6.0000002E-2,-1.8010286E0,-1.0476178E0,-5.555522E-2,5E-2,-8.974359E-2,-2.4999944E-2,-0E0,-8.0000006E-2,1.5555556E0,-3.999999E-1,1.3333318E-1,1.8399996E0,1.853403E0,-0E0,-7.333316E-2,4.0000003E-2,-1.8181804E-1,1.5918367E0,-2.5E-2,7.5E-2,-1.4285691E0,1.3333334E-1,-0E0,-1.7056272E0,-6.363636E-2,6.363636E-2,1.1111111E-2,-8.3333336E-2,1.1111111E-2,-9.3846105E-2,-6.923077E-2,4.5454547E-2,9.1111116E-2,-0E0,-7.647059E-2,2.4999944E-2,6.842106E-2,-1.0476172E0,-0E0,1.653179E0,6.363636E-2,-5E-2,-0E0,1.8525796E0,-4.999989E-2,7.857143E-2,-0E0,-6.363636E-2,-8.974355E-2,2.5E-2,-0E0,8.75E-2,1.7511111E0,-2.5E-2,-0E0,-1.8846138E0,-1.0769227E0,7.5E-1,6.666667E-2,-4.0000003E-2,-7.333334E-2,-0E0,7.857143E-2,-6.6666466E-1,-0E0,-6.923077E-2,2.4999944E-2,-1.6842082E0,-6.4705886E-2,5E-2,1.4352939E0,-5E-2,-1.8757749E0,-9.09091E-3,-0E0,-7.5E-2,6.666667E-2,-2.5E-2,-6.666647E-2,5E-2,1.428571E0,-3.3333335E-2,-5.555556E-2,6.666667E-2,1.1111111E-2,-1.7073171E0,-2.4999944E-2,-9.02439E-2,-9.09091E-3,-1.8914021E0,-6.666667E-2,4.0000003E-2,-5E-2,1.5E0,-6.363636E-2,-0E0,-6.666667E-2,8.235294E-1,2.5E-2,-1.7916663E0,-1.819444E0,-9.09091E-3,-1.3571411E0,4.5454547E-2,-0E0,8.75E-2,6.6666615E-1,-1E0,7.333334E-2,-9.473666E-1,2.4999944E-2,9.43662E-2,1.8930479E0,-0E0,5.555556E-2,-5.5555444E-2,6.363636E-2,-5.9999924E-2,-1.1111111E-2,9.090909E-2,1.5384616E-1,-1.7446774E0,6.4705886E-2,-1.0588236E0,-5.555556E-2,5.555556E-2,-5.4545456E-1,-1.7934266E0,-5.555556E-2,5.555556E-2,-7.647051E-2,2.4999944E-2,5.555556E-2,-5.5555444E-2,1.7333331E0,-0E0,5E-2,-5E-2,-0E0,1.8663365E0,-2.5E-2,1.800905E0,-9.599995E-2,-2.4999887E-2,-1.4418598E0,4.6153846E-1,6.666667E-2,-2.5E-2,-5E-2,-0E0,-8.823525E-2,-2.4999887E-2,-0E0,1.6712328E0,-5.714278E-1,-9.7350925E-2,1.6781602E0,4.827586E-1,-2.5E-2,-8.9189194E-2,-1.9262667E0,-0E0,-0E0,8.571429E-2,6.923077E-2,-2.5E-2,-1.8695649E0,-0E0,-1.8497312E0,-6.666661E-1,1.5384594E-1,-1.6595725E0,-5.5555444E-2,6.842106E-2,4.0000003E-2,-1.4117647E0,-7.333316E-2,2.5E-2,1.9337016E0,1.9999964E-2,5.555556E-2,-5E-2,-2.4999887E-2,-9.069756E-2,-6.923077E-2,-0E0,-6.4705886E-2,5.555556E-2,-9.090894E-3,-1.8446597E0,-1.1111111E-2,1.7999998E0,5E-2,-5E-2,1.8799998E0,3.3333334E-1,1.8504673E0,9.09091E-3,9.09091E-3,-8.888885E-2,5.555556E-2,-2.5E-2,-1.0588224E0,6.0000002E-2,-2.5E-2,1.7464789E0,2.4999944E-2,-6.0000002E-2,1.7590362E0,-0E0,-6.363636E-2,1.2727273E0,-1.9436615E0,-2.4999944E-2,-9.545453E-2,-2.5E-2,-9.411765E-1,-1.8941394E0,5E-2,-6.470581E-2,5.555556E-2,-4.999989E-2,-9.06976E-2,-0E0,2.5E-2,-8.6666666E-2,9.7740114E-2,2.5E-2,-1.8811876E0,-0E0,1.8451613E0,1.1111089E-2,-0E0,1.889447E0,-2.5E-2,5E-2,1.8857143E0,-0E0,-0E0,-6.923077E-2,-2.5E-2,1.826087E0,1.8481013E0,-0E0,-0E0,7.777778E-2,-2.5E-2,-9.8086104E-2,-7.692308E-2,6.666667E-1,-1.9155465E0,-3.3333284E-1,-1.9187812E0,-1.1111111E-2,1.8918918E0,2.727273E-2,1.8989897E0,-0E0,1.9223301E0,-0E0,1.880597E0,-0E0,2.5E-2,9.466667E-2,5E-2,-0E0,-1.1111111E-2,-1.930232E0,-5E-2,2.4999944E-2,-2.4999944E-2,-1.9378234E0,1.9166666E0,2.5E-2,1.9086293E0,-0E0,1.9405941E0,2.5E-2,9.6850395E-2,2.727273E-2,-1.9374995E0,-2.5E-2,-9.7883575E-2,-2.5E-2,2.5E-2,9.714286E-2,1.918263E0,1.1111111E-2,2.5E-2,9.79798E-2,-2.5E-2,-1.9448814E0,1.1111089E-2,1.9280205E0,-2.5E-2,-1.9523804E0,1.9379041E0,1.1111111E-2,-2.5E-2,-9.7999975E-2,1.9477806E0,2.727273E-2,6.666657E-1,1.9577836E0,5E-2,-0E0,1.9679573E0,7.692308E-1,1.9784075E0,6.666667E-1,5.555556E-2,-0E0,2.5E-2,1.9837177E0,5E-2,-0E0,9.94543E-2,2.4999944E-2],"categories":[],"categories_nodes":[],"categories_segments":[],"categories_sizes":[],"default_left":[0,0,0,0,0,0,0,0,0,0,0,0,0,0,0,0,0,0,0,0,0,0,0,0,0,0,0,0,0,0,0,0,0,0,0,0,0,0,0,0,0,0,0,0,0,0,0,0,0,0,0,0,0,0,0,0,0,0,0,0,0,0,0,0,0,0,0,0,0,0,0,0,0,0,0,0,0,0,0,0,0,0,0,0,0,0,0,0,0,0,0,0,0,0,0,0,0,0,0,0,0,0,0,0,0,0,0,0,0,0,0,0,0,0,0,0,0,0,0,0,0,0,0,0,0,0,0,0,0,0,0,0,0,0,0,0,0,0,0,0,0,0,0,0,0,0,0,0,0,0,0,0,0,0,0,0,0,0,0,0,0,0,0,0,0,0,0,0,0,0,0,0,0,0,0,0,0,0,0,0,0,0,0,0,0,0,0,0,0,0,0,0,0,0,0,0,0,0,0,0,0,0,0,0,0,0,0,0,0,0,0,0,0,0,0,0,0,0,0,0,0,0,0,0,0,0,0,0,0,0,0,0,0,0,0,0,0,0,0,0,0,0,0,0,0,0,0,0,0,0,0,0,0,0,0,0,0,0,0,0,0,0,0,0,0,0,0,0,0,0,0,0,0,0,0,0,0,0,0,0,0,0,0,0,0,0,0,0,0,0,0,0,0,0,0,0,0,0,0,0,0,0,0,0,0,0,0,0,0,0,0,0,0,0,0,0,0,0,0,0,0,0,0,0,0,0,0,0,0,0,0,0,0,0,0,0,0,0,0,0,0,0,0,0,0,0,0,0,0,0,0,0,0,0,0,0,0,0,0,0,0,0,0,0,0,0,0,0,0,0,0,0,0,0,0,0,0,0,0,0,0,0,0,0,0,0,0,0,0,0,0,0,0,0,0,0,0,0,0,0,0,0,0,0,0,0,0,0,0,0,0,0,0,0,0,0,0,0,0,0,0,0,0,0,0,0,0,0,0,0,0,0,0,0,0,0,0,0,0,0,0,0,0,0,0,0,0,0,0,0,0,0,0,0,0,0,0,0,0,0,0,0,0,0,0,0,0,0,0,0,0,0,0,0,0,0,0,0,0,0,0,0,0,0,0,0,0,0,0,0,0,0,0,0,0,0,0,0,0,0,0,0,0,0,0,0,0,0,0,0,0,0,0,0,0,0,0,0,0,0,0,0,0,0,0,0,0,0,0,0,0,0,0,0,0,0,0,0,0,0,0,0,0,0,0,0,0,0,0,0,0,0,0,0,0,0,0,0,0,0,0,0,0,0,0,0,0,0,0,0,0,0,0,0,0,0,0,0,0,0,0,0,0,0,0,0,0,0,0,0,0,0,0,0,0,0,0,0,0,0,0,0,0,0,0,0,0,0,0,0,0,0,0,0,0,0,0,0,0,0,0,0,0,0,0,0,0,0,0,0,0,0,0,0,0,0,0,0,0,0,0,0,0,0,0,0,0,0,0,0,0,0,0,0,0,0,0,0,0,0,0,0,0,0,0,0,0,0,0,0,0,0,0,0,0,0,0,0,0,0,0,0,0,0,0,0,0,0,0,0,0,0,0,0,0,0,0,0,0,0,0,0,0,0,0],"id":0,"left_children":[1,3,5,7,9,11,13,15,17,19,21,23,25,27,29,31,33,35,37,39,41,43,45,47,49,51,53,55,57,59,61,63,65,67,69,71,73,75,77,79,81,83,85,-1,-1,87,89,91,93,95,97,99,101,103,105,107,109,111,113,115,117,119,121,123,125,127,129,131,-1,-1,133,135,137,139,141,143,145,-1,147,149,151,153,155,157,159,-1,-1,-1,-1,161,163,165,167,169,171,173,175,-1,-1,177,179,181,183,185,187,189,191,-1,193,-1,195,197,199,201,203,205,207,209,211,213,215,217,219,221,-1,-1,-1,223,225,227,-1,229,231,233,235,237,239,241,-1,243,245,247,249,-1,251,-1,-1,-1,-1,-1,253,-1,-1,255,257,259,-1,-1,261,263,265,-1,267,-1,-1,-1,-1,269,271,273,275,277,279,281,-1,-1,-1,-1,-1,283,-1,-1,-1,-1,285,287,289,-1,291,293,295,-1,297,-1,299,301,-1,-1,-1,-1,-1,303,305,-1,-1,-1,307,309,-1,311,313,315,317,319,321,-1,-1,323,325,327,329,-1,-1,331,333,-1,-1,-1,-1,335,-1,337,339,-1,-1,341,343,-1,345,347,349,351,-1,353,355,357,359,-1,361,-1,-1,363,-1,-1,-1,365,367,369,371,-1,373,375,377,379,381,383,385,387,389,391,-1,-1,-1,393,395,397,-1,399,-1,-1,-1,-1,-1,-1,-1,-1,-1,401,403,405,407,-1,-1,-1,-1,409,411,413,-1,415,-1,417,419,-1,421,423,425,427,-1,-1,-1,-1,-1,-1,-1,429,-1,431,-1,433,-1,-1,-1,-1,-1,-1,435,-1,-1,-1,437,439,-1,-1,-1,-1,-1,-1,-1,-1,-1,-1,-1,-1,-1,-1,-1,441,443,445,447,-1,-1,449,451,453,-1,455,457,-1,-1,-1,-1,459,-1,461,463,465,467,469,471,-1,-1,473,-1,475,477,-1,-1,-1,-1,479,481,483,485,-1,-1,487,489,-1,-1,-1,-1,-1,-1,491,493,495,497,499,501,-1,-1,503,505,-1,-1,507,509,511,513,-1,-1,-1,-1,-1,-1,-1,-1,-1,515,-1,-1,-1,517,519,521,-1,-1,523,525,-1,-1,-1,-1,-1,-1,-1,-1,527,-1,-1,529,531,533,-1,-1,-1,-1,-1,535,-1,-1,-1,537,-1,-1,539,-1,541,-1,-1,-1,-1,-1,-1,-1,543,-1,-1,-1,-1,545,-1,-1,-1,547,-1,-1,-1,549,-1,-1,-1,551,-1,553,555,-1,557,-1,-1,-1,559,561,-1,563,-1,-1,565,-1,-1,-1,-1,-1,-1,-1,567,569,-1,571,-1,-1,573,575,-1,-1,-1,-1,-1,-1,577,579,-1,-1,-1,581,-1,583,-1,-1,585,587,-1,-1,-1,-1,-1,-1,589,591,593,-1,595,597,-1,-1,599,-1,-1,-1,-1,-1,601,-1,603,605,607,609,-1,-1,-1,611,-1,-1,613,-1,-1,-1,-1,-1,-1,-1,-1,-1,-1,615,-1,617,-1,-1,619,621,623,-1,-1,-1,-1,-1,625,-1,-1,627,-1,-1,629,-1,-1,631,633,-1,-1,-1,635,637,-1,-1,-1,-1,-1,-1,-1,-1,-1,-1,639,-1,641,-1,-1,643,-1,-1,645,-1,-1,-1,-1,647,649,-1,-1,-1,-1,-1,-1,651,653,655,657,-1,659,-1,661,-1,663,-1,665,-1,-1,-1,-1,-1,-1,667,-1,-1,-1,669,671,-1,673,-1,675,-1,-1,-1,677,-1,-1,-1,-1,-1,679,-1,-1,-1,-1,681,-1,683,-1,685,687,-1,-1,-1,689,-1,691,693,-1,-1,695,697,699,701,-1,-1,-1,703,-1,-1,-1,-1],"loss_changes":[6.317012E2,2.1106906E2,2.5086319E2,9.263245E1,6.153595E1,1.1730639E2,8.5693115E1,4.481061E1,4.8214863E1,5.204976E1,8.985596E0,4.5958065E1,5.6130684E1,3.998255E1,3.783252E1,3.2177597E1,2.4857128E1,4.541294E1,2.064634E1,2.8764954E1,1.9867065E1,6.311111E0,7.326416E0,3.8439163E1,1.5875247E1,2.3966148E1,2.9215843E1,2.6841307E1,1.9935596E1,1.9078674E1,2.6800776E1,1.739251E1,2.2049568E1,1.4266796E1,1.2145429E1,1.7725464E1,3.3914265E1,8.514137E0,8.505576E0,1.3999039E1,2.5050838E1,1.5027084E1,7.8E0,0E0,0E0,7.995722E0,6.802765E0,1.6596004E1,2.4271484E1,1.3700187E1,6.5846767E0,1.3387793E1,1.7598967E1,2.198608E1,1.4550819E1,1.1234678E1,1.5112219E1,9.0827055E0,1.5070129E1,1.339109E1,1.6650513E1,9.226303E0,1.5273368E1,5.1420927E0,4.6792717E0,1.3706696E1,1.3319445E1,1.0817167E1,0E0,0E0,9.701452E0,1.11436E1,9.359307E0,2.6477268E1,9.371239E0,6.5629425E0,2.1666667E0,0E0,3.5833352E0,4.4844666E0,1.5989003E1,2.715445E1,1.0602015E1,1.2458221E1,1.3759308E1,0E0,0E0,0E0,0E0,5.472412E0,6.5050435E0,4.3E0,1.1495758E1,1.9834795E1,1.4338562E1,9.962557E0,7.2581816E0,0E0,0E0,3.2061615E0,9.915141E0,1.0737778E1,5.302927E0,1.86918E1,9.557413E0,1.1303452E1,1.4147411E1,0E0,1.0074837E1,0E0,1.3969455E1,5.984415E0,1.0285747E0,1.5178024E1,7.4877195E0,1.174601E1,1.0760532E1,2.0538406E1,1.7518555E1,7.163418E0,2.58547E0,1.118434E1,1.2279797E1,2.61232E0,0E0,0E0,0E0,1.1274445E1,6.3333335E0,4.0873013E0,0E0,9.752502E0,1.289761E1,8.547008E-1,8.6526375E0,9.121213E0,1.14179535E1,9.682539E0,0E0,1.3083778E1,2.3107216E1,8.411068E0,6.707037E0,0E0,5.512825E0,0E0,0E0,0E0,0E0,0E0,1.997757E-1,0E0,0E0,1.3842712E1,1.2434803E1,6.5499115E0,0E0,0E0,5.0872498E0,1.4053271E1,1.0775707E1,0E0,5.066101E0,0E0,0E0,0E0,0E0,8.753872E0,3.287879E0,1.3449266E1,1.4024906E1,8.318802E0,2.9571428E0,6.3333335E0,0E0,0E0,0E0,0E0,0E0,6.395724E0,0E0,0E0,0E0,0E0,2.6875553E0,1.205188E1,1.4609743E1,0E0,3.1025696E0,5.854538E0,8.841034E0,0E0,7.6197047E0,0E0,6.4691086E0,1.2081945E1,0E0,0E0,0E0,0E0,0E0,9.645017E0,1.4063599E1,0E0,0E0,0E0,8.2368965E0,2.1100502E0,0E0,7.4158726E0,8.602075E0,1.0640991E1,1.5744042E1,1.1922129E1,4.096649E0,0E0,0E0,1.0285714E0,9.431961E0,1.1878867E0,7.5338764E0,0E0,0E0,6.6810913E0,9.735231E0,0E0,0E0,0E0,0E0,8.019423E0,0E0,6.666666E-1,3.2883644E0,0E0,0E0,4.363636E0,7.316594E0,0E0,4.5E0,1.07741165E1,8.804313E0,5.782052E0,0E0,1.2111636E1,7.36919E0,1.7000633E1,8.097902E0,0E0,1.3333335E0,0E0,0E0,4.7422028E0,0E0,0E0,0E0,8.325E0,1.0365139E1,9.37171E0,7.8E0,0E0,2.75918E0,4.4586945E0,4.700855E0,7.8399925E0,1.078203E1,8.996368E0,2.9571428E0,5.0652466E0,4.700838E0,7.306099E-2,0E0,0E0,0E0,2.1333418E0,2.139517E1,1.3702454E1,0E0,8.160522E0,0E0,0E0,0E0,0E0,0E0,0E0,0E0,0E0,0E0,7.3333187E0,1.0789804E1,4.5E0,1.109498E1,0E0,0E0,0E0,0E0,6.9711304E0,8.909091E0,4.329501E0,0E0,5.928688E0,0E0,7.703496E0,6.7919197E0,0E0,4.679276E0,1.4545521E1,6.459152E0,5.8545456E0,0E0,0E0,0E0,0E0,0E0,0E0,0E0,6.7973022E0,0E0,9.160717E0,0E0,1.1878788E0,0E0,0E0,0E0,0E0,0E0,0E0,6.584669E0,0E0,0E0,0E0,2.7222214E0,6.9364166E0,0E0,0E0,0E0,0E0,0E0,0E0,0E0,0E0,0E0,0E0,0E0,0E0,0E0,0E0,0E0,3.4202194E0,9.76442E0,6.9333334E0,1.6982517E0,0E0,0E0,9.619055E0,1.4660635E0,6.018795E0,0E0,6.784314E0,1.4957436E1,0E0,0E0,0E0,0E0,4.188217E0,0E0,1.8000002E0,3.5833335E0,6.3333197E0,7.46764E0,7.581699E0,4.8587246E0,0E0,0E0,9.025955E-2,0E0,4.3214417E0,6.9333334E0,0E0,0E0,0E0,0E0,8.888889E0,1.1878827E0,1.0075901E1,6.9816666E0,0E0,0E0,4.0151978E0,1.0772715E1,0E0,0E0,0E0,0E0,0E0,0E0,2.7222214E0,1.02666645E1,1.2196484E1,2.4536514E-1,3.5085754E0,5.5555496E0,0E0,0E0,9.672721E0,5.4339294E0,0E0,0E0,7.271429E0,1.174902E1,5.5555553E0,4.9043274E0,0E0,0E0,0E0,0E0,0E0,0E0,0E0,0E0,0E0,5.5555553E0,0E0,0E0,0E0,4.6792693E0,5.5555496E0,5.731018E0,0E0,0E0,4E0,5.1863403E0,0E0,0E0,0E0,0E0,0E0,0E0,0E0,0E0,7.205597E0,0E0,0E0,3.1388092E-1,7.964218E0,3.5833335E0,0E0,0E0,0E0,0E0,0E0,6.666707E-1,0E0,0E0,0E0,2.3241043E-2,0E0,0E0,1.4392273E1,0E0,2.6277008E0,0E0,0E0,0E0,0E0,0E0,0E0,0E0,5.7996635E0,0E0,0E0,0E0,0E0,5.438423E-2,0E0,0E0,0E0,3.643341E0,0E0,0E0,0E0,2.5714283E0,0E0,0E0,0E0,3.8484163E0,0E0,3.3496323E0,3.7945557E0,0E0,6.6529064E0,0E0,0E0,0E0,9.005844E0,8.541178E0,0E0,4.303498E0,0E0,0E0,2.064148E0,0E0,0E0,0E0,0E0,0E0,0E0,0E0,4.700855E0,1.06155396E-1,0E0,1.4660635E0,0E0,0E0,8.259061E0,4.0613403E0,0E0,0E0,0E0,0E0,0E0,0E0,5.7777863E0,4E0,0E0,0E0,0E0,3.60437E0,0E0,4.097122E0,0E0,0E0,6.186512E0,2.58547E0,0E0,0E0,0E0,0E0,0E0,0E0,1.01647005E1,6.836487E0,2.9571433E0,0E0,2.951973E0,1.1673981E1,0E0,0E0,3.7409973E-1,0E0,0E0,0E0,0E0,0E0,2.9051208E-1,0E0,3.855835E0,6.7843084E0,4.70085E0,3.0103989E0,0E0,0E0,0E0,6.0921555E0,0E0,0E0,3.9149475E-1,0E0,0E0,0E0,0E0,0E0,0E0,0E0,0E0,0E0,0E0,3.4701538E0,0E0,2.440155E0,0E0,0E0,3.552185E0,2.1666667E0,3.4894562E0,0E0,0E0,0E0,0E0,0E0,1.4660687E0,0E0,0E0,7.2617874E0,0E0,0E0,3.2508774E0,0E0,0E0,1.9797983E0,4.0753174E-1,0E0,0E0,0E0,9.188538E0,3.7802734E0,0E0,0E0,0E0,0E0,0E0,0E0,0E0,0E0,0E0,0E0,2.723114E0,0E0,1.321579E0,0E0,0E0,3.5880127E0,0E0,0E0,3.6249695E0,0E0,0E0,0E0,0E0,3.4341354E0,2.5763702E-1,0E0,0E0,0E0,0E0,0E0,0E0,6.666666E-1,2.8100586E0,2.166666E0,3.6167908E-1,0E0,3.1756592E-1,0E0,3.6244507E0,0E0,3.6753845E-1,0E0,1.4665527E0,0E0,0E0,0E0,0E0,0E0,0E0,3.720703E-1,0E0,0E0,0E0,3.9813232E-1,3.6428833E-1,0E0,2.774231E0,0E0,4.025879E-1,0E0,0E0,0E0,3.8583374E-1,0E0,0E0,0E0,0E0,0E0,2.8109741E0,0E0,0E0,0E0,0E0,3.9987183E-1,0E0,2.8485718E0,0E0,4.1430664E-1,1.5952148E0,0E0,0E0,0E0,1.1488647E0,0E0,6.6666865E-1,7.776489E-1,0E0,0E0,1.227417E0,8.547008E-1,4.6246338E-1,6.666666E-1,0E0,0E0,0E0,4.7302246E-1,0E0,0E0,0E0,0E0],"parents":[2147483647,0,0,1,1,2,2,3,3,4,4,5,5,6,6,7,7,8,8,9,9,10,10,11,11,12,12,13,13,14,14,15,15,16,16,17,17,18,18,19,19,20,20,21,21,22,22,23,23,24,24,25,25,26,26,27,27,28,28,29,29,30,30,31,31,32,32,33,33,34,34,35,35,36,36,37,37,38,38,39,39,40,40,41,41,42,42,45,45,46,46,47,47,48,48,49,49,50,50,51,51,52,52,53,53,54,54,55,55,56,56,57,57,58,58,59,59,60,60,61,61,62,62,63,63,64,64,65,65,66,66,67,67,70,70,71,71,72,72,73,73,74,74,75,75,76,76,78,78,79,79,80,80,81,81,82,82,83,83,84,84,89,89,90,90,91,91,92,92,93,93,94,94,95,95,96,96,99,99,100,100,101,101,102,102,103,103,104,104,105,105,106,106,108,108,110,110,111,111,112,112,113,113,114,114,115,115,116,116,117,117,118,118,119,119,120,120,121,121,122,122,123,123,127,127,128,128,129,129,131,131,132,132,133,133,134,134,135,135,136,136,137,137,139,139,140,140,141,141,142,142,144,144,150,150,153,153,154,154,155,155,158,158,159,159,160,160,162,162,167,167,168,168,169,169,170,170,171,171,172,172,173,173,179,179,184,184,185,185,186,186,188,188,189,189,190,190,192,192,194,194,195,195,201,201,202,202,206,206,207,207,209,209,210,210,211,211,212,212,213,213,214,214,217,217,218,218,219,219,220,220,223,223,224,224,229,229,231,231,232,232,235,235,236,236,238,238,239,239,240,240,241,241,243,243,244,244,245,245,246,246,248,248,251,251,255,255,256,256,257,257,258,258,260,260,261,261,262,262,263,263,264,264,265,265,266,266,267,267,268,268,269,269,273,273,274,274,275,275,277,277,287,287,288,288,289,289,290,290,295,295,296,296,297,297,299,299,301,301,302,302,304,304,305,305,306,306,307,307,315,315,317,317,319,319,326,326,330,330,331,331,347,347,348,348,349,349,350,350,353,353,354,354,355,355,357,357,358,358,363,363,365,365,366,366,367,367,368,368,369,369,370,370,373,373,375,375,376,376,381,381,382,382,383,383,384,384,387,387,388,388,395,395,396,396,397,397,398,398,399,399,400,400,403,403,404,404,407,407,408,408,409,409,410,410,420,420,424,424,425,425,426,426,429,429,430,430,439,439,442,442,443,443,444,444,450,450,454,454,457,457,459,459,467,467,472,472,476,476,480,480,484,484,486,486,487,487,489,489,493,493,494,494,496,496,499,499,507,507,508,508,510,510,513,513,514,514,521,521,522,522,526,526,528,528,531,531,532,532,539,539,540,540,541,541,543,543,544,544,547,547,553,553,555,555,556,556,557,557,558,558,562,562,565,565,576,576,578,578,581,581,582,582,583,583,589,589,592,592,595,595,598,598,599,599,603,603,604,604,615,615,617,617,620,620,623,623,628,628,629,629,636,636,637,637,638,638,639,639,641,641,643,643,645,645,647,647,654,654,658,658,659,659,661,661,663,663,667,667,673,673,678,678,680,680,682,682,683,683,687,687,689,689,690,690,693,693,694,694,695,695,696,696,700,700],"right_children":[2,4,6,8,10,12,14,16,18,20,22,24,26,28,30,32,34,36,38,40,42,44,46,48,50,52,54,56,58,60,62,64,66,68,70,72,74,76,78,80,82,84,86,-1,-1,88,90,92,94,96,98,100,102,104,106,108,110,112,114,116,118,120,122,124,126,128,130,132,-1,-1,134,136,138,140,142,144,146,-1,148,150,152,154,156,158,160,-1,-1,-1,-1,162,164,166,168,170,172,174,176,-1,-1,178,180,182,184,186,188,190,192,-1,194,-1,196,198,200,202,204,206,208,210,212,214,216,218,220,222,-1,-1,-1,224,226,228,-1,230,232,234,236,238,240,242,-1,244,246,248,250,-1,252,-1,-1,-1,-1,-1,254,-1,-1,256,258,260,-1,-1,262,264,266,-1,268,-1,-1,-1,-1,270,272,274,276,278,280,282,-1,-1,-1,-1,-1,284,-1,-1,-1,-1,286,288,290,-1,292,294,296,-1,298,-1,300,302,-1,-1,-1,-1,-1,304,306,-1,-1,-1,308,310,-1,312,314,316,318,320,322,-1,-1,324,326,328,330,-1,-1,332,334,-1,-1,-1,-1,336,-1,338,340,-1,-1,342,344,-1,346,348,350,352,-1,354,356,358,360,-1,362,-1,-1,364,-1,-1,-1,366,368,370,372,-1,374,376,378,380,382,384,386,388,390,392,-1,-1,-1,394,396,398,-1,400,-1,-1,-1,-1,-1,-1,-1,-1,-1,402,404,406,408,-1,-1,-1,-1,410,412,414,-1,416,-1,418,420,-1,422,424,426,428,-1,-1,-1,-1,-1,-1,-1,430,-1,432,-1,434,-1,-1,-1,-1,-1,-1,436,-1,-1,-1,438,440,-1,-1,-1,-1,-1,-1,-1,-1,-1,-1,-1,-1,-1,-1,-1,442,444,446,448,-1,-1,450,452,454,-1,456,458,-1,-1,-1,-1,460,-1,462,464,466,468,470,472,-1,-1,474,-1,476,478,-1,-1,-1,-1,480,482,484,486,-1,-1,488,490,-1,-1,-1,-1,-1,-1,492,494,496,498,500,502,-1,-1,504,506,-1,-1,508,510,512,514,-1,-1,-1,-1,-1,-1,-1,-1,-1,516,-1,-1,-1,518,520,522,-1,-1,524,526,-1,-1,-1,-1,-1,-1,-1,-1,528,-1,-1,530,532,534,-1,-1,-1,-1,-1,536,-1,-1,-1,538,-1,-1,540,-1,542,-1,-1,-1,-1,-1,-1,-1,544,-1,-1,-1,-1,546,-1,-1,-1,548,-1,-1,-1,550,-1,-1,-1,552,-1,554,556,-1,558,-1,-1,-1,560,562,-1,564,-1,-1,566,-1,-1,-1,-1,-1,-1,-1,568,570,-1,572,-1,-1,574,576,-1,-1,-1,-1,-1,-1,578,580,-1,-1,-1,582,-1,584,-1,-1,586,588,-1,-1,-1,-1,-1,-1,590,592,594,-1,596,598,-1,-1,600,-1,-1,-1,-1,-1,602,-1,604,606,608,610,-1,-1,-1,612,-1,-1,614,-1,-1,-1,-1,-1,-1,-1,-1,-1,-1,616,-1,618,-1,-1,620,622,624,-1,-1,-1,-1,-1,626,-1,-1,628,-1,-1,630,-1,-1,632,634,-1,-1,-1,636,638,-1,-1,-1,-1,-1,-1,-1,-1,-1,-1,640,-1,642,-1,-1,644,-1,-1,646,-1,-1,-1,-1,648,650,-1,-1,-1,-1,-1,-1,652,654,656,658,-1,660,-1,662,-1,664,-1,666,-1,-1,-1,-1,-1,-1,668,-1,-1,-1,670,672,-1,674,-1,676,-1,-1,-1,678,-1,-1,-1,-1,-1,680,-1,-1,-1,-1,682,-1,684,-1,686,688,-1,-1,-1,690,-1,692,694,-1,-1,696,698,700,702,-1,-1,-1,704,-1,-1,-1,-1],"split_conditions":[-5.3101175E-2,-1.0423768E-1,8.962738E-2,-1.8210821E-1,2.6706696E-2,-7.8741595E-2,3.2141498E-1,5.2195735E-2,9.400178E-2,-2.0212242E-1,-3.646658E-1,9.7371414E-2,-2.638468E-1,-3.0286527E-1,5.9736498E-2,-1.02137506E-1,7.815303E-2,-1.265941E-1,1.1518265E-1,2.1421541E-1,8.834964E-2,-5.1701404E-2,-2.8814304E-1,-1.2050365E-1,8.426965E-2,-2.0242989E-1,1.3200307E-1,4.3541172E-1,-1.7056113E-1,2.631611E-1,-1.4112014E-1,2.3870945E-2,4.2131773E-1,2.2987732E-1,3.5268597E-2,3.2272545E-1,8.740052E-2,6.451272E-2,2.5035155E-1,-5.878907E-2,-2.923783E-3,1.3164303E-1,5.906519E-2,-5.555556E-2,6.0000002E-2,-1.9324453E-1,2.8463382E-1,-1.9201452E-1,-1.7909898E-1,-8.265029E-2,5.3839296E-2,1.405622E-1,-1.7425752E-1,1.3603458E-1,4.0414467E0,-3.474999E0,-2.9362413E-1,3.1608054E-1,5.136573E-1,2.2698576E-2,-6.983003E-2,1.3565646E-1,-1.503354E-1,1.16849676E-1,3.2228574E-1,-6.151375E-2,1.701253E-2,-8.2303956E-2,5.714286E-2,-5.714286E-2,-5.10434E-1,-1.5344915E-1,-2.0504372E0,-2.2375006E-2,1.02099255E-1,-1.070034E0,2.0346895E-1,6.4705886E-2,-8.4392466E-2,-2.8866434E-1,6.9698565E-2,2.3865753E-1,1.9996737E-1,-4.0462297E-1,-2.783923E0,-5E-2,7.5E-2,6.0000002E-2,-6.363636E-2,-5.293663E-1,8.99396E-2,4.118438E-2,1.7382783E-1,8.274212E-2,1.9989818E-1,1.3096173E-1,8.49109E-2,-8.974359E-2,2.5E-2,3.7473106E-1,5.179678E-2,-1.2749767E-1,-2.0832129E-1,3.8495824E-2,-2.138738E-1,8.6084984E-2,-6.868149E-2,5.555556E-2,-2.4219628E-1,-7.333316E-2,-1.7443037E-1,1.1805576E-1,1.5009795E-1,-5.448752E-2,-5.8936853E-2,-4.257043E-1,-2.248098E-2,2.254695E-1,1.06442876E-1,2.9394466E-1,2.9584154E-2,-2.7859023E-1,1.1032704E-2,-8.779517E-2,2.4999944E-2,7.647059E-2,-2.5E-2,1.362863E-1,-3.6526707E-1,8.51438E-2,-7.777778E-2,-1.9064355E-1,-4.4374794E-1,-2.0764528E-1,2.210728E-1,-1.2293785E-1,3.1573948E-1,2.3254463E-1,-6.363636E-2,-8.573234E-3,2.7214633E-2,-2.5214154E-1,-5.689075E-1,2.5E-2,3.8597673E-2,5E-2,-2.5E-2,2.4999944E-2,-6.666667E-2,-0E0,-1.5151516E-1,-7.142848E-2,7.5E-2,2.5879124E-1,3.039843E-1,-4.1311386E-1,5.555556E-2,4.0000003E-2,2.8342232E-1,-2.3593527E-1,5.9063596E-1,1.1111111E-2,1.6817573E-1,-6.363626E-2,4.5454547E-2,-2.5E-2,7E-2,-2.7848512E-1,1.6893849E-1,-2.1548939E-1,-1.4200641E-1,3.2877648E-1,3.079745E-1,-1.652245E-2,-8.181812E-2,-2.727273E-2,7.6E-2,9.272727E-2,-0E0,1.6747065E-1,-5.9999924E-2,-5.555556E-2,8.0000006E-2,2.5E-2,1.6504398E-1,-4.102275E-3,-1.344961E-2,2.727273E-2,2.2112772E-1,3.446892E-1,3.3165365E-1,7.333334E-2,2.72261E-1,5E-2,1.819108E-1,1.6326497E-1,-6.666667E-2,-8.1818186E-2,2.0000001E-2,-0E0,6.0000002E-2,-1.0931156E-1,-2.5171125E-1,-7.333334E-2,5E-2,6.923077E-2,-1.5085687E-1,6.9458574E-2,-4.0000003E-2,1.0682529E-1,-1.7730626E-1,2.6473814E-1,2.6311454E-1,-1.5669331E-1,3.6289516E-1,-5.555556E-2,2.5E-2,3.4749433E-3,-2.5236705E-1,4.2590946E-1,-1.330069E-1,-0E0,-8.6206734E-2,3.9825264E-1,8.967247E-3,5E-2,-6.666667E-2,7.1428575E-2,-2.5E-2,-5.027578E-1,6.923077E-2,-4.0220607E-2,1.9797997E-1,-0E0,-5.555556E-2,1.2094649E-1,1.4150897E-1,-6.363636E-2,-3.1034559E-2,2.0358083E-1,1.3027199E-1,-4.8303345E-1,-5.555556E-2,4.6346057E-2,2.9138142E-1,-1.7107807E-1,-1.5345341E-1,-6.363636E-2,3.277523E-1,2.5E-2,-9.047619E-2,3.5285476E-1,1.1111111E-2,-2.4999944E-2,-9.3220316E-2,1.6821475E-1,-2.6693624E-1,2.888932E-1,-4.5371157E-1,1.9999964E-2,1.9305542E-1,-4.793856E-2,-5.2711874E-2,-2.3839597E-1,-2.3894425E-1,-2.6980084E-1,-2.1110873E-1,5.147567E-3,4.298213E-2,1.4377797E-1,3.3333335E-2,6.363636E-2,-2.5E-2,-5.4238147E-1,-3.850815E-1,-3.156867E-1,-5.9999783E-2,2.7768412E-1,-2.0000001E-2,-6.0000002E-2,2.5E-2,6.666667E-2,-5E-2,7.647059E-2,-3.3333268E-2,-0E0,-8.709672E-2,3.8265005E-1,-1.2301136E-1,-4.37762E-2,1.9484074E-1,-9.16666E-2,-0E0,6.363636E-2,-4.9999774E-2,-3.3899936E-1,1.4616811E-1,-3.5351597E-2,4.0000003E-2,3.866015E-1,2.5E-2,1.4143415E-1,-3.144032E-1,6.363636E-2,1.0126443E-1,2.9071242E-1,-2.2537431E-1,1.423339E-1,-8.095231E-2,1.1111111E-2,9.02439E-2,8.888889E-2,-2.0000001E-2,4.0000003E-2,-7.894707E-2,-3.0649614E-1,-3.3333335E-2,-2.5341398E-1,-7.1428575E-2,2.3967415E-2,7.647059E-2,9.4736844E-2,9.090879E-3,-0E0,6.0000002E-2,5E-2,1.0520555E-1,-6.363636E-2,-0E0,-3.3333335E-2,-3.3396524E-1,3.8859108E-1,-2.4999944E-2,6.363636E-2,-6.666647E-2,4.0000003E-2,-7.647043E-2,-0E0,5E-2,-9.3548305E-2,-0E0,-0E0,9.090909E-2,-5.384608E-2,6.0000002E-2,7.5E-2,-2.5E-2,-3.121003E-1,1.3753648E-1,5.227829E-1,1.3388622E-1,-2.5E-2,8.461539E-2,1.5686443E-1,1.2892799E-1,1.0048747E-2,2.7272684E-2,5.1569387E-2,-1.9306816E-2,5E-2,-7.272728E-2,6.666667E-2,-0E0,3.3715224E-1,-0E0,2.6195842E-1,6.852349E-2,-6.7085996E-3,1.314718E-2,-1.7528512E-1,-3.729205E-1,-5E-2,7.5E-2,-2.2228403E-1,-0E0,-1.8267208E-1,-1.3427483E-1,5E-2,-5.555556E-2,3.3333335E-2,-8.399994E-2,-3.2121214E-1,2.3143706E-1,4.2961144E-1,-2.7076578E-1,-2.5E-2,6.0000002E-2,3.2730237E-1,2.3467535E-1,-5.555522E-2,5E-2,-8.974359E-2,-2.4999944E-2,-0E0,-8.0000006E-2,6.914619E-2,4.2104382E-2,-9.277791E-3,-2.3746836E-1,5.5962324E-1,-6.289148E-2,-7.333316E-2,4.0000003E-2,3.938027E-1,2.937956E-1,-2.5E-2,7.5E-2,-3.4360204E0,4.8316622E-1,1.3694616E-1,-1.2875788E-1,-6.363636E-2,6.363636E-2,1.1111111E-2,-8.3333336E-2,1.1111111E-2,-9.3846105E-2,-6.923077E-2,4.5454547E-2,9.1111116E-2,-1.8782148E-1,-7.647059E-2,2.4999944E-2,6.842106E-2,5.992463E-1,-3.0201858E-2,-1.9306816E-2,6.363636E-2,-5E-2,-3.403904E-1,-2.4215738E-1,-4.999989E-2,7.857143E-2,-0E0,-6.363636E-2,-8.974355E-2,2.5E-2,-0E0,8.75E-2,-3.0848378E-1,-2.5E-2,-0E0,6.559385E-1,6.605044E-2,1.1110531E-2,6.666667E-2,-4.0000003E-2,-7.333334E-2,-0E0,7.857143E-2,1.3020085E-1,-0E0,-6.923077E-2,2.4999944E-2,1.7397872E-1,-6.4705886E-2,5E-2,1.1871011E-1,-5E-2,-1.8189366E-1,-9.09091E-3,-0E0,-7.5E-2,6.666667E-2,-2.5E-2,-6.666647E-2,5E-2,5.5737164E-2,-3.3333335E-2,-5.555556E-2,6.666667E-2,1.1111111E-2,-4.4697618E-1,-2.4999944E-2,-9.02439E-2,-9.09091E-3,4.6112174E-1,-6.666667E-2,4.0000003E-2,-5E-2,1.3058503E-1,-6.363636E-2,-0E0,-6.666667E-2,5.5503917E-1,2.5E-2,3.3790815E-1,1.552703E-1,-9.09091E-3,-5.323216E-1,4.5454547E-2,-0E0,8.75E-2,1.155964E-2,-6.699862E-1,7.333334E-2,-2.4282108E-1,2.4999944E-2,9.43662E-2,1.0206665E-1,-0E0,5.555556E-2,-5.5555444E-2,6.363636E-2,-5.9999924E-2,-1.1111111E-2,9.090909E-2,1.9425422E-2,-8.2356974E-2,6.4705886E-2,-2.4698762E-2,-5.555556E-2,5.555556E-2,1.582268E-2,-3.8449958E-1,-5.555556E-2,5.555556E-2,-7.647051E-2,2.4999944E-2,5.555556E-2,-5.5555444E-2,-5.6103736E-1,-1.7485003E-1,5E-2,-5E-2,-0E0,4.9304643E-1,-2.5E-2,2.4650753E-2,-9.599995E-2,-2.4999887E-2,-8.0937E-2,-7.801801E-3,6.666667E-2,-2.5E-2,-5E-2,-0E0,-8.823525E-2,-2.4999887E-2,-1.750123E-1,-9.373286E-2,-1.7236668E-1,-9.7350925E-2,9.1506785E-1,1.2246002E-1,-2.5E-2,-8.9189194E-2,5.866369E-1,-0E0,-0E0,8.571429E-2,6.923077E-2,-2.5E-2,8.30448E-2,-0E0,-1.6338521E0,-6.517617E-2,3.4165984E-1,3.985426E-2,-5.5555444E-2,6.842106E-2,4.0000003E-2,7.665198E-2,-7.333316E-2,2.5E-2,7.975509E-2,1.9999964E-2,5.555556E-2,-5E-2,-2.4999887E-2,-9.069756E-2,-6.923077E-2,-0E0,-6.4705886E-2,5.555556E-2,-9.090894E-3,2.2531901E-1,-1.1111111E-2,4.4864264E-1,5E-2,-5E-2,-4.0278053E-1,5.3992294E-2,7.290191E-1,9.09091E-3,9.09091E-3,-8.888885E-2,5.555556E-2,-2.5E-2,2.6206166E-1,6.0000002E-2,-2.5E-2,-4.9015787E-1,2.4999944E-2,-6.0000002E-2,2.4977195E-1,-0E0,-6.363636E-2,-2.7256656E-1,4.16712E-2,-2.4999944E-2,-9.545453E-2,-2.5E-2,5.90655E-2,6.893103E-1,5E-2,-6.470581E-2,5.555556E-2,-4.999989E-2,-9.06976E-2,-0E0,2.5E-2,-8.6666666E-2,9.7740114E-2,2.5E-2,1.5664287E-1,-0E0,1.4409408E-1,1.1111089E-2,-0E0,1.1926212E-1,-2.5E-2,5E-2,4.8202527E-1,-0E0,-0E0,-6.923077E-2,-2.5E-2,1.9989818E-1,-1.5402411E-1,-0E0,-0E0,7.777778E-2,-2.5E-2,-9.8086104E-2,-7.692308E-2,1.619303E-1,-2.0207465E-1,-2.8233957E-1,-5.6992626E-1,-1.1111111E-2,3.5879427E-1,2.727273E-2,4.4943333E-1,-0E0,3.83982E-1,-0E0,-2.0384556E-1,-0E0,2.5E-2,9.466667E-2,5E-2,-0E0,-1.1111111E-2,6.143972E-1,-5E-2,2.4999944E-2,-2.4999944E-2,2.4304345E-1,-3.5727438E-1,2.5E-2,4.9796492E-1,-0E0,1.4823359E-1,2.5E-2,9.6850395E-2,2.727273E-2,-3.104792E0,-2.5E-2,-9.7883575E-2,-2.5E-2,2.5E-2,9.714286E-2,-2.1497665E-1,1.1111111E-2,2.5E-2,9.79798E-2,-2.5E-2,-5.509852E-1,1.1111089E-2,8.7184656E-1,-2.5E-2,-3.2291502E-1,4.3926588E-1,1.1111111E-2,-2.5E-2,-9.7999975E-2,-4.3884924E-1,2.727273E-2,7.0216894E-2,7.858658E-2,5E-2,-0E0,2.737062E-1,3.237128E-2,-1.09586746E-1,-2.4775244E-1,5.555556E-2,-0E0,2.5E-2,1.605006E-1,5E-2,-0E0,9.94543E-2,2.4999944E-2],"split_indices":[531,147,235,325,424,424,545,424,424,666,351,325,147,635,424,235,37,521,25,192,716,206,102,235,196,161,167,425,249,425,195,266,125,152,275,348,527,532,391,267,234,1,717,0,0,152,231,310,635,95,390,167,685,761,205,142,447,1,499,79,707,409,764,152,8,311,430,571,0,0,608,160,109,230,572,396,17,0,14,76,377,158,73,118,109,0,0,0,0,611,47,248,642,230,416,550,176,0,0,18,526,486,170,530,750,352,255,0,673,0,476,80,22,337,92,375,684,82,354,184,20,359,130,18,0,0,0,369,380,135,0,0,212,0,2,11,294,533,0,656,291,9,40,0,676,0,0,0,0,0,110,0,0,72,632,409,0,0,465,299,281,0,21,0,0,0,0,523,8,105,578,469,6,201,0,0,0,0,0,125,0,0,0,0,472,323,555,0,137,57,513,0,38,0,122,649,0,0,0,0,0,687,48,0,0,0,62,57,0,41,147,161,721,635,58,0,0,1,236,323,261,0,0,347,185,0,0,0,0,4,0,2,168,0,0,303,290,0,48,699,468,188,0,321,489,318,693,0,1,0,0,642,0,0,0,429,498,250,0,0,126,373,261,19,608,8,3,450,11,90,0,0,0,342,618,266,0,236,0,0,0,0,0,0,0,0,0,89,25,36,620,0,0,0,0,530,136,406,0,422,0,723,197,0,680,57,95,130,0,0,0,0,0,0,0,249,0,465,0,20,0,0,0,0,0,0,409,0,0,0,12,299,0,0,0,0,0,0,0,0,0,0,0,0,0,0,0,19,707,283,230,0,0,292,14,174,0,19,582,0,0,0,0,168,0,13,28,35,554,43,260,0,0,604,0,322,180,0,0,0,0,748,1,85,655,0,0,593,91,0,0,0,0,0,0,1,42,210,24,571,163,0,0,610,85,0,0,142,415,95,357,0,0,0,0,0,0,0,0,0,66,0,0,0,630,86,582,0,0,21,642,0,0,0,0,0,0,0,0,507,0,0,124,626,24,0,0,0,0,0,79,0,0,0,279,0,0,586,0,34,0,0,0,0,0,0,0,335,0,0,0,0,0,0,0,0,101,0,0,0,6,0,0,0,55,0,362,388,0,523,0,0,0,289,535,0,70,0,0,684,0,0,0,0,0,0,0,27,34,0,12,0,0,319,354,0,0,0,0,0,0,455,3,0,0,0,170,0,454,0,0,73,2,0,0,0,0,0,0,409,524,139,0,131,119,0,0,93,0,0,0,0,0,62,0,229,196,59,35,0,0,0,99,0,0,51,0,0,0,0,0,0,0,0,0,0,78,0,58,0,0,28,19,13,0,0,0,0,0,17,0,0,537,0,0,91,0,0,5,116,0,0,0,11,509,0,0,0,0,0,0,0,0,0,0,45,0,587,0,0,307,0,0,460,0,0,0,0,416,20,0,0,0,0,0,0,2,609,5,341,0,42,0,395,0,2,0,197,0,0,0,0,0,0,2,0,0,0,43,104,0,35,0,7,0,0,0,109,0,0,0,0,0,323,0,0,0,0,188,0,766,0,357,671,0,0,0,521,0,2,629,0,0,657,0,324,0,0,0,0,591,0,0,0,0],"split_type":[0,0,0,0,0,0,0,0,0,0,0,0,0,0,0,0,0,0,0,0,0,0,0,0,0,0,0,0,0,0,0,0,0,0,0,0,0,0,0,0,0,0,0,0,0,0,0,0,0,0,0,0,0,0,0,0,0,0,0,0,0,0,0,0,0,0,0,0,0,0,0,0,0,0,0,0,0,0,0,0,0,0,0,0,0,0,0,0,0,0,0,0,0,0,0,0,0,0,0,0,0,0,0,0,0,0,0,0,0,0,0,0,0,0,0,0,0,0,0,0,0,0,0,0,0,0,0,0,0,0,0,0,0,0,0,0,0,0,0,0,0,0,0,0,0,0,0,0,0,0,0,0,0,0,0,0,0,0,0,0,0,0,0,0,0,0,0,0,0,0,0,0,0,0,0,0,0,0,0,0,0,0,0,0,0,0,0,0,0,0,0,0,0,0,0,0,0,0,0,0,0,0,0,0,0,0,0,0,0,0,0,0,0,0,0,0,0,0,0,0,0,0,0,0,0,0,0,0,0,0,0,0,0,0,0,0,0,0,0,0,0,0,0,0,0,0,0,0,0,0,0,0,0,0,0,0,0,0,0,0,0,0,0,0,0,0,0,0,0,0,0,0,0,0,0,0,0,0,0,0,0,0,0,0,0,0,0,0,0,0,0,0,0,0,0,0,0,0,0,0,0,0,0,0,0,0,0,0,0,0,0,0,0,0,0,0,0,0,0,0,0,0,0,0,0,0,0,0,0,0,0,0,0,0,0,0,0,0,0,0,0,0,0,0,0,0,0,0,0,0,0,0,0,0,0,0,0,0,0,0,0,0,0,0,0,0,0,0,0,0,0,0,0,0,0,0,0,0,0,0,0,0,0,0,0,0,0,0,0,0,0,0,0,0,0,0,0,0,0,0,0,0,0,0,0,0,0,0,0,0,0,0,0,0,0,0,0,0,0,0,0,0,0,0,0,0,0,0,0,0,0,0,0,0,0,0,0,0,0,0,0,0,0,0,0,0,0,0,0,0,0,0,0,0,0,0,0,0,0,0,0,0,0,0,0,0,0,0,0,0,0,0,0,0,0,0,0,0,0,0,0,0,0,0,0,0,0,0,0,0,0,0,0,0,0,0,0,0,0,0,0,0,0,0,0,0,0,0,0,0,0,0,0,0,0,0,0,0,0,0,0,0,0,0,0,0,0,0,0,0,0,0,0,0,0,0,0,0,0,0,0,0,0,0,0,0,0,0,0,0,0,0,0,0,0,0,0,0,0,0,0,0,0,0,0,0,0,0,0,0,0,0,0,0,0,0,0,0,0,0,0,0,0,0,0,0,0,0,0,0,0,0,0,0,0,0,0,0,0,0,0,0,0,0,0,0,0,0,0,0,0,0,0,0,0,0,0,0,0,0,0,0,0,0,0,0,0,0,0,0,0,0,0,0,0,0,0,0,0,0,0,0,0,0,0,0,0,0,0,0,0,0,0,0,0,0,0,0,0,0,0,0,0,0,0,0,0,0,0,0,0,0,0,0,0,0,0,0,0,0,0,0,0,0,0,0,0,0,0,0,0,0,0,0,0,0,0,0,0,0,0,0,0,0,0],"sum_hessian":[1.4570006E3,7.230003E2,7.3400024E2,3.3950015E2,3.8350015E2,3.1725015E2,4.1675012E2,1.3050006E2,2.090001E2,2.1100008E2,1.7250008E2,1.4900005E2,1.6825009E2,1.12250046E2,3.0450006E2,8.350003E1,4.7000027E1,1.5600006E2,5.300004E1,9.175004E1,1.1925003E2,2.75E0,1.6975008E2,1.24750046E2,2.4250004E1,3.5000015E1,1.3325008E2,4.125002E1,7.100003E1,2.5125005E2,5.3250023E1,1.2500018E1,7.1000015E1,2.7000023E1,2.0000004E1,6.500003E1,9.100004E1,4.675003E1,6.250005E0,2.1750013E1,7.000003E1,1.1525003E2,4E0,1.25E0,1.5E0,3.25E0,1.6650008E2,1.8750004E1,1.0600004E2,1.4500005E1,9.75E0,2.100001E1,1.4000005E1,5.725005E1,7.600003E1,1.975001E1,2.150001E1,8.500005E0,6.2500023E1,2.1250004E1,2.3000005E2,2.800001E1,2.5250013E1,8.250018E0,4.25E0,6.4000015E1,7E0,2.4500023E1,2.5E0,2.5E0,1.7500004E1,5.550003E1,9.5E0,7.575004E1,1.525E1,4.475003E1,2E0,3.25E0,3.0000045E0,1.625001E1,5.500005E0,5.600002E1,1.400001E1,6.4750015E1,5.0500015E1,1E0,3E0,1.5E0,1.75E0,1.6300008E2,3.5000045E0,5E0,1.3750005E1,5.275003E1,5.3250008E1,7.500005E0,7E0,8.75E0,1E0,1.375E1,7.250009E0,5.25E0,8.750005E0,4.350004E1,1.3750013E1,6.550003E1,1.05E1,1.25E0,1.850001E1,2.750009E0,1.875E1,6E0,2.5000045E0,5.8750023E1,3.75E0,9.250005E0,1.2E1,1.4750018E1,2.1525003E2,2.575001E1,2.25E0,1.3250005E1,1.200001E1,7.250014E0,1.0000045E0,3.25E0,1E0,6.1000015E1,3E0,3.5E0,3.5E0,7.000009E0,1.7500013E1,2.25E0,1.5250005E1,5.75E0,4.975003E1,7.75E0,1.75E0,2.2500032E1,5.3250004E1,4.75E0,1.05E1,1E0,4.375003E1,1E0,1E0,1.0000045E0,2E0,1.5E0,1.475001E1,2.5000045E0,3E0,3.825002E1,1.775E1,1.275001E1,1.25E0,1.5E0,6.325002E1,1.725001E1,3.3250004E1,1.25E0,1.6175008E2,1.7500045E0,1.75E0,1E0,4E0,1.1000005E1,2.75E0,2.700001E1,2.5750023E1,5.0750008E1,2.5E0,3E0,4.500005E0,1.75E0,5.25E0,1.275E1,1E0,4.500005E0,2.7500045E0,1.25E0,4E0,1E0,7.750005E0,2.0000013E1,2.3500023E1,1.75E0,1.2000013E1,2.750009E0,6.275002E1,2.75E0,7.75E0,1E0,1.750001E1,1.675E1,2E0,4.5E0,1.5E0,1.0000045E0,1.5E0,6.000005E0,5.275002E1,2.75E0,1E0,2.25E0,7.000005E0,1.05E1,1.5E0,9.5E0,5.250018E0,2.0575002E2,9.500005E0,6E0,1.975001E1,1.25E0,1E0,2.5E0,1.0750005E1,2.750009E0,9.25E0,1E0,6.250014E0,5.7250004E1,3.750009E0,1E0,2E0,2.5E0,1E0,4.750009E0,2.25E0,2E0,1.5500013E1,1E0,1.25E0,1.15E1,3.7500045E0,1.75E0,4E0,4.1000027E1,8.750005E0,6.5E0,1.25E0,1.125001E1,1.1250023E1,4.7750004E1,5.5E0,1.75E0,3E0,1E0,9.5E0,4.250003E1,1.25E0,1.0000045E0,1.3750005E1,7E0,3.125002E1,1.375E1,4E0,1.5000045E0,1.1250005E1,6.100002E1,2.25E0,6.500005E0,1.0750005E1,3.0750004E1,2.5E0,1.5950006E2,2.2500136E0,9.750005E0,1.25E0,1.75E0,1E0,5.000005E0,2.2000004E1,2.4250013E1,1.5000091E0,4.9250008E1,1.5E0,1.5E0,1E0,2E0,1E0,3.25E0,1.2500045E0,1E0,6.750005E0,4.250009E0,1.5750005E1,4E0,1.9500023E1,1.100001E1,1.0000045E0,1.75E0,1.0000091E0,5.925002E1,3.5E0,6.25E0,1.5E0,1.650001E1,1E0,4E0,1.275E1,1.75E0,4.250005E0,8.00001E0,4.4750008E1,2.75E0,4.250005E0,1.25E0,9.25E0,8E0,1.5E0,1.5E0,3.7500181E0,2.0450002E2,1.25E0,7.000005E0,2.5E0,2.75E0,3.25E0,1.8E1,1.7500091E0,1E0,1.5E0,1E0,9.750005E0,1.75E0,1.0000091E0,1.25E0,8E0,5.625E1,1.0000045E0,1.75E0,2.000009E0,1.5E0,3.250009E0,1E0,1E0,1.4500013E1,1E0,1.5E0,1E1,2.2500045E0,1.5E0,3E0,1E0,2.6000023E1,1.5000005E1,5E0,3.7500045E0,1E0,5.5E0,8.00001E0,3.25E0,9.500018E0,1.7500045E0,4.25E0,4.3500004E1,1E0,4.5E0,2E0,1E0,4.100003E1,1.5E0,4E0,3E0,3.000009E0,2.825001E1,3.25E0,1.05E1,1E0,3E0,1.0250005E1,1E0,5.600002E1,5E0,1E0,1.25E0,1.25E0,5.250005E0,8E0,2.7500045E0,6.75E0,2.4000004E1,1E0,1.5E0,1.4475005E2,1.4750018E1,1.2500137E0,1E0,8.75E0,1.0000045E0,1.0000045E0,4E0,8E0,1.4000005E1,6.500009E0,1.7750004E1,4.6750004E1,2.5000045E0,2.750009E0,1.5E0,4.500005E0,1.125E1,1E0,3E0,1.3000023E1,6.5E0,2.5E0,5.675002E1,1.75E0,1.75E0,1.25E0,5E0,1.25E0,1.525001E1,2.25E0,1.75E0,1.025E1,2.5E0,3.25E0,1.0000045E0,3.75E0,4.250009E0,2.5000045E0,4.2250004E1,1.75E0,1E0,2E0,2.0250002E2,1.0000045E0,6E0,1E0,1.75E0,8.750005E0,1E0,1E0,7E0,5.525E1,1E0,1E0,2.5000023E1,1.2000005E1,3E0,3.5E0,1.5E0,2.75E0,1.0000045E0,6E0,2.000009E0,1E0,2.25E0,1.0000045E0,8.500013E0,3.25E0,1E0,4.1500004E1,2E0,3.925003E1,1.75E0,1E0,3E0,2E0,1E0,2.000009E0,1E0,2.700001E1,1.25E0,1.25E0,2E0,1.25E0,9.25E0,1.0000045E0,9.25E0,1.75E0,5.425002E1,3.5E0,1.5E0,1E0,7E0,1.75E0,1.0000045E0,3.5E0,3.25E0,1E0,2.3000004E1,1.4300005E2,1.75E0,1.3000018E1,1.75E0,1E0,7E0,5.000005E0,9E0,2.75E0,3.750009E0,1.0000045E0,1.675E1,4.5750004E1,1E0,1.25E0,1.2500045E0,1.75E0,2.7500045E0,1.25E0,1E1,2.25E0,1.0750023E1,3.25E0,3.25E0,1.25E0,1.25E0,4.5E0,5.225002E1,1.25E0,1.25E0,3.2500045E0,1.0000045E0,1.25E0,1.2500045E0,4.0250004E1,2E0,1E0,1E0,1.5E0,2.0100002E2,1E0,5.425E1,2.4000013E1,1.0000091E0,9.750005E0,2.25E0,2E0,1E0,1E0,1.0000091E0,7.500005E0,1.0000091E0,6.000005E0,3.55E1,2.5000045E0,3.6750027E1,2.075001E1,6.25E0,1E0,8.25E0,5.325002E1,1E0,1E0,6E0,2.25E0,1E0,2.2000004E1,1E0,1.3875003E2,4.250005E0,2.2500045E0,1.0750013E1,1.2500045E0,3.75E0,1.5E0,7.5E0,2.750009E0,1E0,4.425E1,1.5000045E0,1.25E0,1E0,1.0000091E0,9.750013E0,2.25E0,1E0,3.25E0,1.25E0,1.7500045E0,5.0500015E1,1.25E0,3.9000004E1,1E0,1E0,1.9900002E2,2E0,5.25E1,1.75E0,1.75E0,8.000005E0,1.25E0,1E0,3.2500045E0,2.75E0,1E0,3.45E1,1.0000045E0,1.5E0,1.975E1,1.0000091E0,1.75E0,4.5E0,5.2250015E1,1.0000045E0,2.1000004E1,1E0,7.5E0,1.3125003E2,1E0,3.2500045E0,1.25E0,1.0000045E0,9.75001E0,1.0000045E0,1E0,6.5E0,4.325E1,1E0,4.9500015E1,1E0,3.775E1,1.2500045E0,1E0,1.9800002E2,1E0,1E0,5.15E1,1E0,1.0000045E0,2.25E0,1E0,3.35E1,1.875E1,1E0,1E0,3.5E0,1E0,5.1250015E1,5.5E0,2E0,1.2925003E2,2.0000045E0,4.8250015E1,1.25E0,3.6E1,1.75E0,1.9700002E2,1.0000045E0,5.05E1,1E0,3.25E1,1E0,1E0,1.775E1,1E0,1E0,1.25E0,1.2800003E2,1E0,1.0000045E0,1.0000045E0,4.7250008E1,3.5E1,1E0,1.9600002E2,1.0000045E0,4.95E1,1E0,3.075E1,1.75E0,1.2700003E2,1E0,4.6250008E1,1E0,1E0,3.4E1,1.9475002E2,1.25E0,1E0,4.85E1,1E0,1.2600003E2,1.2500045E0,1.9350002E2,1E0,1.2500003E2,1.9225002E2,1.25E0,1E0,1.2400003E2,1.9050002E2,1.75E0,2.0000045E0,1.885E2,1E0,1.0000045E0,1.8625E2,2.25E0,1.8425E2,2E0,1.25E0,1E0,1E0,1.8325E2,1E0,1E0,1.8225E2,1.0000045E0],"tree_param":{"num_deleted":"0","num_feature":"768","num_nodes":"705","size_leaf_vector":"1"}},{"base_weights":[-4.261468E-4,-6.326557E-1,6.22379E-1,-8.5134126E-2,-1.1159605E0,-1.6670661E-2,1.1078349E0,-4.9963644E-1,5.157159E-1,-7.652487E-1,-1.5381869E0,5.9697384E-1,-5.6039464E-1,3.9206377E-1,1.3696419E0,5.279768E-1,-6.872257E-1,8.400166E-1,-4.9533948E-1,-2.2239618E-1,-1.1777008E0,-1.5662736E0,1.5005845E-1,8.300728E-1,-5.872392E-1,5.032412E-1,-8.4146637E-1,-3.4968466E-1,8.2185626E-1,1.5244576E0,6.248858E-1,9.705999E-1,-1.0323054E0,-9.618039E-1,-1.08819924E-1,1.117273E0,-2.0878765E-1,4.477083E-1,-1.018494E0,-1.1553286E0,7.960881E-2,-1.2512113E0,7.6576066E-1,9.333752E-3,-1.5855443E0,5.8814492E-2,-5.2905895E-2,-4.0928578E-1,1.0511802E0,6.0303412E-2,-1.4666303E0,1.1280069E0,-4.4646147E-1,-4.874481E-1,-1.4190701E0,-1.1213385E0,3.773383E-1,-5.006854E-1,1.0068902E0,6.2284684E-1,1.6047492E0,1.2499108E0,-8.9238346E-2,-4.830666E-2,1.1788446E0,2.6172671E-2,-7.9825304E-2,-1.5316795E0,-6.298393E-1,-4.3461937E-1,7.9556763E-1,-1.5457727E-2,1.3344251E0,-1.2186482E0,4.6747947E-1,-8.784367E-1,1.0287203E0,-1.4206246E0,3.2356873E-1,-1.5792161E0,1.4687347E-1,-1.8958242E-1,1.2672971E0,-1.5586485E0,-8.34546E-1,7.065742E-2,-3.265303E-2,8.762456E-3,-1.6050396E0,9.5832616E-1,-9.381036E-1,5.768884E-1,1.501876E0,-7.9100186E-1,9.5706E-1,1.1696815E-2,-8.5762404E-2,-6.619037E-1,1.4183447E0,8.4092593E-1,-1.2259817E0,-1.0519097E0,-1.3809219E-1,3.2618325E-2,-1.4849516E0,5.40359E-2,-1.3181552E0,-7.0715465E-2,6.98556E-1,-1.0957737E0,8.317516E-1,1.1262512E0,-7.0556897E-1,-2.3180261E-1,1.2489388E0,5.75751E-1,1.6723127E0,-2.3281554E-2,1.4117748E0,-7.6458234E-1,6.577728E-1,1.575833E0,1.8153052E-1,-3.353241E-1,-1.6663038E0,-3.163481E-1,-1.4209056E0,4.4009477E-1,-9.4976735E-1,-6.992475E-1,1.343687E0,9.175887E-1,-9.460244E-1,-3.669417E-1,1.4423274E0,2.0404818E-2,-7.87405E-2,-5.7753365E-2,9.455687E-1,1.1152714E-2,-6.8517774E-2,1.4808326E0,-5.4313898E-2,-1.6203511E0,3.256173E-2,-5.7978805E-2,1.0757258E0,4.2915342E-8,-8.6495236E-2,-6.894143E-2,7.226496E-2,-9.2832863E-1,2.8626555E-1,1.5798622E0,-1.6345238E-2,3.8809486E-2,-1.6253517E0,-8.540019E-2,-1.1622615E0,-1.632998E0,-3.05938E-1,7.413927E-2,-1.0027063E-2,-1.3547027E0,6.439776E-1,-4.78147E-5,1.1594049E0,1.6120028E0,-5.531008E-1,4.7951826E-1,-7.858039E-2,7.9264335E-2,-3.032796E-1,1.0332084E-2,-5.8915645E-2,1.6914074E0,-2.9293418E-1,-5.4035813E-2,7.690003E-2,-1.0359699E-1,-8.261262E-2,-4.909663E-1,-1.6644843E0,4.8010615E-1,-6.3850933E-1,1.886833E-2,-1.6004709E0,3.3325534E-2,-1.4908473E0,9.9546975E-1,-6.44929E-2,-7.903223E-2,2.042541E-2,-3.6954796E-7,5.823196E-2,-2.6996046E-1,1.287236E0,-6.8876676E-2,3.2643627E-2,6.6890724E-2,-8.4066695E-1,1.5810189E0,-3.88094E-2,1.3658208E0,-8.431295E-1,1.7310047E0,3.5828295E-1,1.5355175E0,-2.0093149E-2,8.317573E-1,-1.175476E0,1.066017E0,-6.2502824E-2,8.68188E-2,-1.0656275E-2,6.387927E-2,-1.0214418E0,5.8314253E-2,-5.9531044E-2,-9.166934E-2,-6.3356996E-1,8.5654616E-1,-5.342454E-1,-1.584519E0,3.2316092E-2,9.4134957E-1,-7.1065235E-1,6.5922004E-1,-1.2205118E0,-6.8558104E-2,3.2818127E-2,-1.15024345E-2,1.5580506E0,-2.683108E-2,7.157361E-2,-7.374494E-2,3.774915E-2,5.9309125E-2,-6.85988E-2,1.5398821E0,-3.4828216E-1,1.3397151E0,-3.2516476E-2,1.06306495E-2,8.3835095E-2,-8.955925E-2,1.1890779E-2,1.0364742E-2,6.727839E-2,-1.1280285E0,5.8959674E-2,9.3478334E-1,-6.0295594E-1,1.0098912E-2,8.659274E-2,-6.876889E-3,-1.6771836E0,-1.2839949E0,5.3381E-1,-1.3080375E0,5.53103E-1,1.1171024E-2,-1.6486915E0,-6.458981E-2,4.4022996E-2,-8.241633E-2,3.2412507E-2,5.8565166E-2,-1.1404404E-2,-1.2813933E0,3.3432284E-1,1.3437966E0,-5.823232E-2,1.6795627E0,-1.9401135E-2,-5.43841E-2,1.136383E-2,-3.26057E-2,6.155944E-2,-5.5384923E-2,3.1817835E-2,1.0421135E-2,8.9879066E-2,3.1640798E-2,-5.4388847E-2,5.5141784E-2,-5.7453956E-2,-9.928711E-1,7.7225477E-1,-1.0448626E-2,-8.90769E-2,1.1428499E0,-4.3737707E-1,4.8457187E-1,-1.0013862E0,-4.779E-2,5.899198E-2,-1.6574959E0,1.1905312E-2,2.2006344E-2,-8.662724E-2,-3.8504058E-1,1.4254391E0,6.1651953E-2,-1.0060047E0,1.0754515E-1,1.4913052E0,3.8388956E-1,-7.7780545E-2,9.491138E-3,8.66102E-2,8.509008E-2,-1.9401135E-2,3.8809486E-2,-7.592624E-2,1.7486666E0,-3.2412432E-2,1.2344725E0,-1.0839887E0,1.6342705E0,-8.248674E-4,3.576279E-8,5.823196E-2,-1.4572042E0,3.3011492E-2,8.0306835E-2,-3.781054E-2,-1.02955215E-2,-6.460828E-2,-1.2213548E0,5.4187622E-2,-5.3923268E-2,1.3079807E0,-2.3666214E-2,-1.1011813E0,-1.7182473E0,1.0968172E-2,1.2729737E0,-3.9718498E-2,-7.1404554E-2,2.6346087E-2,-3.2361098E-2,6.801699E-2,-1.4672297E0,3.7393983E-2,8.6112596E-2,1.0401052E-2,1.618549E0,-1.3949764E-1,3.831665E-2,-6.171853E-2,-8.216219E-3,8.446402E-2,-1.3469374E0,4.3675434E-2,1.2820956E0,-6.6170675E-1,7.7441126E-1,-1.1266123E0,-1.745834E0,-4.128534E-1,-7.608396E-2,-1.0548369E-2,-6.530105E-1,1.116533E0,2.7210385E-2,-1.4282655E0,-1.1363746E-2,5.438419E-2,-1.6734018E0,-3.3758187E-1,-3.6954796E-7,-7.6899916E-2,1.4897585E0,-3.810683E-1,1.301276E-1,8.789666E-2,1.7676213E0,-3.69752E-6,-1.3867701E0,4.0063718E-1,-2.5863636E-2,7.328182E-2,1.5941546E0,-2.145869E-1,-1.2409322E0,7.7477217E-1,-8.263214E-1,1.2306069E0,2.5246197E-1,-1.3415002E0,-6.728854E-3,-1.735437E0,-5.301531E-2,5.46703E-2,-6.689063E-2,4.4022996E-2,8.712788E-2,1.0223571E-6,1.1548106E-2,-7.252427E-2,6.578201E-2,-1.006007E0,-3.69752E-6,1.5776056E0,5.8126837E-2,-3.2588523E-2,4.3728285E-8,1.7658802E0,-1.1038751E-2,7.946624E-2,-6.7554764E-2,-1.0801951E-2,8.915489E-2,2.6377437E-1,-8.035517E-3,-8.491016E-2,-7.37719E-2,-9.915109E-3,8.173247E-2,-1.0875559E-2,3.8253373E-1,-9.726311E-1,-1.5132699E0,6.920868E-2,-9.071809E-2,-1.0888341E-2,8.4485054E-2,-7.2333664E-3,-1.6338428E0,3.235438E-2,-1.5716424E-2,1.6900339E0,-5.4061484E-2,3.823277E-2,3.365305E-2,-1.5176533E0,8.815399E-2,3.257876E-1,3.1862184E-2,-6.783806E-2,-3.2069974E-2,7.087105E-2,7.394603E-3,-7.972371E-2,-1.8224592E0,-4.2251313E-1,5.5248886E-2,-6.687119E-2,-6.753932E-2,3.2279275E-2,-1.906692E-2,7.529905E-2,-1.7951675E-1,-1.6033913E0,-1.6897671E0,1.3269722E-3,-6.2056452E-2,3.9549217E-2,3.576279E-8,8.381451E-2,-9.6398264E-1,6.537373E-1,7.07153E-2,-9.109359E-1,1.8055152E0,3.576279E-8,5.40359E-2,-5.403607E-2,-8.1183806E-2,1.1468164E-2,5.8941722E-2,-3.2141175E-2,8.743985E-2,1.07435305E-2,5.3801525E-2,-5.2122444E-2,1.0404269E-2,-7.96064E-2,-3.247276E-2,7.1129754E-2,-5.3907197E-2,-1.0339864E-2,1.06968E-2,7.394487E-2,6.0073204E-2,-6.0983516E-2,3.2446556E-2,-1.5262291E0,-8.081499E-3,-1.799456E0,-5.4035813E-2,5.40359E-2,-7.252439E-2,1.1548106E-2,5.40359E-2,-5.403607E-2,1.6541977E0,4.3728285E-8,4.2915342E-8,1.7790227E0,5.3088713E-2,-3.2556236E-2,7.854624E-1,-1.067866E0,2.6288942E-2,-7.3810875E-2,-1.66728E0,7.9534744E-4,1.0714818E0,-6.6970885E-2,-8.8463545E-2,1.0284356E-2,1.7940934E0,4.8096153E-1,-1.6558284E0,1.1547344E-2,6.438651E-2,-9.1498977E-1,6.2018394E-2,-6.143601E-2,-9.53023E-3,-9.28448E-2,3.9881777E-2,-6.493371E-2,4.8622604E-2,-6.362874E-2,-1.6962837E0,1.7967254E-4,-8.350578E-3,-1.7058209E0,2.300909E-2,-1.4370238E0,-3.8368177E-2,6.488504E-2,-6.92225E-2,1.1512982E-2,9.220062E-2,1.9400848E-2,-1.6799293E0,1.1375999E-2,-9.224368E-2,-1.0398078E-2,-1.08026145E-2,1.7181717E0,1.7919602E0,1.6254421E-2,-6.1393034E-2,1.1374663E0,-6.669399E-2,-1.0425133E-2,-8.9246534E-2,-1.0341351E-2,1.0036714E-2,6.721377E-2,1.8280723E0,1.0375238E-2,6.046135E-2,-3.250611E-2,-9.0488695E-2,-4.178942E-4,-1.0931255E-2,-5.876031E-2,-9.009618E-2,-7.414599E-3,-8.534879E-3,-1.7221701E0,-8.205012E-2,-1.0436697E-2,-1.07713835E-2,-8.956512E-2,1.7611401E0,1.0802313E-2,1.8009857E0,-3.6954796E-7,1.4329607E0,-2.691046E-2,9.317671E-2,1.0583923E-2,-1.738908E0,-1.5013459E-2,1.805267E0,2.6408164E-2,1.8101026E0,-3.6954796E-7,-1.1906956E-2,8.2734175E-2,-1.7557133E0,-1.6026745E-2,9.272959E-2,8.7301254E-1,3.576279E-8,1.8193121E0,-2.0957008E-2,-1.7732359E0,5.7168793E-2,9.223165E-3,1.0802313E-2,1.8284672E0,-1.7824331E-2,-1.7853245E0,1.8377402E0,1.0802689E-2,-1.8083814E0,-8.222363E-1,1.8471335E0,1.0802689E-2,-9.104853E-2,-2.5432512E-2,3.323311E-2,-7.265871E-2,1.8616252E0,7.645901E-1,1.8709736E0,7.4976593E-1,-1.2373751E-2,6.3458696E-2,3.1008232E-2,1.8760269E0,5.4155786E-2,3.576279E-8,1.8811455E0,3.1020766E-2,1.8863E0,3.1158838E-2,3.1159261E-2,9.4576254E-2],"categories":[],"categories_nodes":[],"categories_segments":[],"categories_sizes":[],"default_left":[0,0,0,0,0,0,0,0,0,0,0,0,0,0,0,0,0,0,0,0,0,0,0,0,0,0,0,0,0,0,0,0,0,0,0,0,0,0,0,0,0,0,0,0,0,0,0,0,0,0,0,0,0,0,0,0,0,0,0,0,0,0,0,0,0,0,0,0,0,0,0,0,0,0,0,0,0,0,0,0,0,0,0,0,0,0,0,0,0,0,0,0,0,0,0,0,0,0,0,0,0,0,0,0,0,0,0,0,0,0,0,0,0,0,0,0,0,0,0,0,0,0,0,0,0,0,0,0,0,0,0,0,0,0,0,0,0,0,0,0,0,0,0,0,0,0,0,0,0,0,0,0,0,0,0,0,0,0,0,0,0,0,0,0,0,0,0,0,0,0,0,0,0,0,0,0,0,0,0,0,0,0,0,0,0,0,0,0,0,0,0,0,0,0,0,0,0,0,0,0,0,0,0,0,0,0,0,0,0,0,0,0,0,0,0,0,0,0,0,0,0,0,0,0,0,0,0,0,0,0,0,0,0,0,0,0,0,0,0,0,0,0,0,0,0,0,0,0,0,0,0,0,0,0,0,0,0,0,0,0,0,0,0,0,0,0,0,0,0,0,0,0,0,0,0,0,0,0,0,0,0,0,0,0,0,0,0,0,0,0,0,0,0,0,0,0,0,0,0,0,0,0,0,0,0,0,0,0,0,0,0,0,0,0,0,0,0,0,0,0,0,0,0,0,0,0,0,0,0,0,0,0,0,0,0,0,0,0,0,0,0,0,0,0,0,0,0,0,0,0,0,0,0,0,0,0,0,0,0,0,0,0,0,0,0,0,0,0,0,0,0,0,0,0,0,0,0,0,0,0,0,0,0,0,0,0,0,0,0,0,0,0,0,0,0,0,0,0,0,0,0,0,0,0,0,0,0,0,0,0,0,0,0,0,0,0,0,0,0,0,0,0,0,0,0,0,0,0,0,0,0,0,0,0,0,0,0,0,0,0,0,0,0,0,0,0,0,0,0,0,0,0,0,0,0,0,0,0,0,0,0,0,0,0,0,0,0,0,0,0,0,0,0,0,0,0,0,0,0,0,0,0,0,0,0,0,0,0,0,0,0,0,0,0,0,0,0,0,0,0,0,0,0,0,0,0,0,0,0,0,0,0,0,0,0,0,0,0,0,0,0,0,0,0,0,0,0,0,0,0,0,0,0,0,0,0,0,0,0,0,0,0,0,0,0,0,0,0,0,0,0,0,0,0,0,0,0,0,0,0,0,0,0,0,0,0,0,0,0,0,0,0,0,0,0,0,0,0,0,0,0,0,0,0,0,0,0,0,0,0,0,0,0,0,0,0,0,0,0,0,0,0,0,0,0,0,0,0,0,0,0,0,0,0,0,0,0,0,0,0,0,0,0,0,0,0,0],"id":1,"left_children":[1,3,5,7,9,11,13,15,17,19,21,23,25,27,29,31,33,35,37,39,41,43,45,47,49,51,53,55,57,59,61,63,65,67,69,71,73,75,77,79,81,83,85,-1,87,-1,-1,89,91,93,95,97,99,101,103,105,107,109,111,113,115,117,119,-1,121,-1,-1,123,125,127,129,131,133,135,137,139,141,143,145,147,149,151,153,155,157,-1,-1,-1,159,161,163,165,167,169,171,-1,-1,173,175,177,179,181,183,-1,185,-1,187,-1,189,191,193,195,197,199,201,203,205,-1,207,209,211,213,215,217,219,221,223,225,227,229,231,233,235,237,239,-1,-1,-1,241,-1,-1,243,-1,245,-1,-1,247,-1,-1,-1,-1,249,251,253,-1,-1,255,257,259,261,263,-1,-1,265,267,269,271,273,275,277,-1,-1,279,-1,-1,281,283,-1,-1,285,-1,287,289,291,293,295,297,-1,299,301,-1,-1,-1,-1,-1,303,305,-1,-1,-1,307,309,-1,311,313,315,317,319,-1,321,323,325,-1,-1,-1,-1,327,-1,-1,-1,329,331,333,335,-1,337,339,341,343,-1,-1,-1,345,-1,-1,-1,-1,-1,-1,347,349,351,-1,-1,-1,-1,-1,-1,-1,353,-1,355,357,-1,-1,-1,359,361,363,365,367,-1,369,-1,-1,-1,-1,-1,-1,371,373,375,-1,377,-1,-1,-1,-1,-1,-1,-1,-1,-1,-1,-1,-1,-1,379,381,-1,-1,383,385,387,389,-1,-1,391,-1,393,-1,395,397,-1,399,401,403,405,-1,-1,-1,-1,-1,-1,-1,407,-1,409,411,413,-1,-1,-1,415,-1,-1,-1,-1,-1,417,-1,-1,419,421,423,425,-1,427,-1,-1,-1,-1,-1,429,-1,-1,-1,431,433,-1,-1,-1,-1,435,-1,437,439,441,443,445,447,-1,-1,449,451,-1,453,-1,-1,455,457,-1,-1,459,461,463,-1,465,467,469,471,-1,-1,473,475,477,479,481,483,485,487,-1,489,-1,-1,-1,-1,-1,491,-1,-1,-1,493,495,497,-1,-1,-1,499,-1,-1,-1,-1,-1,501,-1,-1,-1,-1,-1,-1,503,505,507,509,-1,-1,-1,-1,511,-1,-1,513,-1,-1,-1,515,-1,517,-1,-1,-1,-1,519,-1,521,523,-1,-1,-1,-1,-1,-1,525,527,529,-1,-1,-1,-1,-1,531,533,-1,535,537,-1,-1,-1,-1,-1,-1,-1,-1,-1,-1,-1,-1,-1,-1,-1,-1,-1,-1,-1,-1,-1,-1,539,-1,541,-1,-1,-1,-1,-1,-1,543,-1,-1,545,-1,-1,547,549,-1,-1,551,-1,553,-1,-1,-1,555,557,559,-1,-1,561,-1,-1,-1,-1,-1,-1,-1,-1,563,-1,-1,565,-1,567,-1,-1,-1,-1,-1,-1,569,-1,-1,-1,-1,571,573,-1,-1,575,-1,-1,-1,-1,-1,-1,577,-1,-1,-1,-1,-1,-1,-1,-1,-1,-1,579,-1,-1,-1,-1,581,-1,583,-1,585,-1,-1,-1,587,-1,589,-1,591,-1,-1,-1,593,-1,-1,595,-1,597,-1,599,-1,-1,-1,601,-1,603,605,-1,607,609,611,-1,-1,-1,-1,-1,613,615,617,619,-1,-1,-1,621,-1,-1,623,-1,625,-1,-1,-1],"loss_changes":[5.734787E2,1.9115833E2,2.2762985E2,8.492201E1,5.5656433E1,1.0634331E2,7.759943E1,3.9239555E1,4.6080482E1,4.7126015E1,8.445648E0,4.182361E1,5.0939514E1,3.6333477E1,3.420166E1,2.289301E1,2.7049507E1,3.1003716E1,1.7453E1,2.6185223E1,1.810701E1,6.0525208E0,5.8894053E0,3.4830383E1,1.4446378E1,2.183115E1,2.6714828E1,2.4087666E1,1.809591E1,1.722351E1,2.4288645E1,1.1305794E1,7.4096937E0,2.0944328E1,1.689492E1,2.0645706E1,1.6254793E1,1.0910443E1,1.2583288E1,1.2769026E1,2.2907639E1,1.3563858E1,5.5110636E0,0E0,6.070984E0,0E0,0E0,1.5164425E1,2.1965149E1,1.2576006E1,4.938759E0,1.2353586E1,1.6063763E1,1.6541817E1,7.8479004E0,1.0402325E1,1.3918123E1,8.43698E0,1.37528E1,1.2178391E1,1.5062805E1,8.696888E0,1.3728006E1,0E0,8.903828E0,0E0,0E0,6.1946564E0,1.8120167E1,1.931537E1,1.3416482E1,1.3438188E1,1.3448441E1,6.1403694E0,1.2323349E1,2.741768E0,1.0684367E1,8.284637E0,7.9337206E0,4.097847E0,1.4854737E1,2.0889502E1,7.108988E0,1.1481293E1,1.2524872E1,0E0,0E0,0E0,5.562866E0,3.940961E0,1.0580834E1,1.803574E1,1.3144608E1,9.173428E0,6.8087606E0,0E0,0E0,1.9243151E0,9.475601E0,1.0024337E1,4.4874296E0,1.024728E1,1.6832762E1,0E0,8.570198E0,0E0,7.6652603E0,0E0,1.2927053E1,5.7457857E0,9.687247E-1,1.3754982E1,5.2313285E0,1.090891E1,9.956648E0,1.8782488E1,1.6021606E1,0E0,6.6100655E0,1.031172E1,1.14457035E1,5.1010246E0,1.1509007E1,8.443596E0,5.2984924E0,1.4492069E1,8.115276E0,1.0029215E1,1.2440203E1,5.220536E0,4.23279E0,6.549729E0,8.077181E0,9.42298E0,1.2131546E1,0E0,0E0,0E0,8.251536E0,0E0,0E0,1.6910877E0,0E0,5.575184E0,0E0,0E0,7.745757E-1,0E0,0E0,0E0,0E0,1.1103029E1,2.158225E1,2.002695E0,0E0,0E0,4.7140656E0,1.31005535E1,9.648785E0,5.1220093E0,6.689652E0,0E0,0E0,8.115265E0,1.9907591E0,1.2408533E1,1.300856E1,7.6299896E0,1.7066896E0,4.2029133E0,0E0,0E0,3.348867E0,0E0,0E0,2.258091E0,3.2614636E0,0E0,0E0,5.9934034E0,0E0,1.2322727E1,2.1787338E0,1.537837E1,1.2691961E1,6.2143493E0,5.182312E0,0E0,6.6990166E0,1.1068956E1,0E0,0E0,0E0,0E0,0E0,8.976984E0,1.2756874E1,0E0,0E0,0E0,7.5929155E0,2.0859947E0,0E0,6.838154E0,8.007146E0,9.802551E0,1.459054E1,3.8901482E0,0E0,9.6869445E-1,7.029337E0,1.2272811E1,0E0,0E0,0E0,0E0,6.7121124E-1,0E0,0E0,0E0,8.128728E0,9.261581E0,1.3557591E1,5.1334496E0,0E0,7.7652664E0,5.6301527E0,4.9990807E0,1.2370777E1,0E0,0E0,0E0,1.9109249E0,0E0,0E0,0E0,0E0,0E0,0E0,8.566498E0,5.138608E0,5.396385E0,0E0,0E0,0E0,0E0,0E0,0E0,0E0,1.0694048E1,0E0,1.2752319E1,1.239775E1,0E0,0E0,0E0,4.6495667E0,1.2071295E0,8.845657E0,8.169373E0,1.7066875E0,0E0,4.6808777E0,0E0,0E0,0E0,0E0,0E0,0E0,1.9707489E0,1.9553053E1,1.2439938E1,0E0,7.4164124E0,0E0,0E0,0E0,0E0,0E0,0E0,0E0,0E0,0E0,0E0,0E0,0E0,0E0,7.955594E0,5.895062E0,0E0,0E0,9.214943E0,1.1661587E1,8.829253E0,1.0131638E1,0E0,0E0,5.0385666E0,0E0,5.214259E0,0E0,7.202219E0,6.204977E0,0E0,3.2188058E0,1.3418551E1,5.8772507E0,3.779827E0,0E0,0E0,0E0,0E0,0E0,0E0,0E0,6.171936E0,0E0,3.9611645E0,7.5036335E-1,4.365284E0,0E0,0E0,0E0,3.0023823E0,0E0,0E0,0E0,0E0,0E0,1.1351929E0,0E0,0E0,4.212323E0,1.0283439E1,1.0818716E1,2.2686234E0,0E0,6.291462E0,0E0,0E0,0E0,0E0,0E0,8.442928E0,0E0,0E0,0E0,8.875153E0,4.016106E0,0E0,0E0,0E0,0E0,7.9093094E0,0E0,7.69269E0,4.9233365E0,5.455821E0,6.37051E0,5.149353E0,7.7875934E0,0E0,0E0,4.945782E0,5.381239E0,0E0,6.5892334E0,0E0,0E0,4.459076E0,5.3133664E0,0E0,0E0,2.497263E0,9.667205E0,1.1305104E1,0E0,3.1914673E0,5.2535505E0,4.482401E0,3.800276E0,0E0,0E0,1.9680004E0,5.9246054E0,3.8886852E0,5.5324907E0,3.2239127E-1,1.0701418E0,9.48667E0,7.6905785E0,0E0,3.9578934E0,0E0,0E0,0E0,0E0,0E0,5.25352E0,0E0,0E0,0E0,3.2188148E0,5.2535505E0,5.2160645E0,0E0,0E0,0E0,4.7123413E0,0E0,0E0,0E0,0E0,0E0,3.2436981E0,0E0,0E0,0E0,0E0,0E0,0E0,1.17806835E1,6.8047876E0,3.9060974E0,1.0952283E1,0E0,0E0,0E0,0E0,5.2761574E0,0E0,0E0,6.4836426E0,0E0,0E0,0E0,4.9064636E0,0E0,9.821166E0,0E0,0E0,0E0,0E0,8.376186E0,0E0,2.7300568E0,5.843374E0,0E0,0E0,0E0,0E0,0E0,0E0,7.5255685E0,4.10421E0,3.5573425E0,0E0,0E0,0E0,0E0,0E0,7.389719E0,6.481378E0,0E0,2.883475E0,1.8299866E0,0E0,0E0,0E0,0E0,0E0,0E0,0E0,0E0,0E0,0E0,0E0,0E0,0E0,0E0,0E0,0E0,0E0,0E0,0E0,0E0,0E0,0E0,4.957329E0,0E0,2.538147E0,0E0,0E0,0E0,0E0,0E0,0E0,5.2970047E0,0E0,0E0,3.2086182E0,0E0,0E0,1.2189208E1,7.493062E-1,0E0,0E0,2.2039413E0,0E0,7.976737E-1,0E0,0E0,0E0,2.4993591E0,5.7231636E0,4.417038E0,0E0,0E0,4.2203617E-1,0E0,0E0,0E0,0E0,0E0,0E0,0E0,0E0,3.9772034E0,0E0,0E0,3.6069336E0,0E0,1.5966301E0,0E0,0E0,0E0,0E0,0E0,0E0,2.1788979E0,0E0,0E0,0E0,0E0,2.1960526E0,3.227356E0,0E0,0E0,7.4466457E0,0E0,0E0,0E0,0E0,0E0,0E0,2.5947723E0,0E0,0E0,0E0,0E0,0E0,0E0,0E0,0E0,0E0,0E0,3.135315E0,0E0,0E0,0E0,0E0,1.1504211E0,0E0,3.2600708E0,0E0,4.741579E0,0E0,0E0,0E0,3.0527344E0,0E0,7.859802E-2,0E0,3.2930908E0,0E0,0E0,0E0,2.7622986E0,0E0,0E0,4.861822E-1,0E0,2.4899292E0,0E0,1.8885498E0,0E0,0E0,0E0,2.5230713E0,0E0,1.7537537E0,2.5567627E0,0E0,1.3922119E0,5.887307E0,1.6012573E0,0E0,0E0,0E0,0E0,0E0,5.6744385E-1,2.4812675E0,2.0446777E-2,8.1208074E-1,0E0,0E0,0E0,2.8686523E-2,0E0,0E0,2.2888184E-2,0E0,3.265381E-2,0E0,0E0,0E0],"parents":[2147483647,0,0,1,1,2,2,3,3,4,4,5,5,6,6,7,7,8,8,9,9,10,10,11,11,12,12,13,13,14,14,15,15,16,16,17,17,18,18,19,19,20,20,21,21,22,22,23,23,24,24,25,25,26,26,27,27,28,28,29,29,30,30,31,31,32,32,33,33,34,34,35,35,36,36,37,37,38,38,39,39,40,40,41,41,42,42,44,44,47,47,48,48,49,49,50,50,51,51,52,52,53,53,54,54,55,55,56,56,57,57,58,58,59,59,60,60,61,61,62,62,64,64,67,67,68,68,69,69,70,70,71,71,72,72,73,73,74,74,75,75,76,76,77,77,78,78,79,79,80,80,81,81,82,82,83,83,84,84,88,88,89,89,90,90,91,91,92,92,93,93,94,94,97,97,98,98,99,99,100,100,101,101,102,102,104,104,106,106,108,108,109,109,110,110,111,111,112,112,113,113,114,114,115,115,116,116,118,118,119,119,120,120,121,121,122,122,123,123,124,124,125,125,126,126,127,127,128,128,129,129,130,130,131,131,132,132,133,133,134,134,138,138,141,141,143,143,146,146,151,151,152,152,153,153,156,156,157,157,158,158,159,159,160,160,163,163,164,164,165,165,166,166,167,167,168,168,169,169,172,172,175,175,176,176,179,179,181,181,182,182,183,183,184,184,185,185,186,186,188,188,189,189,195,195,196,196,200,200,201,201,203,203,204,204,205,205,206,206,207,207,209,209,210,210,211,211,216,216,220,220,221,221,222,222,223,223,225,225,226,226,227,227,228,228,232,232,239,239,240,240,241,241,249,249,251,251,252,252,256,256,257,257,258,258,259,259,260,260,262,262,269,269,270,270,271,271,273,273,287,287,288,288,291,291,292,292,293,293,294,294,297,297,299,299,301,301,302,302,304,304,305,305,306,306,307,307,315,315,317,317,318,318,319,319,323,323,329,329,332,332,333,333,334,334,335,335,337,337,343,343,347,347,348,348,353,353,355,355,356,356,357,357,358,358,359,359,360,360,363,363,364,364,366,366,369,369,370,370,373,373,374,374,375,375,377,377,378,378,379,379,380,380,383,383,384,384,385,385,386,386,387,387,388,388,389,389,390,390,392,392,398,398,402,402,403,403,404,404,408,408,414,414,421,421,422,422,423,423,424,424,429,429,432,432,436,436,438,438,443,443,445,445,446,446,453,453,454,454,455,455,461,461,462,462,464,464,465,465,488,488,490,490,497,497,500,500,503,503,504,504,507,507,509,509,513,513,514,514,515,515,518,518,527,527,530,530,532,532,539,539,544,544,545,545,548,548,555,555,566,566,571,571,573,573,575,575,579,579,581,581,583,583,587,587,590,590,592,592,594,594,598,598,600,600,601,601,603,603,604,604,605,605,611,611,612,612,613,613,614,614,618,618,621,621,623,623],"right_children":[2,4,6,8,10,12,14,16,18,20,22,24,26,28,30,32,34,36,38,40,42,44,46,48,50,52,54,56,58,60,62,64,66,68,70,72,74,76,78,80,82,84,86,-1,88,-1,-1,90,92,94,96,98,100,102,104,106,108,110,112,114,116,118,120,-1,122,-1,-1,124,126,128,130,132,134,136,138,140,142,144,146,148,150,152,154,156,158,-1,-1,-1,160,162,164,166,168,170,172,-1,-1,174,176,178,180,182,184,-1,186,-1,188,-1,190,192,194,196,198,200,202,204,206,-1,208,210,212,214,216,218,220,222,224,226,228,230,232,234,236,238,240,-1,-1,-1,242,-1,-1,244,-1,246,-1,-1,248,-1,-1,-1,-1,250,252,254,-1,-1,256,258,260,262,264,-1,-1,266,268,270,272,274,276,278,-1,-1,280,-1,-1,282,284,-1,-1,286,-1,288,290,292,294,296,298,-1,300,302,-1,-1,-1,-1,-1,304,306,-1,-1,-1,308,310,-1,312,314,316,318,320,-1,322,324,326,-1,-1,-1,-1,328,-1,-1,-1,330,332,334,336,-1,338,340,342,344,-1,-1,-1,346,-1,-1,-1,-1,-1,-1,348,350,352,-1,-1,-1,-1,-1,-1,-1,354,-1,356,358,-1,-1,-1,360,362,364,366,368,-1,370,-1,-1,-1,-1,-1,-1,372,374,376,-1,378,-1,-1,-1,-1,-1,-1,-1,-1,-1,-1,-1,-1,-1,380,382,-1,-1,384,386,388,390,-1,-1,392,-1,394,-1,396,398,-1,400,402,404,406,-1,-1,-1,-1,-1,-1,-1,408,-1,410,412,414,-1,-1,-1,416,-1,-1,-1,-1,-1,418,-1,-1,420,422,424,426,-1,428,-1,-1,-1,-1,-1,430,-1,-1,-1,432,434,-1,-1,-1,-1,436,-1,438,440,442,444,446,448,-1,-1,450,452,-1,454,-1,-1,456,458,-1,-1,460,462,464,-1,466,468,470,472,-1,-1,474,476,478,480,482,484,486,488,-1,490,-1,-1,-1,-1,-1,492,-1,-1,-1,494,496,498,-1,-1,-1,500,-1,-1,-1,-1,-1,502,-1,-1,-1,-1,-1,-1,504,506,508,510,-1,-1,-1,-1,512,-1,-1,514,-1,-1,-1,516,-1,518,-1,-1,-1,-1,520,-1,522,524,-1,-1,-1,-1,-1,-1,526,528,530,-1,-1,-1,-1,-1,532,534,-1,536,538,-1,-1,-1,-1,-1,-1,-1,-1,-1,-1,-1,-1,-1,-1,-1,-1,-1,-1,-1,-1,-1,-1,540,-1,542,-1,-1,-1,-1,-1,-1,544,-1,-1,546,-1,-1,548,550,-1,-1,552,-1,554,-1,-1,-1,556,558,560,-1,-1,562,-1,-1,-1,-1,-1,-1,-1,-1,564,-1,-1,566,-1,568,-1,-1,-1,-1,-1,-1,570,-1,-1,-1,-1,572,574,-1,-1,576,-1,-1,-1,-1,-1,-1,578,-1,-1,-1,-1,-1,-1,-1,-1,-1,-1,580,-1,-1,-1,-1,582,-1,584,-1,586,-1,-1,-1,588,-1,590,-1,592,-1,-1,-1,594,-1,-1,596,-1,598,-1,600,-1,-1,-1,602,-1,604,606,-1,608,610,612,-1,-1,-1,-1,-1,614,616,618,620,-1,-1,-1,622,-1,-1,624,-1,626,-1,-1,-1],"split_conditions":[-5.3101175E-2,-1.0423768E-1,8.962738E-2,7.9916745E-2,2.6706696E-2,-7.8741595E-2,3.2141498E-1,-8.244734E-2,1.10221006E-1,-2.0212242E-1,1.2462969E-1,9.7371414E-2,-2.638468E-1,-3.0286527E-1,5.9736498E-2,2.630024E-1,6.2805824E-2,2.1978801E-2,-1.0775425E-2,2.1421541E-1,8.834964E-2,-3.479317E-1,-3.5227427E-1,-1.2050365E-1,8.426965E-2,-2.0242989E-1,2.5034416E-1,4.3541172E-1,-1.7056113E-1,2.631611E-1,-1.4112014E-1,1.7128825E-1,5.5225343E-3,-9.374238E-2,-7.2289936E-2,-4.6671194E-1,3.8923407E-1,-7.7720106E-2,3.4021422E-1,-5.878907E-2,1.108415E-1,1.3164303E-1,-2.3823154E-1,9.333752E-3,-4.0730435E-1,5.8814492E-2,-5.2905895E-2,-1.9201452E-1,-1.7909898E-1,-8.265029E-2,5.4645956E-2,-3.1997564E-1,-1.7425752E-1,3.577286E-1,-7.619329E-1,-3.474999E0,-2.9362413E-1,3.1608054E-1,5.136573E-1,2.2698576E-2,-6.983003E-2,-5.0719064E-1,-1.503354E-1,-4.830666E-2,2.1529412E-1,2.6172671E-2,-7.9825304E-2,-2.3584661E-1,1.4475681E-2,-5.2201617E-1,3.4896964E-1,-2.194118E-2,-4.4027564E-1,-1.454985E-1,2.4629039E-1,-1.3523242E-1,2.936174E-1,1.0078876E-1,-5.4170465E-1,-2.8866434E-1,6.9698565E-2,3.25713E-1,8.989952E-2,-4.0462297E-1,-8.1132765E0,7.065742E-2,-3.265303E-2,8.762456E-3,2.8463382E-1,1.1456727E-1,1.7382783E-1,8.274212E-2,1.9989818E-1,1.3096173E-1,-1.1315472E-1,1.1696815E-2,-8.5762404E-2,-4.272051E-1,2.4377635E-1,-1.2749767E-1,-2.030544E-1,6.358454E-2,1.16004445E-1,3.2618325E-2,-1.1045809E-1,5.40359E-2,-5.4755457E-2,-7.0715465E-2,-1.7443037E-1,-2.9428154E-1,1.5009795E-1,-5.448752E-2,-6.3278824E-2,-4.257043E-1,-2.248098E-2,2.254695E-1,1.06442876E-1,-2.3281554E-2,6.3141957E-3,-2.7859023E-1,-1.8575032E-1,6.1426595E-2,-2.360549E-1,-1.4171034E-1,2.3253508E0,-2.1935993E-1,6.03158E-1,8.788769E-2,-4.7674868E-1,2.6681492E-1,-1.2402013E-1,1.3162125E-2,1.8935898E-1,-6.878516E-1,6.905069E-2,2.0404818E-2,-7.87405E-2,-5.7753365E-2,-7.054743E-2,1.1152714E-2,-6.8517774E-2,-2.0874049E-1,-5.4313898E-2,1.857796E-1,3.256173E-2,-5.7978805E-2,6.971887E-2,4.2915342E-8,-8.6495236E-2,-6.894143E-2,7.226496E-2,8.426776E-2,1.7176446E-1,-5.691387E-1,-1.6345238E-2,3.8809486E-2,-4.5712912E-1,-4.3381255E-2,5.9063596E-1,-1.3890302E-1,8.99396E-2,7.413927E-2,-1.0027063E-2,-2.7848512E-1,-1.9166512E-2,-2.1548939E-1,-1.4200641E-1,3.2877648E-1,-3.641756E-1,-2.1044394E-1,-7.858039E-2,7.9264335E-2,2.891276E-2,1.0332084E-2,-5.8915645E-2,-2.0427147E-1,2.6055224E-2,-5.4035813E-2,7.690003E-2,-2.2127585E-1,-8.261262E-2,-1.2177154E-2,-2.1643123E-1,-9.023422E-2,5.068125E-2,7.765312E-2,3.4587163E-1,3.3325534E-2,1.3765518E-1,1.6326497E-1,-6.44929E-2,-7.903223E-2,2.042541E-2,-3.6954796E-7,5.823196E-2,-1.0931156E-1,-2.5171125E-1,-6.8876676E-2,3.2643627E-2,6.6890724E-2,-1.5085687E-1,-4.092095E-1,-3.88094E-2,1.0682529E-1,-1.7730626E-1,2.6473814E-1,-2.93127E-1,2.078237E-1,-2.0093149E-2,3.4749433E-3,2.6203638E-1,3.978138E-1,-6.2502824E-2,8.68188E-2,-1.0656275E-2,6.387927E-2,2.7615893E-1,5.8314253E-2,-5.9531044E-2,-9.166934E-2,1.8758762E-1,-3.725163E-2,-9.0308934E-2,1.852425E-1,3.2316092E-2,8.444695E-2,4.6046484E-1,-1.3922838E0,-1.2177713E-1,-6.8558104E-2,3.2818127E-2,-1.15024345E-2,6.8656504E-2,-2.683108E-2,7.157361E-2,-7.374494E-2,3.774915E-2,5.9309125E-2,-6.85988E-2,3.245737E-1,-5.1847532E-2,-3.2896227E-1,-3.2516476E-2,1.06306495E-2,8.3835095E-2,-8.955925E-2,1.1890779E-2,1.0364742E-2,6.727839E-2,-1.6632792E-2,5.8959674E-2,4.816427E-1,2.3442632E-1,1.0098912E-2,8.659274E-2,-6.876889E-3,5.4630107E-1,3.3067092E-1,-1.7085072E-1,-2.051734E-1,-1.7031145E-1,1.1171024E-2,6.893103E-1,-6.458981E-2,4.4022996E-2,-8.241633E-2,3.2412507E-2,5.8565166E-2,-1.1404404E-2,-5.4238147E-1,-3.850815E-1,-3.156867E-1,-5.823232E-2,2.7768412E-1,-1.9401135E-2,-5.43841E-2,1.136383E-2,-3.26057E-2,6.155944E-2,-5.5384923E-2,3.1817835E-2,1.0421135E-2,8.9879066E-2,3.1640798E-2,-5.4388847E-2,5.5141784E-2,-5.7453956E-2,2.3678845E-1,9.872347E-2,-1.0448626E-2,-8.90769E-2,2.857433E-1,2.9561192E-1,3.90906E-2,-3.9000112E-1,-4.779E-2,5.899198E-2,-3.7743306E-1,1.1905312E-2,-3.2698604E-1,-8.662724E-2,1.4143415E-1,-3.144032E-1,6.1651953E-2,-2.0591384E-1,2.9071242E-1,-2.2537431E-1,1.239293E-1,-7.7780545E-2,9.491138E-3,8.66102E-2,8.509008E-2,-1.9401135E-2,3.8809486E-2,-7.592624E-2,-3.0649614E-1,-3.2412432E-2,-1.2955819E-1,-9.288231E-2,2.785346E-1,-8.248674E-4,3.576279E-8,5.823196E-2,-2.6144588E-1,3.3011492E-2,8.0306835E-2,-3.781054E-2,-1.02955215E-2,-6.460828E-2,2.1262568E-1,5.4187622E-2,-5.3923268E-2,5.6306105E-2,3.3012128E-1,1.281284E-1,8.539666E-2,1.0968172E-2,4.535978E-1,-3.9718498E-2,-7.1404554E-2,2.6346087E-2,-3.2361098E-2,6.801699E-2,4.9176297E-1,3.7393983E-2,8.6112596E-2,1.0401052E-2,-2.4670863E-1,1.6727364E-1,3.831665E-2,-6.171853E-2,-8.216219E-3,8.446402E-2,-2.4247137E-1,4.3675434E-2,-2.139326E-1,-4.20736E-2,2.4689826E-1,1.1189637E-1,-2.9514134E-2,-5.160176E-1,-7.608396E-2,-1.0548369E-2,3.4766182E-1,1.29406E-1,2.7210385E-2,-4.978274E-1,-1.1363746E-2,5.438419E-2,4.277403E0,8.5879005E-2,-3.6954796E-7,-7.6899916E-2,6.914619E-2,-3.949728E-2,-9.277791E-3,8.789666E-2,5.5962324E-1,-6.289148E-2,-2.5214517E-2,1.4969376E-1,-2.5863636E-2,7.328182E-2,-6.1916232E-2,2.640512E-1,-8.2356974E-2,-5.681449E-1,1.6132398E-2,3.5158315E-1,1.6682638E-1,-2.2864306E-1,-6.728854E-3,-8.4339494E-1,-5.301531E-2,5.46703E-2,-6.689063E-2,4.4022996E-2,8.712788E-2,-1.8782148E-1,1.1548106E-2,-7.252427E-2,6.578201E-2,3.529103E-1,-3.0201858E-2,-1.9306816E-2,5.8126837E-2,-3.2588523E-2,4.3728285E-8,-2.4215738E-1,-1.1038751E-2,7.946624E-2,-6.7554764E-2,-1.0801951E-2,8.915489E-2,-1.6655865E-1,-8.035517E-3,-8.491016E-2,-7.37719E-2,-9.915109E-3,8.173247E-2,-1.0875559E-2,1.1860669E-2,-3.7280107E-1,1.9370723E-1,1.9530599E-1,-9.071809E-2,-1.0888341E-2,8.4485054E-2,-7.2333664E-3,3.2744473E-1,3.235438E-2,-1.5716424E-2,1.6768721E-1,-5.4061484E-2,3.823277E-2,3.365305E-2,2.0940652E-1,8.815399E-2,-1.977759E-1,3.1862184E-2,-6.783806E-2,-3.2069974E-2,7.087105E-2,1.02808595E-1,-7.972371E-2,-1.2840442E-1,2.1225672E-2,5.5248886E-2,-6.687119E-2,-6.753932E-2,3.2279275E-2,-1.906692E-2,7.529905E-2,4.868087E-1,-7.604855E-2,-5.660233E-1,1.3269722E-3,-6.2056452E-2,3.9549217E-2,3.576279E-8,8.381451E-2,3.1165206E-1,-3.5766283E-1,7.07153E-2,3.4309238E-1,1.0206665E-1,3.576279E-8,5.40359E-2,-5.403607E-2,-8.1183806E-2,1.1468164E-2,5.8941722E-2,-3.2141175E-2,8.743985E-2,1.07435305E-2,5.3801525E-2,-5.2122444E-2,1.0404269E-2,-7.96064E-2,-3.247276E-2,7.1129754E-2,-5.3907197E-2,-1.0339864E-2,1.06968E-2,7.394487E-2,6.0073204E-2,-6.0983516E-2,3.2446556E-2,4.0408987E-1,-8.081499E-3,8.064439E-1,-5.4035813E-2,5.40359E-2,-7.252439E-2,1.1548106E-2,5.40359E-2,-5.403607E-2,-5.6103736E-1,4.3728285E-8,4.2915342E-8,4.9304643E-1,5.3088713E-2,-3.2556236E-2,-2.6035038E-1,-2.412904E-1,2.6288942E-2,-7.3810875E-2,3.0466852E-1,7.9534744E-4,1.2823129E-2,-6.6970885E-2,-8.8463545E-2,1.0284356E-2,1.9326818E-1,1.2470532E-1,6.1266196E-1,1.1547344E-2,6.438651E-2,-3.8683392E-2,6.2018394E-2,-6.143601E-2,-9.53023E-3,-9.28448E-2,3.9881777E-2,-6.493371E-2,4.8622604E-2,-6.362874E-2,3.821983E-1,1.7967254E-4,-8.350578E-3,-2.9128873E-1,2.300909E-2,6.5764135E-1,-3.8368177E-2,6.488504E-2,-6.92225E-2,1.1512982E-2,9.220062E-2,1.9400848E-2,-1.4399048E-2,1.1375999E-2,-9.224368E-2,-1.0398078E-2,-1.08026145E-2,4.4864264E-1,1.1926212E-1,1.6254421E-2,-6.1393034E-2,1.1616839E0,-6.669399E-2,-1.0425133E-2,-8.9246534E-2,-1.0341351E-2,1.0036714E-2,6.721377E-2,4.7730902E-1,1.0375238E-2,6.046135E-2,-3.250611E-2,-9.0488695E-2,-4.178942E-4,-1.0931255E-2,-5.876031E-2,-9.009618E-2,-7.414599E-3,-8.534879E-3,7.8737617E-1,-8.205012E-2,-1.0436697E-2,-1.07713835E-2,-8.956512E-2,1.4409408E-1,1.0802313E-2,4.4943333E-1,-3.6954796E-7,-4.1272715E-1,-2.691046E-2,9.317671E-2,1.0583923E-2,3.2730237E-1,-1.5013459E-2,3.9367405E-1,2.6408164E-2,-4.0278053E-1,-3.6954796E-7,-1.1906956E-2,8.2734175E-2,-3.0534542E-1,-1.6026745E-2,9.272959E-2,-1.0102295E-1,3.576279E-8,-2.1497665E-1,-2.0957008E-2,-5.159841E-1,5.7168793E-2,9.223165E-3,1.0802313E-2,4.9796492E-1,-1.7824331E-2,1.6123627E-1,8.7184656E-1,1.0802689E-2,4.3395463E-1,-1.6114937E-2,3.5495648E-1,1.0802689E-2,-9.104853E-2,-2.5432512E-2,3.323311E-2,-7.265871E-2,2.737062E-1,-2.6511258E-1,-1.4500384E-1,-5.718497E-1,-1.2373751E-2,6.3458696E-2,3.1008232E-2,5.167311E-1,5.4155786E-2,3.576279E-8,5.688036E-1,3.1020766E-2,-6.312193E-1,3.1158838E-2,3.1159261E-2,9.4576254E-2],"split_indices":[531,147,235,235,424,424,545,386,424,666,501,325,147,635,424,499,249,161,296,192,716,669,49,235,196,161,167,425,249,425,195,509,590,11,585,253,6,577,376,267,328,1,440,0,351,0,0,310,635,95,153,9,685,85,450,142,447,1,499,79,707,455,764,0,557,0,0,430,255,618,85,500,265,63,678,105,727,175,264,76,377,72,12,118,752,0,0,0,231,397,642,230,416,550,412,0,0,204,239,486,554,761,158,0,649,0,500,0,476,605,22,337,92,375,684,82,354,0,591,359,146,195,494,741,588,424,586,292,291,166,710,320,727,461,120,0,0,0,689,0,0,34,0,598,0,0,290,0,0,0,0,265,158,0,0,0,759,507,281,621,47,0,0,523,12,105,578,469,9,9,0,0,135,0,0,607,97,0,0,455,0,37,568,313,575,38,76,0,89,649,0,0,0,0,0,687,48,0,0,0,62,139,0,41,147,161,375,150,0,1,348,374,0,0,0,0,340,0,0,0,742,366,414,217,0,335,136,381,264,0,0,0,587,0,0,0,0,0,0,290,127,625,0,0,0,0,0,0,0,316,0,511,391,0,0,0,93,111,207,339,9,0,509,0,0,0,0,0,0,342,618,266,0,236,0,0,0,0,0,0,0,0,0,0,0,0,0,731,491,0,0,254,13,257,618,0,0,150,0,51,0,723,197,0,22,57,95,29,0,0,0,0,0,0,0,249,0,171,9,254,0,0,0,643,0,0,0,0,0,42,0,0,215,417,96,520,0,346,0,0,0,0,0,124,0,0,0,269,242,0,0,0,0,737,0,398,153,603,663,373,549,0,0,186,678,0,342,0,0,205,189,0,0,1,331,210,0,571,163,56,31,0,0,380,545,34,605,22,69,10,372,0,726,0,0,0,0,0,66,0,0,0,94,86,582,0,0,0,642,0,0,0,0,0,44,0,0,0,0,0,0,139,530,464,340,0,0,0,0,357,0,0,416,0,0,0,91,0,311,0,0,0,0,97,0,543,387,0,0,0,0,0,0,17,645,112,0,0,0,0,0,283,311,0,59,684,0,0,0,0,0,0,0,0,0,0,0,0,0,0,0,0,0,0,0,0,0,0,486,0,766,0,0,0,0,0,0,455,0,0,170,0,0,703,476,0,0,641,0,130,0,0,0,105,671,474,0,0,26,0,0,0,0,0,0,0,0,500,0,0,167,0,67,0,0,0,0,0,0,36,0,0,0,0,58,307,0,0,360,0,0,0,0,0,0,558,0,0,0,0,0,0,0,0,0,0,767,0,0,0,0,587,0,395,0,336,0,0,0,593,0,200,0,28,0,0,0,469,0,0,5,0,323,0,706,0,0,0,35,0,388,766,0,718,318,228,0,0,0,0,0,657,9,128,311,0,0,0,550,0,0,79,0,300,0,0,0],"split_type":[0,0,0,0,0,0,0,0,0,0,0,0,0,0,0,0,0,0,0,0,0,0,0,0,0,0,0,0,0,0,0,0,0,0,0,0,0,0,0,0,0,0,0,0,0,0,0,0,0,0,0,0,0,0,0,0,0,0,0,0,0,0,0,0,0,0,0,0,0,0,0,0,0,0,0,0,0,0,0,0,0,0,0,0,0,0,0,0,0,0,0,0,0,0,0,0,0,0,0,0,0,0,0,0,0,0,0,0,0,0,0,0,0,0,0,0,0,0,0,0,0,0,0,0,0,0,0,0,0,0,0,0,0,0,0,0,0,0,0,0,0,0,0,0,0,0,0,0,0,0,0,0,0,0,0,0,0,0,0,0,0,0,0,0,0,0,0,0,0,0,0,0,0,0,0,0,0,0,0,0,0,0,0,0,0,0,0,0,0,0,0,0,0,0,0,0,0,0,0,0,0,0,0,0,0,0,0,0,0,0,0,0,0,0,0,0,0,0,0,0,0,0,0,0,0,0,0,0,0,0,0,0,0,0,0,0,0,0,0,0,0,0,0,0,0,0,0,0,0,0,0,0,0,0,0,0,0,0,0,0,0,0,0,0,0,0,0,0,0,0,0,0,0,0,0,0,0,0,0,0,0,0,0,0,0,0,0,0,0,0,0,0,0,0,0,0,0,0,0,0,0,0,0,0,0,0,0,0,0,0,0,0,0,0,0,0,0,0,0,0,0,0,0,0,0,0,0,0,0,0,0,0,0,0,0,0,0,0,0,0,0,0,0,0,0,0,0,0,0,0,0,0,0,0,0,0,0,0,0,0,0,0,0,0,0,0,0,0,0,0,0,0,0,0,0,0,0,0,0,0,0,0,0,0,0,0,0,0,0,0,0,0,0,0,0,0,0,0,0,0,0,0,0,0,0,0,0,0,0,0,0,0,0,0,0,0,0,0,0,0,0,0,0,0,0,0,0,0,0,0,0,0,0,0,0,0,0,0,0,0,0,0,0,0,0,0,0,0,0,0,0,0,0,0,0,0,0,0,0,0,0,0,0,0,0,0,0,0,0,0,0,0,0,0,0,0,0,0,0,0,0,0,0,0,0,0,0,0,0,0,0,0,0,0,0,0,0,0,0,0,0,0,0,0,0,0,0,0,0,0,0,0,0,0,0,0,0,0,0,0,0,0,0,0,0,0,0,0,0,0,0,0,0,0,0,0,0,0,0,0,0,0,0,0,0,0,0,0,0,0,0,0,0,0,0,0,0,0,0,0,0,0,0,0,0,0,0,0,0,0,0,0,0,0,0,0,0,0,0,0,0,0,0,0,0,0,0,0,0,0,0,0,0,0,0,0,0,0,0,0,0,0,0,0,0,0,0,0,0,0,0,0,0,0,0,0,0,0,0,0,0,0,0,0,0,0,0],"sum_hessian":[1.4544323E3,7.2174744E2,7.326848E2,3.3894406E2,3.8280338E2,3.1672137E2,4.1596344E2,2.0067494E2,1.3826913E2,2.1064706E2,1.7215633E2,1.4874759E2,1.679738E2,1.1206877E2,3.0389465E2,3.0697823E1,1.6997711E2,1.0481758E2,3.3451553E1,9.161127E1,1.1903579E2,1.6941016E2,2.746165E0,1.245336E2,2.421399E1,3.4944782E1,1.3302902E2,4.1182026E1,7.088675E1,2.5072786E2,5.3166798E1,2.4208307E1,6.489515E0,1.1481147E2,5.516565E1,8.28504E1,2.1967178E1,1.198728E1,2.1464273E1,2.171263E1,6.989864E1,1.1504063E2,3.9951606E0,1.7476654E0,1.6766249E2,1.4991615E0,1.2470036E0,1.872493E1,1.0580867E2,1.4481738E1,9.73225E0,2.0965075E1,1.3979707E1,8.362095E1,4.9408073E1,1.9714699E1,2.1467327E1,8.490983E0,6.2395763E1,2.1218515E1,2.2950935E2,2.7952007E1,2.5214792E1,1.9969269E0,2.221138E1,1.7463238E0,4.743191E0,4.0931458E1,7.388001E1,4.0937595E1,1.4228056E1,1.3477344E1,6.937306E1,8.488859E0,1.347832E1,3.4959512E0,8.491329E0,1.647056E1,4.993714E0,1.6220024E1,5.492604E0,5.7668396E1,1.2230246E1,6.461993E1,5.04207E1,2.7461364E0,1.2490242E0,1.7485222E0,1.6591397E2,4.994948E0,1.3729981E1,5.266568E1,5.314299E1,7.489637E0,6.992101E0,1.2488775E0,8.483373E0,2.747454E0,1.821762E1,5.242643E0,8.737064E0,3.1199795E1,5.2421154E1,1.2485708E0,4.8159504E1,1.249036E0,1.8465664E1,2.7463155E0,1.8721012E1,5.9923277E0,2.4986553E0,5.865008E1,3.7456813E0,9.237961E0,1.1980555E1,1.472765E1,2.1478171E2,2.2481318E0,2.5703876E1,1.3230281E1,1.198451E1,1.54724E1,6.738981E0,4.4931674E0,3.643829E1,5.3914265E1,1.9965748E1,1.5227389E1,2.5710205E1,3.7434123E0,1.0484644E1,6.736669E0,6.7406745E0,3.994139E0,6.537892E1,1.4985437E0,6.990315E0,2.745293E0,1.0733027E1,1.2480083E0,2.247943E0,7.242894E0,1.2484345E0,1.52211685E1,1.2493912E0,1.4980699E0,3.495644E0,1.5E0,1.4720025E1,2.4968188E0,2.9957852E0,2.2220516E1,3.544788E1,1.0232934E1,1.9973112E0,1.4994001E0,6.312053E1,1.5727894E1,3.4692806E1,1.621669E2,3.7470775E0,3.246289E0,1.7486589E0,1.0981908E1,2.7480733E0,2.6961939E1,2.570374E1,5.0644497E1,2.4984946E0,2.9971547E0,4.492482E0,4.494137E0,2.4979644E0,1.248112E0,1.4993421E0,1.5720731E1,2.496889E0,1.2490361E0,3.9936068E0,2.747042E0,5.990022E0,1.7226614E1,1.3973181E1,2.3468971E1,2.895218E1,3.4952543E0,4.466425E1,1.2492397E0,1.7216423E1,1.6723232E1,1.9977795E0,4.4932637E0,1.4990642E0,1.0000045E0,1.4986508E0,5.9933314E0,5.2656754E1,2.4966419E0,1.2490394E0,2.247306E0,6.9906545E0,1.0481154E1,1.4994003E0,9.484068E0,5.2435813E0,2.0529475E2,9.486943E0,2.4205696E1,1.4981805E0,2.4986508E0,1.073163E1,1.02355175E1,1.7489928E0,1.4225207E1,1.2471921E0,3.4937365E0,3.2452445E0,1.4985764E0,2.9945912E0,3.0696684E1,5.7416034E0,7.987625E0,4.592664E1,1.8717808E1,1.24794E0,1.07338085E1,4.493581E0,3.4964676E0,2.2213737E1,2.495188E0,1.2482243E0,1.2481637E0,9.236481E0,1.7474394E0,4.9892297E0,5.243348E0,1.4973263E0,1.4983819E0,2.495757E0,6.2133812E1,3.2451077E0,8.735986E0,1.9970411E0,1.2479725E0,5.9949217E0,1.3972618E1,1.2485507E0,1.2478626E0,2.2477815E0,2.072177E1,1.4987464E0,2.0468655E1,1.4979225E1,1.2480099E0,8.984924E0,2.2479377E0,6.0872593E1,4.991783E0,1.0736111E1,3.219431E1,2.4984946E0,1.2484524E0,1.6091844E2,1.9979811E0,1.7490964E0,9.732255E0,1.2496529E0,1.4986963E0,1.249377E0,4.993612E0,2.1968328E1,2.420508E1,1.4986601E0,4.9144646E1,1.4998499E0,1.2490616E0,1.2494332E0,1.2490978E0,1.748057E0,1.2494535E0,1.248511E0,1.2482879E0,1.4472444E1,1.2476287E0,1.2492605E0,1.2498828E0,1.4971591E0,1.2481473E1,4.7451406E0,1.2474129E0,1.2725768E1,1.348352E1,9.985453E0,6.9883404E0,2.196384E1,1.996152E0,1.4991021E0,4.3416153E1,1.2480971E0,2.4968538E0,1.4719569E1,3.9964025E0,1.272683E1,1.7482295E0,4.245102E0,7.9907207E0,4.466603E1,2.7476048E0,4.2430496E0,1.2484597E0,9.232695E0,7.984218E0,1.4998499E0,1.4994001E0,3.7441812E0,2.040451E2,1.249653E0,5.991279E0,3.4956641E0,2.270782E1,1.497874E0,1E0,1.4986508E0,9.482524E0,1.2491069E0,7.986774E0,2.248743E0,1.2475884E0,1.9976561E0,4.4926987E0,1.2489051E0,1.2482406E0,6.7393847E0,2.4712477E1,2.1214163E1,1.7470156E1,1.2476528E0,9.2358265E0,1.4979817E0,2.7471035E0,1.7464775E0,1.2479517E0,2.2485158E0,1.9965828E1,2.2479095E0,7.989072E0,1.2474085E0,5.9388126E1,2.7456841E0,1.4970772E0,1.7480304E0,1.747427E0,6.9885592E0,1.8973661E1,1.7481085E0,1.6973125E1,3.4955297E0,3.9942756E0,1.098495E1,5.7376347E1,3.4962466E0,3.744278E0,1.2475051E0,3.4957554E0,7.2403555E0,1.7473879E0,3.0446922E1,1.2494332E0,1.2490615E0,1.5767053E2,3.2479148E0,1.0000045E0,3.993607E0,7.9866185E0,1.39817095E1,6.4924655E0,1.7712614E1,4.664657E1,2.4980764E0,9.734644E0,2.7468288E0,1.7480892E0,2.9970512E0,9.98833E0,3.4951892E0,5.990499E0,3.9949532E0,2.4955952E0,4.492745E0,4.741556E0,1.7222284E1,2.246558E0,4.1169594E1,1.247252E0,1.2496018E0,2.247306E0,1.7490964E0,1.0228757E1,2.498072E0,1.2491525E0,2.9959493E0,3.7456145E0,4.245106E0,2.4980764E0,4.2167953E1,1.4984825E0,1.2491224E0,1.9987507E0,2.0204636E2,1.2486027E0,4.7426763E0,2.2473907E0,1.2482734E0,2.021188E1,2.4959428E0,1.7476425E0,7.734881E0,3.2446678E0,1.2480307E0,5.4918127E0,1.2475716E0,1.7723087E1,6.98939E0,1.5473173E1,5.7409906E0,1.6221863E1,1.2482921E0,6.9893403E0,2.2464862E0,1.871805E1,1.2477773E0,1.9969032E0,5.7391224E1,1.248963E0,1.4967213E0,1.2492551E0,1.7724405E1,1.0731821E1,6.2413044E0,1.2474362E0,2.2480934E0,1.248272E0,2.7460036E0,3.4958582E0,7.4890914E0,5.387934E1,3.4970021E0,1.2496382E0,2.2466083E0,2.2477694E0,1.2479861E0,1.498342E0,5.742013E0,3.993811E0,2.6453112E1,1.5617305E2,1.4974837E0,1.7483888E0,1.4995261E0,1E0,6.9866185E0,8.987448E0,4.9942613E0,2.746306E0,3.7461593E0,4.564657E1,1E0,1.249036E0,1.2490406E0,8.486027E0,1.2486174E0,1.4990927E0,1.2477361E0,8.740466E0,1.2478635E0,1.2487097E0,2.2464795E0,1.2481565E0,4.7423425E0,1.2482274E0,2.7467258E0,1.248024E0,1.2475712E0,1.2472569E0,3.2454882E0,2.9948218E0,1.7467344E0,1.2492197E0,1.5973064E1,1.7470028E0,3.9422592E1,1.2490361E0,1.249036E0,2.9959538E0,1.2491525E0,1.249036E0,1.2490406E0,4.0169205E1,1.9987507E0,1.5E0,2.0054636E2,1.2473944E0,1.2485485E0,1.4228724E1,3.494363E0,1.7470407E0,5.242349E0,1.3975344E1,1.4978292E0,3.4941545E0,2.2468362E0,1.747008E1,1.2479708E0,5.2397728E1,4.9934964E0,1.6475557E1,1.2488497E0,3.494369E0,2.7469354E0,1.7484306E0,1.7474277E0,1.2485623E0,5.263078E1,1.499045E0,1.9979571E0,1.9982269E0,1.9955839E0,2.4955006E1,1.4981048E0,1.7482632E0,1.5442479E2,2.2476697E0,6.7397785E0,1.4976395E0,3.4966218E0,2.496948E0,1.2492113E0,4.4146713E1,1.4998546E0,1.4724674E1,1.248391E0,3.817399E1,1.2486036E0,1.2499614E0,3.8919243E1,1.9854713E2,1.9992191E0,1.7472041E0,1.248152E1,2.2467232E0,1.2476399E0,1.2727842E1,1.2475014E0,1.2476252E0,2.2465293E0,5.1150078E1,1.2476512E0,2.9956284E0,1.9978682E0,1.4977489E1,1.498067E0,1.2478181E0,1.4991173E0,2.320723E1,1.7477756E0,1.7478638E0,1.5267693E2,5.4917693E0,1.2480087E0,1.2480264E0,1.3476647E1,3.7669277E1,1.249966E0,1.9754713E2,1.0000045E0,1.073357E1,1.7479492E0,4.990238E1,1.2476964E0,1.5068024E2,1.9966835E0,3.59196E1,1.7496747E0,1.9654712E2,1.0000045E0,1.2486436E0,9.484926E0,1.4868079E2,1.9994504E0,3.317498E1,2.7446222E0,1E0,1.9554712E2,2.2464628E0,1.4643433E2,1.4964669E0,1.2481554E0,1.249966E0,1.9429716E2,1.4968474E0,1.4493747E2,1.930472E2,1.2499614E0,1.4069153E2,4.245949E0,1.9179724E2,1.2499614E0,1.3894467E2,1.7468569E0,1.2490131E0,2.9969356E0,1.8855345E2,3.2437818E0,1.8630428E2,2.2491825E0,1.2487192E0,1.9950626E0,1.2474848E0,1.850568E2,1.2491825E0,1E0,1.838093E2,1.2474923E0,1.8256175E2,1.2475358E0,1.2475313E0,1.8131422E2],"tree_param":{"num_deleted":"0","num_feature":"768","num_nodes":"627","size_leaf_vector":"1"}},{"base_weights":[-6.112199E-4,-6.2414104E-1,5.766421E-1,-1.653547E-1,-1.1394042E0,-2.2992271E-1,9.294702E-1,4.866433E-1,-5.312857E-1,-1.4315367E0,-7.7569646E-1,2.6493195E-1,-7.5009775E-1,1.9767599E-1,1.2133728E0,4.9015332E-2,1.272146E0,-2.5542762E-2,-9.708879E-1,-1.0360591E0,-1.6386623E0,-4.596996E-1,-1.2547915E0,1.2980816E0,-1.2191743E-2,9.9874444E-2,-1.0620143E0,6.635902E-1,-4.2332777E-1,1.3903617E0,5.3081596E-1,-3.9371532E-1,6.471533E-1,-8.167444E-2,1.4583837E0,4.5883715E-1,-6.518643E-1,-1.3620911E0,-4.3335238E-1,4.7034413E-2,-1.1937535E0,1.0449576E-2,-1.6603416E0,-8.007382E-1,1.473826E-1,-1.3780652E0,1.18811615E-1,1.5601263E0,-4.810859E-1,-2.6423037E-1,1.0803766E0,-1.1549182E0,4.9347344E-1,-1.3122299E0,-2.886126E-1,2.3099182E-2,9.849319E-1,6.162493E-2,-1.116337E0,4.141647E-1,1.5080628E0,9.30708E-1,-4.5013344E-1,-1.0423794E0,1.2875797E-1,-6.68037E-2,8.2725966E-1,-6.450682E-2,8.099606E-1,1.6314429E0,2.570836E-1,-2.2194682E-1,9.981317E-1,-8.476951E-1,8.3091813E-1,2.3160134E-1,-1.4451858E0,3.5709986E-1,-8.173578E-1,8.196184E-1,-5.8609556E-2,-1.4280473E0,-5.046097E-1,-1.6823556E0,1.0275858E-2,-1.267016E0,-9.7723134E-2,-1.1201667E0,5.0538045E-1,-1.5696367E0,-4.6166492E-1,5.5703837E-2,-4.9579766E-2,-1.0394322E-2,1.6751891E0,3.0718902E-2,-6.003229E-2,-9.079005E-3,-1.2337248E0,-5.7178326E-2,1.3522658E0,1.5252418E-5,-7.78337E-2,9.584625E-1,-8.049401E-1,1.6161944E-1,-1.4164962E0,-6.6419107E-1,9.9895513E-1,7.3184526E-1,-6.635325E-1,-9.7656864E-1,1.122614E0,1.375499E0,-2.4602589E-1,-1.2791309E0,2.2102965E-2,9.1007656E-1,-7.3072684E-1,1.557759E0,4.145539E-1,4.331136E-1,1.4223404E0,-9.948557E-1,3.9800835E-1,-1.2431437E0,4.3327663E-2,6.681526E-1,-1.0037583E0,4.0020794E-2,1.3660347E0,-1.2358124E-2,6.460728E-2,-1.0734767E-2,1.7024744E0,-8.373272E-1,5.761786E-2,-1.2285248E0,7.6589775E-1,1.2180532E0,-6.91987E-1,9.46123E-2,-1.1276234E0,6.597709E-2,-3.1223947E-2,6.321761E-2,-5.5143494E-2,2.6137901E-2,-1.503402E0,8.4891325E-1,-9.836515E-1,-1.0092636E0,7.1406287E-1,-3.7675157E-2,7.375976E-2,-8.687123E-2,-1.5573995E0,1.5973243E-1,-7.1986936E-2,-6.652459E-4,-1.704311E0,4.410622E-1,-1.4696826E0,1.2543066E0,-5.0938684E-1,3.2412443E-2,-7.805707E-2,9.7038084E-1,-5.7611096E-1,1.1932744E-2,-1.6280054E0,9.5682544E-1,-1.1351081E0,8.789129E-2,1.0204028E-2,-5.819013E-1,6.461657E-1,4.156909E-2,-1.5401312E0,-3.128814E-2,1.5556363E0,1.2806545E0,-7.859456E-1,-6.793331E-2,3.682981E-2,-6.1770882E-2,6.48194E-2,-1.4981496E0,2.8508553E-1,2.2586162E-1,-1.1293534E0,7.1372494E-2,-1.046999E-2,1.1040318E0,-8.0314636E-1,-1.3407838E0,6.328027E-1,-6.260519E-2,-8.688639E-3,-2.7609164E-1,1.3051506E0,7.902156E-2,9.621369E-3,3.3012244E-1,-9.306448E-1,-1.445235E0,2.7063226E-2,1.2113334E0,-7.724542E-1,-1.223915E0,4.7454502E-2,8.2198966E-1,1.6251165E0,1.1339716E0,-9.6139926E-1,1.0320791E0,-3.3865452E-1,1.6537904E0,2.2865947E-1,4.2167347E-2,-1.3069392E0,-7.378566E-1,1.2768481E0,3.1120246E-2,-1.3928276E0,-6.1982226E-1,1.2218448E0,-1.4170425E0,3.794266E-2,-8.711369E-1,8.1656384E-1,-3.2172885E-2,1.5283532E0,1.7781701E0,-4.191737E-4,-1.0934364E-2,-5.411538E-2,3.0467242E-2,-1.4444051E0,-8.1017745E-1,1.1385841E0,1.4436132E0,1.7598022E-3,3.1558745E-2,-6.721316E-2,6.583425E-2,-7.924288E-1,-1.208602E-1,-1.3612319E0,-1.0459003E-1,-1.5605787E0,-5.2293164E-1,1.3017266E0,-7.0562534E-2,1.2999463E-2,-1.1454092E0,5.7237606E-2,-3.124257E-2,6.848741E-2,-6.1850715E-2,5.988976E-2,1.1051747E-2,-1.623605E0,7.3020536E-1,-6.4694285E-2,-8.927709E-3,-1.7196841E0,6.588082E-2,-5.1189613E-2,1.5921233E-2,-1.6007946E0,9.695702E-3,7.456945E-2,-1.2318331E0,2.993214E-1,-5.4729696E-2,1.20614E0,4.7920644E-2,-1.1733195E0,-6.669763E-3,-1.7075326E0,1.022185E-2,6.110254E-2,1.912964E-2,-7.808232E-2,6.7907333E-1,-8.7659353E-1,-6.533493E-1,1.0560164E0,-3.042036E-4,-8.584949E-2,1.494851E-2,8.615049E-2,1.048028E-2,8.1758924E-2,-5.1849734E-2,-9.221271E-3,-1.0602547E-1,-1.5685194E0,-3.143618E-2,5.3504687E-2,-6.2805615E-2,1.1145991E0,3.1994443E-2,-1.4079852E0,1.4791105E0,-2.8263506E-1,-5.2628934E-2,-9.76511E-3,1.9144882E-2,-8.355901E-2,-3.0792652E-2,7.048612E-2,-9.8967767E-1,5.932198E-2,-3.8624844E-1,1.4178914E0,7.24426E-2,-2.6696646E-1,-1.3001918E0,5.932823E-2,-1.6661018E0,-2.7011272E-1,-5.9242594E-1,1.4918932E0,1.0694988E-2,-6.2670104E-2,3.076984E-2,-8.061476E-2,-5.128887E-2,1.0667402E0,-1.396173E-1,1.6467425E0,-2.6433915E-2,8.043955E-2,-7.006373E-2,1.0070291E-2,-4.3613914E-2,1.3090931E0,6.4056225E-2,-7.6668924E-1,8.635478E-2,9.6358815E-3,6.561765E-2,-5.0371528E-2,7.1500144E-3,-8.1172995E-2,-6.8458065E-2,3.2082204E-2,7.5749844E-2,1.0184021E-2,-1.5927986E0,-1.14453174E-1,-7.488135E-2,6.005427E-2,-3.0767638E-2,1.4417435E0,-9.469657E-3,-8.04247E-2,-1.2706888E0,3.1227265E-2,1.3467511E0,-4.1596867E-2,-8.208661E-3,8.521914E-2,9.026022E-2,2.9596135E-2,-8.1627175E-2,1.1028132E-2,-9.986895E-3,-5.291735E-2,1.374572E0,-1.8940737E-2,1.5653175E0,-1.8692704E-2,5.3908397E-2,-5.3780884E-2,-6.880765E-2,5.2414954E-2,8.939398E-1,-6.8703465E-2,-1.49692E0,-6.9355295E-4,5.2521106E-2,-5.520721E-2,-5.5285656E-1,-1.643683E0,3.322807E-2,-6.2033176E-2,-1.5582836E-2,8.467039E-2,5.5807054E-1,-1.3078885E0,1.0769688E-2,-1.6939937E0,-3.494662E-2,7.047796E-2,-1.7349461E0,-1.0025738E-2,-1.6882674E0,1.0922441E-2,1.0986195E-2,-8.107531E-2,-8.6282074E-1,8.590904E-1,1.45755E0,-2.3478012E-1,-7.642961E-2,1.0860319E-2,-1.996702E-2,-1.7735542E0,-5.59035E-2,6.862064E-2,-3.3914432E-1,-1.5641958E0,5.2264493E-2,-1.1418312E0,1.4428686E0,-1.4924315E-1,-5.8405858E-2,5.9202548E-2,-5.5783786E-2,5.303643E-2,-2.3077609E-1,-1.6302726E0,1.0419856E-2,6.8829834E-2,-8.239209E-2,-2.4833655E-4,8.201017E-2,9.677011E-3,3.0341402E-2,-5.2208405E-2,-7.055732E-2,1.012596E-2,-5.693191E-2,3.1147787E-2,-1.2982582E-2,1.5396575E0,-7.8175205E-1,6.58844E-2,2.8108653E-1,-8.471698E-2,-1.7964415E-2,-8.7937795E-2,4.42853E-2,-6.208421E-2,-5.5692192E-2,9.746734E-3,8.38619E-2,-3.941995E-4,1.316399E0,-3.5997458E-2,5.090477E-2,-5.621919E-2,1.6756067E0,3.926601E-1,1.5286645E0,-3.1791758E-2,4.173635E-2,-1.1394974E0,-8.714091E-2,-1.5484472E-2,5.2229594E-2,-5.564598E-2,8.159651E-2,-1.0589714E-2,-7.480781E-2,-1.01055E-2,1.02440035E-2,7.7908896E-2,8.380951E-2,-8.403844E-3,-1.21017955E-2,1.6687963E0,6.7462586E-2,-1.0635029E-2,-1.5916992E0,-7.4980403E-3,5.1036622E-2,-5.1092457E-2,3.2419037E-2,-6.155009E-2,-1.7012422E0,-2.2921792E-1,5.3703703E-2,-1.0378116E-2,-3.977027E-1,-1.4979625E0,-8.84122E-2,-2.0403251E-2,-1.7472021E-2,-1.7507224E0,-9.570426E-3,-8.749258E-2,5.18921E-2,-5.1103752E-2,-8.994191E-3,-5.654062E-2,-2.1061776E-2,7.588182E-2,8.410508E-2,-1.8234806E-2,-5.114151E-2,3.2820027E-2,-2.9063214E-2,-8.989217E-2,-1.1077478E0,3.850069E-1,-8.515026E-2,-1.0274499E-2,-7.524409E-2,1.0672287E-2,-1.9021867E-2,1.6374315E0,8.617163E-1,-5.5978116E-2,-5.1305152E-2,3.3279136E-2,-1.6801541E0,-7.703242E-3,5.8880653E-2,-5.987097E-2,1.6210597E0,-1.8250529E-2,6.89936E-1,-7.429349E-2,-3.0965185E-2,5.2711934E-2,-3.805963E-2,1.5384641E0,1.6871068E0,-1.0460471E-2,-8.430377E-1,6.8944424E-2,4.492277E-5,8.5599974E-2,-1.4461875E0,8.489849E-3,-1.0620083E-2,8.902129E-2,-8.6945534E-2,-3.6271834E-1,-1.7324837E0,-8.242324E-3,-5.0790396E-2,3.2857757E-2,3.79467E-2,-5.9477758E-2,-1.6692176E0,-3.0111283E-1,-1.7669921E0,-2.3801094E-2,3.1523652E-2,-7.4730985E-2,1.2085533E0,-6.9288003E-1,1.8606063E-2,8.713113E-2,5.571431E-2,9.80693E-3,-1.7158543E0,-9.014888E-3,-1.8132923E-2,1.7084621E0,5.9596207E-2,-1.1578136E-2,8.433815E-2,-1.0801697E-2,1.6990778E0,-1.2323764E-2,-1.042322E-2,-5.502909E-2,-8.205538E-2,-1.0768168E-2,-5.6519326E-2,3.259592E-2,-1.7801056E0,-6.6543597E-1,-8.7628E-2,-1.7518422E-2,-6.199948E-2,5.4022145E-2,-1.7826968E0,-3.5597347E-2,9.414855E-3,7.246609E-2,-6.6987984E-2,3.110292E-2,-1.7747892E-2,-1.7524626E0,1.7551959E0,9.088836E-3,-1.690425E-3,1.710981E0,-3.512142E-2,-9.069467E-2,1.3704123E-2,-5.9565615E-2,-7.64396E-1,-1.7999151E0,-8.954691E-2,-2.4802892E-2,9.0086676E-2,2.6083324E-2,4.572389E-1,1.7305154E0,-8.416672E-3,-5.0997805E-2,-9.088929E-2,-8.4066683E-1,6.633017E-2,-5.4643E-2,1.7579261E0,9.645318E-1,-5.6430805E-2,-7.2527784E-3,1.7704248E0,1.5751963E-2,-4.2505097E-1,7.8637175E-2,9.248784E-3,1.7791677E0,-5.885547E-2,3.018761E-2,1.7881706E0,1.6663937E-2,1.797144E0,2.395353E-2,1.8064094E0,7.5314766E-1,2.9055735E-2,1.8111689E0,7.2975955E-3,5.12253E-2,2.9155647E-2,9.079827E-2],"categories":[],"categories_nodes":[],"categories_segments":[],"categories_sizes":[],"default_left":[0,0,0,0,0,0,0,0,0,0,0,0,0,0,0,0,0,0,0,0,0,0,0,0,0,0,0,0,0,0,0,0,0,0,0,0,0,0,0,0,0,0,0,0,0,0,0,0,0,0,0,0,0,0,0,0,0,0,0,0,0,0,0,0,0,0,0,0,0,0,0,0,0,0,0,0,0,0,0,0,0,0,0,0,0,0,0,0,0,0,0,0,0,0,0,0,0,0,0,0,0,0,0,0,0,0,0,0,0,0,0,0,0,0,0,0,0,0,0,0,0,0,0,0,0,0,0,0,0,0,0,0,0,0,0,0,0,0,0,0,0,0,0,0,0,0,0,0,0,0,0,0,0,0,0,0,0,0,0,0,0,0,0,0,0,0,0,0,0,0,0,0,0,0,0,0,0,0,0,0,0,0,0,0,0,0,0,0,0,0,0,0,0,0,0,0,0,0,0,0,0,0,0,0,0,0,0,0,0,0,0,0,0,0,0,0,0,0,0,0,0,0,0,0,0,0,0,0,0,0,0,0,0,0,0,0,0,0,0,0,0,0,0,0,0,0,0,0,0,0,0,0,0,0,0,0,0,0,0,0,0,0,0,0,0,0,0,0,0,0,0,0,0,0,0,0,0,0,0,0,0,0,0,0,0,0,0,0,0,0,0,0,0,0,0,0,0,0,0,0,0,0,0,0,0,0,0,0,0,0,0,0,0,0,0,0,0,0,0,0,0,0,0,0,0,0,0,0,0,0,0,0,0,0,0,0,0,0,0,0,0,0,0,0,0,0,0,0,0,0,0,0,0,0,0,0,0,0,0,0,0,0,0,0,0,0,0,0,0,0,0,0,0,0,0,0,0,0,0,0,0,0,0,0,0,0,0,0,0,0,0,0,0,0,0,0,0,0,0,0,0,0,0,0,0,0,0,0,0,0,0,0,0,0,0,0,0,0,0,0,0,0,0,0,0,0,0,0,0,0,0,0,0,0,0,0,0,0,0,0,0,0,0,0,0,0,0,0,0,0,0,0,0,0,0,0,0,0,0,0,0,0,0,0,0,0,0,0,0,0,0,0,0,0,0,0,0,0,0,0,0,0,0,0,0,0,0,0,0,0,0,0,0,0,0,0,0,0,0,0,0,0,0,0,0,0,0,0,0,0,0,0,0,0,0,0,0,0,0,0,0,0,0,0,0,0,0,0,0,0,0,0,0,0,0,0,0,0,0,0,0,0,0,0,0,0,0,0,0,0,0,0,0,0,0,0,0,0,0,0,0,0,0,0,0,0,0,0,0,0,0,0,0,0,0,0,0,0,0,0,0,0,0,0,0,0,0,0,0,0,0,0,0,0,0,0,0,0,0,0,0,0,0,0,0,0,0,0,0,0,0,0,0,0,0,0,0,0,0,0,0,0,0,0,0,0,0,0,0,0,0,0,0,0,0,0,0],"id":2,"left_children":[1,3,5,7,9,11,13,15,17,19,21,23,25,27,29,31,33,35,37,39,41,43,45,47,49,51,53,55,57,59,61,63,65,67,69,71,73,75,77,79,81,-1,83,85,87,89,91,93,95,97,99,101,103,105,107,109,111,113,115,117,119,121,123,125,127,-1,129,-1,131,133,135,137,139,141,143,145,147,149,151,153,-1,155,157,159,-1,161,163,165,167,169,171,-1,-1,-1,173,-1,-1,175,177,-1,179,-1,-1,181,183,185,187,189,191,193,195,197,199,201,203,205,-1,207,209,211,213,215,217,219,221,223,-1,225,227,229,231,-1,-1,-1,233,235,-1,237,239,241,243,245,247,-1,-1,-1,-1,-1,249,251,253,255,257,-1,-1,259,261,263,-1,-1,265,267,269,271,273,-1,-1,275,277,-1,279,281,283,-1,-1,285,287,-1,289,-1,291,293,295,-1,-1,-1,-1,297,299,301,303,-1,-1,305,307,309,311,-1,-1,313,315,-1,-1,317,319,321,-1,323,325,327,-1,329,331,333,335,337,339,341,343,-1,345,347,349,-1,351,353,355,357,-1,359,361,-1,363,365,-1,-1,-1,-1,367,369,371,373,375,-1,-1,-1,377,379,381,383,385,387,389,-1,-1,391,-1,-1,-1,-1,-1,-1,393,395,-1,-1,397,-1,-1,-1,399,-1,-1,401,403,-1,405,-1,407,-1,409,-1,-1,-1,-1,411,413,415,417,-1,-1,-1,-1,419,-1,-1,-1,421,423,-1,-1,-1,425,-1,427,429,431,-1,-1,-1,-1,-1,-1,433,-1,435,437,-1,439,441,-1,443,445,447,449,-1,-1,-1,-1,-1,451,453,455,-1,-1,-1,-1,-1,457,-1,459,-1,-1,-1,-1,-1,-1,-1,-1,-1,-1,461,463,-1,-1,-1,465,-1,-1,467,-1,469,-1,-1,-1,-1,-1,-1,-1,-1,-1,471,-1,473,-1,-1,-1,-1,-1,475,-1,477,479,-1,-1,481,483,-1,-1,-1,-1,485,487,-1,489,-1,-1,491,-1,493,-1,495,-1,497,499,501,503,-1,-1,-1,505,-1,-1,507,509,-1,511,513,515,-1,-1,-1,-1,517,519,-1,-1,-1,-1,-1,-1,-1,-1,-1,-1,-1,-1,521,523,525,-1,527,-1,-1,-1,-1,-1,-1,-1,-1,-1,529,-1,-1,-1,531,533,535,-1,-1,537,-1,-1,-1,-1,-1,-1,-1,-1,-1,-1,-1,-1,-1,539,-1,-1,541,-1,-1,-1,-1,-1,543,545,-1,-1,547,549,-1,-1,-1,551,-1,-1,-1,-1,-1,-1,-1,-1,-1,-1,-1,-1,-1,-1,553,555,-1,-1,-1,-1,-1,557,559,-1,-1,-1,561,-1,-1,-1,563,-1,565,-1,-1,-1,-1,567,569,-1,571,-1,-1,-1,573,-1,-1,-1,-1,575,577,-1,-1,-1,-1,-1,579,581,583,-1,-1,-1,585,587,-1,-1,-1,-1,589,-1,-1,591,-1,-1,-1,-1,593,-1,-1,-1,-1,-1,-1,-1,595,597,-1,-1,-1,-1,599,-1,-1,-1,-1,-1,-1,601,603,-1,-1,605,-1,-1,-1,-1,607,609,-1,-1,-1,-1,611,613,-1,-1,-1,615,-1,-1,617,619,-1,-1,621,-1,623,-1,-1,625,-1,-1,627,-1,629,-1,631,633,-1,635,-1,-1,-1,-1],"loss_changes":[5.218199E2,1.645664E2,2.144497E2,8.849902E1,3.3750244E1,5.9377605E1,1.0860834E2,4.582134E1,5.2748764E1,1.3109711E1,2.1878944E1,3.3959805E1,2.989067E1,4.2997543E1,4.4839233E1,2.3229988E1,1.2150124E1,3.409794E1,2.6108017E1,1.1132912E1,5.030182E0,1.894933E1,1.004792E1,1.2445301E1,2.6300316E1,1.5916631E1,1.5541977E1,1.7418392E1,2.154284E1,3.3727783E1,3.1527504E1,1.7241852E1,1.44218445E1,8.282941E0,8.312149E0,2.3502018E1,1.4932325E1,1.0004074E1,1.6969929E1,9.630887E0,8.42601E0,0E0,5.0970154E0,1.9017883E1,1.5795531E1,8.693001E0,7.4348288E0,4.844021E0,3.8784685E0,1.9176552E1,1.2372843E1,3.5830011E0,1.5475442E1,9.737892E0,1.1008437E1,1.4761643E1,1.6329464E1,1.5916282E1,7.252327E0,1.9712358E1,1.3832886E1,1.3245625E1,1.1317791E1,9.749954E0,1.8293638E1,0E0,1.4703466E1,0E0,2.602797E0,5.1550446E0,7.3097243E0,2.9623997E1,1.4061623E1,1.1654215E1,5.248245E0,7.5690255E0,8.752426E0,1.3140189E1,1.1678123E1,7.529053E0,0E0,7.104088E0,1.0119775E1,4.1706543E0,0E0,1.27728195E1,1.4202515E1,7.018362E0,1.4066318E1,5.027649E0,1.1299872E1,0E0,0E0,0E0,2.1771164E0,0E0,0E0,2.3802439E1,1.1501812E1,0E0,7.5757675E0,0E0,0E0,1.1341734E1,6.9464746E0,9.505754E0,8.470627E0,7.3604865E0,3.0069942E0,9.405291E0,1.4390469E1,7.190509E-1,1.3935791E1,1.505434E0,1.2958954E1,8.075996E0,0E0,1.3026581E1,1.0021286E1,1.1276306E1,1.3903788E1,1.4031819E1,7.3754005E0,9.524149E0,1.0884129E1,6.6994133E0,0E0,1.512138E1,8.146401E0,1.144338E1,7.7115784E0,0E0,0E0,0E0,4.584198E0,2.9268336E-1,0E0,6.7012787E0,9.835731E0,8.730225E0,4.932922E0,1.291231E1,7.791546E0,0E0,0E0,0E0,0E0,0E0,5.259094E0,9.495234E0,3.2764964E0,1.1149147E1,5.0150166E0,0E0,0E0,8.47009E0,4.8330383E0,9.409239E0,0E0,0E0,2.34198E0,7.106722E0,7.9042206E0,1.2133913E0,1.1698782E1,0E0,0E0,1.0645884E1,9.100665E0,0E0,4.8483734E0,5.453088E-1,5.5869036E0,0E0,0E0,1.3165623E1,1.644788E1,0E0,3.9010391E0,0E0,2.675457E0,7.1437836E0,3.3526778E-1,0E0,0E0,0E0,0E0,5.2609787E0,3.1770394E0,1.02561655E1,6.539524E0,0E0,0E0,6.8788853E0,3.2337666E-1,6.592407E0,6.662096E0,0E0,0E0,8.4415245E0,9.549728E0,0E0,0E0,1.251429E1,1.3215944E1,5.3578186E0,0E0,1.1319244E1,2.276195E0,7.209708E0,0E0,1.1661712E1,9.08844E0,7.9233046E0,2.8322606E0,1.0063553E1,1.04713955E1,2.1676254E0,8.981979E0,0E0,6.171812E0,5.213974E0,1.2200794E0,0E0,4.8395348E0,1.2538539E1,6.7139854E0,1.6254597E0,0E0,5.253412E0,8.728699E0,0E0,6.054344E0,1.5159607E-2,0E0,0E0,0E0,0E0,4.5657425E0,3.1675458E-1,5.0642357E0,6.524311E0,8.095613E0,0E0,0E0,0E0,8.9299555E0,1.0726581E1,5.0498276E0,5.470934E0,4.539963E0,4.433809E0,7.4505463E0,0E0,0E0,9.60136E0,0E0,0E0,0E0,0E0,0E0,0E0,5.122711E0,8.722921E0,0E0,0E0,2.2418518E0,0E0,0E0,0E0,5.071541E0,0E0,0E0,5.0728827E0,7.2169685E0,0E0,6.742815E0,0E0,3.649228E0,0E0,2.78656E0,0E0,0E0,0E0,0E0,1.0221168E1,9.7638E0,7.5923176E0,1.0880863E1,0E0,0E0,0E0,0E0,7.5748296E0,0E0,0E0,0E0,5.587068E0,3.9742584E0,0E0,0E0,0E0,8.3687687E-1,0E0,3.4224129E0,1.7406406E0,2.9937077E0,0E0,0E0,0E0,0E0,0E0,0E0,2.9113173E0,0E0,3.546074E0,7.768448E0,0E0,1.1375481E1,8.690521E0,0E0,1.6254387E0,6.415726E0,1.6505128E0,5.052746E0,0E0,0E0,0E0,0E0,0E0,1.03703575E1,5.399373E0,7.6453857E0,0E0,0E0,0E0,0E0,0E0,7.4478703E0,0E0,7.7878804E0,0E0,0E0,0E0,0E0,0E0,0E0,0E0,0E0,0E0,0E0,2.7152367E0,5.4845295E0,0E0,0E0,0E0,4.4905643E0,0E0,0E0,1.1959667E0,0E0,1.363102E0,0E0,0E0,0E0,0E0,0E0,0E0,0E0,0E0,0E0,5.491417E0,0E0,5.146427E0,0E0,0E0,0E0,0E0,0E0,2.6716318E0,0E0,2.9373512E0,4.6745086E0,0E0,0E0,6.0634522E0,4.4622803E0,0E0,0E0,0E0,0E0,1.6024781E0,4.5182915E0,0E0,2.669304E0,0E0,0E0,1.8025513E0,0E0,2.274826E0,0E0,4.757457E0,0E0,4.8016858E-1,6.7264557E0,6.8259087E0,3.1196346E0,0E0,0E0,0E0,6.210327E-2,0E0,0E0,9.839503E0,1.9027176E0,0E0,3.5033054E0,6.7992325E0,7.306003E0,0E0,0E0,0E0,0E0,3.1700215E0,3.43573E0,0E0,0E0,0E0,0E0,0E0,0E0,0E0,0E0,0E0,0E0,0E0,0E0,7.726834E0,6.947365E0,1.1594757E1,0E0,3.0805852E0,0E0,0E0,0E0,0E0,0E0,0E0,0E0,0E0,0E0,9.885101E0,0E0,0E0,0E0,5.206543E0,9.043515E0,3.8972702E0,0E0,0E0,4.1452827E0,0E0,0E0,0E0,0E0,0E0,0E0,0E0,0E0,0E0,0E0,0E0,0E0,0E0,5.4414673E0,0E0,0E0,3.5555267E0,0E0,0E0,0E0,0E0,0E0,2.4557648E0,3.0981255E0,0E0,0E0,6.8268747E0,4.4354973E0,0E0,0E0,0E0,1.4186096E0,0E0,0E0,0E0,0E0,0E0,0E0,0E0,0E0,0E0,0E0,0E0,0E0,0E0,0E0,6.632847E0,9.225992E0,0E0,0E0,0E0,0E0,0E0,1.4704971E0,4.0863848E-1,0E0,0E0,0E0,2.2840118E0,0E0,0E0,0E0,7.467537E0,0E0,2.118806E0,0E0,0E0,0E0,0E0,4.890358E0,5.572998E0,0E0,3.4110188E-1,0E0,0E0,0E0,1.5595474E0,0E0,0E0,0E0,0E0,3.6490233E0,1.654419E0,0E0,0E0,0E0,0E0,0E0,1.6784172E0,6.834167E0,5.0738525E-1,0E0,0E0,0E0,1.1325312E0,4.8555417E0,0E0,0E0,0E0,0E0,1.7289581E0,0E0,0E0,2.3925018E0,0E0,0E0,0E0,0E0,4.625183E0,0E0,0E0,0E0,0E0,0E0,0E0,0E0,6.5156555E-1,2.294828E0,0E0,0E0,0E0,0E0,4.6484375E-1,0E0,0E0,0E0,0E0,0E0,0E0,1.320755E0,1.1703262E0,0E0,0E0,4.595154E0,0E0,0E0,0E0,0E0,3.5899234E-1,2.2894287E-1,0E0,0E0,0E0,0E0,7.828429E0,2.843872E0,0E0,0E0,0E0,5.8440375E-1,0E0,0E0,3.1846924E0,8.854097E0,0E0,0E0,2.5195923E0,0E0,3.6011734E0,0E0,0E0,2.0631714E0,0E0,0E0,1.5211792E0,0E0,5.841675E-1,0E0,1.05407715E-1,4.2444992E-1,0E0,1.0333252E-1,0E0,0E0,0E0,0E0],"parents":[2147483647,0,0,1,1,2,2,3,3,4,4,5,5,6,6,7,7,8,8,9,9,10,10,11,11,12,12,13,13,14,14,15,15,16,16,17,17,18,18,19,19,20,20,21,21,22,22,23,23,24,24,25,25,26,26,27,27,28,28,29,29,30,30,31,31,32,32,33,33,34,34,35,35,36,36,37,37,38,38,39,39,40,40,42,42,43,43,44,44,45,45,46,46,47,47,48,48,49,49,50,50,51,51,52,52,53,53,54,54,55,55,56,56,57,57,58,58,59,59,60,60,61,61,62,62,63,63,64,64,66,66,68,68,69,69,70,70,71,71,72,72,73,73,74,74,75,75,76,76,77,77,78,78,79,79,81,81,82,82,83,83,85,85,86,86,87,87,88,88,89,89,90,90,94,94,97,97,98,98,100,100,103,103,104,104,105,105,106,106,107,107,108,108,109,109,110,110,111,111,112,112,113,113,114,114,115,115,117,117,118,118,119,119,120,120,121,121,122,122,123,123,124,124,125,125,127,127,128,128,129,129,130,130,134,134,135,135,137,137,138,138,139,139,140,140,141,141,142,142,148,148,149,149,150,150,151,151,152,152,155,155,156,156,157,157,160,160,161,161,162,162,163,163,164,164,167,167,168,168,170,170,171,171,172,172,175,175,176,176,178,178,180,180,181,181,182,182,187,187,188,188,189,189,190,190,193,193,194,194,195,195,196,196,199,199,200,200,203,203,204,204,205,205,207,207,208,208,209,209,211,211,212,212,213,213,214,214,215,215,216,216,217,217,218,218,220,220,221,221,222,222,224,224,225,225,226,226,227,227,229,229,230,230,232,232,233,233,238,238,239,239,240,240,241,241,242,242,246,246,247,247,248,248,249,249,250,250,251,251,252,252,255,255,262,262,263,263,266,266,270,270,273,273,274,274,276,276,278,278,280,280,285,285,286,286,287,287,288,288,293,293,297,297,298,298,302,302,304,304,305,305,306,306,313,313,315,315,316,316,318,318,319,319,321,321,322,322,323,323,324,324,330,330,331,331,332,332,338,338,340,340,351,351,352,352,356,356,359,359,361,361,371,371,373,373,379,379,381,381,382,382,385,385,386,386,391,391,392,392,394,394,397,397,399,399,401,401,403,403,404,404,405,405,406,406,410,410,413,413,414,414,416,416,417,417,418,418,423,423,424,424,437,437,438,438,439,439,441,441,451,451,455,455,456,456,457,457,460,460,474,474,477,477,483,483,484,484,487,487,488,488,492,492,507,507,508,508,514,514,515,515,519,519,523,523,525,525,530,530,531,531,533,533,537,537,542,542,543,543,549,549,550,550,551,551,555,555,556,556,561,561,564,564,569,569,577,577,578,578,583,583,590,